{"type":"LSTM","options":{"inputSize":25,"inputRange":25,"hiddenLayers":[20,20],"outputSize":25,"decayRate":0.999,"smoothEps":1e-8,"regc":0.000001,"clipval":5,"maxPredictionLength":100,"dataFormatter":{"values":["the data betwween 1880 and 2659","1","give me the data betwween 1900 and 2000","the data betwween 1726 and 2041"],"indexTable":{"0":11,"1":9,"2":12,"4":21,"5":14,"6":13,"7":20,"8":10,"9":15,"t":0,"h":1,"e":2," ":3,"d":4,"a":5,"b":6,"w":7,"n":8,"g":16,"i":17,"v":18,"m":19,"stop-input":22,"start-output":23,"unrecognized":24},"characterTable":{"0":"t","1":"h","2":"e","3":" ","4":"d","5":"a","6":"b","7":"w","8":"n","9":"1","10":"8","11":"0","12":"2","13":"6","14":"5","15":"9","16":"g","17":"i","18":"v","19":"m","20":"7","21":"4","22":null,"23":null,"24":null},"characters":["t","h","e"," ","d","a","b","w","n","1","8","0","2","6","5","9","g","i","v","m","7","4","stop-input","start-output","unrecognized"],"specialIndexes":[22,23,24]}},"input":{"rows":26,"columns":25,"weights":{"0":-0.33853021264076233,"1":-0.37392088770866394,"2":0.2759549021720886,"3":0.10947026312351227,"4":-0.34663599729537964,"5":0.2289917916059494,"6":-0.09986846148967743,"7":-0.13342370092868805,"8":-0.10430566221475601,"9":0.15060804784297943,"10":0.20443464815616608,"11":-0.26811063289642334,"12":-0.19530406594276428,"13":0.18688616156578064,"14":-0.21333211660385132,"15":0.35265418887138367,"16":0.34800660610198975,"17":-0.2456001341342926,"18":0.062275368720293045,"19":0.3669573962688446,"20":-0.13132600486278534,"21":-0.19072066247463226,"22":-0.335207462310791,"23":-0.29927513003349304,"24":0.2115887850522995,"25":-0.18233074247837067,"26":-0.28542736172676086,"27":0.33376771211624146,"28":0.010798068717122078,"29":-0.2944430112838745,"30":0.12883245944976807,"31":-0.10699395835399628,"32":-0.06295839697122574,"33":-0.1370173692703247,"34":0.18504869937896729,"35":0.09374673664569855,"36":-0.2917703092098236,"37":-0.22910234332084656,"38":0.23333439230918884,"39":0.028659174218773842,"40":0.3404710590839386,"41":0.15649886429309845,"42":-0.19507551193237305,"43":0.14746440947055817,"44":0.36914485692977905,"45":-0.04321888089179993,"46":-0.17173872888088226,"47":-0.36310702562332153,"48":-0.1721910536289215,"49":0.20550008118152618,"50":0.22501222789287567,"51":0.38612014055252075,"52":-0.2434341162443161,"53":-0.08099783957004547,"54":0.31772735714912415,"55":-0.24393124878406525,"56":0.10047465562820435,"57":0.1603900045156479,"58":0.1276814490556717,"59":-0.11368956416845322,"60":-0.14538341760635376,"61":0.2929425537586212,"62":0.1748455911874771,"63":-0.1666339486837387,"64":0.24203340709209442,"65":-0.2999962270259857,"66":-0.08149245381355286,"67":0.30164003372192383,"68":-0.08212331682443619,"69":-0.31129443645477295,"70":0.02850748971104622,"71":0.2444249987602234,"72":0.33448970317840576,"73":0.24460551142692566,"74":-0.12858282029628754,"75":-0.020829668268561363,"76":-0.25449690222740173,"77":0.38313308358192444,"78":0.045717205852270126,"79":-0.4482544958591461,"80":0.02079719305038452,"81":-0.16601824760437012,"82":0.09907545894384384,"83":-0.09429872781038284,"84":0.029325125738978386,"85":-0.000261625275015831,"86":-0.4588913023471832,"87":-0.23286257684230804,"88":0.08429721742868423,"89":-0.11253440380096436,"90":0.425129771232605,"91":0.36827144026756287,"92":0.016856694594025612,"93":0.1658509224653244,"94":0.2931181490421295,"95":-0.2066001296043396,"96":-0.01733311451971531,"97":-0.45962339639663696,"98":-0.2541173994541168,"99":0.09423130750656128,"100":0.02235962077975273,"101":-0.2891431152820587,"102":0.30336928367614746,"103":-0.05436594411730766,"104":-0.281856507062912,"105":0.30362385511398315,"106":-0.2775416374206543,"107":-0.299400269985199,"108":0.17527347803115845,"109":0.2738566994667053,"110":0.01998600922524929,"111":-0.3236394226551056,"112":-0.2817995250225067,"113":0.2963177263736725,"114":-0.3119830787181854,"115":0.2581402659416199,"116":0.24172262847423553,"117":-0.31489500403404236,"118":0.23564063012599945,"119":0.2744988799095154,"120":-0.2527914345264435,"121":-0.2563685178756714,"122":-0.2513575255870819,"123":-0.25663748383522034,"124":0.09206478297710419,"125":0.1481163203716278,"126":-0.2973799705505371,"127":0.15002423524856567,"128":-0.09964323043823242,"129":-0.1325058490037918,"130":0.3409164249897003,"131":-0.1914215087890625,"132":-0.4110446274280548,"133":0.23146061599254608,"134":0.3031443953514099,"135":0.00975837092846632,"136":-0.29691702127456665,"137":-0.31746354699134827,"138":0.32358360290527344,"139":-0.3829197883605957,"140":0.23014794290065765,"141":0.15597590804100037,"142":-0.20297428965568542,"143":0.3662446141242981,"144":0.19870625436306,"145":-0.29049569368362427,"146":-0.1620122790336609,"147":-0.1942874938249588,"148":-0.3085545003414154,"149":0.024913404136896133,"150":0.07478044182062149,"151":-0.20190021395683289,"152":0.2535850703716278,"153":-0.10102833062410355,"154":-0.2118554413318634,"155":0.3804474174976349,"156":-0.25764453411102295,"157":-0.39046382904052734,"158":0.2564431428909302,"159":0.29376107454299927,"160":0.036387864500284195,"161":-0.3316822350025177,"162":-0.32221779227256775,"163":0.27501657605171204,"164":-0.3213062584400177,"165":0.2011629194021225,"166":0.2714187502861023,"167":-0.19113387167453766,"168":0.3731803297996521,"169":0.21368862688541412,"170":-0.3199671804904938,"171":-0.24474245309829712,"172":-0.3511633574962616,"173":-0.3255053162574768,"174":0.08666983246803284,"175":0.17855121195316315,"176":-0.20144815742969513,"177":0.07010465115308762,"178":-0.16580839455127716,"179":-0.1255737543106079,"180":0.318609356880188,"181":-0.14494098722934723,"182":-0.17344234883785248,"183":0.20992958545684814,"184":0.23048335313796997,"185":-0.0390053428709507,"186":-0.1985616683959961,"187":-0.2505679428577423,"188":0.18798206746578217,"189":-0.14301936328411102,"190":0.20040330290794373,"191":0.1644696742296219,"192":-0.18980634212493896,"193":0.1180146187543869,"194":0.19175280630588531,"195":-0.2796282470226288,"196":-0.11910247057676315,"197":-0.2341211885213852,"198":-0.25227054953575134,"199":-0.040686123073101044,"200":-0.026139426976442337,"201":-0.16127566993236542,"202":-0.08192382752895355,"203":-0.17592287063598633,"204":0.03584493324160576,"205":0.1106794998049736,"206":-0.08014563471078873,"207":0.020426008850336075,"208":0.05724035203456879,"209":0.1659577488899231,"210":-0.10787235200405121,"211":-0.03528252989053726,"212":-0.1172301322221756,"213":0.09287334233522415,"214":0.15527312457561493,"215":-0.06249817833304405,"216":0.089192233979702,"217":-0.042290788143873215,"218":-0.02077980898320675,"219":0.13861289620399475,"220":-0.06168579310178757,"221":-0.0903935432434082,"222":-0.04689113423228264,"223":0.030542027205228806,"224":-0.10533460974693298,"225":-0.04796871915459633,"226":-0.4266965389251709,"227":0.34749284386634827,"228":-0.03781464695930481,"229":-0.47876298427581787,"230":0.36948052048683167,"231":-0.2757517099380493,"232":-0.32280123233795166,"233":0.2813449501991272,"234":0.336794912815094,"235":-0.14062845706939697,"236":-0.4743574857711792,"237":-0.3869664669036865,"238":0.3472049832344055,"239":-0.2767987549304962,"240":0.45916321873664856,"241":0.35362517833709717,"242":-0.3089531660079956,"243":0.35629186034202576,"244":0.3973885178565979,"245":-0.2878832519054413,"246":-0.24855659902095795,"247":-0.449524849653244,"248":-0.34365078806877136,"249":-0.02140669710934162,"250":0.11150579154491425,"251":-0.3081298768520355,"252":0.305380642414093,"253":-0.2210150808095932,"254":-0.36967867612838745,"255":0.293221652507782,"256":-0.20140935480594635,"257":-0.18228280544281006,"258":0.24363183975219727,"259":0.25085288286209106,"260":0.043042272329330444,"261":-0.23585154116153717,"262":-0.26260799169540405,"263":0.3269491493701935,"264":-0.33787399530410767,"265":0.4583158791065216,"266":0.35820499062538147,"267":-0.24186639487743378,"268":0.29542994499206543,"269":0.24505293369293213,"270":-0.27129876613616943,"271":-0.23082993924617767,"272":-0.41407445073127747,"273":-0.2741488218307495,"274":0.16600868105888367,"275":0.009537804871797562,"276":0.0513213612139225,"277":-0.0562448725104332,"278":0.07026412338018417,"279":-0.06727878004312515,"280":-0.023742785677313805,"281":0.030606111511588097,"282":0.02863689698278904,"283":0.023862453177571297,"284":-0.039710670709609985,"285":0.05238322168588638,"286":-0.02612493932247162,"287":-0.08476117253303528,"288":0.06606575846672058,"289":-0.009974505752325058,"290":0.09351423382759094,"291":0.08294645696878433,"292":0.0627363845705986,"293":-0.09073744714260101,"294":0.021679474040865898,"295":0.005210984963923693,"296":0.0672239288687706,"297":-0.10827027261257172,"298":-0.04760243371129036,"299":0.10193251073360443,"300":0.1418403685092926,"301":-0.27822861075401306,"302":0.27292004227638245,"303":-0.16621261835098267,"304":-0.36949846148490906,"305":0.25987815856933594,"306":-0.2884719669818878,"307":-0.33256879448890686,"308":0.2295510321855545,"309":0.34188714623451233,"310":-0.021980104967951775,"311":-0.41802507638931274,"312":-0.2961367666721344,"313":0.2606297731399536,"314":-0.31891217827796936,"315":0.40070176124572754,"316":0.384888619184494,"317":-0.3538653552532196,"318":0.23031608760356903,"319":0.277675986289978,"320":-0.3781142830848694,"321":-0.2674519419670105,"322":-0.3731624186038971,"323":-0.29230859875679016,"324":0.0761926919221878,"325":0.10586123913526535,"326":-0.16986750066280365,"327":0.19047191739082336,"328":-0.09214488416910172,"329":-0.35045531392097473,"330":0.19127780199050903,"331":-0.1545577198266983,"332":-0.19301164150238037,"333":0.1921745240688324,"334":0.2620958387851715,"335":-0.037890467792749405,"336":-0.24871443212032318,"337":-0.38338035345077515,"338":0.2568312883377075,"339":-0.3189567029476166,"340":0.2655697464942932,"341":0.2874530255794525,"342":-0.22340798377990723,"343":0.14936190843582153,"344":0.31241121888160706,"345":-0.23329174518585205,"346":-0.14136561751365662,"347":-0.3364407420158386,"348":-0.3876032531261444,"349":0.11734023690223694,"350":0.003683995921164751,"351":-0.2139926701784134,"352":0.0686117634177208,"353":0.03359287604689598,"354":-0.15300819277763367,"355":0.0656447783112526,"356":-0.04734160006046295,"357":-0.005207743030041456,"358":0.05027688294649124,"359":0.01694454252719879,"360":-0.004918233957141638,"361":-0.249806210398674,"362":-0.07595691084861755,"363":0.07222696393728256,"364":-0.12410416454076767,"365":0.1790531724691391,"366":0.12152973562479019,"367":-0.0098695307970047,"368":0.0951090157032013,"369":0.20054848492145538,"370":-0.1882946938276291,"371":-0.030071096494793892,"372":-0.14768460392951965,"373":-0.21682433784008026,"374":-0.001542779617011547,"375":-0.0007500941283069551,"376":-0.04990231245756149,"377":0.016654089093208313,"378":-0.05829537659883499,"379":-0.12955856323242188,"380":0.058833036571741104,"381":0.09544768184423447,"382":0.05791471526026726,"383":-0.05544964596629143,"384":-0.05305634066462517,"385":0.06823930889368057,"386":-0.036854784935712814,"387":-0.05939206853508949,"388":0.014037719927728176,"389":-0.022863738238811493,"390":0.020984604954719543,"391":0.04466277360916138,"392":-0.019653767347335815,"393":-0.1245298758149147,"394":-0.04561198875308037,"395":0.06214436888694763,"396":-0.012225202284753323,"397":0.013579637743532658,"398":-0.0904712900519371,"399":0.11786821484565735,"400":0.027176644653081894,"401":0.1336396485567093,"402":-0.0642189309000969,"403":0.05928875133395195,"404":-0.002006818074733019,"405":-0.059910599142313004,"406":0.10146208852529526,"407":0.062461040914058685,"408":-0.03684212267398834,"409":-0.022836679592728615,"410":0.05067320540547371,"411":0.08807531744241714,"412":-0.030285125598311424,"413":0.12316906452178955,"414":-0.05353681743144989,"415":0.1365542858839035,"416":0.021528249606490135,"417":0.03433384373784065,"418":-0.13089856505393982,"419":-0.045861776918172836,"420":-0.027283184230327606,"421":0.0656510442495346,"422":-0.06899645924568176,"423":0.004432272166013718,"424":0.1280653178691864,"425":-0.01882905326783657,"426":-0.16478055715560913,"427":-0.020086213946342468,"428":-0.12209339439868927,"429":0.0007085137767717242,"430":0.1147720217704773,"431":-0.037456411868333817,"432":0.034009434282779694,"433":-0.04040292277932167,"434":0.013808982446789742,"435":0.048884231597185135,"436":0.03571741282939911,"437":-0.04689009487628937,"438":-0.07261255383491516,"439":0.04546264559030533,"440":0.03455781191587448,"441":-0.011580545455217361,"442":-0.02098420262336731,"443":-0.012475447729229927,"444":0.06929732114076614,"445":0.0799645185470581,"446":-0.02750096283853054,"447":0.01572289876639843,"448":-0.08402436226606369,"449":0.010910939425230026,"450":-0.08149092644453049,"451":-0.11256463080644608,"452":0.07386112958192825,"453":0.0037357339169830084,"454":-0.06363823264837265,"455":0.047944676131010056,"456":-0.03472594916820526,"457":-0.0006156215677037835,"458":0.0592605359852314,"459":-0.05040375143289566,"460":-0.04129377380013466,"461":-0.0684778243303299,"462":0.0027913525700569153,"463":-0.020058762282133102,"464":0.04172045364975929,"465":-0.027719244360923767,"466":0.09819086641073227,"467":-0.06196089833974838,"468":0.008941938169300556,"469":0.11233829706907272,"470":-0.025284990668296814,"471":0.02940376289188862,"472":-0.014066637493669987,"473":0.08226954191923141,"474":0.028158586472272873,"475":0.13512177765369415,"476":-0.025723198428750038,"477":-0.1490282416343689,"478":-0.01499523501843214,"479":0.07481580972671509,"480":0.06658061593770981,"481":-0.025241993367671967,"482":-0.0036341319791972637,"483":0.028197508305311203,"484":0.03958570957183838,"485":-0.06579221040010452,"486":-0.07755141705274582,"487":-0.0440087765455246,"488":0.07772732526063919,"489":0.022196298465132713,"490":0.046432867646217346,"491":0.0036066342145204544,"492":0.08143213391304016,"493":0.028066860511898994,"494":-0.020762663334608078,"495":0.015183175913989544,"496":0.09484495967626572,"497":0.026843903586268425,"498":-0.06420745700597763,"499":0.041272565722465515,"500":0.15817038714885712,"501":0.08654314279556274,"502":-0.10227769613265991,"503":0.037573546171188354,"504":0.129893958568573,"505":0.03331337496638298,"506":0.04496268182992935,"507":0.08571062982082367,"508":0.05746183916926384,"509":0.02966288849711418,"510":-0.00576814915984869,"511":-0.070645272731781,"512":-0.08704331517219543,"513":0.10192711651325226,"514":0.09029608964920044,"515":-0.05726161599159241,"516":0.07805255055427551,"517":-0.020808564499020576,"518":0.06097271665930748,"519":0.001878433977253735,"520":-0.027344467118382454,"521":0.05184916406869888,"522":-0.10622841119766235,"523":0.0013650170294567943,"524":0.055121663957834244,"525":0.11045221239328384,"526":-0.3650420904159546,"527":0.22893573343753815,"528":-0.1872258484363556,"529":-0.32930636405944824,"530":0.3458484709262848,"531":-0.29634061455726624,"532":-0.234468474984169,"533":0.2464410811662674,"534":0.34086376428604126,"535":-0.005659123416990042,"536":-0.300472229719162,"537":-0.24640223383903503,"538":0.30522435903549194,"539":-0.3254295587539673,"540":0.27628105878829956,"541":0.2653082013130188,"542":-0.25428640842437744,"543":0.3339434564113617,"544":0.25184550881385803,"545":-0.22285178303718567,"546":-0.3027261793613434,"547":-0.3713587522506714,"548":-0.2659611701965332,"549":0.023201871663331985,"550":0.08028741925954819,"551":-0.2622569799423218,"552":0.2317897081375122,"553":-0.25661611557006836,"554":-0.33046624064445496,"555":0.37377774715423584,"556":-0.3418731093406677,"557":-0.36921241879463196,"558":0.3198046088218689,"559":0.27947336435317993,"560":-0.003137282095849514,"561":-0.3651176393032074,"562":-0.3397405743598938,"563":0.3182850480079651,"564":-0.34623250365257263,"565":0.2477731555700302,"566":0.3124297857284546,"567":-0.36182940006256104,"568":0.36616992950439453,"569":0.3866230547428131,"570":-0.28799164295196533,"571":-0.3459571301937103,"572":-0.2687738239765167,"573":-0.3815537095069885,"574":0.0744902640581131,"575":0.04392842575907707,"576":-0.32330554723739624,"577":0.3455409109592438,"578":-0.18492355942726135,"579":-0.34507110714912415,"580":0.24024707078933716,"581":-0.19995969533920288,"582":-0.25461533665657043,"583":0.26759257912635803,"584":0.2706173360347748,"585":-0.03284979239106178,"586":-0.32802972197532654,"587":-0.27134427428245544,"588":0.2475098818540573,"589":-0.35667791962623596,"590":0.3553011119365692,"591":0.26921528577804565,"592":-0.17297925055027008,"593":0.2794824242591858,"594":0.23513782024383545,"595":-0.3220067024230957,"596":-0.24980273842811584,"597":-0.3886151909828186,"598":-0.23090405762195587,"599":-0.0659167617559433,"600":-0.00429057702422142,"601":-0.39278721809387207,"602":0.15706941485404968,"603":-0.13231801986694336,"604":-0.38404038548469543,"605":0.2552005350589752,"606":-0.3045370876789093,"607":-0.2505561411380768,"608":0.11654706299304962,"609":0.270633339881897,"610":0.036563366651535034,"611":-0.2777005434036255,"612":-0.2319192886352539,"613":0.23566363751888275,"614":-0.3163900077342987,"615":0.2583371102809906,"616":0.27096816897392273,"617":-0.22705937922000885,"618":0.2097281664609909,"619":0.19461095333099365,"620":-0.29836371541023254,"621":-0.19404196739196777,"622":-0.31626394391059875,"623":-0.3457784354686737,"624":-0.10546310991048813,"625":0.06493233144283295,"626":-0.026915516704320908,"627":-0.06567081063985825,"628":-0.019909242168068886,"629":0.06981365382671356,"630":-0.0698753148317337,"631":0.014160809107124805,"632":0.02071046642959118,"633":0.07714840024709702,"634":-0.05333615094423294,"635":0.011101160198450089,"636":-0.07993689179420471,"637":-0.02854037843644619,"638":0.06952489912509918,"639":0.01654224656522274,"640":0.05954452231526375,"641":-0.060035690665245056,"642":0.07413268089294434,"643":-0.07997763156890869,"644":-0.021684737876057625,"645":-0.05444119870662689,"646":-0.04021688923239708,"647":0.0067189522087574005,"648":-0.06518323719501495,"649":-0.039574578404426575}},"hiddenLayers":[{"inputMatrix":{"rows":20,"columns":25,"weights":{"0":-0.05407138168811798,"1":0.034861721098423004,"2":-0.014855085872113705,"3":-0.01464895997196436,"4":-0.054722607135772705,"5":-0.0630386471748352,"6":0.08017156273126602,"7":-0.05203656479716301,"8":-0.07935244590044022,"9":0.0656747967004776,"10":-0.044256169348955154,"11":0.042610347270965576,"12":0.00402119942009449,"13":-0.07670240849256516,"14":0.08103147894144058,"15":-0.04430726170539856,"16":-0.010633436031639576,"17":-0.06370335072278976,"18":0.007914325222373009,"19":-0.06526333838701248,"20":0.026639217510819435,"21":-0.06582040339708328,"22":-0.03225574642419815,"23":-0.05108390003442764,"24":-0.05517391487956047,"25":-0.061151403933763504,"26":-0.05973305180668831,"27":0.03620367497205734,"28":0.004809021484106779,"29":-0.0032208850607275963,"30":-0.07841644436120987,"31":-0.06681395322084427,"32":0.04072883725166321,"33":0.06886366009712219,"34":-0.0006670147413387895,"35":-0.0030755563639104366,"36":0.06558045744895935,"37":-0.05965970456600189,"38":0.02632635273039341,"39":0.04480864480137825,"40":-0.04828312247991562,"41":0.036573704332113266,"42":-0.06258610635995865,"43":-0.03686141595244408,"44":0.005529696587473154,"45":0.04093765839934349,"46":0.036025263369083405,"47":0.0443689189851284,"48":0.07929863780736923,"49":-0.06222398951649666,"50":0.07273202389478683,"51":-0.010866178199648857,"52":0.04696748033165932,"53":-0.038885828107595444,"54":0.02449794113636017,"55":0.006786525249481201,"56":-0.0709676742553711,"57":-0.007211378309875727,"58":0.022358467802405357,"59":-0.0400267168879509,"60":-0.06629591435194016,"61":0.044382110238075256,"62":-0.029411057010293007,"63":-0.05081038922071457,"64":-0.0303695946931839,"65":-0.1194520890712738,"66":-0.1016777828335762,"67":0.04796794056892395,"68":-0.05509413033723831,"69":0.05461631342768669,"70":0.08247289061546326,"71":-0.023590071126818657,"72":0.06372234970331192,"73":0.07849692553281784,"74":-0.06937550008296967,"75":0.060627855360507965,"76":0.04766151309013367,"77":-0.0030374331399798393,"78":0.04301752522587776,"79":-0.02293677255511284,"80":0.06634072959423065,"81":-0.06485258042812347,"82":-0.0009598560864105821,"83":0.05189572274684906,"84":-0.029898885637521744,"85":-0.08111081272363663,"86":-0.036345671862363815,"87":0.05569147691130638,"88":0.04505223035812378,"89":-0.018643194809556007,"90":-0.041551582515239716,"91":0.05169793590903282,"92":-0.04764808714389801,"93":0.015069804154336452,"94":0.03272806480526924,"95":-0.0639030784368515,"96":-0.006056228652596474,"97":-0.0669151097536087,"98":0.04328051209449768,"99":-0.04432615637779236,"100":-0.08584508299827576,"101":0.006145024672150612,"102":0.12157299369573593,"103":0.038054365664720535,"104":-0.09708382189273834,"105":0.05674592778086662,"106":-0.10396955907344818,"107":0.05002309009432793,"108":-0.013996548019349575,"109":0.06952042877674103,"110":0.002859780564904213,"111":-0.06743083149194717,"112":0.036670468747615814,"113":-0.04148133844137192,"114":0.03098432719707489,"115":0.031609468162059784,"116":0.012666800990700722,"117":-0.08909872174263,"118":-0.08912362903356552,"119":0.025578487664461136,"120":0.05033554136753082,"121":-0.027122920379042625,"122":-0.07046918570995331,"123":0.05762850493192673,"124":-0.09082093834877014,"125":-0.057406555861234665,"126":-0.038647957146167755,"127":0.006827551405876875,"128":-0.02579185925424099,"129":-0.06553737074136734,"130":0.029241204261779785,"131":0.04337704926729202,"132":0.1369059532880783,"133":0.03287293761968613,"134":0.02124916948378086,"135":0.06316445767879486,"136":-0.10063223540782928,"137":0.027333427220582962,"138":-0.021201573312282562,"139":-0.05078519508242607,"140":0.1942819058895111,"141":0.06798046082258224,"142":0.05591969192028046,"143":-0.007595179136842489,"144":0.10815107822418213,"145":-0.04121968522667885,"146":-0.05424182862043381,"147":-0.1071636900305748,"148":0.06492007523775101,"149":0.0873263031244278,"150":-0.08081028610467911,"151":0.03765246644616127,"152":-0.048827607184648514,"153":0.0049294293858110905,"154":-0.08704707026481628,"155":-0.05830152705311775,"156":-0.04515447840094566,"157":-0.06802798062562943,"158":-0.00936798844486475,"159":-0.07316575199365616,"160":-0.0185119416564703,"161":-0.045296844094991684,"162":0.057285111397504807,"163":0.023898117244243622,"164":0.0821845754981041,"165":0.04613317921757698,"166":0.07757071405649185,"167":0.0022051178384572268,"168":-0.029492691159248352,"169":0.09891645610332489,"170":0.05682637542486191,"171":-0.02203751727938652,"172":-0.05528448894619942,"173":-0.004706629551947117,"174":-0.006874433718621731,"175":-0.036860011518001556,"176":-0.07687091082334518,"177":-0.005080807488411665,"178":0.04708432778716087,"179":-0.03889670968055725,"180":-0.026447761803865433,"181":0.04372106492519379,"182":0.19542329013347626,"183":0.01223425567150116,"184":-0.00024209618277382106,"185":0.04326998442411423,"186":0.07239330559968948,"187":0.004193585366010666,"188":0.07823967933654785,"189":0.008071751333773136,"190":0.16649532318115234,"191":0.09071481972932816,"192":-0.013808500953018665,"193":-0.054230161011219025,"194":-0.038852158933877945,"195":0.049725279211997986,"196":0.11324130743741989,"197":-0.1129276305437088,"198":-0.004768658895045519,"199":0.04119058698415756,"200":0.07492759823799133,"201":-0.13575762510299683,"202":0.05800039693713188,"203":0.0052611143328249454,"204":-0.09791842848062515,"205":-0.00040653825271874666,"206":-0.10380382090806961,"207":-0.015290039591491222,"208":0.08736837655305862,"209":0.06118962541222572,"210":0.008535328321158886,"211":-0.0959162563085556,"212":-0.014828119426965714,"213":-0.0803588405251503,"214":0.031711455434560776,"215":-0.07709801942110062,"216":-0.007123663555830717,"217":-0.17346863448619843,"218":0.06138598918914795,"219":0.028797537088394165,"220":-0.02162475697696209,"221":-0.12152084708213806,"222":-0.009090662002563477,"223":0.060531094670295715,"224":-0.11971094459295273,"225":-0.08149684965610504,"226":-0.010657167993485928,"227":0.10992792248725891,"228":0.058455925434827805,"229":-0.14143311977386475,"230":-0.12821058928966522,"231":0.08042427897453308,"232":0.17283190786838531,"233":-0.08033732324838638,"234":0.07346730679273605,"235":-0.04604311287403107,"236":-0.06465832144021988,"237":-0.10221802443265915,"238":0.10798878222703934,"239":0.04689597710967064,"240":0.23023569583892822,"241":0.0655287355184555,"242":0.0011932579800486565,"243":0.010775436647236347,"244":0.09493659436702728,"245":0.0421224981546402,"246":-0.05161179602146149,"247":-0.2222762405872345,"248":0.026110447943210602,"249":0.06428378820419312,"250":-0.0445747971534729,"251":-0.14107096195220947,"252":0.14088933169841766,"253":0.02649649977684021,"254":-0.1652042418718338,"255":-0.017127536237239838,"256":-0.013091919012367725,"257":0.028648095205426216,"258":-0.02207007445394993,"259":0.043027471750974655,"260":-0.04811984300613403,"261":-0.08583922684192657,"262":-0.014638655818998814,"263":0.04362669959664345,"264":0.10833533108234406,"265":0.10234997421503067,"266":0.06501740217208862,"267":-0.06037581339478493,"268":-0.04990716278553009,"269":0.027779508382081985,"270":-0.046465914696455,"271":-0.08984372764825821,"272":-0.12893925607204437,"273":-0.002521512331441045,"274":0.048319004476070404,"275":-0.02152748592197895,"276":0.022359317168593407,"277":-0.023269960656762123,"278":-0.05031807720661163,"279":-0.0272444449365139,"280":0.08736028522253036,"281":-0.021885210648179054,"282":0.009985627606511116,"283":0.008342831395566463,"284":0.04160972312092781,"285":-0.08211898058652878,"286":0.07445584237575531,"287":0.00042581887100823224,"288":0.051400769501924515,"289":-0.05480116978287697,"290":-0.08653490245342255,"291":-0.0604562982916832,"292":0.05444185435771942,"293":0.08490704745054245,"294":0.025403538718819618,"295":0.06287804991006851,"296":-0.026322562247514725,"297":0.09901075065135956,"298":0.041870854794979095,"299":-0.0332300029695034,"300":-0.04131314158439636,"301":-0.0428423210978508,"302":-0.034564223140478134,"303":0.021572506055235863,"304":0.10365087538957596,"305":0.013783580623567104,"306":-0.09991896897554398,"307":-0.016782596707344055,"308":0.06608336418867111,"309":0.021141421049833298,"310":-0.016409343108534813,"311":0.08546321839094162,"312":-0.03788900747895241,"313":-0.11736052483320236,"314":0.1377902776002884,"315":-0.09327580779790878,"316":-0.060885943472385406,"317":-0.048198506236076355,"318":0.08542295545339584,"319":0.12373552471399307,"320":-0.03730158135294914,"321":-0.12938426434993744,"322":0.06266704946756363,"323":-0.04472525045275688,"324":-0.12587538361549377,"325":0.059505995362997055,"326":0.06203543767333031,"327":0.10047440230846405,"328":-0.00034981616772711277,"329":-0.08373019099235535,"330":-0.07483652979135513,"331":-0.017060434445738792,"332":0.025832487270236015,"333":-0.09258105605840683,"334":0.03444254398345947,"335":0.001948782242834568,"336":-0.052125465124845505,"337":0.03176454082131386,"338":-0.024966025725007057,"339":-0.03636480122804642,"340":0.05502338334918022,"341":0.06646177172660828,"342":0.0211882833391428,"343":-0.08805806934833527,"344":-0.05924270302057266,"345":0.02240024134516716,"346":0.08081182837486267,"347":-0.07529959827661514,"348":-0.08097852766513824,"349":-0.019548218697309494,"350":-0.18433460593223572,"351":-0.11036813259124756,"352":0.17275625467300415,"353":0.05257398635149002,"354":-0.24098889529705048,"355":-0.12939231097698212,"356":0.10565916448831558,"357":0.115773044526577,"358":-0.08278393745422363,"359":0.040936749428510666,"360":-0.028276901692152023,"361":-0.2010618895292282,"362":0.042098596692085266,"363":0.04229980334639549,"364":-0.0017781434580683708,"365":0.20743906497955322,"366":0.15361928939819336,"367":0.016961809247732162,"368":0.027354372665286064,"369":0.12126211822032928,"370":0.06552739441394806,"371":0.07431941479444504,"372":-0.25014355778694153,"373":0.024797534570097923,"374":0.1654263287782669,"375":-0.016794463619589806,"376":0.06612687557935715,"377":-0.0012556740548461676,"378":-0.0888400748372078,"379":0.015418156050145626,"380":-0.005691722501069307,"381":0.031003126874566078,"382":-0.06380399316549301,"383":0.02225056104362011,"384":-0.009093187749385834,"385":-0.04491518810391426,"386":0.0639580488204956,"387":0.003117848187685013,"388":-0.017362074926495552,"389":-0.003983557689934969,"390":-0.14086930453777313,"391":0.010405386798083782,"392":-0.04184672236442566,"393":-0.036030277609825134,"394":-0.061589259654283524,"395":-0.04976114630699158,"396":-0.07924435287714005,"397":0.1446446031332016,"398":0.03543762490153313,"399":-0.05618606135249138,"400":0.05385342985391617,"401":-0.07136230915784836,"402":-0.005817869678139687,"403":0.015520096756517887,"404":0.004358916077762842,"405":0.11810273677110672,"406":-0.04462376981973648,"407":-0.1654074639081955,"408":-0.015533017925918102,"409":0.07222484797239304,"410":-0.008980406448245049,"411":-0.1337447166442871,"412":-0.054022908210754395,"413":0.00995180569589138,"414":-0.06316254287958145,"415":0.06461909413337708,"416":-0.012247695587575436,"417":0.01994619145989418,"418":0.1338253915309906,"419":-0.04064726456999779,"420":-0.0102124884724617,"421":0.007131782826036215,"422":-0.02780238538980484,"423":-0.0048209307715296745,"424":0.004361787345260382,"425":-0.06421581655740738,"426":0.004979040939360857,"427":0.01746736466884613,"428":0.04732667654752731,"429":-0.08498803526163101,"430":-0.030345164239406586,"431":0.003749948227778077,"432":0.059732887893915176,"433":0.01925256848335266,"434":-0.020274588838219643,"435":0.04627959057688713,"436":0.04745529592037201,"437":-0.008450843393802643,"438":0.053019944578409195,"439":-0.017811836674809456,"440":-0.023426352068781853,"441":-0.032125744968652725,"442":-0.010230068117380142,"443":-0.043632201850414276,"444":0.07751694321632385,"445":0.06610889732837677,"446":-0.05109402909874916,"447":0.012240397743880749,"448":-0.04756496101617813,"449":0.049629971385002136,"450":-0.028472527861595154,"451":-0.03433085232973099,"452":-0.014874310232698917,"453":-0.02815951406955719,"454":-0.0078046442940831184,"455":-0.043440550565719604,"456":0.032667066901922226,"457":-0.03841228783130646,"458":0.04108879342675209,"459":0.038802582770586014,"460":0.041307833045721054,"461":0.06696581840515137,"462":0.016441710293293,"463":0.04955150932073593,"464":0.011571533046662807,"465":0.0011242578038945794,"466":0.052022743970155716,"467":0.016765005886554718,"468":0.031879253685474396,"469":-0.04830352962017059,"470":0.014550620689988136,"471":0.0031069451943039894,"472":0.07048676162958145,"473":0.0036700067576020956,"474":-0.015842340886592865,"475":-0.04978392645716667,"476":-0.034716565161943436,"477":-0.08353482186794281,"478":-0.017110951244831085,"479":0.135073721408844,"480":-0.055054329335689545,"481":0.03111438639461994,"482":-0.06507617980241776,"483":0.09331526607275009,"484":-0.05643550306558609,"485":-0.04736446216702461,"486":0.1806906759738922,"487":0.01530859712511301,"488":-0.14796115458011627,"489":0.09150266647338867,"490":-0.09430558234453201,"491":-0.07885917276144028,"492":-0.01662720926105976,"493":-0.059840597212314606,"494":0.042244669049978256,"495":0.06278254836797714,"496":-0.03853866085410118,"497":0.11109763383865356,"498":0.005346682853996754,"499":-0.152227982878685}},"inputHidden":{"rows":20,"columns":20,"weights":{"0":0.031147612258791924,"1":0.032785650342702866,"2":0.055300936102867126,"3":0.0637146532535553,"4":-0.03633437678217888,"5":-0.042415279895067215,"6":0.07581734657287598,"7":0.044763773679733276,"8":0.014685341157019138,"9":0.011346952058374882,"10":-0.022631259635090828,"11":-0.041094228625297546,"12":-0.011097140610218048,"13":0.030965423211455345,"14":0.02865315042436123,"15":0.007200400345027447,"16":0.013155021704733372,"17":0.0427401140332222,"18":-0.013040076941251755,"19":-0.05504719540476799,"20":0.03884172812104225,"21":-0.042059071362018585,"22":-0.031484898179769516,"23":0.021972864866256714,"24":-0.01987823285162449,"25":-0.01661187969148159,"26":0.021651551127433777,"27":-0.050862643867731094,"28":0.025003325194120407,"29":0.05686882138252258,"30":0.009074864909052849,"31":0.06332657486200333,"32":0.006453053094446659,"33":0.042881209403276443,"34":-0.014762780629098415,"35":0.0344221331179142,"36":-0.05660014972090721,"37":0.00555817037820816,"38":0.04258178919553757,"39":0.0364188551902771,"40":0.041471775621175766,"41":0.03487449139356613,"42":0.0538095124065876,"43":0.026128072291612625,"44":-0.08824758231639862,"45":-0.0002516843087505549,"46":0.03617049381136894,"47":0.04714751988649368,"48":-0.0028150519356131554,"49":-0.04568735882639885,"50":-0.041446179151535034,"51":0.05276256799697876,"52":0.07028038799762726,"53":-0.07002965360879898,"54":-0.07432200014591217,"55":0.05972323566675186,"56":0.04578341916203499,"57":-0.0221701730042696,"58":-0.07134845852851868,"59":-0.001589893945492804,"60":-0.05597900226712227,"61":0.06526685506105423,"62":-0.07163979858160019,"63":-0.0179684367030859,"64":0.01485375128686428,"65":0.06361863017082214,"66":-0.03584425523877144,"67":-0.04531988129019737,"68":-0.021846961230039597,"69":0.05732300505042076,"70":0.020752720534801483,"71":-0.0707876980304718,"72":0.008772173896431923,"73":0.07396016269922256,"74":0.04768441244959831,"75":0.024724842980504036,"76":0.07768463343381882,"77":-0.04312609136104584,"78":0.07612227648496628,"79":-0.0335504487156868,"80":-0.0631863996386528,"81":0.018313361331820488,"82":-0.033543605357408524,"83":0.015363868325948715,"84":0.05665478855371475,"85":-0.04280039668083191,"86":-0.017283698543906212,"87":-0.01683221571147442,"88":0.02098117023706436,"89":0.05588195100426674,"90":0.028028620406985283,"91":0.004443608224391937,"92":-0.007678268942981958,"93":-0.05734873563051224,"94":-0.044584330171346664,"95":-0.05661319941282272,"96":-0.013290314935147762,"97":-0.04304944723844528,"98":-0.060416869819164276,"99":0.02307306043803692,"100":0.025426488369703293,"101":0.013357785530388355,"102":-0.0036628027446568012,"103":0.03654808551073074,"104":0.04938356578350067,"105":0.08942034840583801,"106":0.041630979627370834,"107":0.03549166023731232,"108":0.03628416731953621,"109":-0.05801377445459366,"110":0.0013763763708993793,"111":-0.02537352591753006,"112":-0.09256424009799957,"113":0.03473860025405884,"114":0.0716366171836853,"115":0.050125572830438614,"116":-0.0436246283352375,"117":-0.031055768951773643,"118":0.0029174978844821453,"119":-0.018814660608768463,"120":-0.08110448718070984,"121":-0.06844870746135712,"122":-0.049891743808984756,"123":0.07184744626283646,"124":0.07201803475618362,"125":-0.001233952003531158,"126":-0.08333010226488113,"127":-0.05707680433988571,"128":0.01910269446671009,"129":0.07490064203739166,"130":-0.05176999419927597,"131":-0.003034027758985758,"132":0.032321374863386154,"133":0.06643261015415192,"134":-0.03133322671055794,"135":-0.04354533925652504,"136":0.06904026865959167,"137":-0.054888226091861725,"138":0.02438754215836525,"139":-0.0649016723036766,"140":-0.05990655720233917,"141":0.05170457065105438,"142":-0.048410236835479736,"143":-0.05106698349118233,"144":0.054318759590387344,"145":-0.059400346130132675,"146":-0.020658988505601883,"147":0.012621678411960602,"148":0.014922937378287315,"149":0.0316748283803463,"150":0.014354147017002106,"151":0.005565394181758165,"152":-0.06834474205970764,"153":0.013285464607179165,"154":-0.07415075600147247,"155":-0.0171009860932827,"156":0.034356676042079926,"157":-0.060654010623693466,"158":-0.06994979828596115,"159":-0.05283750593662262,"160":0.01207483746111393,"161":-0.038854144513607025,"162":0.010500332340598106,"163":0.04882069677114487,"164":0.002534101717174053,"165":0.015680311247706413,"166":0.006416848860681057,"167":-0.05686843395233154,"168":-0.005165292415767908,"169":0.019019851461052895,"170":-0.05935128033161163,"171":0.004325988236814737,"172":0.08471813052892685,"173":0.008325809612870216,"174":0.03692299500107765,"175":0.029093222692608833,"176":-0.040306456387043,"177":0.030276108533143997,"178":0.004530902020633221,"179":-0.09733488410711288,"180":0.0738433450460434,"181":-0.030088840052485466,"182":-0.023819150403141975,"183":-0.047367941588163376,"184":-0.05643970146775246,"185":0.06366302073001862,"186":0.01508716307580471,"187":-0.030488887801766396,"188":0.00039916616515256464,"189":0.03224513307213783,"190":0.05664734169840813,"191":-0.07630354166030884,"192":0.005206461530178785,"193":0.062168654054403305,"194":0.03323749080300331,"195":0.04202631860971451,"196":-0.0498797744512558,"197":0.06368512660264969,"198":0.06504504382610321,"199":-0.02296461910009384,"200":0.013432018458843231,"201":-0.03386788070201874,"202":-0.07328226417303085,"203":-0.0435783825814724,"204":0.06483066082000732,"205":-0.004140839446336031,"206":-0.01347078662365675,"207":0.02572394721210003,"208":-0.05622908100485802,"209":0.004944781307131052,"210":0.03277159482240677,"211":0.059037644416093826,"212":0.011503404006361961,"213":-0.013539365492761135,"214":-0.008173891343176365,"215":0.06008204445242882,"216":0.08195353299379349,"217":0.060973767191171646,"218":-0.001383059425279498,"219":-0.042903728783130646,"220":-0.009198111481964588,"221":0.004556738305836916,"222":0.04209648072719574,"223":0.07901403307914734,"224":-0.04955483227968216,"225":0.03642585501074791,"226":-0.010748946107923985,"227":-0.02583026885986328,"228":-0.05412835255265236,"229":0.03890201449394226,"230":-0.042301297187805176,"231":-0.05408259108662605,"232":-0.07154049724340439,"233":-0.060626816004514694,"234":-0.030211681500077248,"235":-0.05005080625414848,"236":0.06418877094984055,"237":0.0027013637591153383,"238":0.017089111730456352,"239":0.07996216416358948,"240":0.050436630845069885,"241":0.03291305899620056,"242":-0.08635327219963074,"243":0.008560086600482464,"244":0.015706751495599747,"245":-0.04056090489029884,"246":0.04219875857234001,"247":-0.07497149705886841,"248":-0.07814794778823853,"249":0.01788642257452011,"250":0.01633015275001526,"251":0.009557119570672512,"252":0.1358112394809723,"253":0.012233407236635685,"254":-0.049163464456796646,"255":0.02368883788585663,"256":0.04785854369401932,"257":0.0281078964471817,"258":-0.015931174159049988,"259":-0.045657262206077576,"260":0.05703233927488327,"261":0.0728670135140419,"262":0.020327040925621986,"263":-0.05136488005518913,"264":-0.06991320848464966,"265":0.0783051997423172,"266":0.02201269194483757,"267":-0.0729229599237442,"268":-0.009716060943901539,"269":0.0254816971719265,"270":-0.07662806659936905,"271":0.004079712554812431,"272":-0.07144291698932648,"273":0.03918633237481117,"274":-0.02567341737449169,"275":-0.049018744379282,"276":-0.058835435658693314,"277":-0.07900379598140717,"278":-0.01907898485660553,"279":0.009832694195210934,"280":0.06526729464530945,"281":-0.0009605105151422322,"282":-0.012959918938577175,"283":0.0581962913274765,"284":-0.0354958213865757,"285":-0.007587249856442213,"286":0.001445277943275869,"287":-0.06575382500886917,"288":0.07829301804304123,"289":-0.07794606685638428,"290":-0.07198916375637054,"291":0.03592080622911453,"292":-0.0878702849149704,"293":0.06074428930878639,"294":0.06718548387289047,"295":0.03399479016661644,"296":0.07271286100149155,"297":-0.08445509523153305,"298":-0.05366403982043266,"299":0.06674930453300476,"300":-0.08528783172369003,"301":-0.035202506929636,"302":0.04209866002202034,"303":0.04476490989327431,"304":-0.005812473129481077,"305":0.012684050016105175,"306":-0.011389643885195255,"307":0.038170792162418365,"308":0.001435370184481144,"309":0.0012062820605933666,"310":0.05991145968437195,"311":0.07694534957408905,"312":0.02295411191880703,"313":0.061060577630996704,"314":-0.029721645638346672,"315":0.009156552143394947,"316":0.00687913503497839,"317":0.05655005946755409,"318":0.007076631765812635,"319":-0.007837877608835697,"320":0.01604185812175274,"321":-0.0954369381070137,"322":0.09347350150346756,"323":-0.0786820724606514,"324":0.07267961651086807,"325":0.0548241101205349,"326":-0.04037867859005928,"327":-0.05406760424375534,"328":0.025433562695980072,"329":-0.04367918148636818,"330":-0.018449898809194565,"331":-0.023670446127653122,"332":-0.09218831360340118,"333":0.08862745761871338,"334":0.06440849602222443,"335":0.023930583149194717,"336":-0.04758086055517197,"337":-0.07148710638284683,"338":-0.08114560693502426,"339":0.0064918571151793,"340":-0.010848408564925194,"341":0.07478898018598557,"342":-0.10316851735115051,"343":0.06880545616149902,"344":0.05275489762425423,"345":0.03418400511145592,"346":0.007115991786122322,"347":0.013389699161052704,"348":-0.012828496284782887,"349":0.08219079673290253,"350":0.017028652131557465,"351":-0.015315389260649681,"352":0.01788261905312538,"353":-0.08909772336483002,"354":-0.026777394115924835,"355":-0.02525174990296364,"356":-0.007536519784480333,"357":0.007738078478723764,"358":0.023462804034352303,"359":-0.04269729182124138,"360":0.037505876272916794,"361":0.04666048660874367,"362":0.06914122402667999,"363":-0.0449763722717762,"364":0.022539885714650154,"365":0.04738926142454147,"366":0.021973567083477974,"367":-0.034840572625398636,"368":0.000171835592482239,"369":-0.07478288561105728,"370":0.06779420375823975,"371":0.06355399638414383,"372":-0.05197746679186821,"373":0.016257653012871742,"374":-0.018920591101050377,"375":0.012439117766916752,"376":0.07298489660024643,"377":-0.0584806352853775,"378":-0.048714883625507355,"379":-0.04955442622303963,"380":-0.031338319182395935,"381":-0.037218719720840454,"382":-0.12625209987163544,"383":0.04250628128647804,"384":-0.014432748779654503,"385":-0.038946911692619324,"386":0.05064157024025917,"387":0.02455342561006546,"388":-0.08016779273748398,"389":-0.057313937693834305,"390":-0.030713722109794617,"391":-0.03295935317873955,"392":0.1555441915988922,"393":0.02289927750825882,"394":-0.027695918455719948,"395":-0.02779638208448887,"396":0.039298299700021744,"397":0.02889593318104744,"398":0.052429430186748505,"399":-0.1604204773902893}},"inputBias":{"rows":20,"columns":1,"weights":{"0":0.0012586405500769615,"1":0.0007107122801244259,"2":-0.00940041895955801,"3":-0.002097564749419689,"4":-0.01509370468556881,"5":0.06621131300926208,"6":-0.020333273336291313,"7":0.08662465959787369,"8":-0.028341373428702354,"9":0.014548789709806442,"10":0.017454221844673157,"11":-0.003619297407567501,"12":-0.03524407371878624,"13":0.025126878172159195,"14":0.06481382250785828,"15":-0.015288522467017174,"16":0.009927229024469852,"17":-0.030730044469237328,"18":0.017053445801138878,"19":-0.0615733303129673}},"forgetMatrix":{"rows":20,"columns":25,"weights":{"0":0.07094394415616989,"1":-0.0017230010125786066,"2":-0.05082219839096069,"3":0.03511716052889824,"4":0.0275666993111372,"5":-0.045209962874650955,"6":0.06743617355823517,"7":-0.06967061758041382,"8":0.04966847598552704,"9":-0.01495276391506195,"10":0.06872259825468063,"11":-0.05239791050553322,"12":-0.05450797826051712,"13":0.0017940569669008255,"14":-0.0072468919679522514,"15":-0.002749179257079959,"16":-0.038198988884687424,"17":-0.04546795040369034,"18":-0.010653268545866013,"19":0.0425097830593586,"20":0.012661242857575417,"21":-0.06236308068037033,"22":0.07990782707929611,"23":-0.04376737028360367,"24":-0.05697895213961601,"25":-0.060251034796237946,"26":0.06093490123748779,"27":-0.05129307880997658,"28":-0.026373643428087234,"29":-0.016581116244196892,"30":-0.04382272809743881,"31":0.076431043446064,"32":-0.07952158898115158,"33":-0.022684289142489433,"34":0.05113421753048897,"35":-0.059509314596652985,"36":-0.06310379505157471,"37":-0.04285511374473572,"38":-0.04219869151711464,"39":-0.008853146806359291,"40":-0.05769938603043556,"41":-0.054987914860248566,"42":0.005903870798647404,"43":-0.07842767238616943,"44":0.07122058421373367,"45":-0.04650038108229637,"46":0.07014941424131393,"47":0.011051555164158344,"48":-0.010590516962110996,"49":-0.05933862552046776,"50":-0.04462697356939316,"51":0.003615613793954253,"52":-0.03394942358136177,"53":-0.02767607569694519,"54":-0.05257194861769676,"55":-0.021032053977251053,"56":0.06342194229364395,"57":-0.0007897705072537065,"58":-0.0016917911125347018,"59":0.04702550172805786,"60":-0.07453817874193192,"61":-0.003009498817846179,"62":0.05155527591705322,"63":0.04475416615605354,"64":-0.033855658024549484,"65":0.005029288586229086,"66":-0.03311449661850929,"67":-0.06459509581327438,"68":0.04492739960551262,"69":-0.007029274012893438,"70":0.0026706508360803127,"71":0.03468165546655655,"72":0.06151064857840538,"73":0.056874535977840424,"74":-0.03204355016350746,"75":0.0059080589562654495,"76":0.024470670148730278,"77":0.027155032381415367,"78":0.01717095822095871,"79":-0.05278215557336807,"80":0.029295025393366814,"81":0.008505637757480145,"82":0.06496728956699371,"83":-0.038127779960632324,"84":0.06809728592634201,"85":0.008374788798391819,"86":0.059879761189222336,"87":-0.010128756053745747,"88":0.036726757884025574,"89":0.0697266086935997,"90":-0.00201209238730371,"91":0.06442844122648239,"92":-0.02622213400900364,"93":0.027468619868159294,"94":-0.05017852038145065,"95":-0.035254038870334625,"96":-0.03780980035662651,"97":-0.0025097227189689875,"98":0.02423836663365364,"99":0.04422280937433243,"100":0.04895487427711487,"101":0.006153238471597433,"102":-0.006448592524975538,"103":-0.054467301815748215,"104":0.02654879540205002,"105":-0.05794264003634453,"106":0.07487594336271286,"107":-0.02302265167236328,"108":-0.031654659658670425,"109":0.02992665395140648,"110":-0.0478687584400177,"111":-0.017537059262394905,"112":-0.018907519057393074,"113":-0.032376136630773544,"114":0.07950971275568008,"115":0.029459582641720772,"116":0.05081739276647568,"117":0.03975830227136612,"118":-0.07588803023099899,"119":-0.039693091064691544,"120":-0.023180413991212845,"121":-0.07791262120008469,"122":0.05437266826629639,"123":-0.07290943711996078,"124":-0.03667464107275009,"125":-0.06296936422586441,"126":-0.03290363401174545,"127":0.0289772916585207,"128":0.07651655375957489,"129":0.04359517991542816,"130":-0.03096149116754532,"131":-0.0054489378817379475,"132":0.010879192501306534,"133":-0.006587602198123932,"134":0.03249134495854378,"135":0.054605841636657715,"136":-0.037323448807001114,"137":0.04007166996598244,"138":0.026556262746453285,"139":-0.0764080360531807,"140":-0.009558258578181267,"141":0.0561039112508297,"142":-0.06161685287952423,"143":-0.04968772828578949,"144":-0.011442367918789387,"145":-0.002380810910835862,"146":-0.027970338240265846,"147":0.03030245378613472,"148":-0.03716893866658211,"149":-0.04383714124560356,"150":-0.056718844920396805,"151":-0.03658508509397507,"152":0.04089653119444847,"153":0.013649878092110157,"154":-0.03208685666322708,"155":0.01996847242116928,"156":-0.033439554274082184,"157":-0.014942876994609833,"158":-0.028823796659708023,"159":0.01531368587166071,"160":0.030610769987106323,"161":-0.046071577817201614,"162":-0.05176955461502075,"163":-0.06627930700778961,"164":-0.06824235618114471,"165":0.04172125831246376,"166":0.00620253337547183,"167":-0.07384958863258362,"168":0.05851756036281586,"169":-0.031103206798434258,"170":0.032335247844457626,"171":0.050612516701221466,"172":0.07800499349832535,"173":-0.014013396576046944,"174":-0.07130984216928482,"175":-0.038590818643569946,"176":0.022120090201497078,"177":-0.06170469522476196,"178":0.07720404118299484,"179":0.05625962093472481,"180":-0.0661969780921936,"181":-0.009322479367256165,"182":-0.0467526949942112,"183":0.022831659764051437,"184":-0.06828809529542923,"185":-0.04797816276550293,"186":-0.0423164963722229,"187":-0.0019898770842701197,"188":-0.07267848402261734,"189":-0.06485140323638916,"190":-0.02545594424009323,"191":0.03940090909600258,"192":0.004540849011391401,"193":-0.07600773870944977,"194":-0.006414967123419046,"195":0.0766717866063118,"196":0.01585184782743454,"197":-0.002433550078421831,"198":-0.006376299075782299,"199":-0.07791101187467575,"200":0.07056345045566559,"201":0.04037994146347046,"202":0.058706045150756836,"203":-0.019265392795205116,"204":0.011943117715418339,"205":-0.022690361365675926,"206":0.016013799235224724,"207":-0.0004140644450671971,"208":0.05024004355072975,"209":0.045604828745126724,"210":-0.028212806209921837,"211":0.05922319367527962,"212":-0.014653380028903484,"213":-0.04412737861275673,"214":0.07392828911542892,"215":0.05992601811885834,"216":-0.022932173684239388,"217":-0.09266433119773865,"218":0.020059391856193542,"219":0.09137748926877975,"220":-0.06076430156826973,"221":-0.0027017078828066587,"222":-0.027666496112942696,"223":-0.0154884597286582,"224":-0.055682796984910965,"225":-0.05303420126438141,"226":0.06443128734827042,"227":-0.07300855964422226,"228":-0.04516485705971718,"229":0.05109401047229767,"230":0.05628751963376999,"231":0.029781291261315346,"232":-0.022023601457476616,"233":0.05052923038601875,"234":0.0465475358068943,"235":-0.051488298922777176,"236":-0.05916156992316246,"237":-0.02524551749229431,"238":0.02999630570411682,"239":-0.03201201185584068,"240":-0.04546410217881203,"241":-0.02317877672612667,"242":0.05797082930803299,"243":0.07334146648645401,"244":-0.06437990814447403,"245":0.022745385766029358,"246":0.027238192036747932,"247":-0.04058109596371651,"248":-0.0009913422400131822,"249":-0.0013997540809214115,"250":-0.04932876303792,"251":0.03976675495505333,"252":0.002895982936024666,"253":0.008343472145497799,"254":0.013945993967354298,"255":0.022512754425406456,"256":-0.054948098957538605,"257":-0.012477104552090168,"258":0.044205546379089355,"259":0.024522919207811356,"260":-0.001357598346658051,"261":-0.07750209420919418,"262":-0.006255125626921654,"263":-0.013642317615449429,"264":-0.025708986446261406,"265":-0.026081690564751625,"266":0.013899007812142372,"267":0.06119342893362045,"268":-0.06811190396547318,"269":0.07147315889596939,"270":-0.0617687813937664,"271":-0.061723317950963974,"272":-0.012965545058250427,"273":0.027959980070590973,"274":-0.0224586371332407,"275":-0.007597011048346758,"276":0.04757492616772652,"277":-0.03705384582281113,"278":-0.02033834159374237,"279":0.0396743007004261,"280":0.0388522744178772,"281":-0.02039465308189392,"282":-0.06751666218042374,"283":-0.04834882542490959,"284":0.061953406780958176,"285":0.07701003551483154,"286":0.05518805608153343,"287":-0.04868656024336815,"288":-0.05740559101104736,"289":-0.028705526143312454,"290":0.07826270908117294,"291":-0.005628114566206932,"292":0.0272303968667984,"293":-0.019705502316355705,"294":0.06978336721658707,"295":-0.07769431918859482,"296":0.06371314078569412,"297":0.05965980142354965,"298":-0.04107467085123062,"299":0.06386618316173553,"300":-0.025530224665999413,"301":-0.014719338156282902,"302":-0.001258117496035993,"303":-0.052389707416296005,"304":-0.0172424279153347,"305":-0.026078887283802032,"306":0.06399630010128021,"307":0.0579257607460022,"308":0.07255352288484573,"309":-0.07965628057718277,"310":0.005737649742513895,"311":-0.007815410383045673,"312":0.023296045139431953,"313":-0.007791820447891951,"314":-0.01262593362480402,"315":-0.0940328910946846,"316":-0.09168637543916702,"317":-0.03381754830479622,"318":0.05541359260678291,"319":0.04425942152738571,"320":0.01657726988196373,"321":-0.03747103363275528,"322":-0.0015867674956098199,"323":0.01120091788470745,"324":-0.008181344717741013,"325":0.01565702073276043,"326":-0.017308469861745834,"327":0.07113827019929886,"328":0.042853884398937225,"329":0.009367466904222965,"330":-0.0006510212551802397,"331":-0.07866277545690536,"332":-0.06318289041519165,"333":-0.048549339175224304,"334":0.0010329482611268759,"335":-0.00938323326408863,"336":-0.007379323709756136,"337":0.06035273149609566,"338":0.05132750794291496,"339":-0.022711114957928658,"340":0.06569730490446091,"341":-0.053692545741796494,"342":0.004282027017325163,"343":0.007007410749793053,"344":0.024539917707443237,"345":-0.06699234247207642,"346":0.0058965254575014114,"347":0.05236050859093666,"348":-0.01479905191808939,"349":-0.04471767693758011,"350":-0.06310462951660156,"351":-0.04559684917330742,"352":-0.005285832565277815,"353":-0.04111543297767639,"354":0.018274107947945595,"355":0.08632655441761017,"356":0.05299210548400879,"357":0.022765355184674263,"358":0.039928138256073,"359":0.0226424727588892,"360":0.03632638230919838,"361":-0.08113092929124832,"362":-0.07223229110240936,"363":0.08445791900157928,"364":-0.009930156171321869,"365":-0.0076146977953612804,"366":-0.0468343161046505,"367":0.0061986553482711315,"368":0.06807292997837067,"369":0.043726515024900436,"370":-0.018080096691846848,"371":-0.04110681638121605,"372":-0.02280401811003685,"373":0.023340629413723946,"374":0.02016150951385498,"375":-0.03956221789121628,"376":0.07126042991876602,"377":-0.039516400545835495,"378":0.007351128850132227,"379":0.026315774768590927,"380":0.014310956932604313,"381":0.06957174092531204,"382":0.02635921910405159,"383":0.07411490380764008,"384":0.03017735481262207,"385":0.07188457250595093,"386":-0.003053191350772977,"387":0.03789234533905983,"388":0.05392973870038986,"389":0.046948835253715515,"390":-0.032442349940538406,"391":-0.04472820833325386,"392":-0.06743865460157394,"393":0.012432858347892761,"394":0.03747238963842392,"395":-0.01134045422077179,"396":-0.05757516250014305,"397":0.03965087607502937,"398":-0.026652509346604347,"399":-0.06300623714923859,"400":0.08544138818979263,"401":0.07487098127603531,"402":0.000979951466433704,"403":-0.008335059508681297,"404":0.045478351414203644,"405":0.0683743804693222,"406":0.0701780617237091,"407":0.00044308110955171287,"408":-0.008417835459113121,"409":0.0071090953424572945,"410":0.0044064633548259735,"411":0.013310644775629044,"412":-0.00210594548843801,"413":-0.04915386810898781,"414":-0.0733112320303917,"415":0.04220278561115265,"416":-0.03638911992311478,"417":-0.010870215483009815,"418":-0.03965853899717331,"419":-0.03901129215955734,"420":0.026175815612077713,"421":0.0319218747317791,"422":0.06604502350091934,"423":-0.06436344981193542,"424":-0.04149788245558739,"425":0.05665142834186554,"426":0.05869301036000252,"427":0.04041741415858269,"428":-0.03386855497956276,"429":-0.0205608569085598,"430":0.05291162058711052,"431":-0.05697701498866081,"432":-0.021152092143893242,"433":0.02108260616660118,"434":0.05168205127120018,"435":0.012405657209455967,"436":-0.03361792862415314,"437":0.05252693593502045,"438":0.06782099604606628,"439":-0.03378628194332123,"440":0.006299188826233149,"441":-0.04210607707500458,"442":-0.07597452402114868,"443":0.026348290964961052,"444":-0.010863658972084522,"445":-0.041413214057683945,"446":0.06045101210474968,"447":0.06759878993034363,"448":0.039323534816503525,"449":-0.05259382724761963,"450":-0.039288025349378586,"451":0.03355012834072113,"452":0.0219983272254467,"453":-0.08028485625982285,"454":-0.04668588191270828,"455":-0.02591140754520893,"456":0.06034547835588455,"457":-0.05482085794210434,"458":-0.06499627232551575,"459":-0.02061539888381958,"460":0.04114746302366257,"461":0.07223880290985107,"462":-0.06060202419757843,"463":0.028711438179016113,"464":-0.011673057451844215,"465":-0.012783254496753216,"466":-0.02558404952287674,"467":0.04813046753406525,"468":0.024776825681328773,"469":-0.0041424669325351715,"470":-0.02517538145184517,"471":0.0010590245947241783,"472":-0.05719516798853874,"473":-0.07528466731309891,"474":-0.012731063179671764,"475":-0.07474465668201447,"476":-0.005410124082118273,"477":-0.03560075908899307,"478":-0.0727616474032402,"479":-0.03204134479165077,"480":0.03520446643233299,"481":-0.06218438223004341,"482":0.02220004051923752,"483":0.042446039617061615,"484":-0.04024835303425789,"485":0.012530209496617317,"486":-0.00671694241464138,"487":0.011015720665454865,"488":-0.09299856424331665,"489":0.007897554896771908,"490":-0.06190761178731918,"491":-0.010152029804885387,"492":-0.059590645134449005,"493":-0.05475939065217972,"494":0.08202023804187775,"495":-0.0680992528796196,"496":0.021268872544169426,"497":0.06250839680433273,"498":-0.05108892172574997,"499":-0.01479675155133009}},"forgetHidden":{"rows":20,"columns":20,"weights":{"0":-0.04059677571058273,"1":0.06712695956230164,"2":-0.018001636490225792,"3":0.060097403824329376,"4":-0.0647302120923996,"5":-0.06773368269205093,"6":-0.05616844445466995,"7":0.07395902276039124,"8":0.029741553589701653,"9":0.0067785969004035,"10":-0.05553478002548218,"11":0.004140096716582775,"12":-0.0019788392819464207,"13":0.05850956216454506,"14":-0.05915640667080879,"15":-0.07947611063718796,"16":0.07231294363737106,"17":0.07660024613142014,"18":-0.05409826338291168,"19":0.007035265676677227,"20":-0.013428215868771076,"21":0.06382780522108078,"22":0.004367141518741846,"23":-0.0014340283814817667,"24":0.05865638703107834,"25":-0.014621146023273468,"26":-0.05403563007712364,"27":-0.048508211970329285,"28":-0.04071522876620293,"29":0.0381554514169693,"30":0.057048499584198,"31":-0.014912470243871212,"32":0.035405706614255905,"33":-0.06137339398264885,"34":0.03967961668968201,"35":0.07289611548185349,"36":-0.025167100131511688,"37":-0.06555812805891037,"38":-0.07967887818813324,"39":-0.009850815869867802,"40":0.03353441506624222,"41":0.008003953844308853,"42":0.05284987390041351,"43":0.04822868853807449,"44":-0.03961849585175514,"45":0.038190215826034546,"46":0.004945502616465092,"47":-0.02816511131823063,"48":0.04452802240848541,"49":-0.027542637661099434,"50":-0.009367115795612335,"51":-0.0023255476262420416,"52":0.030663559213280678,"53":0.05604807659983635,"54":0.022830385714769363,"55":0.010754307731986046,"56":0.046253401786088943,"57":-0.006487063132226467,"58":-0.04046034440398216,"59":-0.020994311198592186,"60":-0.06014304980635643,"61":-0.001086744130589068,"62":0.04632877558469772,"63":0.020518997684121132,"64":-0.029268065467476845,"65":-0.04514161869883537,"66":-0.04623165354132652,"67":-0.03962252661585808,"68":0.036067549139261246,"69":-0.025561556220054626,"70":-0.01719009317457676,"71":0.06261026859283447,"72":-0.04326698184013367,"73":-0.0100438566878438,"74":0.021574001759290695,"75":0.012408798560500145,"76":0.05354687198996544,"77":0.07487518340349197,"78":-0.0642339363694191,"79":-0.04880531504750252,"80":-0.03849702700972557,"81":-0.007335249334573746,"82":-0.03798710182309151,"83":-0.029659202322363853,"84":-0.06294921040534973,"85":-0.040503472089767456,"86":-0.05166386812925339,"87":-0.042378026992082596,"88":0.013440940529108047,"89":0.07238870859146118,"90":0.003567616455256939,"91":-0.044393107295036316,"92":-0.00895670335739851,"93":-0.0025245302822440863,"94":0.015280700288712978,"95":0.03969915956258774,"96":0.07365088164806366,"97":0.04663125425577164,"98":-0.03401177376508713,"99":-0.0389334075152874,"100":-0.03346635773777962,"101":-0.029542110860347748,"102":0.06427910178899765,"103":0.017592664808034897,"104":-0.0684492364525795,"105":0.058341629803180695,"106":0.047346316277980804,"107":-0.006666341330856085,"108":0.016949383541941643,"109":-0.08815827965736389,"110":-0.02208520658314228,"111":0.023891502991318703,"112":-0.0894271656870842,"113":0.051356345415115356,"114":0.07733218371868134,"115":-0.024152249097824097,"116":0.022527912631630898,"117":0.03092516027390957,"118":0.02687939815223217,"119":0.058476004749536514,"120":-0.027293721213936806,"121":-0.044513922184705734,"122":-0.013689451850950718,"123":-0.030150804668664932,"124":0.061777517199516296,"125":0.06932304799556732,"126":0.0702286958694458,"127":0.023206807672977448,"128":0.06593414396047592,"129":-0.025347422808408737,"130":0.04570261761546135,"131":-0.05428146570920944,"132":0.02424689754843712,"133":0.023859525099396706,"134":0.04215359315276146,"135":-0.03352105990052223,"136":0.026839397847652435,"137":-0.03047572448849678,"138":-0.010982699692249298,"139":-0.08255535364151001,"140":0.010433404706418514,"141":0.050488561391830444,"142":-0.05270238220691681,"143":-0.06505277752876282,"144":-0.038174793124198914,"145":0.034922730177640915,"146":0.023985547944903374,"147":-0.013392253778874874,"148":0.026891062036156654,"149":-0.006142285652458668,"150":-0.04697408527135849,"151":-0.03005135990679264,"152":0.04353063926100731,"153":0.058982670307159424,"154":0.03607197850942612,"155":0.01061436627060175,"156":0.07498320192098618,"157":0.038942717015743256,"158":-0.01546839065849781,"159":-0.023046789690852165,"160":-0.027681149542331696,"161":0.07107067108154297,"162":0.0416729636490345,"163":-0.04531314596533775,"164":0.06576602905988693,"165":-0.01881585270166397,"166":-0.05470734089612961,"167":-0.06865084171295166,"168":0.007939742878079414,"169":-0.07003636658191681,"170":-0.028673561289906502,"171":0.07465288043022156,"172":-0.029638905078172684,"173":0.05481814965605736,"174":0.07045181840658188,"175":-0.00039389330777339637,"176":0.016154777258634567,"177":-0.0007483321824111044,"178":0.002615690929815173,"179":-0.08214694261550903,"180":-0.06538578867912292,"181":0.06493789702653885,"182":-0.05481179803609848,"183":0.040659934282302856,"184":-0.07988353073596954,"185":-0.05308472737669945,"186":-0.07495357096195221,"187":0.01424163393676281,"188":0.0765848457813263,"189":0.009655549190938473,"190":-0.02589445374906063,"191":-0.07247401028871536,"192":-0.06480388343334198,"193":-0.021293696016073227,"194":0.02778613567352295,"195":-0.03802807629108429,"196":0.07284760475158691,"197":0.03809002786874771,"198":-0.04327445849776268,"199":0.05903850123286247,"200":0.0362837053835392,"201":-0.077903151512146,"202":0.07992555946111679,"203":0.022932153195142746,"204":0.02390974387526512,"205":0.028099043294787407,"206":-0.014692161232233047,"207":0.06700041890144348,"208":-0.07315131276845932,"209":-0.011639378033578396,"210":0.0013021428603678942,"211":-0.06751593947410583,"212":-0.01590489037334919,"213":0.08087281882762909,"214":-0.009194656275212765,"215":-0.030247464776039124,"216":-0.019420579075813293,"217":0.04378119111061096,"218":-0.059849414974451065,"219":0.08510128408670425,"220":0.06745559722185135,"221":0.051551271229982376,"222":0.009675499051809311,"223":0.05220732465386391,"224":-0.03320979326963425,"225":-0.06699660420417786,"226":-0.005234283860772848,"227":0.0630805566906929,"228":0.07315297424793243,"229":0.0655728429555893,"230":-0.05659344792366028,"231":-0.0028353396337479353,"232":0.03514602780342102,"233":-0.06103704869747162,"234":0.07473985850811005,"235":-0.0336928628385067,"236":0.06941967457532883,"237":-0.06870817393064499,"238":-0.06101096048951149,"239":-0.03935203328728676,"240":0.03856147080659866,"241":0.004697099793702364,"242":-0.058356236666440964,"243":0.0006443709717132151,"244":-0.04423431307077408,"245":-0.03443807736039162,"246":0.04318975284695625,"247":-0.08486068248748779,"248":-0.019085608422756195,"249":-0.017642047256231308,"250":0.0013638598611578345,"251":0.017079656943678856,"252":0.04703693091869354,"253":0.06932065635919571,"254":0.04974895715713501,"255":0.0007761257002130151,"256":-0.03204204514622688,"257":-0.039857376366853714,"258":0.010649396106600761,"259":0.04150821268558502,"260":-0.02142978087067604,"261":0.008929220028221607,"262":-0.02876528911292553,"263":-0.06157843396067619,"264":0.01876828633248806,"265":-0.015707693994045258,"266":-0.03263309597969055,"267":-0.053515203297138214,"268":-0.028361333534121513,"269":-0.004857104271650314,"270":-0.0064972173422575,"271":0.0011992459185421467,"272":0.00277894688770175,"273":0.07957296073436737,"274":-0.06638085842132568,"275":0.02688824012875557,"276":-0.05419921875,"277":-0.06266805529594421,"278":-0.054663948714733124,"279":-0.03713258355855942,"280":0.06443606317043304,"281":0.001797652104869485,"282":-0.031713489443063736,"283":-0.007098177447915077,"284":-0.02918645180761814,"285":-0.002406403189525008,"286":-0.07394932210445404,"287":0.0007429381948895752,"288":-0.03091561049222946,"289":-0.05804610624909401,"290":0.06946120411157608,"291":-0.015571619383990765,"292":0.009502572938799858,"293":-0.0361686535179615,"294":0.09335760772228241,"295":-0.042742516845464706,"296":0.0365251861512661,"297":-0.004362523555755615,"298":-0.036966536194086075,"299":0.06160592660307884,"300":0.07054538279771805,"301":-0.07419062405824661,"302":0.007894540205597878,"303":0.015205162577331066,"304":-0.006653651129454374,"305":0.001726497896015644,"306":-0.07844406366348267,"307":-0.03369158133864403,"308":0.027232181280851364,"309":0.06957106292247772,"310":0.06440359354019165,"311":0.04213502258062363,"312":0.07695477455854416,"313":0.03732826188206673,"314":0.06435679644346237,"315":0.01611011102795601,"316":-0.0006200787611305714,"317":0.0192395206540823,"318":0.05318469554185867,"319":-0.03240374103188515,"320":-0.034354258328676224,"321":-0.0746905505657196,"322":0.08384573459625244,"323":-0.029362032189965248,"324":0.035589996725320816,"325":-0.05969030037522316,"326":0.047938112169504166,"327":0.04010312631726265,"328":-0.067914217710495,"329":-0.016721142455935478,"330":-0.01557444129139185,"331":0.05360374227166176,"332":-0.0378483347594738,"333":-0.01431246567517519,"334":0.028450844809412956,"335":0.0004074186726938933,"336":-0.08949559926986694,"337":-0.056147634983062744,"338":-0.03668653592467308,"339":-0.03587307408452034,"340":0.06936606019735336,"341":-0.03874862939119339,"342":-0.0784243643283844,"343":0.07616356760263443,"344":-0.019537409767508507,"345":-0.029341528192162514,"346":0.04495828226208687,"347":-0.04350656270980835,"348":-0.0735664814710617,"349":0.03027273900806904,"350":0.05097506195306778,"351":0.041697900742292404,"352":-0.023164598271250725,"353":-0.013185919262468815,"354":0.04421915113925934,"355":0.003019695170223713,"356":-0.023277319967746735,"357":-0.05470099672675133,"358":-0.03593801334500313,"359":-0.05727679654955864,"360":0.007246040739119053,"361":-0.014600606635212898,"362":0.07745976746082306,"363":0.03702375292778015,"364":-0.006028477568179369,"365":-0.07568924129009247,"366":0.04090989753603935,"367":-0.02534034289419651,"368":-0.02184910513460636,"369":-0.015138336457312107,"370":-0.04217349737882614,"371":-0.023937951773405075,"372":-0.07655167579650879,"373":0.06875821202993393,"374":-0.04583455249667168,"375":0.02030026540160179,"376":0.039233896881341934,"377":0.06471075117588043,"378":-0.03034726344048977,"379":-0.07164009660482407,"380":0.08017852902412415,"381":0.055556636303663254,"382":-0.030378885567188263,"383":-0.05438341945409775,"384":-0.03768862038850784,"385":-0.027979597449302673,"386":-0.07472899556159973,"387":0.045930929481983185,"388":-0.012464850209653378,"389":0.0828402116894722,"390":-0.05120496824383736,"391":0.012082229368388653,"392":0.08361444622278214,"393":0.03549511730670929,"394":-0.040670279413461685,"395":-0.040088653564453125,"396":0.061542727053165436,"397":-0.0018288486171513796,"398":-0.05458303913474083,"399":-0.035438403487205505}},"forgetBias":{"rows":20,"columns":1,"weights":{"0":0,"1":0,"2":0,"3":0,"4":0,"5":0,"6":0,"7":0,"8":0,"9":0,"10":0,"11":0,"12":0,"13":0,"14":0,"15":0,"16":0,"17":0,"18":0,"19":0}},"outputMatrix":{"rows":20,"columns":25,"weights":{"0":-0.08147495239973068,"1":-0.0475895032286644,"2":-0.014501536265015602,"3":-0.029372960329055786,"4":0.04655979201197624,"5":-0.009359282441437244,"6":-0.061699748039245605,"7":0.08369504660367966,"8":-0.05838505178689957,"9":-0.028430528938770294,"10":0.06284172832965851,"11":-0.06330184638500214,"12":-0.07713738828897476,"13":0.048312678933143616,"14":0.05688539892435074,"15":0.08334913104772568,"16":-0.053401149809360504,"17":0.029068879783153534,"18":-0.02449018508195877,"19":0.03455263003706932,"20":-0.07787372171878815,"21":-0.02590847946703434,"22":-0.04782344400882721,"23":0.07271278649568558,"24":0.033043380826711655,"25":0.008705680258572102,"26":0.02070040814578533,"27":0.04981191083788872,"28":0.040576472878456116,"29":-0.08276180177927017,"30":0.020554261282086372,"31":0.038046348839998245,"32":-0.012201249599456787,"33":-0.057383034378290176,"34":-0.02919607423245907,"35":0.035564303398132324,"36":0.04374534264206886,"37":0.040159132331609726,"38":-0.017019977793097496,"39":-0.06765178591012955,"40":0.08330998569726944,"41":0.022272411733865738,"42":-0.02725350297987461,"43":0.07505562156438828,"44":0.016764577478170395,"45":0.043348826467990875,"46":0.07200154662132263,"47":0.008749719709157944,"48":0.06941384822130203,"49":0.016765179112553596,"50":0.012856551446020603,"51":-0.0510735847055912,"52":0.04743625968694687,"53":0.009413591586053371,"54":0.010038274340331554,"55":-0.0413292832672596,"56":-0.06214407831430435,"57":-0.04347684606909752,"58":0.02916521206498146,"59":0.04559330642223358,"60":-0.0695040374994278,"61":0.009424389339983463,"62":0.03148875758051872,"63":-0.06026897951960564,"64":0.0889691486954689,"65":-0.050923507660627365,"66":-0.1119338870048523,"67":-0.05052407458424568,"68":0.0011858160141855478,"69":-0.05178553983569145,"70":-0.008739611133933067,"71":-0.07823405414819717,"72":0.052819155156612396,"73":0.05923033878207207,"74":-0.022856349125504494,"75":-0.06138341873884201,"76":-0.018505869433283806,"77":0.025965148583054543,"78":0.054030079394578934,"79":-0.07001833617687225,"80":-0.03274325281381607,"81":0.03213381767272949,"82":0.03035878762602806,"83":-0.03418896719813347,"84":-0.0037834488321095705,"85":-0.08180586248636246,"86":0.05478796735405922,"87":0.026810137555003166,"88":0.055949825793504715,"89":-0.023370051756501198,"90":0.004752554930746555,"91":0.007718085777014494,"92":0.00037808800698257983,"93":-0.03190665692090988,"94":-0.0019454965367913246,"95":0.016364609822630882,"96":-0.04567224159836769,"97":0.0320863351225853,"98":-0.04867076501250267,"99":0.03729470074176788,"100":0.0033596346620470285,"101":-0.11274874955415726,"102":0.04877067729830742,"103":-0.036913350224494934,"104":-0.14346005022525787,"105":-0.03408968821167946,"106":-0.08703403919935226,"107":0.06750990450382233,"108":-0.023230528458952904,"109":0.03351113945245743,"110":-0.0130121149122715,"111":-0.07332867383956909,"112":0.07824049144983292,"113":-0.02511778101325035,"114":0.06445946544408798,"115":0.003638704540207982,"116":-0.020038815215229988,"117":-0.09643100202083588,"118":0.0227191299200058,"119":0.1495644748210907,"120":0.026583051308989525,"121":-0.09087242931127548,"122":0.02314438857138157,"123":-0.08390313386917114,"124":-0.07188234478235245,"125":-0.07286689430475235,"126":-0.07995977252721786,"127":0.12098011374473572,"128":0.06818944215774536,"129":-0.21637128293514252,"130":-0.018792616203427315,"131":-0.08598911762237549,"132":0.0009293841430917382,"133":-0.022506749257445335,"134":0.012933087535202503,"135":-0.05835473909974098,"136":-0.14450547099113464,"137":-0.12561586499214172,"138":0.04141940549015999,"139":-0.019179144874215126,"140":0.09122344106435776,"141":0.11226027458906174,"142":-0.0851295217871666,"143":0.06069110333919525,"144":0.00191008229739964,"145":-0.0001229590125149116,"146":-0.0442015640437603,"147":-0.15090510249137878,"148":0.018524382263422012,"149":0.06235101819038391,"150":-0.07104162126779556,"151":0.019297774881124496,"152":0.040311723947525024,"153":0.0029442112427204847,"154":-0.07639443129301071,"155":0.0012972026597708464,"156":-0.0013558791251853108,"157":0.0329396091401577,"158":-0.007304417435079813,"159":-0.04557585343718529,"160":-0.07241412997245789,"161":-0.07906124740839005,"162":-0.02644866332411766,"163":-0.06205829605460167,"164":0.030834829434752464,"165":0.062131356447935104,"166":-0.019222920760512352,"167":-0.00038927822606638074,"168":-0.006517695728689432,"169":0.08629723638296127,"170":0.02887466363608837,"171":-0.08264590799808502,"172":0.045186884701251984,"173":-0.05507568269968033,"174":0.06157192215323448,"175":-0.14717276394367218,"176":0.030025891959667206,"177":0.056206487119197845,"178":0.08005448430776596,"179":-0.14930976927280426,"180":-0.10355422645807266,"181":-0.001288619008846581,"182":0.11035246402025223,"183":-0.05911913514137268,"184":-0.06952425837516785,"185":0.07880107313394547,"186":-0.007771549746394157,"187":0.0478176586329937,"188":-0.06999283283948898,"189":-0.08239318430423737,"190":0.16280412673950195,"191":0.14236296713352203,"192":0.04642987996339798,"193":-0.008259471505880356,"194":-0.026023780927062035,"195":-0.031893644481897354,"196":0.12799228727817535,"197":-0.05190563201904297,"198":-0.027172651141881943,"199":0.07213620096445084,"200":-0.05986643210053444,"201":-0.16925473511219025,"202":0.14120545983314514,"203":0.03341543674468994,"204":-0.08119145780801773,"205":-0.031486786901950836,"206":-0.0675201416015625,"207":-0.1493658572435379,"208":0.060028284788131714,"209":0.012113119475543499,"210":-0.05997072160243988,"211":-0.10312648862600327,"212":-0.023641889914870262,"213":0.05444970726966858,"214":0.15583761036396027,"215":0.03636569529771805,"216":-0.024628447368741035,"217":-0.12857399880886078,"218":0.08095929026603699,"219":0.08552861958742142,"220":-0.018227897584438324,"221":-0.05799821391701698,"222":0.013326946645975113,"223":0.04252084717154503,"224":-0.07573946565389633,"225":-0.0811963900923729,"226":-0.007529057562351227,"227":0.18348968029022217,"228":0.11757612228393555,"229":-0.19621019065380096,"230":0.015341375023126602,"231":0.013795154169201851,"232":0.06375777721405029,"233":-0.023723145946860313,"234":0.029038401320576668,"235":-0.07929614186286926,"236":-0.12385287135839462,"237":-0.1204906702041626,"238":0.04083061218261719,"239":0.007135747466236353,"240":0.10781336575746536,"241":0.1807294487953186,"242":0.03076985292136669,"243":-0.03904923051595688,"244":0.07950916141271591,"245":-0.029882291331887245,"246":-0.027760740369558334,"247":-0.169606551527977,"248":-0.0161869116127491,"249":0.04392530396580696,"250":-0.06640396267175674,"251":-0.10676097124814987,"252":0.15379343926906586,"253":0.04549705609679222,"254":-0.17283111810684204,"255":0.010401546955108643,"256":-0.07048193365335464,"257":0.026449721306562424,"258":-0.04839254543185234,"259":-0.04983627423644066,"260":-0.08185092359781265,"261":-0.1180642768740654,"262":0.006386558059602976,"263":-0.005004719365388155,"264":0.03576858714222908,"265":0.11207456141710281,"266":0.1594187319278717,"267":-0.021863127127289772,"268":0.017527611926198006,"269":0.08419707417488098,"270":-0.03154906630516052,"271":0.04054433852434158,"272":-0.08917701244354248,"273":-0.03598138317465782,"274":-0.03545672819018364,"275":0.04057386517524719,"276":-0.033185478299856186,"277":0.034898027777671814,"278":0.05412064492702484,"279":0.07596750557422638,"280":-0.002012659562751651,"281":0.04232631251215935,"282":-0.06845885515213013,"283":-0.06002723053097725,"284":-0.049753010272979736,"285":0.06101411208510399,"286":0.04828733205795288,"287":0.04062613099813461,"288":0.053185634315013885,"289":-0.08019035309553146,"290":-0.09324336051940918,"291":-0.004575307015329599,"292":-0.07561846077442169,"293":0.06804151087999344,"294":-0.07369364798069,"295":0.03213976323604584,"296":-0.04371831938624382,"297":-0.05506770685315132,"298":-0.03332723677158356,"299":-0.025390855967998505,"300":-0.045258376747369766,"301":-0.08679792284965515,"302":0.07237988710403442,"303":-0.11998681724071503,"304":0.02002965472638607,"305":-0.02379467524588108,"306":-0.039943620562553406,"307":-0.027575695887207985,"308":0.07427738606929779,"309":-0.03896215930581093,"310":-0.05203283950686455,"311":-0.0023264759220182896,"312":-0.03484605997800827,"313":-0.11349398642778397,"314":0.07447831332683563,"315":-0.053596433252096176,"316":-0.11238892376422882,"317":-0.15887829661369324,"318":-0.056267380714416504,"319":0.18691310286521912,"320":0.06174846366047859,"321":-0.0700368881225586,"322":0.18759211897850037,"323":-0.018822452053427696,"324":-0.12288686633110046,"325":0.08197663724422455,"326":-0.0820273756980896,"327":-0.04532461613416672,"328":-0.06421896815299988,"329":-0.14292871952056885,"330":0.009228634648025036,"331":-0.02996515855193138,"332":-0.02204200252890587,"333":0.04940975829958916,"334":-0.040622830390930176,"335":0.02735721692442894,"336":-0.06713727116584778,"337":0.028816480189561844,"338":-0.008974539116024971,"339":0.055754534900188446,"340":-0.01822541281580925,"341":0.025415467098355293,"342":-0.0809178352355957,"343":0.009291873313486576,"344":0.008984244428575039,"345":-0.042856208980083466,"346":-0.0033997180871665478,"347":-0.10909298062324524,"348":0.07014106214046478,"349":0.033483099192380905,"350":-0.10840548574924469,"351":-0.0707760602235794,"352":0.12227813154459,"353":0.014577117748558521,"354":-0.2855915129184723,"355":-0.06647142767906189,"356":0.04219629615545273,"357":0.1571551114320755,"358":-0.1000639945268631,"359":-0.042865533381700516,"360":-0.045258015394210815,"361":-0.10219214111566544,"362":-0.09851261228322983,"363":0.06991663575172424,"364":0.03238482028245926,"365":0.2067660540342331,"366":0.1987972855567932,"367":0.007756614126265049,"368":0.029181141406297684,"369":0.14308065176010132,"370":0.06524236500263214,"371":-0.014754223637282848,"372":-0.21697427332401276,"373":0.04240602254867554,"374":0.06275016069412231,"375":0.03716624528169632,"376":0.07108994573354721,"377":0.03486453369259834,"378":-0.09413308650255203,"379":0.06798095256090164,"380":0.06210750341415405,"381":-0.0541488379240036,"382":-0.05826249346137047,"383":0.02577838860452175,"384":0.028203487396240234,"385":-0.05280584841966629,"386":0.033278338611125946,"387":-0.044114623218774796,"388":0.054763540625572205,"389":0.10403673350811005,"390":-0.04075004160404205,"391":0.0011706112418323755,"392":0.011089511215686798,"393":-0.04142697528004646,"394":-0.023804862052202225,"395":-0.04819033667445183,"396":-0.11548968404531479,"397":0.046776920557022095,"398":0.05400010943412781,"399":-0.047562163323163986,"400":0.1531936228275299,"401":-0.02008516900241375,"402":0.07147087156772614,"403":0.05554356053471565,"404":0.034478310495615005,"405":-0.0016006303485482931,"406":0.015572483651340008,"407":-0.024878839030861855,"408":-0.03376445919275284,"409":0.1455717533826828,"410":-0.07530131936073303,"411":-0.06592582911252975,"412":-0.029072951525449753,"413":0.07842697948217392,"414":-0.07459977269172668,"415":-0.01804390363395214,"416":-0.01321233157068491,"417":-0.009319557808339596,"418":0.05764713138341904,"419":0.06814945489168167,"420":-0.018864434212446213,"421":0.041330233216285706,"422":-0.05943906307220459,"423":0.010026158764958382,"424":0.046226732432842255,"425":-0.04537070170044899,"426":0.01799873635172844,"427":-0.004431240726262331,"428":-0.07667698711156845,"429":0.043920207768678665,"430":0.02364530600607395,"431":0.012291857041418552,"432":-0.06688619405031204,"433":0.0824790969491005,"434":-0.04449672996997833,"435":0.004232002887874842,"436":-0.09009164571762085,"437":0.08365315198898315,"438":-0.05822306126356125,"439":0.12613524496555328,"440":-0.05775095522403717,"441":0.054363030940294266,"442":-0.026686396449804306,"443":-0.006509012077003717,"444":-0.0032134465873241425,"445":0.049256592988967896,"446":-0.034606724977493286,"447":0.0006572072161361575,"448":-0.024170298129320145,"449":-0.039756663143634796,"450":-0.035379715263843536,"451":0.02059893310070038,"452":-0.057423774152994156,"453":-0.001999602885916829,"454":-0.057885441929101944,"455":-0.032981257885694504,"456":0.04904324561357498,"457":0.05762907862663269,"458":-0.0199157502502203,"459":0.00029748838278464973,"460":1.560762115104808e-7,"461":0.04614400863647461,"462":0.0670301765203476,"463":0.03068852424621582,"464":-0.04760172218084335,"465":-0.012154818512499332,"466":-0.04291688650846481,"467":0.07333290576934814,"468":-0.036917544901371,"469":-0.011512176133692265,"470":-0.023004943504929543,"471":0.011324605904519558,"472":-0.013878547586500645,"473":0.006770167499780655,"474":0.027322810143232346,"475":0.038113150745630264,"476":-0.01331347692757845,"477":0.015449900180101395,"478":-0.14251719415187836,"479":0.1428927183151245,"480":0.05997311696410179,"481":-0.05019022896885872,"482":-0.008333700709044933,"483":0.07350980490446091,"484":-0.010520891286432743,"485":0.0020638273563236,"486":0.1572898030281067,"487":0.1851244568824768,"488":-0.15439479053020477,"489":0.04269430786371231,"490":-0.10670466721057892,"491":-0.07840703427791595,"492":-0.04044394940137863,"493":0.003968525677919388,"494":0.05209554359316826,"495":0.08080160617828369,"496":-0.1402813345193863,"497":0.12818565964698792,"498":0.025496244430541992,"499":-0.058286022394895554}},"outputHidden":{"rows":20,"columns":20,"weights":{"0":0.0002715380978770554,"1":0.07458852231502533,"2":-0.0028988805133849382,"3":0.05102215334773064,"4":0.016612282022833824,"5":-0.00938353594392538,"6":-0.04506921023130417,"7":0.02077500894665718,"8":0.046441856771707535,"9":0.030310850590467453,"10":0.044389188289642334,"11":0.05880780518054962,"12":-0.004149033222347498,"13":-0.05386173352599144,"14":-0.02518654055893421,"15":-0.014115389436483383,"16":0.034570593386888504,"17":0.031013837084174156,"18":0.05920293927192688,"19":-0.00801319070160389,"20":-0.04304015636444092,"21":-0.028648672625422478,"22":0.01125483401119709,"23":-0.03180668503046036,"24":0.06264472007751465,"25":-0.023384684696793556,"26":-0.008090770803391933,"27":0.01765398681163788,"28":-0.04697452113032341,"29":-0.02892094850540161,"30":-0.0585072785615921,"31":-0.008671168237924576,"32":0.037252094596624374,"33":0.029691774398088455,"34":0.06531987339258194,"35":-0.020499270409345627,"36":-0.061338961124420166,"37":-0.07662296295166016,"38":0.0017264388734474778,"39":-0.043965164572000504,"40":-0.023462658748030663,"41":0.053962867707014084,"42":0.02692228928208351,"43":0.07899642735719681,"44":-0.04358327016234398,"45":0.04215400665998459,"46":-0.0017656998243182898,"47":-0.02542908489704132,"48":0.039697080850601196,"49":-0.015640847384929657,"50":0.05481598153710365,"51":0.0032398116309195757,"52":0.035688284784555435,"53":0.012341495603322983,"54":-0.03094344772398472,"55":0.0010610709432512522,"56":0.03751630336046219,"57":0.09375296533107758,"58":0.01743570901453495,"59":-0.09510745108127594,"60":-0.008360135369002819,"61":0.07329129427671432,"62":0.0732354000210762,"63":-0.003565658815205097,"64":-0.01786399632692337,"65":-0.05745648592710495,"66":0.017635878175497055,"67":0.04611952230334282,"68":0.007867928594350815,"69":-0.04413902759552002,"70":0.00288260355591774,"71":0.052116509526968,"72":-0.06125428527593613,"73":-0.037497010082006454,"74":-0.06403848528862,"75":0.0012827056925743818,"76":-0.0611652210354805,"77":-0.01589982956647873,"78":-0.07366634160280228,"79":0.025572411715984344,"80":-0.026994479820132256,"81":0.008302002213895321,"82":-0.07640824466943741,"83":-0.02740032970905304,"84":-0.05069759488105774,"85":-0.022337736561894417,"86":-0.035848673433065414,"87":0.015462731011211872,"88":0.007266005966812372,"89":-0.014531075954437256,"90":-0.03487924486398697,"91":0.02965073473751545,"92":0.03893193230032921,"93":-0.08452074229717255,"94":0.0438251756131649,"95":-0.04756178706884384,"96":0.02674456126987934,"97":0.03519732505083084,"98":-0.02560851164162159,"99":0.03582772612571716,"100":-0.028028590604662895,"101":0.005299719516187906,"102":0.049981534481048584,"103":-0.024428853765130043,"104":0.021304642781615257,"105":0.08707386255264282,"106":-0.011922460980713367,"107":-0.006938121281564236,"108":-0.01667374186217785,"109":-0.03735056146979332,"110":-0.0797925591468811,"111":-0.06996272504329681,"112":-0.019792433828115463,"113":-0.024694157764315605,"114":-0.056161049753427505,"115":-0.08323313295841217,"116":-0.07084021717309952,"117":0.04782100021839142,"118":-0.05574575811624527,"119":0.020730474963784218,"120":-0.04335494339466095,"121":-0.031028857454657555,"122":-0.00852783489972353,"123":0.04398559778928757,"124":-0.07519485801458359,"125":0.05767941102385521,"126":-0.040539029985666275,"127":-0.007355954963713884,"128":0.0042980327270925045,"129":0.028272897005081177,"130":0.07014047354459763,"131":0.04839927703142166,"132":0.010184512473642826,"133":-0.03813392296433449,"134":0.057643573731184006,"135":-0.000456069887150079,"136":0.059043362736701965,"137":0.08732293546199799,"138":-0.06065230444073677,"139":0.03157316893339157,"140":0.020491503179073334,"141":0.05777182802557945,"142":0.08069878071546555,"143":0.05490225926041603,"144":0.05894193425774574,"145":0.05451985076069832,"146":0.07602638006210327,"147":-0.01271788589656353,"148":0.011881755664944649,"149":0.00043886492494493723,"150":0.0395708829164505,"151":0.007904277183115482,"152":-0.11187265068292618,"153":0.061446014791727066,"154":0.06292078644037247,"155":0.06170645356178284,"156":-0.06887903064489365,"157":0.00807204470038414,"158":-0.053944069892168045,"159":-0.025346854701638222,"160":-0.0003354183572810143,"161":0.03333002328872681,"162":-0.1173846423625946,"163":-0.03905365243554115,"164":-0.06626517325639725,"165":0.0006316258222796023,"166":0.03428239747881889,"167":0.054442863911390305,"168":-0.014018705114722252,"169":-0.05449964106082916,"170":-0.05442727729678154,"171":0.06274896115064621,"172":0.016387073323130608,"173":0.007113927975296974,"174":0.02467198856174946,"175":-0.014815360307693481,"176":-0.022115077823400497,"177":0.13826966285705566,"178":-0.06343282014131546,"179":-0.05705130845308304,"180":-0.016405219212174416,"181":-0.036799002438783646,"182":0.10203943401575089,"183":0.03007430210709572,"184":0.06832509487867355,"185":0.08035389333963394,"186":-0.06938208639621735,"187":0.08427401632070541,"188":0.07974313199520111,"189":0.02215808816254139,"190":0.05117945373058319,"191":0.06231681630015373,"192":-0.05741138383746147,"193":-0.05129808932542801,"194":-0.06026098132133484,"195":-0.04072362557053566,"196":0.06101536378264427,"197":0.04705948010087013,"198":0.0028176873456686735,"199":0.0629485622048378,"200":-0.005389297381043434,"201":0.009413366205990314,"202":0.07105262577533722,"203":-0.013183283619582653,"204":-0.03538190945982933,"205":0.01873668283224106,"206":0.028552208095788956,"207":-0.048614252358675,"208":-0.034616854041814804,"209":-0.0696898028254509,"210":-0.08834986388683319,"211":0.0881110355257988,"212":0.06191195547580719,"213":0.011531207710504532,"214":-0.04681149125099182,"215":-0.01809985563158989,"216":0.030675901100039482,"217":0.06066284328699112,"218":-0.08150181919336319,"219":-0.055537570267915726,"220":0.0071250032633543015,"221":0.025562183931469917,"222":0.025179104879498482,"223":-0.04078038036823273,"224":-0.05227776989340782,"225":-0.00012318036169745028,"226":0.030581321567296982,"227":0.04820432886481285,"228":-0.06599608063697815,"229":0.023410866037011147,"230":0.011293705552816391,"231":0.0015298541402444243,"232":-0.049594152718782425,"233":0.04588620737195015,"234":0.0751611515879631,"235":-0.08258899301290512,"236":-0.00037039065500721335,"237":0.009987866505980492,"238":0.030772291123867035,"239":-0.05761709436774254,"240":-0.09001202136278152,"241":0.017679689452052116,"242":-0.0058337487280368805,"243":0.0633348673582077,"244":0.03836171701550484,"245":0.005350720603018999,"246":0.041184909641742706,"247":-0.07779797166585922,"248":-0.047064486891031265,"249":0.0032261547166854143,"250":-0.016462692990899086,"251":0.05934686213731766,"252":0.16247305274009705,"253":-0.09511300921440125,"254":-0.032317981123924255,"255":0.05518881604075432,"256":0.044558800756931305,"257":0.09837234765291214,"258":0.06514374166727066,"259":-0.12408498674631119,"260":-0.012644202448427677,"261":0.05708890035748482,"262":-0.0035295409616082907,"263":0.015602647326886654,"264":-0.0014502310659736395,"265":0.0796223133802414,"266":0.02789936028420925,"267":0.07229694724082947,"268":-0.06520858407020569,"269":-0.08658524602651596,"270":-0.07738426327705383,"271":0.03330433368682861,"272":0.005828895606100559,"273":-0.03928753733634949,"274":0.027373364195227623,"275":0.024156693369150162,"276":0.054697755724191666,"277":-0.02168618142604828,"278":-0.0056416369043290615,"279":-0.006594163365662098,"280":0.02949501760303974,"281":-0.0240517258644104,"282":0.12994199991226196,"283":-0.054912932217121124,"284":0.017815519124269485,"285":0.020088545978069305,"286":0.07650350779294968,"287":0.057389527559280396,"288":0.04303046315908432,"289":-0.10212284326553345,"290":-0.04610719531774521,"291":-0.0039607505314052105,"292":-0.034059032797813416,"293":-0.03624580055475235,"294":0.0005979519919492304,"295":-0.011097665876150131,"296":0.05241737514734268,"297":-0.06237809360027313,"298":0.04161170870065689,"299":0.10966923087835312,"300":-0.02198639139533043,"301":-0.03461875021457672,"302":-0.00003026720878551714,"303":-0.03924240171909332,"304":-0.007895832881331444,"305":-0.042109932750463486,"306":0.06329912692308426,"307":-0.05490648001432419,"308":0.040122173726558685,"309":-0.054353587329387665,"310":0.0060531883500516415,"311":0.029856843873858452,"312":0.11081648617982864,"313":-0.07997876405715942,"314":0.06888594478368759,"315":0.06963666528463364,"316":-0.03981731832027435,"317":0.010480222292244434,"318":-0.015361199155449867,"319":-0.07229813933372498,"320":0.06120298430323601,"321":0.023256337270140648,"322":-0.01508856751024723,"323":0.0601218082010746,"324":-0.05586930364370346,"325":0.11650625616312027,"326":-0.060055799782276154,"327":0.05129816383123398,"328":0.06029520928859711,"329":-0.08585059642791748,"330":0.041258420795202255,"331":-0.07481362670660019,"332":-0.06925579905509949,"333":0.02907841093838215,"334":-0.057098742574453354,"335":-0.07358770817518234,"336":-0.028776658698916435,"337":-0.10972658544778824,"338":0.05607631430029869,"339":0.11552741378545761,"340":0.0011721249902620912,"341":-0.05899767577648163,"342":-0.09793060272932053,"343":0.06626834720373154,"344":0.03945893049240112,"345":0.011605414561927319,"346":0.02385980449616909,"347":0.024778367951512337,"348":0.030204135924577713,"349":-0.00007374380948022008,"350":-0.010420216247439384,"351":0.07823381572961807,"352":-0.008486177772283554,"353":-0.045422133058309555,"354":-0.006100247148424387,"355":0.020134586840867996,"356":0.0651826560497284,"357":0.0652911439538002,"358":-0.06322591006755829,"359":0.009805138222873211,"360":-0.0245320163667202,"361":-0.07393811643123627,"362":0.02005806379020214,"363":-0.06622631102800369,"364":-0.07184119522571564,"365":-0.07982528954744339,"366":-0.012407279573380947,"367":-0.002360602142289281,"368":0.03643197938799858,"369":0.06849117577075958,"370":0.04125338792800903,"371":0.0068254973739385605,"372":0.015154357068240643,"373":0.069400854408741,"374":0.0782693475484848,"375":0.025660064071416855,"376":0.01930803805589676,"377":0.007614865433424711,"378":-0.02899378165602684,"379":-0.058228734880685806,"380":0.02755684219300747,"381":0.09886489808559418,"382":-0.06984326988458633,"383":-0.033266112208366394,"384":-0.037655677646398544,"385":-0.05151974782347679,"386":0.02527124062180519,"387":-0.01438074093312025,"388":-0.02210507169365883,"389":0.050390616059303284,"390":0.06460080295801163,"391":0.05944236367940903,"392":0.10250553488731384,"393":-0.0255355853587389,"394":-0.028618289157748222,"395":0.057217225432395935,"396":0.10223009437322617,"397":0.08182542771100998,"398":-0.005048306658864021,"399":-0.20293918251991272}},"outputBias":{"rows":20,"columns":1,"weights":{"0":0.0012440478894859552,"1":0.0007167381118051708,"2":-0.009476551786065102,"3":-0.002099246485158801,"4":-0.015171131119132042,"5":0.06653384864330292,"6":-0.02058318443596363,"7":0.08673553913831711,"8":-0.02827749028801918,"9":0.014457722194492817,"10":0.01737353391945362,"11":-0.0036329529248178005,"12":-0.035309627652168274,"13":0.02513371966779232,"14":0.06474503129720688,"15":-0.015246480703353882,"16":0.009964660741388798,"17":-0.031050799414515495,"18":0.017101051285862923,"19":-0.062140483409166336}},"cellActivationMatrix":{"rows":20,"columns":25,"weights":{"0":-0.24498552083969116,"1":-0.26212045550346375,"2":-0.03850506246089935,"3":-0.2561919093132019,"4":0.22603337466716766,"5":0.1271446794271469,"6":-0.07398159056901932,"7":-0.11891505122184753,"8":0.24653096497058868,"9":-0.058721646666526794,"10":-0.03195146843791008,"11":0.32425397634506226,"12":0.21804594993591309,"13":-0.26594001054763794,"14":0.37800702452659607,"15":-0.33415141701698303,"16":-0.326982706785202,"17":-0.2926115095615387,"18":-0.041229136288166046,"19":0.28777626156806946,"20":0.18867997825145721,"21":-0.3423919081687927,"22":0.4594244062900543,"23":0.011954395100474358,"24":-0.27678602933883667,"25":-0.13388049602508545,"26":-0.01150832325220108,"27":-0.032570790499448776,"28":-0.08561233431100845,"29":0.13127447664737701,"30":-0.09108392894268036,"31":0.058482080698013306,"32":-0.03475112468004227,"33":0.1297895610332489,"34":-0.04203386977314949,"35":-0.16515344381332397,"36":0.1416901797056198,"37":0.14192210137844086,"38":-0.2585524618625641,"39":0.22563013434410095,"40":-0.2815491557121277,"41":-0.21595554053783417,"42":-0.2889677584171295,"43":0.003717412007972598,"44":0.1988822966814041,"45":-0.011441669426858425,"46":-0.2005234658718109,"47":0.2828631103038788,"48":0.010239365510642529,"49":-0.2968345284461975,"50":-0.1163584366440773,"51":-0.30778786540031433,"52":0.2611829340457916,"53":-0.280500203371048,"54":0.08059152215719223,"55":-0.09816078841686249,"56":-0.1875441074371338,"57":-0.18908247351646423,"58":0.2266971319913864,"59":-0.22241082787513733,"60":-0.09109117090702057,"61":0.12302162498235703,"62":0.24021050333976746,"63":-0.32611212134361267,"64":0.29396089911460876,"65":-0.15744315087795258,"66":-0.16307564079761505,"67":-0.2515724003314972,"68":-0.2119506448507309,"69":0.305889755487442,"70":-0.008183661848306656,"71":-0.2250167429447174,"72":0.15447333455085754,"73":-0.15925973653793335,"74":-0.2246565818786621,"75":0.005266034975647926,"76":0.13548797369003296,"77":-0.0778387263417244,"78":0.20434316992759705,"79":0.0004092794260941446,"80":-0.05418172851204872,"81":0.04811044782400131,"82":-0.13938702642917633,"83":-0.07381243258714676,"84":-0.1890990138053894,"85":0.16660720109939575,"86":0.09683308005332947,"87":0.1160888522863388,"88":-0.13008569180965424,"89":-0.3168460428714752,"90":-0.009055026806890965,"91":-0.15902329981327057,"92":-0.010689985938370228,"93":-0.005777817219495773,"94":-0.3150733411312103,"95":0.11007852852344513,"96":0.08049751073122025,"97":0.1365683376789093,"98":-0.012976408936083317,"99":0.07124695926904678,"100":-0.2876702845096588,"101":-0.2652697265148163,"102":0.08514870703220367,"103":-0.40494614839553833,"104":0.41843920946121216,"105":-0.1739974468946457,"106":-0.020646071061491966,"107":-0.23298367857933044,"108":0.30565935373306274,"109":-0.3373042941093445,"110":-0.10248624533414841,"111":0.334239661693573,"112":0.2552248537540436,"113":-0.3591233789920807,"114":0.4094028174877167,"115":-0.3384464979171753,"116":-0.2720204293727875,"117":-0.22983722388744354,"118":-0.27137836813926697,"119":0.24213148653507233,"120":0.30958274006843567,"121":-0.27279534935951233,"122":0.36736515164375305,"123":-0.09944804757833481,"124":-0.3202482759952545,"125":0.19025340676307678,"126":0.1821385771036148,"127":0.029637636616826057,"128":0.32044488191604614,"129":-0.43946927785873413,"130":0.06725458800792694,"131":-0.17268937826156616,"132":0.15385468304157257,"133":-0.31099385023117065,"134":0.2794814109802246,"135":0.1314113885164261,"136":-0.43722864985466003,"137":-0.3995833694934845,"138":0.4032963812351227,"139":-0.18493735790252686,"140":0.3385976254940033,"141":0.3439036011695862,"142":0.22501686215400696,"143":0.14205361902713776,"144":-0.13493305444717407,"145":-0.23134799301624298,"146":0.29468458890914917,"147":-0.4492513835430145,"148":0.09933505207300186,"149":0.35198453068733215,"150":-0.3645790219306946,"151":-0.2774874269962311,"152":0.11722488701343536,"153":-0.288548082113266,"154":0.34067243337631226,"155":-0.15619036555290222,"156":-0.22233162820339203,"157":-0.2785855531692505,"158":0.23545031249523163,"159":-0.2501465976238251,"160":-0.015827108174562454,"161":0.41256991028785706,"162":0.3636903762817383,"163":-0.3429402709007263,"164":0.36897411942481995,"165":-0.24173717200756073,"166":-0.3136497139930725,"167":-0.2320033758878708,"168":-0.16625458002090454,"169":0.2938292622566223,"170":0.16355358064174652,"171":-0.33632299304008484,"172":0.3752707540988922,"173":-0.12323618680238724,"174":-0.3673045039176941,"175":0.09315034747123718,"176":0.23357096314430237,"177":-0.18715611100196838,"178":0.32120847702026367,"179":-0.3889461159706116,"180":0.09731937944889069,"181":0.1407385766506195,"182":0.31010061502456665,"183":-0.3150632083415985,"184":0.18000084161758423,"185":0.18588495254516602,"186":-0.16481438279151917,"187":-0.17807675898075104,"188":0.1792164444923401,"189":-0.30622783303260803,"190":0.4129226505756378,"191":0.2968892455101013,"192":0.29282239079475403,"193":-0.01919305883347988,"194":-0.2689894139766693,"195":-0.11604777723550797,"196":0.26500973105430603,"197":-0.26759448647499084,"198":0.18871630728244781,"199":0.35206353664398193,"200":-0.40079694986343384,"201":-0.2122899293899536,"202":0.1631472110748291,"203":-0.3067699372768402,"204":0.32335641980171204,"205":-0.34488755464553833,"206":-0.13208231329917908,"207":-0.1777641475200653,"208":0.3052063286304474,"209":-0.36421656608581543,"210":0.16121675074100494,"211":0.41167429089546204,"212":0.36182770133018494,"213":-0.3684858977794647,"214":0.4019671082496643,"215":-0.3548937737941742,"216":-0.2672956585884094,"217":-0.35078102350234985,"218":-0.31215718388557434,"219":0.2605368196964264,"220":0.37090468406677246,"221":-0.23376139998435974,"222":0.41547712683677673,"223":-0.16167989373207092,"224":-0.2775920033454895,"225":-0.24033425748348236,"226":-0.29360467195510864,"227":-0.021787401288747787,"228":-0.2742791175842285,"229":0.4667663872241974,"230":-0.17069387435913086,"231":0.07026653736829758,"232":-0.06163572892546654,"233":0.34056445956230164,"234":-0.23856092989444733,"235":0.022070452570915222,"236":0.4414714276790619,"237":0.3571098744869232,"238":-0.27345842123031616,"239":0.3432740569114685,"240":-0.5083072781562805,"241":-0.3969341814517975,"242":-0.3106975257396698,"243":-0.3173970878124237,"244":0.21667279303073883,"245":0.2834000587463379,"246":-0.36666879057884216,"247":0.5347169041633606,"248":0.1062689870595932,"249":-0.39774107933044434,"250":-0.33519232273101807,"251":-0.2213168442249298,"252":0.32169264554977417,"253":-0.28346410393714905,"254":0.3961535096168518,"255":-0.273627370595932,"256":-0.1123911514878273,"257":-0.31740373373031616,"258":0.22747550904750824,"259":-0.2929535508155823,"260":0.2660033404827118,"261":0.36974793672561646,"262":0.3252921998500824,"263":-0.2810024917125702,"264":0.31947681307792664,"265":-0.39015471935272217,"266":-0.4319511651992798,"267":-0.31222108006477356,"268":-0.3012506067752838,"269":0.28742516040802,"270":0.3839384913444519,"271":-0.3104584515094757,"272":0.37402021884918213,"273":-0.013768552802503109,"274":-0.2715494632720947,"275":-0.30355924367904663,"276":-0.14830118417739868,"277":0.23274317383766174,"278":-0.10235647857189178,"279":-0.03374701738357544,"280":-0.19093796610832214,"281":-0.018525412306189537,"282":0.002873289631679654,"283":0.0533985011279583,"284":-0.10443653166294098,"285":0.07109299302101135,"286":0.1884099394083023,"287":0.27572545409202576,"288":-0.27378374338150024,"289":0.212096706032753,"290":0.0020665342453867197,"291":-0.14114446938037872,"292":-0.16040180623531342,"293":-0.11530092358589172,"294":0.14315049350261688,"295":0.1640765368938446,"296":-0.2264016568660736,"297":0.13049770891666412,"298":-0.0053606596775352955,"299":-0.26380982995033264,"300":0.42762264609336853,"301":0.41524410247802734,"302":-0.19617851078510284,"303":0.27881041169166565,"304":-0.23636335134506226,"305":0.10361352562904358,"306":0.2156890332698822,"307":0.09114943444728851,"308":-0.23005874454975128,"309":0.31473952531814575,"310":-0.04577462375164032,"311":-0.40749838948249817,"312":-0.42795923352241516,"313":0.40553736686706543,"314":-0.36652302742004395,"315":0.2701740562915802,"316":0.3240090608596802,"317":0.393810510635376,"318":0.28710314631462097,"319":-0.3365635871887207,"320":-0.33913201093673706,"321":0.37475472688674927,"322":-0.3756600320339203,"323":0.0386175699532032,