{"type":"LSTM","options":{"inputSize":25,"inputRange":25,"hiddenLayers":[20,20],"outputSize":25,"decayRate":0.999,"smoothEps":1e-8,"regc":0.000001,"clipval":5,"maxPredictionLength":100,"dataFormatter":{"values":["the data betwween 1880 and 2659","1","give me the data betwween 1900 and 2000","the data betwween 1726 and 2041"],"indexTable":{"0":11,"1":9,"2":12,"4":21,"5":14,"6":13,"7":20,"8":10,"9":15,"t":0,"h":1,"e":2," ":3,"d":4,"a":5,"b":6,"w":7,"n":8,"g":16,"i":17,"v":18,"m":19,"stop-input":22,"start-output":23,"unrecognized":24},"characterTable":{"0":"t","1":"h","2":"e","3":" ","4":"d","5":"a","6":"b","7":"w","8":"n","9":"1","10":"8","11":"0","12":"2","13":"6","14":"5","15":"9","16":"g","17":"i","18":"v","19":"m","20":"7","21":"4","22":null,"23":null,"24":null},"characters":["t","h","e"," ","d","a","b","w","n","1","8","0","2","6","5","9","g","i","v","m","7","4","stop-input","start-output","unrecognized"],"specialIndexes":[22,23,24]}},"input":{"rows":26,"columns":25,"weights":{"0":1.3627759218215942,"1":0.21076913177967072,"2":0.17375990748405457,"3":-0.07500437647104263,"4":-0.20835188031196594,"5":0.33046382665634155,"6":0.012584312818944454,"7":-0.3128605782985687,"8":0.066126748919487,"9":-0.14415355026721954,"10":0.08773472160100937,"11":-0.9239806532859802,"12":-0.6386513113975525,"13":-1.3044992685317993,"14":-0.5010208487510681,"15":-0.22785457968711853,"16":0.25017720460891724,"17":0.05977329984307289,"18":-0.2644115686416626,"19":0.6166121959686279,"20":-0.5124887824058533,"21":0.510831356048584,"22":-0.71892249584198,"23":0.04233836010098457,"24":-0.5370466113090515,"25":0.45705312490463257,"26":-0.45910513401031494,"27":-0.22530198097229004,"28":0.45531779527664185,"29":0.5738053917884827,"30":-0.5486791729927063,"31":1.0347505807876587,"32":-0.6742890477180481,"33":0.6125638484954834,"34":0.5046080350875854,"35":-0.6568509340286255,"36":0.24018311500549316,"37":0.5850291848182678,"38":-0.384939968585968,"39":0.796966552734375,"40":0.6949151754379272,"41":-1.4358144998550415,"42":-0.8819126486778259,"43":-0.3814896047115326,"44":0.8391849398612976,"45":-0.29169169068336487,"46":0.5937746167182922,"47":-0.6002827882766724,"48":0.7897002100944519,"49":-0.782277524471283,"50":0.43371373414993286,"51":0.3276492953300476,"52":0.09009586274623871,"53":-0.2695624530315399,"54":1.1075677871704102,"55":1.2426680326461792,"56":0.974361002445221,"57":0.6517698168754578,"58":0.009476971812546253,"59":-0.3596254885196686,"60":-0.04329042509198189,"61":0.7429866194725037,"62":0.6400708556175232,"63":-0.004759765230119228,"64":0.24932105839252472,"65":0.8188896179199219,"66":0.8971817493438721,"67":0.24278374016284943,"68":0.09568751603364944,"69":0.13872575759887695,"70":0.35477444529533386,"71":0.026827719062566757,"72":0.035023391246795654,"73":-0.1366732269525528,"74":-0.16569530963897705,"75":-0.05666450783610344,"76":-0.3944615423679352,"77":0.47129395604133606,"78":0.5299715995788574,"79":1.3463255167007446,"80":0.008212130516767502,"81":1.0159010887145996,"82":-0.9072670936584473,"83":0.30826038122177124,"84":0.9189521670341492,"85":-0.030362140387296677,"86":0.41086870431900024,"87":0.5496082305908203,"88":-0.6894891262054443,"89":0.3879915177822113,"90":0.5508149862289429,"91":-0.24676614999771118,"92":-0.0861651822924614,"93":0.05712500214576721,"94":0.6438630819320679,"95":-0.815030574798584,"96":0.2959585189819336,"97":-0.38239702582359314,"98":0.1294509917497635,"99":0.49809011816978455,"100":0.38950198888778687,"101":0.028295326977968216,"102":-0.2747531235218048,"103":0.04958564415574074,"104":-0.2085326462984085,"105":-0.7779221534729004,"106":-0.02092733420431614,"107":-0.04024124890565872,"108":0.7075902819633484,"109":-0.18143591284751892,"110":-0.8277244567871094,"111":-0.3019280731678009,"112":0.028050201013684273,"113":0.4098300635814667,"114":0.39772284030914307,"115":-0.42092111706733704,"116":-0.930006742477417,"117":-0.1005849614739418,"118":-0.9820797443389893,"119":-0.2267911285161972,"120":0.06058903783559799,"121":-0.3061933219432831,"122":0.26436999440193176,"123":0.06990878283977509,"124":-0.9712675213813782,"125":-0.20912601053714752,"126":0.3512266278266907,"127":-0.4619100093841553,"128":-0.21096675097942352,"129":-1.2631151676177979,"130":0.1251576691865921,"131":-0.45127245783805847,"132":1.342436671257019,"133":0.30473950505256653,"134":-0.9912092685699463,"135":-0.3151400089263916,"136":-0.17719124257564545,"137":-1.0511081218719482,"138":0.06190457567572594,"139":-0.31885281205177307,"140":-1.0785311460494995,"141":0.36641910672187805,"142":0.1589789092540741,"143":-0.6038545966148376,"144":-0.7388417720794678,"145":0.9582675695419312,"146":-0.20082999765872955,"147":0.2563430070877075,"148":-0.11593863368034363,"149":-0.6138166785240173,"150":-0.7776200771331787,"151":-0.6584107875823975,"152":0.12129954248666763,"153":0.9568203091621399,"154":-0.6033178567886353,"155":-0.3433385491371155,"156":-0.056617360562086105,"157":0.23620876669883728,"158":0.31736764311790466,"159":0.18633803725242615,"160":0.10981571674346924,"161":-0.6259642839431763,"162":-0.2100248485803604,"163":-1.151271939277649,"164":-0.07142122089862823,"165":-0.9371599555015564,"166":-0.432559609413147,"167":-0.40745803713798523,"168":-0.11898559331893921,"169":0.46863237023353577,"170":0.28177717328071594,"171":0.28865471482276917,"172":-0.5030186772346497,"173":0.619499921798706,"174":-0.03313440456986427,"175":0.37247025966644287,"176":-0.19262546300888062,"177":1.422159194946289,"178":-0.9907739162445068,"179":0.27193135023117065,"180":0.6877864003181458,"181":0.10139410197734833,"182":1.4604628086090088,"183":-0.6928750872612,"184":-1.2638272047042847,"185":0.8555094003677368,"186":0.04626401886343956,"187":0.8434988260269165,"188":0.7746877074241638,"189":-0.21273118257522583,"190":0.675163209438324,"191":2.1589813232421875,"192":0.35804593563079834,"193":0.8959553241729736,"194":-0.536048412322998,"195":0.19244037568569183,"196":-0.5768288373947144,"197":0.8955517411231995,"198":-0.360409677028656,"199":0.10757163912057877,"200":-0.026872316375374794,"201":-0.3151536285877228,"202":-0.2072768211364746,"203":0.20400552451610565,"204":0.6297098994255066,"205":-0.19786328077316284,"206":0.42428579926490784,"207":0.2822894752025604,"208":0.4181801378726959,"209":-0.24964456260204315,"210":-0.7555348873138428,"211":0.7147341370582581,"212":0.31541743874549866,"213":-0.04265151917934418,"214":1.045485019683838,"215":0.3729562759399414,"216":-0.23008234798908234,"217":-0.6379061937332153,"218":-0.40087297558784485,"219":0.22412124276161194,"220":-0.013043693266808987,"221":0.20940060913562775,"222":-0.09214898943901062,"223":0.6592973470687866,"224":-0.4629296660423279,"225":-0.4963204264640808,"226":0.028972400352358818,"227":0.3957212567329407,"228":0.23959040641784668,"229":1.2174808979034424,"230":0.4861893355846405,"231":0.725599467754364,"232":0.23711206018924713,"233":-0.30721402168273926,"234":0.4596644639968872,"235":0.3225565254688263,"236":0.7779046893119812,"237":1.0738919973373413,"238":-0.8407813310623169,"239":0.743766725063324,"240":0.9447187781333923,"241":0.3225655257701874,"242":-0.10173890739679337,"243":0.353666216135025,"244":0.8978908658027649,"245":-0.2738227844238281,"246":1.123559832572937,"247":-1.103011131286621,"248":0.10645858198404312,"249":0.7161586880683899,"250":0.5115036368370056,"251":-0.5186254978179932,"252":-1.1621513366699219,"253":-0.028934497386217117,"254":-1.3839170932769775,"255":-0.6130497455596924,"256":-1.0472890138626099,"257":-0.9130544662475586,"258":0.5608859658241272,"259":0.45308631658554077,"260":0.26890572905540466,"261":0.4104272127151489,"262":-1.4469926357269287,"263":-0.02878696471452713,"264":-0.43956127762794495,"265":-0.4291996359825134,"266":-0.5224609375,"267":-0.4026772081851959,"268":-0.6714885234832764,"269":0.12586669623851776,"270":-0.2325328141450882,"271":-0.009343396872282028,"272":0.00898716226220131,"273":0.05959635600447655,"274":-0.12451229989528656,"275":1.4416906833648682,"276":-0.5544707179069519,"277":0.17815947532653809,"278":0.4016141891479492,"279":0.1115129142999649,"280":-0.9978867173194885,"281":0.435103178024292,"282":-0.5633422136306763,"283":1.1014209985733032,"284":0.03599270060658455,"285":-1.2230740785598755,"286":-1.6567646265029907,"287":1.0024994611740112,"288":-0.3286455571651459,"289":1.2592601776123047,"290":1.1712757349014282,"291":-1.199633240699768,"292":-1.092286467552185,"293":-1.5237623453140259,"294":0.368329793214798,"295":-0.326853483915329,"296":0.43105563521385193,"297":-0.3115711510181427,"298":0.8139801621437073,"299":-1.5524308681488037,"300":-0.29525789618492126,"301":-0.08629553020000458,"302":0.021947644650936127,"303":0.47516149282455444,"304":-0.15487535297870636,"305":-0.12393920868635178,"306":0.4096192717552185,"307":-0.40325576066970825,"308":0.22727738320827484,"309":0.4933829605579376,"310":0.07236441224813461,"311":0.28840550780296326,"312":0.02292461320757866,"313":-1.158462643623352,"314":0.4640131890773773,"315":-0.25409984588623047,"316":-0.45260515809059143,"317":-0.18665388226509094,"318":-0.1959821730852127,"319":0.9600819945335388,"320":-0.354234516620636,"321":1.068455696105957,"322":-1.113478660583496,"323":0.41428396105766296,"324":0.26202380657196045,"325":-1.1838473081588745,"326":-0.11452236771583557,"327":-0.29639649391174316,"328":-0.11612294614315033,"329":-0.7614172101020813,"330":-0.12854179739952087,"331":-0.6346578001976013,"332":0.5957016944885254,"333":-0.15963168442249298,"334":-1.0275849103927612,"335":0.037675898522138596,"336":0.3355385661125183,"337":-0.6235952377319336,"338":0.14696811139583588,"339":0.11080457270145416,"340":-0.6944745182991028,"341":0.24050575494766235,"342":-0.14406909048557281,"343":-0.4450417757034302,"344":-0.328197181224823,"345":0.711145281791687,"346":-0.5909507870674133,"347":0.6091955304145813,"348":0.027477741241455078,"349":0.007029885891824961,"350":1.2548290491104126,"351":1.266537070274353,"352":0.5497242212295532,"353":-0.9335627555847168,"354":-0.16760489344596863,"355":0.17844589054584503,"356":-0.5625799298286438,"357":0.2230881154537201,"358":0.3012698292732239,"359":-0.763844907283783,"360":0.47630640864372253,"361":-0.23921160399913788,"362":-0.15453550219535828,"363":0.6491644978523254,"364":-0.6420947909355164,"365":0.17882418632507324,"366":0.556832492351532,"367":1.220597743988037,"368":-0.3634798228740692,"369":-1.1854517459869385,"370":0.34380802512168884,"371":-1.6397603750228882,"372":1.2802023887634277,"373":-0.7253752946853638,"374":0.7091895341873169,"375":-0.4894505739212036,"376":1.639066457748413,"377":0.2988099157810211,"378":-1.0725785493850708,"379":0.4337787330150604,"380":1.9114329814910889,"381":-0.5043840408325195,"382":0.8795193433761597,"383":-1.9568071365356445,"384":-0.15700487792491913,"385":1.393478512763977,"386":-0.1625702679157257,"387":0.8237563967704773,"388":1.240044116973877,"389":-0.6835086345672607,"390":0.6135010123252869,"391":1.8744338750839233,"392":1.2583308219909668,"393":1.6669496297836304,"394":-0.9116300940513611,"395":2.0612385272979736,"396":-0.3378300070762634,"397":0.5222007036209106,"398":-1.2584325075149536,"399":1.307765007019043,"400":-0.5060468912124634,"401":1.4238353967666626,"402":-1.298977255821228,"403":0.10869327932596207,"404":-1.0220123529434204,"405":0.534422755241394,"406":-1.868221640586853,"407":0.09333653002977371,"408":-0.36863502860069275,"409":-0.1970725953578949,"410":0.6179993748664856,"411":-1.2374752759933472,"412":-1.2259067296981812,"413":0.3429337441921234,"414":-1.0039302110671997,"415":-1.3549222946166992,"416":-0.4305708110332489,"417":1.5502861738204956,"418":0.2726505696773529,"419":-0.9550392627716064,"420":1.4468960762023926,"421":-0.6926180720329285,"422":0.40692275762557983,"423":-0.268490731716156,"424":0.5844303369522095,"425":0.8052035570144653,"426":-0.9270217418670654,"427":-0.5784872770309448,"428":0.993145227432251,"429":-1.1389133930206299,"430":-1.7721301317214966,"431":-1.2890818119049072,"432":-0.5967993140220642,"433":0.5773879289627075,"434":0.7493698596954346,"435":-0.9407765865325928,"436":-0.8691070675849915,"437":-0.6672785878181458,"438":-0.8651965260505676,"439":-1.0415531396865845,"440":0.5374259352684021,"441":-0.8861095905303955,"442":-0.5898835062980652,"443":-0.572608470916748,"444":-1.552567720413208,"445":-0.8595547080039978,"446":0.34270018339157104,"447":-0.5109876394271851,"448":0.7018482685089111,"449":-0.6614329814910889,"450":-1.5399421453475952,"451":0.23081104457378387,"452":-0.771274745464325,"453":-0.7037646770477295,"454":-0.8007907271385193,"455":-1.2443393468856812,"456":-0.7422581911087036,"457":1.0445923805236816,"458":-1.74335515499115,"459":-0.5873584747314453,"460":-0.9819857478141785,"461":1.5204925537109375,"462":-0.8398796916007996,"463":1.1111125946044922,"464":-0.7018465399742126,"465":-0.7289695739746094,"466":-0.36857786774635315,"467":0.968495786190033,"468":-0.41283151507377625,"469":-0.8137169480323792,"470":0.3826395869255066,"471":-1.019885778427124,"472":0.9791247248649597,"473":-1.4782415628433228,"474":-0.47079071402549744,"475":-0.5327050089836121,"476":0.7201727032661438,"477":1.4372270107269287,"478":-0.2514784038066864,"479":1.3828126192092896,"480":0.9423030614852905,"481":1.2796095609664917,"482":1.2085503339767456,"483":-1.1117838621139526,"484":-1.091199278831482,"485":2.019155740737915,"486":1.5551457405090332,"487":0.05974610149860382,"488":0.8955051302909851,"489":0.5862503051757812,"490":0.6696404814720154,"491":1.1420382261276245,"492":-1.4406402111053467,"493":0.5341303944587708,"494":1.4867587089538574,"495":0.6045025587081909,"496":-0.5197985768318176,"497":0.7189005613327026,"498":1.508244276046753,"499":1.5414835214614868,"500":-0.27494725584983826,"501":1.4894344806671143,"502":0.13614198565483093,"503":-0.819251298904419,"504":0.2869988679885864,"505":0.6043137907981873,"506":1.5270466804504395,"507":1.187954306602478,"508":-0.9434714317321777,"509":-1.151466965675354,"510":0.15464986860752106,"511":1.0246769189834595,"512":2.2051279544830322,"513":1.39692223072052,"514":1.0045040845870972,"515":0.06885875761508942,"516":0.7312930822372437,"517":-0.23804393410682678,"518":-0.7153682708740234,"519":-1.3236944675445557,"520":0.8912560343742371,"521":-1.5351378917694092,"522":1.7369167804718018,"523":0.19120872020721436,"524":-1.3461949825286865,"525":-1.2830641269683838,"526":-1.2150533199310303,"527":-0.3156706690788269,"528":1.4547338485717773,"529":-1.6627994775772095,"530":-1.7661343812942505,"531":-0.5271392464637756,"532":-1.5764110088348389,"533":2.2124011516571045,"534":1.4895672798156738,"535":-0.9155553579330444,"536":0.28408607840538025,"537":-0.5883678793907166,"538":-3.4786105155944824,"539":0.1255476325750351,"540":-1.7366387844085693,"541":-1.7722160816192627,"542":-1.129407286643982,"543":-1.1044375896453857,"544":1.8506600856781006,"545":-2.4173386096954346,"546":1.934719443321228,"547":-2.1043145656585693,"548":1.350385069847107,"549":-0.4702092409133911,"550":-0.9007763266563416,"551":-1.5279438495635986,"552":0.03142116591334343,"553":1.4755702018737793,"554":0.05601499229669571,"555":-1.9304159879684448,"556":0.3911256194114685,"557":-1.6581408977508545,"558":1.578710913658142,"559":1.5338964462280273,"560":-1.9307242631912231,"561":0.34303030371665955,"562":0.39057815074920654,"563":-1.3675304651260376,"564":1.148191213607788,"565":0.4022924304008484,"566":-1.497314691543579,"567":-1.35806405544281,"568":-2.150984048843384,"569":1.269882082939148,"570":-1.4312634468078613,"571":1.3280986547470093,"572":-1.351881980895996,"573":1.4542310237884521,"574":-0.3840888738632202,"575":0.6492905020713806,"576":-0.1468369960784912,"577":-1.0813461542129517,"578":-0.6465529203414917,"579":-0.8210091590881348,"580":-1.552168607711792,"581":-1.0319304466247559,"582":-0.08714324980974197,"583":1.0368489027023315,"584":0.14417994022369385,"585":-0.6742430925369263,"586":-0.05870268493890762,"587":-1.2919323444366455,"588":0.23705042898654938,"589":-0.2511061429977417,"590":-0.25167325139045715,"591":-0.9987666606903076,"592":-0.8965151906013489,"593":-0.8595898151397705,"594":-0.16926422715187073,"595":-0.1988866776227951,"596":0.16831940412521362,"597":0.04741256684064865,"598":-0.27342846989631653,"599":-0.47731199860572815,"600":-1.380303144454956,"601":-0.4518734812736511,"602":-0.26900020241737366,"603":0.25010278820991516,"604":-0.27937254309654236,"605":-0.23543629050254822,"606":-0.2104640007019043,"607":0.6360037922859192,"608":-0.7453635931015015,"609":0.6040180921554565,"610":0.7641080617904663,"611":1.027967929840088,"612":0.7912660241127014,"613":-0.7069451212882996,"614":1.3718338012695312,"615":0.033235516399145126,"616":-0.12329129874706268,"617":-0.5133098363876343,"618":0.6477870941162109,"619":0.45077645778656006,"620":-0.13520880043506622,"621":1.4297391176223755,"622":-1.1950657367706299,"623":0.1779576987028122,"624":1.0057132244110107,"625":-0.047489043325185776,"626":-0.010107504203915596,"627":0.06232113018631935,"628":0.048895835876464844,"629":-0.03995893523097038,"630":0.01734454557299614,"631":-0.022888876497745514,"632":-0.03649970889091492,"633":-0.01199713721871376,"634":0.034842412918806076,"635":-0.008614886552095413,"636":-0.07511480152606964,"637":-0.07962138205766678,"638":0.05922972038388252,"639":0.06946758180856705,"640":-0.03545098006725311,"641":0.0574120432138443,"642":-0.06571191549301147,"643":-0.05427316948771477,"644":-0.013101733289659023,"645":-0.013538357801735401,"646":-0.04939933121204376,"647":-0.05199679359793663,"648":-0.060368046164512634,"649":0.0054199970327317715}},"hiddenLayers":[{"inputMatrix":{"rows":20,"columns":25,"weights":{"0":-0.9326503276824951,"1":-0.364256352186203,"2":-0.5099445581436157,"3":0.4374665915966034,"4":-0.9400625824928284,"5":-0.73787522315979,"6":-0.841063380241394,"7":-0.07478543370962143,"8":0.4055496156215668,"9":0.21394869685173035,"10":-0.4157780110836029,"11":-0.596143901348114,"12":-0.29305773973464966,"13":-0.3591378927230835,"14":0.6602805852890015,"15":-0.8238811492919922,"16":-0.7736415863037109,"17":-0.5440361499786377,"18":-0.6001536250114441,"19":0.28678789734840393,"20":-0.11932718753814697,"21":0.45132550597190857,"22":-0.49377307295799255,"23":0.5375625491142273,"24":-0.30334192514419556,"25":0.059048447757959366,"26":-0.47498202323913574,"27":0.16238735616207123,"28":0.9358572959899902,"29":0.3030572235584259,"30":0.076140858232975,"31":0.5468049645423889,"32":0.34860438108444214,"33":0.2863435745239258,"34":0.5480358600616455,"35":-0.7247163653373718,"36":-0.36679697036743164,"37":0.522345244884491,"38":-1.358487606048584,"39":0.9267866015434265,"40":0.11108726263046265,"41":-0.10070103406906128,"42":-0.19796453416347504,"43":-0.05132405087351799,"44":0.7436555027961731,"45":-0.5085535049438477,"46":0.9539918303489685,"47":-1.0931333303451538,"48":0.6194623708724976,"49":-0.8355352282524109,"50":-0.19925758242607117,"51":-0.48458054661750793,"52":1.208737850189209,"53":0.7307742834091187,"54":1.4308838844299316,"55":0.025404145941138268,"56":1.536586046218872,"57":0.4426087737083435,"58":-0.3911234438419342,"59":-0.07342877238988876,"60":0.1671246439218521,"61":0.13635356724262238,"62":0.5660826563835144,"63":-1.3688087463378906,"64":0.5699165463447571,"65":-0.07399463653564453,"66":0.0710984542965889,"67":-0.49761560559272766,"68":0.18586435914039612,"69":1.9645607471466064,"70":-0.5576167106628418,"71":0.8725440502166748,"72":-0.8300613760948181,"73":1.0119389295578003,"74":-0.18359577655792236,"75":-0.5944380760192871,"76":-0.9031376242637634,"77":-0.35688644647598267,"78":0.6336619853973389,"79":-0.05430138111114502,"80":-1.1836087703704834,"81":-0.22225145995616913,"82":-0.24460424482822418,"83":0.3891647756099701,"84":1.0778954029083252,"85":-0.586081862449646,"86":-0.1337268203496933,"87":0.7045210003852844,"88":-0.015726683661341667,"89":1.1153110265731812,"90":-0.3967386782169342,"91":-1.5673625469207764,"92":-0.24099218845367432,"93":0.26302793622016907,"94":-0.36323127150535583,"95":0.0388217493891716,"96":0.3113540709018707,"97":-0.4878647029399872,"98":0.0765400156378746,"99":0.17602400481700897,"100":-0.837191641330719,"101":-0.6933443546295166,"102":-0.30356550216674805,"103":0.3250562846660614,"104":-0.6106510162353516,"105":-1.2860044240951538,"106":-0.5237100124359131,"107":0.26097726821899414,"108":0.36764398217201233,"109":-0.17541711032390594,"110":-0.9090326428413391,"111":0.17581084370613098,"112":-0.5964016914367676,"113":-0.0418023057281971,"114":0.4388766586780548,"115":-0.6481795310974121,"116":-0.7712247371673584,"117":-0.5568940043449402,"118":-0.9061607718467712,"119":0.04546895995736122,"120":0.11307386308908463,"121":0.07264252752065659,"122":0.11981932818889618,"123":0.24846325814723969,"124":-0.9658969640731812,"125":-0.671191394329071,"126":-0.5070684552192688,"127":-0.6111800074577332,"128":0.18856237828731537,"129":-0.28819480538368225,"130":-1.162081003189087,"131":-0.2909705638885498,"132":0.11900537461042404,"133":0.5020744204521179,"134":-0.13258425891399384,"135":-1.235116958618164,"136":0.6284615397453308,"137":-0.1612933874130249,"138":0.16345824301242828,"139":1.0563735961914062,"140":-0.3713827133178711,"141":-0.7635501623153687,"142":-0.7641011476516724,"143":-1.1232181787490845,"144":0.0009245506371371448,"145":0.06100651994347572,"146":0.047722287476062775,"147":0.22742076218128204,"148":0.25803184509277344,"149":-1.5749351978302002,"150":-0.6837117075920105,"151":-0.18459215760231018,"152":-0.6732843518257141,"153":0.6173984408378601,"154":-0.7285637259483337,"155":-0.5682668685913086,"156":-0.837749183177948,"157":-0.07118929177522659,"158":0.012516084127128124,"159":0.14524763822555542,"160":-0.3717833459377289,"161":-0.8303704857826233,"162":-0.9594765901565552,"163":-0.46069037914276123,"164":-0.1372215449810028,"165":-1.0418034791946411,"166":-0.7326610684394836,"167":-0.08169922232627869,"168":-0.34272170066833496,"169":0.08715491741895676,"170":0.20421744883060455,"171":0.10587410628795624,"172":-0.3203321397304535,"173":0.17381525039672852,"174":-0.9471035599708557,"175":-0.47260525822639465,"176":-0.8859700560569763,"177":-0.7462030649185181,"178":0.7929657101631165,"179":0.5513545870780945,"180":-0.8286685347557068,"181":0.30696049332618713,"182":-0.8270120024681091,"183":0.46310603618621826,"184":1.001520037651062,"185":-1.1229031085968018,"186":1.3238575458526611,"187":0.2078671157360077,"188":-0.3780471980571747,"189":0.8558868169784546,"190":0.49227985739707947,"191":-1.1745357513427734,"192":-0.5293622016906738,"193":-0.726918637752533,"194":0.6721813678741455,"195":-0.5258737206459045,"196":0.47186172008514404,"197":-0.44901010394096375,"198":0.3026116192340851,"199":-0.26506561040878296,"200":0.1563166081905365,"201":-0.5364667773246765,"202":0.09322256594896317,"203":0.5563815832138062,"204":0.0535445436835289,"205":-0.6825801730155945,"206":0.07680461555719376,"207":-0.14779794216156006,"208":0.7510975003242493,"209":0.29269495606422424,"210":-0.9740954041481018,"211":-0.7761699557304382,"212":-0.060280051082372665,"213":-0.46967682242393494,"214":0.5049046874046326,"215":-0.2422439008951187,"216":-0.7133564352989197,"217":-0.4952644407749176,"218":-0.7339120507240295,"219":0.402595192193985,"220":-0.2978458106517792,"221":0.24753256142139435,"222":-0.34161967039108276,"223":0.534959614276886,"224":-1.0350513458251953,"225":-1.145882487297058,"226":-0.41895702481269836,"227":-0.4473798871040344,"228":0.08874133229255676,"229":0.20978334546089172,"230":-0.5333597660064697,"231":0.26553723216056824,"232":-0.04011571407318115,"233":-1.4975754022598267,"234":0.5341761708259583,"235":-0.31995889544487,"236":0.4741653501987457,"237":0.7779679298400879,"238":0.40149033069610596,"239":-0.03405648469924927,"240":-0.02005518414080143,"241":-0.3162291347980499,"242":0.1691190004348755,"243":1.522294044494629,"244":-0.22304876148700714,"245":0.029521415010094643,"246":0.19457101821899414,"247":-0.1556645780801773,"248":-0.5987097024917603,"249":-0.0090790418908,"250":-0.1622263491153717,"251":0.7036411762237549,"252":0.10917225480079651,"253":-0.4605449438095093,"254":-0.1498769223690033,"255":0.5501857995986938,"256":0.28733715415000916,"257":1.198871374130249,"258":-0.5740753412246704,"259":-0.7745173573493958,"260":0.25206437706947327,"261":0.16120246052742004,"262":-0.07175446301698685,"263":0.7525684237480164,"264":-0.5537476539611816,"265":-0.2182689756155014,"266":0.6207922101020813,"267":0.4477565288543701,"268":0.22724421322345734,"269":-0.6253902316093445,"270":0.9831576943397522,"271":-0.7138394713401794,"272":0.7322730422019958,"273":-0.4133470058441162,"274":-0.36923840641975403,"275":-0.6008298397064209,"276":0.008688866160809994,"277":-0.1058366522192955,"278":0.19636330008506775,"279":1.3240208625793457,"280":1.1363869905471802,"281":0.8105091452598572,"282":0.4950021207332611,"283":-0.9520890116691589,"284":0.270562082529068,"285":0.8412953615188599,"286":1.0069348812103271,"287":1.3961601257324219,"288":-0.05839163437485695,"289":0.5898352265357971,"290":1.0752533674240112,"291":0.6211726069450378,"292":-0.3657417893409729,"293":1.2082633972167969,"294":0.49506479501724243,"295":0.48974528908729553,"296":0.8646920919418335,"297":-0.5142496228218079,"298":0.25665944814682007,"299":0.3802599012851715,"300":0.04755999147891998,"301":0.8564466238021851,"302":0.21282726526260376,"303":-0.54742032289505,"304":0.346196711063385,"305":-0.09433051198720932,"306":-0.13492143154144287,"307":1.0066766738891602,"308":-1.0266144275665283,"309":-0.491104394197464,"310":-0.19714424014091492,"311":-0.14470191299915314,"312":0.6994919776916504,"313":1.454210638999939,"314":-0.31716564297676086,"315":0.23485106229782104,"316":0.674516499042511,"317":1.1890084743499756,"318":0.20863166451454163,"319":-1.1265900135040283,"320":0.6051567196846008,"321":-0.6739645600318909,"322":0.8152129650115967,"323":-1.5726494789123535,"324":0.2756778597831726,"325":-1.3006346225738525,"326":-0.6920263171195984,"327":0.051377102732658386,"328":0.684731662273407,"329":0.2820703983306885,"330":-0.8645800948143005,"331":-0.2755211293697357,"332":-0.5436594486236572,"333":-0.13228274881839752,"334":0.6907404661178589,"335":0.2922305762767792,"336":1.1898486614227295,"337":0.07843764126300812,"338":-0.4541282653808594,"339":0.9277276992797852,"340":0.5475518107414246,"341":-0.5892047882080078,"342":-0.7392905950546265,"343":-0.24153128266334534,"344":0.6966859102249146,"345":-1.0615860223770142,"346":0.43454626202583313,"347":-0.46001338958740234,"348":0.8803750872612,"349":0.6007611751556396,"350":-0.7452064752578735,"351":-0.4959467351436615,"352":0.11649560183286667,"353":0.2634236514568329,"354":0.31703826785087585,"355":-0.3068709969520569,"356":0.0059535508044064045,"357":-0.44006240367889404,"358":0.05276528000831604,"359":0.7235487699508667,"360":0.2918151021003723,"361":0.16288305819034576,"362":0.5990029573440552,"363":-0.6556816101074219,"364":0.7949149012565613,"365":0.6358611583709717,"366":-0.2817399203777313,"367":-0.4248741865158081,"368":0.20030942559242249,"369":0.6994062066078186,"370":-0.7998453974723816,"371":0.669617772102356,"372":-0.6194466352462769,"373":0.27476516366004944,"374":0.9934543967247009,"375":0.9517875909805298,"376":-0.0492231510579586,"377":1.057708740234375,"378":0.14663322269916534,"379":0.5446197390556335,"380":0.028988013043999672,"381":0.7047077417373657,"382":0.2618521749973297,"383":0.35415518283843994,"384":-0.28752419352531433,"385":-0.1821683943271637,"386":-0.18557143211364746,"387":0.9099871516227722,"388":0.2895192503929138,"389":0.5289610028266907,"390":0.2794959247112274,"391":-0.041226282715797424,"392":-0.18761467933654785,"393":-0.29219335317611694,"394":-0.38106125593185425,"395":0.29440152645111084,"396":-0.4061833620071411,"397":0.40224775671958923,"398":0.17254722118377686,"399":-0.5053092241287231,"400":0.41034162044525146,"401":0.019020961597561836,"402":0.02872396819293499,"403":0.06635794043540955,"404":-0.28933632373809814,"405":-1.1599751710891724,"406":-0.20728415250778198,"407":-0.05254668369889259,"408":0.6595712304115295,"409":-0.2853417694568634,"410":-0.8092920184135437,"411":-0.371867835521698,"412":-0.8004446029663086,"413":-0.5050623416900635,"414":-0.15764166414737701,"415":-0.2669096887111664,"416":-0.2878759801387787,"417":-0.2592729330062866,"418":-1.0255483388900757,"419":0.26711925864219666,"420":0.03964804485440254,"421":0.00021114377886988223,"422":0.06366652995347977,"423":0.32613542675971985,"424":-1.0327448844909668,"425":-0.02675711177289486,"426":0.2375200241804123,"427":-0.08496233820915222,"428":-0.030888115987181664,"429":0.4593580961227417,"430":1.0318233966827393,"431":0.09062368422746658,"432":0.510844886302948,"433":-0.3076149523258209,"434":-0.6933954954147339,"435":-0.26128098368644714,"436":0.2125895917415619,"437":-0.5797521471977234,"438":0.932854175567627,"439":-0.4020453691482544,"440":0.1716221272945404,"441":0.7502617835998535,"442":0.36748814582824707,"443":0.3209119439125061,"444":-0.7209869623184204,"445":0.9404757022857666,"446":-0.9125170707702637,"447":1.0739312171936035,"448":-0.0023347665555775166,"449":-0.15268756449222565,"450":1.1513397693634033,"451":-0.08256806433200836,"452":0.9677615761756897,"453":0.39038386940956116,"454":0.6321864128112793,"455":0.09951053559780121,"456":0.790499210357666,"457":-0.5545609593391418,"458":1.11933171749115,"459":0.08714186400175095,"460":-0.9458615779876709,"461":-1.6112616062164307,"462":0.464256227016449,"463":-0.584855318069458,"464":-0.19784633815288544,"465":0.20361945033073425,"466":0.16320458054542542,"467":0.8493947386741638,"468":-0.6361208558082581,"469":-0.0929465964436531,"470":-0.48926612734794617,"471":0.16159586608409882,"472":-0.2882564663887024,"473":-0.30718833208084106,"474":-0.8611541390419006,"475":-0.24836863577365875,"476":-0.7100821733474731,"477":-0.010195265524089336,"478":0.5581212043762207,"479":0.16389159858226776,"480":-0.1965215653181076,"481":0.1394232213497162,"482":-0.4073496460914612,"483":0.29666364192962646,"484":0.7272372841835022,"485":0.12474041432142258,"486":0.5900204181671143,"487":0.2003854513168335,"488":-0.6914280652999878,"489":0.6766876578330994,"490":0.23757779598236084,"491":-0.3697829842567444,"492":-0.5558031797409058,"493":-0.1943502575159073,"494":0.5486486554145813,"495":-0.5837839245796204,"496":0.730535626411438,"497":-0.6999368071556091,"498":0.4039074778556824,"499":0.2622535526752472}},"inputHidden":{"rows":20,"columns":20,"weights":{"0":0.15771068632602692,"1":0.9398382902145386,"2":0.7231297492980957,"3":0.9321061372756958,"4":0.2352965921163559,"5":-0.30343666672706604,"6":-0.16205920279026031,"7":-0.10137477517127991,"8":0.13997319340705872,"9":-0.009748036041855812,"10":-0.3961993455886841,"11":0.1942802518606186,"12":-1.1155967712402344,"13":0.7377400398254395,"14":0.7193784117698669,"15":-0.09870500862598419,"16":-0.03912010043859482,"17":0.08007443696260452,"18":0.3254280984401703,"19":0.31753554940223694,"20":-0.008322876878082752,"21":0.8284439444541931,"22":0.7189826369285583,"23":0.15554960072040558,"24":-0.3186739981174469,"25":0.7264629602432251,"26":0.3047407865524292,"27":-1.1321098804473877,"28":-0.4326908588409424,"29":0.32246872782707214,"30":-0.8900033235549927,"31":-1.0186766386032104,"32":-0.8155874013900757,"33":1.1141862869262695,"34":-0.31809309124946594,"35":-0.8604944348335266,"36":0.3213294744491577,"37":1.0960105657577515,"38":1.1136298179626465,"39":1.0726171731948853,"40":0.2142350822687149,"41":-0.08544497936964035,"42":0.15269315242767334,"43":0.037831444293260574,"44":0.04046991467475891,"45":-0.21248535811901093,"46":0.09728644788265228,"47":0.5302094221115112,"48":0.26353466510772705,"49":0.04960101097822189,"50":-0.20051077008247375,"51":-0.03749372437596321,"52":0.0627901554107666,"53":0.1334872841835022,"54":-0.6431562304496765,"55":-0.2134786695241928,"56":0.491956502199173,"57":0.17363695800304413,"58":0.25282129645347595,"59":0.4882737100124359,"60":-0.10824757814407349,"61":-1.290833830833435,"62":-0.46851208806037903,"63":-0.7494559288024902,"64":0.3105629086494446,"65":0.7964175343513489,"66":0.39749372005462646,"67":-0.45919176936149597,"68":-0.18999794125556946,"69":0.00766652449965477,"70":-0.04852267727255821,"71":-0.4507392942905426,"72":0.2791610062122345,"73":-0.4525250792503357,"74":-1.0728710889816284,"75":-0.4599126875400543,"76":1.2114994525909424,"77":0.31809431314468384,"78":1.0501368045806885,"79":-1.0892482995986938,"80":-0.27334102988243103,"81":0.06956013292074203,"82":0.4768597483634949,"83":0.23395326733589172,"84":-0.3139536380767822,"85":0.588456392288208,"86":-0.12453155964612961,"87":-1.1079230308532715,"88":-1.1180752515792847,"89":0.7256245613098145,"90":0.3758927285671234,"91":-1.0527548789978027,"92":-0.09265203773975372,"93":0.5665457844734192,"94":0.22741258144378662,"95":0.4125053584575653,"96":0.7208280563354492,"97":0.020092913880944252,"98":1.3251343965530396,"99":0.931018590927124,"100":-0.8116775155067444,"101":-0.45922452211380005,"102":0.1813443899154663,"103":0.19444720447063446,"104":-0.5390777587890625,"105":1.0249686241149902,"106":0.514198899269104,"107":-0.7772327661514282,"108":-0.6886991858482361,"109":0.5356360673904419,"110":0.7761231660842896,"111":-1.0045443773269653,"112":-0.28674226999282837,"113":0.9174745678901672,"114":-0.5909584164619446,"115":0.4605192244052887,"116":0.7220907211303711,"117":-0.6537131667137146,"118":1.4787625074386597,"119":1.077936053276062,"120":0.0960836261510849,"121":0.18464972078800201,"122":0.31805458664894104,"123":0.062027446925640106,"124":-0.38265928626060486,"125":1.09778892993927,"126":0.5670939683914185,"127":-0.5459280014038086,"128":-1.1454411745071411,"129":0.3994678556919098,"130":0.1232910007238388,"131":-0.4008480906486511,"132":-0.5205911993980408,"133":0.500797688961029,"134":0.20436349511146545,"135":0.0009142128401435912,"136":0.7457274794578552,"137":-0.22075410187244415,"138":0.9987865090370178,"139":1.3173677921295166,"140":-0.8214941024780273,"141":-0.06260297447443008,"142":-0.3341890871524811,"143":-0.8809739351272583,"144":-0.4803667366504669,"145":0.4286070168018341,"146":0.3036133348941803,"147":-0.4701584577560425,"148":-0.38068366050720215,"149":-0.415675550699234,"150":0.015165123157203197,"151":-0.7425793409347534,"152":0.10094866156578064,"153":0.9458942413330078,"154":-0.6884199380874634,"155":0.29394659399986267,"156":1.1339585781097412,"157":0.11532420665025711,"158":0.5941750407218933,"159":1.102114200592041,"160":0.2870493233203888,"161":0.8858279585838318,"162":0.9417067170143127,"163":1.0699533224105835,"164":-0.368320494890213,"165":-0.30014780163764954,"166":0.35653212666511536,"167":-0.4589613676071167,"168":0.20896978676319122,"169":0.32142749428749084,"170":-0.30539146065711975,"171":-0.980858564376831,"172":-0.21069549024105072,"173":0.3356894254684448,"174":0.4055309295654297,"175":-0.26849281787872314,"176":0.3281552493572235,"177":0.1376304179430008,"178":0.18743754923343658,"179":0.3029903471469879,"180":0.7567698359489441,"181":-0.15651395916938782,"182":-0.5210683941841125,"183":0.3650442659854889,"184":-1.2615162134170532,"185":0.8977248072624207,"186":1.15323805809021,"187":0.8126960396766663,"188":0.23544317483901978,"189":0.12583157420158386,"190":0.0673845112323761,"191":0.007741718553006649,"192":0.518163800239563,"193":-1.1171925067901611,"194":0.6779530048370361,"195":-0.4610738456249237,"196":-1.241651177406311,"197":-0.7019899487495422,"198":-0.7501961588859558,"199":-1.0881314277648926,"200":-0.426595538854599,"201":-0.4033401310443878,"202":-0.40235912799835205,"203":-0.6887532472610474,"204":0.7495771050453186,"205":-0.6963984966278076,"206":-0.57999187707901,"207":0.3602626919746399,"208":0.1321333795785904,"209":-0.7763422131538391,"210":-0.7352913618087769,"211":0.18231089413166046,"212":0.7825934886932373,"213":-0.399801105260849,"214":-0.22582313418388367,"215":0.07469009608030319,"216":-0.3146549463272095,"217":0.6035119891166687,"218":-0.7611237168312073,"219":-0.17751072347164154,"220":-0.05617738515138626,"221":-0.16913561522960663,"222":-0.6354937553405762,"223":-0.6465278267860413,"224":-0.019246865063905716,"225":0.847541093826294,"226":0.44083115458488464,"227":-1.0750088691711426,"228":-1.0448635816574097,"229":-0.46051037311553955,"230":-0.46966493129730225,"231":-0.838221549987793,"232":0.9941716194152832,"233":-0.10895933955907822,"234":-0.3181344270706177,"235":-0.24473543465137482,"236":0.10614948719739914,"237":0.2179454118013382,"238":0.7188422083854675,"239":0.09913304448127747,"240":0.018318215385079384,"241":-0.1192915141582489,"242":0.15963339805603027,"243":-0.12048263847827911,"244":-0.4653868079185486,"245":0.37888363003730774,"246":0.7881384491920471,"247":-0.0909678116440773,"248":0.12857389450073242,"249":0.03519514203071594,"250":0.12291412055492401,"251":0.02837578020989895,"252":-0.02270793542265892,"253":-0.3081674575805664,"254":0.05677046254277229,"255":-0.4500114619731903,"256":-0.488259494304657,"257":-0.09681253135204315,"258":-0.5289193987846375,"259":-0.3886275291442871,"260":-0.35220327973365784,"261":0.4115237295627594,"262":0.8980284929275513,"263":1.057064175605774,"264":0.36966171860694885,"265":0.23307771980762482,"266":0.10298837721347809,"267":-0.34695863723754883,"268":-0.45208612084388733,"269":0.41352328658103943,"270":0.11597149074077606,"271":-0.7619948387145996,"272":-0.19577853381633759,"273":0.4554499089717865,"274":-0.028617393225431442,"275":-0.4806687533855438,"276":0.5864410996437073,"277":0.4818466901779175,"278":0.35158470273017883,"279":0.4635075330734253,"280":0.5910714864730835,"281":1.1689320802688599,"282":0.5583908557891846,"283":0.37944507598876953,"284":-0.4770151972770691,"285":-0.4206574559211731,"286":0.2890808582305908,"287":0.03268587589263916,"288":-0.07431923598051071,"289":-0.05058304965496063,"290":-0.323261559009552,"291":0.36207708716392517,"292":0.007257204502820969,"293":0.31663253903388977,"294":0.11384755373001099,"295":-0.32083913683891296,"296":0.023882552981376648,"297":-0.1642812192440033,"298":0.07106911391019821,"299":0.20992738008499146,"300":-0.7359694838523865,"301":-0.8119279742240906,"302":0.1917322278022766,"303":0.1558922380208969,"304":0.5776622295379639,"305":-0.06644658744335175,"306":-0.5599466562271118,"307":-0.13701970875263214,"308":0.3268280625343323,"309":0.1315314918756485,"310":-0.1574224829673767,"311":-1.3994485139846802,"312":0.08340168744325638,"313":-0.006884398870170116,"314":-0.19003522396087646,"315":-0.47418347001075745,"316":0.7621562480926514,"317":0.48247525095939636,"318":0.5947685837745667,"319":-0.1721680760383606,"320":0.5046570897102356,"321":0.4052754342556,"322":0.5516716241836548,"323":0.09106525033712387,"324":-0.6111276745796204,"325":0.8010269999504089,"326":0.6490715146064758,"327":-0.7641981840133667,"328":-0.9996529221534729,"329":1.0144273042678833,"330":0.6418237090110779,"331":0.0817609503865242,"332":-0.7048887014389038,"333":-0.0074142091907560825,"334":0.11346324533224106,"335":1.1219953298568726,"336":0.9236733913421631,"337":-0.6918309330940247,"338":1.1077407598495483,"339":-0.20064713060855865,"340":-0.3116735816001892,"341":-1.067957878112793,"342":-1.1379460096359253,"343":-0.5333625674247742,"344":0.025101633742451668,"345":1.0011754035949707,"346":0.09684985876083374,"347":-0.6502740383148193,"348":-0.4514288902282715,"349":-1.1347737312316895,"350":-1.0330731868743896,"351":-0.9075424671173096,"352":1.1797316074371338,"353":-0.29697707295417786,"354":-0.21014642715454102,"355":-0.11782728135585785,"356":-0.3733113706111908,"357":1.562963843345642,"358":-0.013477719388902187,"359":-0.02230890281498432,"360":-0.4981309771537781,"361":-0.6549165844917297,"362":-0.41667139530181885,"363":-0.16507834196090698,"364":-0.265890508890152,"365":0.5385562777519226,"366":-0.06039111688733101,"367":0.15165002644062042,"368":0.054193321615457535,"369":0.7934734225273132,"370":-0.09393922239542007,"371":-1.5356181859970093,"372":0.13917753100395203,"373":0.8644455671310425,"374":-0.3747193217277527,"375":-0.41329315304756165,"376":0.36669740080833435,"377":0.43921440839767456,"378":0.912527322769165,"379":1.0541781187057495,"380":-0.1923513412475586,"381":0.8906092047691345,"382":0.7193146347999573,"383":0.3669890761375427,"384":0.8337729573249817,"385":-0.0023403146769851446,"386":-0.1311298906803131,"387":-0.012054008431732655,"388":-0.19659729301929474,"389":0.12120740860700607,"390":0.5425214171409607,"391":0.17596197128295898,"392":-0.0039903465658426285,"393":0.6599791646003723,"394":0.03036142699420452,"395":0.40174704790115356,"396":0.6508791446685791,"397":-1.0514936447143555,"398":-0.1965610682964325,"399":0.5275336503982544}},"inputBias":{"rows":20,"columns":1,"weights":{"0":-0.7062075734138489,"1":0.11256825178861618,"2":0.5302295088768005,"3":-0.4528988301753998,"4":-0.9105305075645447,"5":-0.8662732839584351,"6":-0.2184273898601532,"7":-0.9080632328987122,"8":-0.275276243686676,"9":0.28437912464141846,"10":0.23943911492824554,"11":-0.31958043575286865,"12":0.33617904782295227,"13":-0.4308561682701111,"14":-0.7092255353927612,"15":-0.21193958818912506,"16":0.37496018409729004,"17":0.26219865679740906,"18":0.8871076703071594,"19":-0.7914626002311707}},"forgetMatrix":{"rows":20,"columns":25,"weights":{"0":0.7126076221466064,"1":0.014843171462416649,"2":-0.34379395842552185,"3":-0.08085376024246216,"4":-0.3937338888645172,"5":-0.06073174998164177,"6":-0.19241979718208313,"7":-0.2944602966308594,"8":0.18816784024238586,"9":0.11874691396951675,"10":-0.2026231437921524,"11":-0.8925058245658875,"12":-1.1715916395187378,"13":-0.23198553919792175,"14":-0.586991548538208,"15":-0.18469871580600739,"16":-0.061617977917194366,"17":-0.10271019488573074,"18":-0.16733059287071228,"19":0.15026147663593292,"20":-0.1457032859325409,"21":0.2360890954732895,"22":-0.08116135746240616,"23":-0.004609386436641216,"24":-0.4632609188556671,"25":0.8900205492973328,"26":-0.13272763788700104,"27":-0.27739837765693665,"28":-0.10265443474054337,"29":-0.2260419726371765,"30":-0.5734808444976807,"31":-0.053871169686317444,"32":-0.657132625579834,"33":1.13585364818573,"34":0.2267899513244629,"35":-0.677028477191925,"36":-0.6360392570495605,"37":-1.1257599592208862,"38":0.28296732902526855,"39":-0.705966055393219,"40":0.12676118314266205,"41":-0.3663778603076935,"42":-0.17991186678409576,"43":-0.7831355333328247,"44":-0.4695054888725281,"45":-0.5286903977394104,"46":-0.2643941044807434,"47":0.4564724266529083,"48":-0.21741946041584015,"49":-0.9024783372879028,"50":-0.07408905774354935,"51":0.5515373945236206,"52":-0.04006485641002655,"53":-0.031560108065605164,"54":-0.7739511132240295,"55":0.19991515576839447,"56":-1.1948556900024414,"57":0.42172324657440186,"58":-0.6473085284233093,"59":-0.25731706619262695,"60":0.21557527780532837,"61":-0.4389311969280243,"62":-0.22051577270030975,"63":0.3355039060115814,"64":-0.5851937532424927,"65":-0.22382012009620667,"66":0.41323772072792053,"67":0.6091495752334595,"68":0.04745187610387802,"69":-0.380383163690567,"70":0.11499854922294617,"71":-0.07335762679576874,"72":0.18551447987556458,"73":-0.47681546211242676,"74":0.2508409023284912,"75":0.6404531598091125,"76":0.48717305064201355,"77":0.09837082773447037,"78":-0.26141220331192017,"79":-0.7394125461578369,"80":0.1560198813676834,"81":-0.8749913573265076,"82":0.06085972115397453,"83":-0.45216885209083557,"84":-0.3686548173427582,"85":-0.08892981708049774,"86":-0.6479618549346924,"87":-0.8594339489936829,"88":0.08531098812818527,"89":-0.6450258493423462,"90":-0.025347474962472916,"91":0.4189378321170807,"92":0.5256228446960449,"93":-0.2203936129808426,"94":-0.5544170141220093,"95":0.02827373519539833,"96":-0.2334294319152832,"97":0.3476678133010864,"98":-0.5190783143043518,"99":-0.2129693329334259,"100":1.2390587329864502,"101":-0.23446007072925568,"102":-0.04206022247672081,"103":0.11738365888595581,"104":-0.13110730051994324,"105":-0.09792763739824295,"106":0.6040582060813904,"107":-0.8999291062355042,"108":0.42714083194732666,"109":0.7020308971405029,"110":0.279167503118515,"111":-0.8367508053779602,"112":-0.6569441556930542,"113":-0.40859177708625793,"114":-1.0167192220687866,"115":0.3993476629257202,"116":-0.12250304222106934,"117":-0.17259523272514343,"118":-0.03506118804216385,"119":0.5815439224243164,"120":-0.9697255492210388,"121":0.3625427484512329,"122":-0.32830604910850525,"123":0.05527007207274437,"124":-0.31785136461257935,"125":0.9569777846336365,"126":-0.28455573320388794,"127":0.6848611831665039,"128":0.41786912083625793,"129":0.9181792140007019,"130":0.37556466460227966,"131":1.0847924947738647,"132":-0.32681363821029663,"133":0.09377063810825348,"134":0.2747272849082947,"135":-0.27637505531311035,"136":-0.9075280427932739,"137":0.17169025540351868,"138":-0.2739362418651581,"139":-0.09867584705352783,"140":0.9737377762794495,"141":0.03265918418765068,"142":-0.11732757836580276,"143":0.3027574419975281,"144":0.2269410490989685,"145":-0.07210904359817505,"146":0.09951980412006378,"147":-0.11670813709497452,"148":0.23542620241641998,"149":0.111993707716465,"150":1.2093565464019775,"151":-0.42847204208374023,"152":0.07052502036094666,"153":0.15455730259418488,"154":0.1328974962234497,"155":-0.2614363133907318,"156":0.6072487235069275,"157":-0.7932025194168091,"158":0.23515868186950684,"159":0.6074813604354858,"160":-0.5304743647575378,"161":-0.7699140310287476,"162":-0.391595721244812,"163":-0.013883898966014385,"164":-0.40953606367111206,"165":0.9606243371963501,"166":-0.08654164522886276,"167":-0.35227593779563904,"168":0.013121259398758411,"169":0.15775679051876068,"170":-0.7242941856384277,"171":0.3021703362464905,"172":-0.3556489050388336,"173":0.20130655169487,"174":-0.4044440984725952,"175":0.3274097442626953,"176":0.2041655033826828,"177":-0.41294246912002563,"178":-0.3481053411960602,"179":0.005603864323347807,"180":0.21427899599075317,"181":0.500961184501648,"182":0.3006541132926941,"183":-0.2275136560201645,"184":0.05256359651684761,"185":0.02886330708861351,"186":1.183945894241333,"187":0.04980108514428139,"188":0.3969581425189972,"189":0.3158809542655945,"190":0.07861965894699097,"191":0.040157485753297806,"192":0.18987497687339783,"193":-0.009096242487430573,"194":-0.0030291536822915077,"195":-0.03057999722659588,"196":-0.4356512427330017,"197":0.4137818515300751,"198":-0.5016596913337708,"199":0.047733746469020844,"200":0.8359696865081787,"201":-0.021432872861623764,"202":0.4080846905708313,"203":0.1653498113155365,"204":0.40629804134368896,"205":-0.08719878643751144,"206":1.039758324623108,"207":-0.5619521141052246,"208":0.2815444767475128,"209":0.3477937877178192,"210":-0.6002258062362671,"211":-0.8379966020584106,"212":0.008786948397755623,"213":-0.05985508859157562,"214":-0.4225688874721527,"215":0.6740747094154358,"216":-0.2666158676147461,"217":0.13930650055408478,"218":-0.11142557859420776,"219":0.040457066148519516,"220":-0.5192856192588806,"221":-0.05087274685502052,"222":-0.035767316818237305,"223":-0.13235622644424438,"224":-0.7642228603363037,"225":-0.8734161853790283,"226":0.7657354474067688,"227":0.07798395305871964,"228":-0.3771224617958069,"229":-0.16938062012195587,"230":0.29837435483932495,"231":-0.7732692360877991,"232":0.7060918807983398,"233":-0.3587742745876312,"234":-0.5132444500923157,"235":1.0000839233398438,"236":-0.3046800494194031,"237":-0.4541759192943573,"238":0.22668452560901642,"239":-0.7376006841659546,"240":-0.021971117705106735,"241":0.09898456931114197,"242":0.06493569165468216,"243":0.3561868965625763,"244":-0.18741759657859802,"245":0.5476716160774231,"246":0.6967840790748596,"247":-0.5522434711456299,"248":0.09205169975757599,"249":1.028193712234497,"250":0.23544751107692719,"251":0.5177193880081177,"252":0.7829229235649109,"253":-0.36530959606170654,"254":0.5972780585289001,"255":0.7187884449958801,"256":-0.002785823540762067,"257":0.028084199875593185,"258":-0.6330550312995911,"259":-0.09479570388793945,"260":0.3996383547782898,"261":0.12771928310394287,"262":0.49425268173217773,"263":0.8859857320785522,"264":-0.1987837553024292,"265":0.7002758979797363,"266":0.6929531097412109,"267":0.29308372735977173,"268":0.7899604439735413,"269":-0.40958717465400696,"270":-0.16843055188655853,"271":-0.4157603681087494,"272":0.6851211786270142,"273":-0.20396940410137177,"274":0.3689539134502411,"275":0.9044028520584106,"276":-0.821953535079956,"277":0.0021071545779705048,"278":0.6397424340248108,"279":0.9047728776931763,"280":-0.2878081500530243,"281":0.4769934117794037,"282":-0.5140360593795776,"283":0.6952253580093384,"284":0.7514899373054504,"285":-0.9903643727302551,"286":0.4785783588886261,"287":0.601090669631958,"288":-0.6996518969535828,"289":0.567934513092041,"290":0.6622830033302307,"291":-0.6316445469856262,"292":0.11072731763124466,"293":-0.3399277627468109,"294":0.058516860008239746,"295":-0.8365116119384766,"296":0.3845773935317993,"297":-0.4412802755832672,"298":-0.16669730842113495,"299":-0.6698197722434998,"300":-0.6974047422409058,"301":1.1848948001861572,"302":-0.07859206199645996,"303":-1.5133030414581299,"304":-0.24910852313041687,"305":0.3055267035961151,"306":-0.582587480545044,"307":0.7261649370193481,"308":-0.7017205357551575,"309":-1.0258837938308716,"310":0.9187152981758118,"311":-0.24633976817131042,"312":-0.8823400735855103,"313":0.37844499945640564,"314":-0.7252640128135681,"315":-0.18982666730880737,"316":0.5261053442955017,"317":0.09556517004966736,"318":0.4449833333492279,"319":-0.03933732211589813,"320":0.8601964712142944,"321":-0.06628502905368805,"322":0.13986186683177948,"323":-0.1385831981897354,"324":0.8102390766143799,"325":0.9764095544815063,"326":-0.21244865655899048,"327":0.08276916295289993,"328":0.20475876331329346,"329":-0.09851355850696564,"330":-0.1272958666086197,"331":0.8012498617172241,"332":-0.14935357868671417,"333":0.551466166973114,"334":0.772057056427002,"335":-0.593288004398346,"336":0.8561847805976868,"337":0.4046631157398224,"338":-0.31182926893234253,"339":0.8502498865127563,"340":-0.2908535599708557,"341":-0.2132040113210678,"342":-0.23677390813827515,"343":-0.1553904414176941,"344":0.7542943954467773,"345":-0.7203091382980347,"346":0.38861098885536194,"347":-0.3292440176010132,"348":0.2582798898220062,"349":-0.7978610992431641,"350":0.8390854001045227,"351":-0.30071523785591125,"352":-0.29100513458251953,"353":0.22322726249694824,"354":-0.7058830261230469,"355":-0.314804345369339,"356":-0.06605798006057739,"357":-0.1497902125120163,"358":0.8732521533966064,"359":-0.18551038205623627,"360":-0.4860359728336334,"361":-1.0874412059783936,"362":-0.9925804734230042,"363":-0.38148218393325806,"364":-0.08298002183437347,"365":-0.7331869006156921,"366":-0.4820995032787323,"367":-0.3529948592185974,"368":-0.5142050385475159,"369":0.2821079194545746,"370":0.0812494158744812,"371":0.3284592628479004,"372":-0.4210578203201294,"373":0.38652122020721436,"374":-0.6977512836456299,"375":-0.23317740857601166,"376":0.029841039329767227,"377":-0.2413264513015747,"378":0.25199469923973083,"379":0.257790744304657,"380":0.20140546560287476,"381":-0.18410520255565643,"382":-0.6113878488540649,"383":-0.47777438163757324,"384":0.6708357930183411,"385":0.2131081521511078,"386":-0.4659050703048706,"387":-0.016773995012044907,"388":0.16931895911693573,"389":-0.2963670492172241,"390":0.08694329112768173,"391":-0.3009125888347626,"392":0.3260303735733032,"393":1.1452133655548096,"394":0.010248152539134026,"395":-0.05245615914463997,"396":0.25207236409187317,"397":-0.2513464689254761,"398":-0.29088908433914185,"399":0.9144312739372253,"400":0.03632377088069916,"401":0.36917153000831604,"402":-1.276084065437317,"403":-0.005015669856220484,"404":-0.658202588558197,"405":0.06875986605882645,"406":-0.07844647765159607,"407":-0.3419211804866791,"408":0.5978897213935852,"409":-0.34104976058006287,"410":-0.4050574004650116,"411":-0.5338777303695679,"412":-1.0918267965316772,"413":-0.5629404783248901,"414":-0.455628365278244,"415":-0.39591601490974426,"416":-0.3842349052429199,"417":0.24890123307704926,"418":-0.22707892954349518,"419":0.49951377511024475,"420":0.681300699710846,"421":-0.14653687179088593,"422":0.019000224769115448,"423":-0.23036380112171173,"424":-0.641462504863739,"425":-0.3968603312969208,"426":0.5054053068161011,"427":0.6375308036804199,"428":-0.35654371976852417,"429":0.8639541864395142,"430":0.6833332180976868,"431":-0.08668273687362671,"432":0.42532655596733093,"433":-0.6564663052558899,"434":-0.43392953276634216,"435":-0.33130019903182983,"436":0.08873952925205231,"437":0.5510780811309814,"438":1.0062425136566162,"439":0.28595155477523804,"440":0.9877505898475647,"441":0.7131949663162231,"442":0.6687988042831421,"443":0.368551641702652,"444":-0.7374346852302551,"445":0.12763550877571106,"446":-0.9828270673751831,"447":0.8404775261878967,"448":0.007129752542823553,"449":0.3171948194503784,"450":-0.9076484441757202,"451":-0.17345395684242249,"452":0.039893366396427155,"453":0.8577538132667542,"454":-0.5176331400871277,"455":0.16021379828453064,"456":-0.7561728358268738,"457":0.09446412324905396,"458":0.045347779989242554,"459":-0.4287649095058441,"460":0.7737451195716858,"461":-0.9257287979125977,"462":-0.6754611730575562,"463":-0.15347903966903687,"464":-1.2000237703323364,"465":-0.6300896406173706,"466":-0.22459641098976135,"467":-0.3276601731777191,"468":0.5301134586334229,"469":-0.11462496221065521,"470":0.6556273698806763,"471":0.033453263342380524,"472":0.0015669387066736817,"473":0.3894050121307373,"474":0.6337009072303772,"475":0.7881314754486084,"476":-0.3563482463359833,"477":0.13543182611465454,"478":0.38885021209716797,"479":0.21451210975646973,"480":-0.39197710156440735,"481":0.6001694798469543,"482":-0.204609215259552,"483":0.6022552847862244,"484":0.6571568250656128,"485":-0.9174808263778687,"486":0.1934019774198532,"487":0.8427239060401917,"488":-0.09678539633750916,"489":1.0518696308135986,"490":0.26965034008026123,"491":-0.6249510645866394,"492":-0.4369428753852844,"493":-0.3841603696346283,"494":0.38962680101394653,"495":-0.4662534296512604,"496":0.26307564973831177,"497":-0.3321077823638916,"498":0.4003854990005493,"499":-0.7333462238311768}},"forgetHidden":{"rows":20,"columns":20,"weights":{"0":0.4303574860095978,"1":0.12614889442920685,"2":-0.12124349176883698,"3":-0.4218897223472595,"4":-0.5481844544410706,"5":0.8301527500152588,"6":0.5147826671600342,"7":-0.15280789136886597,"8":-0.7791873216629028,"9":0.22098557651042938,"10":0.5572704076766968,"11":0.27455419301986694,"12":-0.46116477251052856,"13":0.21830591559410095,"14":0.04464679956436157,"15":0.7091736793518066,"16":-0.2847280502319336,"17":-0.6307305097579956,"18":0.3470861613750458,"19":0.2580168545246124,"20":-0.38970571756362915,"21":-0.4337930679321289,"22":-0.6748114228248596,"23":-0.6910027861595154,"24":-0.2863049805164337,"25":1.578253984451294,"26":0.17609363794326782,"27":-0.5603169202804565,"28":-0.4209476411342621,"29":0.16101403534412384,"30":0.40433448553085327,"31":-0.3535282611846924,"32":0.5765981078147888,"33":-0.4770297110080719,"34":-0.2444884479045868,"35":-0.1737700253725052,"36":-0.0799235925078392,"37":-0.2498682141304016,"38":0.7012612819671631,"39":0.4095451831817627,"40":0.4149579405784607,"41":0.5236654281616211,"42":1.1729477643966675,"43":1.330074667930603,"44":0.6084081530570984,"45":-0.7956811189651489,"46":-0.2738538086414337,"47":0.18578477203845978,"48":0.7171818017959595,"49":-0.09152233600616455,"50":-0.013526496477425098,"51":0.6468706130981445,"52":0.21033598482608795,"53":0.19839715957641602,"54":0.7800341248512268,"55":0.06791693717241287,"56":-0.4309333562850952,"57":-0.33973467350006104,"58":-0.8653432726860046,"59":0.03963467851281166,"60":0.38931524753570557,"61":0.7494208812713623,"62":1.3491681814193726,"63":1.106745958328247,"64":0.9164949059486389,"65":-0.6311883926391602,"66":-0.917725682258606,"67":0.25611960887908936,"68":0.5461871027946472,"69":0.3010168671607971,"70":-0.19847945868968964,"71":0.7251459956169128,"72":0.055622756481170654,"73":0.41440659761428833,"74":0.7027808427810669,"75":0.5269879698753357,"76":-0.6125136613845825,"77":-0.717542827129364,"78":-0.9318106770515442,"79":0.30620628595352173,"80":0.7181644439697266,"81":0.8194618225097656,"82":0.49270930886268616,"83":0.5076002478599548,"84":-0.8142533898353577,"85":0.8556637763977051,"86":0.8016170859336853,"87":-0.20445303618907928,"88":-0.5325098037719727,"89":0.4182533621788025,"90":0.6639299392700195,"91":0.5295189023017883,"92":-0.6693179607391357,"93":-0.34194058179855347,"94":0.41612109541893005,"95":0.10233081877231598,"96":-0.7709318399429321,"97":-0.6361517310142517,"98":0.22742995619773865,"99":0.009672016836702824,"100":0.6017471551895142,"101":0.21085767447948456,"102":-0.16494202613830566,"103":0.24453182518482208,"104":-1.0997180938720703,"105":0.6149505972862244,"106":0.8795244097709656,"107":-1.251123070716858,"108":-0.45115500688552856,"109":0.32534676790237427,"110":0.21249181032180786,"111":-0.7008617520332336,"112":-0.2980547845363617,"113":-0.00887935608625412,"114":0.3790241777896881,"115":0.15729469060897827,"116":-0.6417490839958191,"117":-0.3327437937259674,"118":0.40496087074279785,"119":0.11701396852731705,"120":0.7617171406745911,"121":0.843277633190155,"122":0.3102537989616394,"123":0.41204899549484253,"124":-0.819462239742279,"125":0.5538924336433411,"126":0.5908610820770264,"127":-0.3195321559906006,"128":-0.35918503999710083,"129":0.37707507610321045,"130":0.41547730565071106,"131":0.5448719263076782,"132":-0.5258234739303589,"133":-0.3211091160774231,"134":0.5286805629730225,"135":-0.12526994943618774,"136":-0.9712741374969482,"137":-0.6089297533035278,"138":0.15396364033222198,"139":-0.2541060149669647,"140":0.6157687306404114,"141":-0.008101954124867916,"142":0.0015876017278060317,"143":0.2845485508441925,"144":-1.3747912645339966,"145":1.357373833656311,"146":0.6955226063728333,"147":-1.2851210832595825,"148":-0.8996291756629944,"149":0.6161375641822815,"150":-0.2435753494501114,"151":-1.17982816696167,"152":0.4096842110157013,"153":0.3457706868648529,"154":-0.12375328689813614,"155":-0.13377729058265686,"156":-0.3090415298938751,"157":0.520564615726471,"158":0.5518901348114014,"159":0.4275014400482178,"160":0.9980101585388184,"161":0.5563356280326843,"162":0.2150963544845581,"163":0.352158784866333,"164":-0.6832324266433716,"165":0.26299014687538147,"166":0.47068947553634644,"167":-0.2457166314125061,"168":-0.2959808111190796,"169":0.23349018394947052,"170":0.31536027789115906,"171":-0.2295079082250595,"172":-0.26010361313819885,"173":-0.19157584011554718,"174":0.9299024939537048,"175":0.1694279909133911,"176":-0.9075316786766052,"177":-0.5265740156173706,"178":-0.1552993506193161,"179":-0.16692645847797394,"180":-0.3474554419517517,"181":-0.4682454466819763,"182":-0.5557573437690735,"183":-0.4918586015701294,"184":0.6278878450393677,"185":-0.5292900204658508,"186":-0.5470495820045471,"187":0.7741149067878723,"188":0.3458694815635681,"189":-0.39440417289733887,"190":-0.04523481801152229,"191":0.4716472327709198,"192":0.588437557220459,"193":-0.5630963444709778,"194":-0.36710888147354126,"195":0.19983574748039246,"196":-0.4051830768585205,"197":-0.009101674892008305,"198":-0.11182273179292679,"199":-0.6880077123641968,"200":0.0076057021506130695,"201":-0.3413478434085846,"202":-0.5296791791915894,"203":0.01976306363940239,"204":0.2611393332481384,"205":-0.04484495520591736,"206":0.06551943719387054,"207":0.3549420237541199,"208":0.42037996649742126,"209":-0.17430008947849274,"210":-0.95383220911026,"211":-0.5070573687553406,"212":-0.05470837280154228,"213":-0.4325631260871887,"214":-0.29186519980430603,"215":-1.0481988191604614,"216":-0.6829520463943481,"217":0.6433552503585815,"218":0.31970903277397156,"219":-0.5779995322227478,"220":-0.1615372747182846,"221":0.0987841859459877,"222":-0.23902656137943268,"223":-0.0794561579823494,"224":-0.7636335492134094,"225":-0.13726592063903809,"226":0.6446437239646912,"227":-1.2317897081375122,"228":-0.20110662281513214,"229":0.14008542895317078,"230":0.3415187895298004,"231":-1.0169899463653564,"232":-0.2703569233417511,"233":0.856900155544281,"234":-0.37799760699272156,"235":0.4026240408420563,"236":0.32717809081077576,"237":-0.6059873104095459,"238":-0.025889059528708458,"239":0.7602139115333557,"240":-0.7864872217178345,"241":-0.9529343247413635,"242":-0.6930750012397766,"243":-0.9995454549789429,"244":0.2919040322303772,"245":-0.09355733543634415,"246":-0.2809675931930542,"247":0.8108742833137512,"248":0.11566874384880066,"249":-0.4360262453556061,"250":0.005697311833500862,"251":0.5609318017959595,"252":0.884358286857605,"253":-0.5836029648780823,"254":-1.028102993965149,"255":0.19162452220916748,"256":-0.2736521363258362,"257":0.10877346992492676,"258":-0.4406546950340271,"259":-0.7744017839431763,"260":-0.29372331500053406,"261":-0.5031746625900269,"262":0.1756928563117981,"263":0.38635462522506714,"264":-0.4263301491737366,"265":0.5477818250656128,"266":0.13298219442367554,"267":-0.8505059480667114,"268":-0.6139722466468811,"269":0.10183355957269669,"270":0.14894628524780273,"271":-0.4353046119213104,"272":-0.09306393563747406,"273":0.9570403099060059,"274":0.04048830270767212,"275":0.16271640360355377,"276":0.5103774070739746,"277":0.005466627422720194,"278":0.4339190721511841,"279":1.0828949213027954,"280":0.24212102591991425,"281":0.6163796186447144,"282":0.2076020985841751,"283":0.2117350995540619,"284":-0.19788257777690887,"285":0.3636884391307831,"286":0.09408057481050491,"287":-0.7067549824714661,"288":-0.39248594641685486,"289":0.34176939725875854,"290":0.3543516993522644,"291":0.8465670347213745,"292":-0.3761788606643677,"293":0.7060588598251343,"294":0.512392520904541,"295":0.584714949131012,"296":-0.39747944474220276,"297":-0.5442894101142883,"298":0.33951497077941895,"299":0.36133116483688354,"300":0.6618541479110718,"301":0.42932572960853577,"302":0.17525546252727509,"303":0.8758319616317749,"304":-0.11816616356372833,"305":-1.9479373693466187,"306":-0.6918707489967346,"307":0.7329278588294983,"308":1.5729494094848633,"309":0.14541694521903992,"310":-0.19971035420894623,"311":0.8451412320137024,"312":-0.3055095374584198,"313":-0.6614733338356018,"314":0.38464272022247314,"315":-0.19515787065029144,"316":-0.9095885753631592,"317":-0.2828230559825897,"318":-0.19712643325328827,"319":-0.9410609602928162,"320":0.2621464729309082,"321":0.7316572666168213,"322":0.06890023499727249,"323":-0.2560349106788635,"324":-1.1013911962509155,"325":0.5553922057151794,"326":0.9742624759674072,"327":-0.12656699120998383,"328":-1.073438048362732,"329":0.6491789221763611,"330":0.6740306615829468,"331":0.6604661345481873,"332":-0.6422539353370667,"333":0.4106998145580292,"334":0.302251935005188,"335":1.2293007373809814,"336":-0.11298627406358719,"337":-1.7103660106658936,"338":0.7027037739753723,"339":-0.004472517874091864,"340":-0.03157421201467514,"341":-0.5592498779296875,"342":-1.1125825643539429,"343":-0.6336539387702942,"344":-0.1112220287322998,"345":-0.04335995763540268,"346":-0.08171286433935165,"347":-0.587018609046936,"348":0.6837835907936096,"349":0.3598666787147522,"350":-0.45669761300086975,"351":-0.4266508221626282,"352":-0.5247513055801392,"353":-1.0014476776123047,"354":-0.6711673140525818,"355":-0.6905848383903503,"356":-0.5963684320449829,"357":0.38838040828704834,"358":1.0568809509277344,"359":-0.3715200424194336,"360":0.6471092700958252,"361":0.558574914932251,"362":-0.3680834174156189,"363":0.11439076066017151,"364":0.14382414519786835,"365":-1.0120960474014282,"366":0.03375351428985596,"367":0.7718114852905273,"368":0.6457462310791016,"369":0.429029643535614,"370":0.5692415237426758,"371":0.3709253668785095,"372":-0.09220678359270096,"373":-0.5912550687789917,"374":0.6421797871589661,"375":0.679859459400177,"376":-1.0965536832809448,"377":-0.884232759475708,"378":-0.49798300862312317,"379":-1.1821181774139404,"380":-0.09838958084583282,"381":0.30593225359916687,"382":0.27176958322525024,"383":0.26537686586380005,"384":-0.39093127846717834,"385":0.3074015974998474,"386":0.21367022395133972,"387":-0.2498239129781723,"388":-0.30429157614707947,"389":0.5239654779434204,"390":0.4918738603591919,"391":-0.4362078905105591,"392":-0.24642905592918396,"393":0.8101943731307983,"394":0.28961876034736633,"395":0.9264682531356812,"396":0.6942072510719299,"397":-0.5213276147842407,"398":0.4482518434524536,"399":0.9698899388313293}},"forgetBias":{"rows":20,"columns":1,"weights":{"0":0,"1":0,"2":0,"3":0,"4":0,"5":0,"6":0,"7":0,"8":0,"9":0,"10":0,"11":0,"12":0,"13":0,"14":0,"15":0,"16":0,"17":0,"18":0,"19":0}},"outputMatrix":{"rows":20,"columns":25,"weights":{"0":-0.8539627194404602,"1":-0.34542548656463623,"2":-0.17092186212539673,"3":0.2817683517932892,"4":-0.3256210386753082,"5":-0.7038869261741638,"6":-0.75718092918396,"7":0.14020228385925293,"8":0.313876748085022,"9":0.15522362291812897,"10":-0.43963584303855896,"11":-0.3244965672492981,"12":0.07406357675790787,"13":-0.44620418548583984,"14":1.5596284866333008,"15":0.30683818459510803,"16":-0.7336077690124512,"17":-0.6425362825393677,"18":-0.6524889469146729,"19":0.3778063654899597,"20":-0.2661474645137787,"21":0.7072036862373352,"22":-0.684902012348175,"23":0.49097657203674316,"24":-0.17648057639598846,"25":0.6132213473320007,"26":-0.2602779269218445,"27":-0.4148816764354706,"28":0.5069767236709595,"29":-0.0755733847618103,"30":-0.3573845624923706,"31":0.3134582042694092,"32":-0.19446951150894165,"33":1.0553492307662964,"34":0.5893294811248779,"35":-1.3280621767044067,"36":-0.3834243714809418,"37":0.01664995774626732,"38":-1.240540862083435,"39":0.6593535542488098,"40":-0.10189393162727356,"41":-0.6320003867149353,"42":-0.1690165102481842,"43":-0.8042353987693787,"44":0.5042619109153748,"45":-0.4318450391292572,"46":0.9050313234329224,"47":-1.0233241319656372,"48":0.27783066034317017,"49":-1.224165678024292,"50":-0.4933803081512451,"51":-1.3607513904571533,"52":0.823391854763031,"53":1.0489321947097778,"54":0.8803334832191467,"55":0.03292141854763031,"56":0.8326372504234314,"57":-0.05063408240675926,"58":-0.17689985036849976,"59":0.3690398037433624,"60":0.33546897768974304,"61":0.21146613359451294,"62":0.4993181824684143,"63":-1.7564555406570435,"64":0.3675198256969452,"65":0.4004468321800232,"66":0.2155762016773224,"67":-0.9420596361160278,"68":0.3728601932525635,"69":1.1219998598098755,"70":-1.133781909942627,"71":1.2078940868377686,"72":-1.0815078020095825,"73":1.370497703552246,"74":0.4979943335056305,"75":-0.363675594329834,"76":-1.4630829095840454,"77":-0.4881325960159302,"78":0.9519860744476318,"79":-0.564060389995575,"80":-0.6953981518745422,"81":-0.45007118582725525,"82":-0.21899080276489258,"83":0.34187400341033936,"84":1.3501778841018677,"85":-0.24331824481487274,"86":-0.3411710560321808,"87":0.350337415933609,"88":-0.4279048442840576,"89":1.1908527612686157,"90":-0.4739494025707245,"91":-1.0486395359039307,"92":-0.7811408638954163,"93":-0.15195783972740173,"94":-0.028399018570780754,"95":-0.44445928931236267,"96":0.9650055170059204,"97":-0.9794266223907471,"98":0.5242241024971008,"99":0.16174201667308807,"100":-0.6405978202819824,"101":-0.6645135283470154,"102":-0.35825449228286743,"103":0.6687171459197998,"104":-0.4817831814289093,"105":-1.2049883604049683,"106":-0.2342861294746399,"107":-0.33447757363319397,"108":0.6761115193367004,"109":0.1556844562292099,"110":-0.9843350648880005,"111":-0.6161952614784241,"112":-1.1938999891281128,"113":-0.04714720696210861,"114":-0.24555334448814392,"115":-1.1014959812164307,"116":-1.0570794343948364,"117":-0.24666601419448853,"118":-0.7444015145301819,"119":0.0019646708387881517,"120":0.04129188135266304,"121":-0.275117963552475,"122":0.2697735130786896,"123":0.4110495448112488,"124":-0.826553225517273,"125":-0.25081291794776917,"126":-0.005561542231589556,"127":-0.5834218859672546,"128":0.28153231739997864,"129":-0.23882730305194855,"130":-0.8988233208656311,"131":-0.035324860364198685,"132":-0.20100508630275726,"133":0.5376994609832764,"134":-0.0786886066198349,"135":-1.2608333826065063,"136":-0.34610193967819214,"137":-0.5316190719604492,"138":0.084778793156147,"139":0.20461665093898773,"140":-0.4170611798763275,"141":-0.7517650723457336,"142":-0.16207510232925415,"143":-1.009567141532898,"144":-0.43112632632255554,"145":0.15969230234622955,"146":-0.523135781288147,"147":0.5374788045883179,"148":0.23772785067558289,"149":-1.5432078838348389,"150":-1.2079658508300781,"151":-0.3872043490409851,"152":0.03376781940460205,"153":0.5767318606376648,"154":-0.8221703171730042,"155":0.23439615964889526,"156":-0.6783685684204102,"157":-0.029619459062814713,"158":-0.42061546444892883,"159":0.0734807625412941,"160":0.17590118944644928,"161":-1.1564162969589233,"162":-1.0556751489639282,"163":-0.505786120891571,"164":-1.0389832258224487,"165":-1.101284146308899,"166":0.1902814507484436,"167":0.13691574335098267,"168":0.3273792862892151,"169":0.22459723055362701,"170":0.1697082370519638,"171":0.1732582002878189,"172":-0.1678338199853897,"173":0.09061288088560104,"174":-0.10057461261749268,"175":-0.7456347942352295,"176":-0.09246800094842911,"177":-0.6172796487808228,"178":-0.004402761813253164,"179":0.09502774477005005,"180":-0.2792680561542511,"181":-0.2808990776538849,"182":-0.24099275469779968,"183":-0.4780799448490143,"184":0.9534342885017395,"185":0.03317626193165779,"186":1.38693368434906,"187":-0.1036723330616951,"188":-0.3653247654438019,"189":-0.039418358355760574,"190":0.2429477423429489,"191":-0.24504950642585754,"192":0.2194357067346573,"193":0.336922287940979,"194":0.1962060183286667,"195":-0.4921903908252716,"196":0.36576178669929504,"197":-0.46270203590393066,"198":-0.2829345762729645,"199":0.6765859127044678,"200":0.44446682929992676,"201":-0.12284013628959656,"202":0.3482725918292999,"203":0.20940324664115906,"204":-0.02787470631301403,"205":-0.6978702545166016,"206":0.0800422728061676,"207":-0.5682238936424255,"208":0.5432857275009155,"209":0.4710354208946228,"210":-0.795524001121521,"211":-1.0141373872756958,"212":-0.3188287615776062,"213":-0.15008792281150818,"214":-0.04539657011628151,"215":-0.3149735927581787,"216":-0.7730053663253784,"217":-0.0824013501405716,"218":-0.5326184630393982,"219":0.3138521611690521,"220":-0.6095392107963562,"221":0.02660560794174671,"222":0.0017698571318760514,"223":-0.006167025305330753,"224":-0.985541582107544,"225":0.26450440287590027,"226":-0.1551230400800705,"227":0.051151059567928314,"228":-0.9876124262809753,"229":-0.059385016560554504,"230":0.43850740790367126,"231":-0.3723021149635315,"232":-0.036103520542383194,"233":-0.6023170351982117,"234":0.32721349596977234,"235":-0.17803871631622314,"236":-0.5077769160270691,"237":-0.3288528025150299,"238":0.6024610996246338,"239":-1.2489854097366333,"240":-0.21704941987991333,"241":0.12908026576042175,"242":1.0189114809036255,"243":1.2967581748962402,"244":-0.8117780685424805,"245":-0.3401525914669037,"246":-0.17618612945079803,"247":0.10230482369661331,"248":-1.1455134153366089,"249":0.26997166872024536,"250":-0.4391303062438965,"251":0.677252471446991,"252":0.3470768630504608,"253":-0.32300087809562683,"254":-0.06933363527059555,"255":0.7134299278259277,"256":0.1375426948070526,"257":1.1819250583648682,"258":-0.7842764258384705,"259":-0.9224850535392761,"260":0.6847193837165833,"261":-0.023308323696255684,"262":0.09567194432020187,"263":1.0154623985290527,"264":-0.09986460208892822,"265":-0.09889943152666092,"266":0.7874090671539307,"267":0.14671586453914642,"268":0.5135223865509033,"269":-0.5436576008796692,"270":1.2056465148925781,"271":-0.6213155388832092,"272":0.676686704158783,"273":-0.16187934577465057,"274":0.19692078232765198,"275":-0.45096275210380554,"276":-0.09713595360517502,"277":0.7348805665969849,"278":-0.07502550631761551,"279":1.5444326400756836,"280":1.1763725280761719,"281":0.9758848547935486,"282":0.6389051675796509,"283":-1.0110355615615845,"284":-0.006699885707348585,"285":0.5233862996101379,"286":1.2201142311096191,"287":1.626490592956543,"288":-0.2943664491176605,"289":0.8324112892150879,"290":1.2310056686401367,"291":0.8953601121902466,"292":-0.5325738787651062,"293":1.259395956993103,"294":0.5791796445846558,"295":0.06742630898952484,"296":0.8782504796981812,"297":-0.7263973355293274,"298":0.2757851481437683,"299":0.7705939412117004,"300":0.04443097487092018,"301":0.6857050061225891,"302":-0.2947220504283905,"303":-1.0858776569366455,"304":0.012128211557865143,"305":0.5698022246360779,"306":-0.10466282069683075,"307":0.7241330146789551,"308":-1.0337532758712769,"309":-0.27919629216194153,"310":-0.156491219997406,"311":0.00661085918545723,"312":0.059359077364206314,"313":0.7420803308486938,"314":-1.0735481977462769,"315":0.14880089461803436,"316":0.9555439949035645,"317":1.2982770204544067,"318":0.5207651853561401,"319":-1.1716902256011963,"320":0.7792393565177917,"321":-0.4792458415031433,"322":0.6582980751991272,"323":-1.5362484455108643,"324":0.002159323776140809,"325":-0.8545078635215759,"326":-0.8029583692550659,"327":0.36654508113861084,"328":0.6912975311279297,"329":0.32831642031669617,"330":-0.042305078357458115,"331":0.348594605922699,"332":-0.057808198034763336,"333":-0.40071383118629456,"334":0.8107692003250122,"335":1.0436831712722778,"336":1.4615466594696045,"337":0.1638915091753006,"338":-0.9021275639533997,"339":0.5630792379379272,"340":0.1350720077753067,"341":-0.008282948285341263,"342":-0.47770336270332336,"343":0.36111852526664734,"344":0.8501424789428711,"345":-0.7232493162155151,"346":0.6511135101318359,"347":-0.6167104840278625,"348":0.7382397651672363,"349":1.0276107788085938,"350":-1.2362247705459595,"351":-0.3450761139392853,"352":-0.24977178871631622,"353":0.30932632088661194,"354":0.033274244517087936,"355":-0.6852474212646484,"356":0.019251901656389236,"357":-0.04118165746331215,"358":0.2777484357357025,"359":0.29126235842704773,"360":-0.2536640763282776,"361":-0.12573306262493134,"362":0.361411988735199,"363":-0.38620269298553467,"364":1.1751989126205444,"365":0.23870517313480377,"366":-0.6851391196250916,"367":-0.4398597478866577,"368":-0.21478961408138275,"369":0.24987243115901947,"370":-0.43478721380233765,"371":0.6019982099533081,"372":-0.493385374546051,"373":0.2305545061826706,"374":0.07045220583677292,"375":1.5552207231521606,"376":0.1758922040462494,"377":0.7860910296440125,"378":-0.15006187558174133,"379":0.3265714645385742,"380":0.0774875059723854,"381":0.38370978832244873,"382":0.24362990260124207,"383":0.3844471275806427,"384":-0.5171918272972107,"385":-0.25203198194503784,"386":-0.3156060576438904,"387":0.9636117219924927,"388":1.1877050399780273,"389":0.32942432165145874,"390":0.4453832507133484,"391":-0.00590019766241312,"392":0.04029301181435585,"393":-0.1784394234418869,"394":-0.6523414254188538,"395":0.38098442554473877,"396":-1.019441843032837,"397":0.9825639128684998,"398":0.18366870284080505,"399":-0.796854555606842,"400":0.05366360768675804,"401":0.2531765401363373,"402":-1.5772103071212769,"403":0.22425755858421326,"404":-0.41501712799072266,"405":-0.4303021728992462,"406":-0.5241892337799072,"407":-0.5214385986328125,"408":0.6786202788352966,"409":-0.03730637952685356,"410":-0.5555602312088013,"411":-0.6534988880157471,"412":-1.2449417114257812,"413":-0.8227609395980835,"414":-0.08833267539739609,"415":-0.6093562245368958,"416":-0.6089617013931274,"417":-0.0744900107383728,"418":-0.6266939043998718,"419":0.3854791522026062,"420":0.31988754868507385,"421":0.35698696970939636,"422":-0.4209698736667633,"423":0.13381673395633698,"424":-0.4806441366672516,"425":-0.12803606688976288,"426":0.29853981733322144,"427":0.1601216346025467,"428":-0.2878986895084381,"429":0.4536574184894562,"430":1.3136577606201172,"431":0.27630415558815,"432":1.0086143016815186,"433":-0.47590523958206177,"434":-0.8768596649169922,"435":0.18727795779705048,"436":0.5190310478210449,"437":0.019523726776242256,"438":1.2004286050796509,"439":-0.06505357474088669,"440":0.33624088764190674,"441":1.1142208576202393,"442":0.32500264048576355,"443":0.4553222358226776,"444":-0.7731706500053406,"445":1.0211843252182007,"446":-0.8117799162864685,"447":1.0928239822387695,"448":-0.13978099822998047,"449":0.22652141749858856,"450":0.5555548071861267,"451":-0.5325613021850586,"452":1.009692907333374,"453":0.7887384295463562,"454":0.8633896112442017,"455":-0.06765131652355194,"456":1.0755072832107544,"457":-0.3527701199054718,"458":0.5691946744918823,"459":0.12493874132633209,"460":-0.7819705009460449,"461":-0.8089228868484497,"462":1.0648689270019531,"463":-0.5361626148223877,"464":0.4038696885108948,"465":0.7691117525100708,"466":-0.2655896544456482,"467":-0.2160956710577011,"468":-0.12810292840003967,"469":0.2454223781824112,"470":-0.7712569832801819,"471":0.2978093922138214,"472":-0.47286391258239746,"473":0.7000553607940674,"474":-0.6170477271080017,"475":-0.25469526648521423,"476":-0.31984594464302063,"477":0.2718597948551178,"478":0.4493718445301056,"479":0.3188822567462921,"480":0.18366923928260803,"481":0.37380099296569824,"482":0.009352622553706169,"483":-0.13827846944332123,"484":0.6645376086235046,"485":0.14953282475471497,"486":0.41179677844047546,"487":0.3416920304298401,"488":-0.8852958679199219,"489":0.5563726425170898,"490":0.2390904575586319,"491":0.0042683715000748634,"492":-0.1519773006439209,"493":0.2580307126045227,"494":0.6345506310462952,"495":-0.31212368607521057,"496":0.8841206431388855,"497":-0.7975944876670837,"498":0.35750317573547363,"499":0.42937108874320984}},"outputHidden":{"rows":20,"columns":20,"weights":{"0":0.7513918280601501,"1":0.7466414570808411,"2":1.4351636171340942,"3":1.2350918054580688,"4":0.2229972928762436,"5":0.0607236810028553,"6":-0.16213054955005646,"7":-0.06855221837759018,"8":0.041471850126981735,"9":-0.09934496134519577,"10":-0.44446057081222534,"11":-0.011636055074632168,"12":-0.51228928565979,"13":0.550473153591156,"14":1.1368408203125,"15":0.21251758933067322,"16":-0.46746495366096497,"17":0.0488210953772068,"18":0.007898139767348766,"19":0.02682621031999588,"20":-0.8254778981208801,"21":-0.2800292372703552,"22":0.27266448736190796,"23":0.15982462465763092,"24":-0.18454128503799438,"25":0.39065468311309814,"26":0.236148864030838,"27":-1.0872585773468018,"28":-0.8616528511047363,"29":0.39957118034362793,"30":-0.31081265211105347,"31":-0.7361434698104858,"32":0.011992824263870716,"33":1.452246904373169,"34":-0.043060552328825,"35":0.1539502739906311,"36":1.0758320093154907,"37":-0.05325881019234657,"38":1.032142996788025,"39":1.3580904006958008,"40":0.34823736548423767,"41":0.10060840100049973,"42":0.3811512589454651,"43":0.5557892918586731,"44":-0.23263642191886902,"45":-0.08673479408025742,"46":0.21288229525089264,"47":0.3045695722103119,"48":0.02431931532919407,"49":-0.5030272603034973,"50":0.10847403109073639,"51":0.516789436340332,"52":0.4280211925506592,"53":0.43672701716423035,"54":-0.38249078392982483,"55":-0.08426638692617416,"56":0.4028060734272003,"57":-0.15142153203487396,"58":-0.7483735084533691,"59":0.5661349892616272,"60":-0.36997273564338684,"61":-0.5984268188476562,"62":0.20532001554965973,"63":0.5967038869857788,"64":0.18404333293437958,"65":0.4166545867919922,"66":-0.2273092120885849,"67":-1.2141056060791016,"68":-0.1974298506975174,"69":0.1806928515434265,"70":0.05272289365530014,"71":-0.21327801048755646,"72":0.0931767150759697,"73":0.6334516406059265,"74":-0.0742940679192543,"75":-0.17189796268939972,"76":-0.030828826129436493,"77":0.18031658232212067,"78":0.7132835984230042,"79":0.5038674473762512,"80":0.6476916074752808,"81":0.31322023272514343,"82":0.1270006000995636,"83":0.22285711765289307,"84":-0.6543329954147339,"85":0.8392830491065979,"86":0.520824670791626,"87":-1.3417023420333862,"88":-0.6931925415992737,"89":0.4662311375141144,"90":0.39079299569129944,"91":-0.6294793486595154,"92":-0.15555602312088013,"93":-0.46988144516944885,"94":0.36851727962493896,"95":0.3817143738269806,"96":0.01041750144213438,"97":0.4329014718532562,"98":0.9465870261192322,"99":-0.06589550524950027,"100":-0.17133498191833496,"101":-0.759816586971283,"102":0.11643832176923752,"103":-0.29468318819999695,"104":-0.587060272693634,"105":0.9599825143814087,"106":0.42138102650642395,"107":-1.130111813545227,"108":-0.9243186116218567,"109":0.6223708391189575,"110":0.5197766423225403,"111":-1.2070587873458862,"112":0.10634772479534149,"113":0.19484843313694,"114":0.23297405242919922,"115":0.12177156656980515,"116":0.31857213377952576,"117":-0.1812940090894699,"118":1.540279507637024,"119":0.8195334672927856,"120":0.7635196447372437,"121":0.7830742001533508,"122":-0.2738873362541199,"123":-0.30292272567749023,"124":-0.06952264159917831,"125":0.6800830960273743,"126":0.49037063121795654,"127":-0.2122577279806137,"128":-0.3537883460521698,"129":0.8732510805130005,"130":0.5905568599700928,"131":0.4724772572517395,"132":-0.1578725427389145,"133":-0.6010496020317078,"134":0.5177806615829468,"135":-0.3153384029865265,"136":-0.7119100093841553,"137":-0.5575960278511047,"138":0.2090367078781128,"139":-0.6043918132781982,"140":-0.7063191533088684,"141":-0.04863893613219261,"142":0.7150246500968933,"143":0.17820274829864502,"144":-0.051071614027023315,"145":1.536899447441101,"146":0.9865788221359253,"147":-1.188920259475708,"148":-1.0523749589920044,"149":-0.06354153901338577,"150":0.40760359168052673,"151":-1.5124272108078003,"152":0.7083885073661804,"153":0.6353631019592285,"154":-0.04123353213071823,"155":0.494671493768692,"156":0.041187796741724014,"157":-0.08338138461112976,"158":1.1663247346878052,"159":0.9345679879188538,"160":0.7484059929847717,"161":1.6263246536254883,"162":1.1289619207382202,"163":1.0184229612350464,"164":-0.7574827671051025,"165":0.20727337896823883,"166":0.7573067545890808,"167":-0.4433078169822693,"168":-0.15096716582775116,"169":0.26483848690986633,"170":-0.028483733534812927,"171":-0.28466713428497314,"172":-0.09059767425060272,"173":-0.4285147488117218,"174":0.7373195886611938,"175":0.281308650970459,"176":-0.6209452152252197,"177":-0.6320974826812744,"178":0.003650215920060873,"179":-0.6750648617744446,"180":-0.12246581166982651,"181":-0.4410322904586792,"182":-0.3777690827846527,"183":-0.5072196125984192,"184":0.111982561647892,"185":0.018193338066339493,"186":0.32259583473205566,"187":0.6897079944610596,"188":0.04579649493098259,"189":-0.5132182836532593,"190":-0.24686717987060547,"191":0.1707867980003357,"192":1.112573266029358,"193":-0.9906726479530334,"194":-0.17596843838691711,"195":-0.42622092366218567,"196":-0.5300390124320984,"197":-0.0332762636244297,"198":-1.5799787044525146,"199":-0.8223307132720947,"200":-0.9053656458854675,"201":-0.5365867614746094,"202":-0.3165445029735565,"203":-0.30644792318344116,"204":1.0859642028808594,"205":-0.7142831087112427,"206":-0.9602462649345398,"207":0.6048072576522827,"208":0.3932335674762726,"209":-0.20112483203411102,"210":-0.6331544518470764,"211":0.3454558849334717,"212":0.31599217653274536,"213":-0.3250744640827179,"214":-0.5377956628799438,"215":0.1793162226676941,"216":-0.4092106223106384,"217":0.3444681763648987,"218":-0.16456937789916992,"219":-0.4659404158592224,"220":0.03884626179933548,"221":-0.6981684565544128,"222":-0.755348801612854,"223":-0.5558483004570007,"224":-0.2929683029651642,"225":0.5117167830467224,"226":0.2520156502723694,"227":-1.0431269407272339,"228":-0.6196017265319824,"229":-0.45911744236946106,"230":-0.20448900759220123,"231":-1.2098749876022339,"232":1.0853517055511475,"233":-0.10958103090524673,"234":-0.4126923680305481,"235":-0.18951843678951263,"236":0.17425300180912018,"237":0.13991935551166534,"238":0.15864162147045135,"239":0.15340276062488556,"240":0.36458536982536316,"241":0.07386759668588638,"242":-0.0809183120727539,"243":-0.3837026357650757,"244":-0.46081051230430603,"245":-0.04568255692720413,"246":0.4923180937767029,"247":-0.2393229752779007,"248":0.3210497498512268,"249":-0.2686806321144104,"250":-0.021330906078219414,"251":0.22515656054019928,"252":0.10748029500246048,"253":-0.6625655889511108,"254":0.15496757626533508,"255":-0.3507179021835327,"256":-0.7134870290756226,"257":-0.34353160858154297,"258":-1.043492078781128,"259":-0.6742789149284363,"260":0.03908771649003029,"261":-0.05464380607008934,"262":0.23549315333366394,"263":0.43604928255081177,"264":0.2992402911186218,"265":0.3798649311065674,"266":0.19465313851833344,"267":-0.2035006582736969,"268":-0.23776838183403015,"269":0.2627660036087036,"270":0.03137527406215668,"271":-0.5982568264007568,"272":-0.15499164164066315,"273":0.48885151743888855,"274":-0.013827934861183167,"275":-0.26814278960227966,"276":0.6225963830947876,"277":0.3846266567707062,"278":0.5419209599494934,"279":0.7597756385803223,"280":0.6968371272087097,"281":0.39083802700042725,"282":0.32118675112724304,"283":0.19973650574684143,"284":-0.48679906129837036,"285":0.20743301510810852,"286":0.26959720253944397,"287":-0.7647819519042969,"288":-0.3843488097190857,"289":0.1495390683412552,"290":-0.08266410231590271,"291":-0.4325736463069916,"292":0.11551162600517273,"293":0.6143798232078552,"294":0.2888861894607544,"295":-0.16933396458625793,"296":0.2702152132987976,"297":0.04274342954158783,"298":0.5585097670555115,"299":0.5562323331832886,"300":-0.6293857097625732,"301":-0.7620295882225037,"302":-0.2736000418663025,"303":0.09717053920030594,"304":0.6799002289772034,"305":-0.45509058237075806,"306":-0.7065629959106445,"307":0.5903124809265137,"308":0.751272439956665,"309":0.3905344009399414,"310":0.5249669551849365,"311":-1.0036838054656982,"312":-0.10623349994421005,"313":-0.29438516497612,"314":-0.6674709916114807,"315":-0.20023123919963837,"316":0.28210732340812683,"317":0.0872013121843338,"318":0.7741016149520874,"319":-0.1449848860502243,"320":0.3089926838874817,"321":0.5688081383705139,"322":1.0222482681274414,"323":0.05515012517571449,"324":-0.9447610378265381,"325":0.7484673857688904,"326":1.0337555408477783,"327":-0.5109536051750183,"328":-0.9523335695266724,"329":0.6859365105628967,"330":0.3527424931526184,"331":0.23431146144866943,"332":-0.9389532208442688,"333":0.5016908049583435,"334":0.32415756583213806,"335":1.2133419513702393,"336":0.42787957191467285,"337":-0.9531111717224121,"338":1.088802456855774,"339":0.15086445212364197,"340":-1.267350673675537,"341":-1.048521637916565,"342":-1.3936975002288818,"343":-1.3273335695266724,"344":0.30471789836883545,"345":0.8218133449554443,"346":-0.3586603105068207,"347":-0.7730723023414612,"348":-0.3094995617866516,"349":-0.5989871621131897,"350":-0.46005335450172424,"351":-0.4075280427932739,"352":0.6596336960792542,"353":-0.542283833026886,"354":-1.2916768789291382,"355":-0.09511956572532654,"356":-0.46007031202316284,"357":0.9981834292411804,"358":0.40735378861427307,"359":0.15507957339286804,"360":-0.6866269707679749,"361":-0.5084630846977234,"362":-0.7065426707267761,"363":-0.8087157011032104,"364":-0.658602774143219,"365":0.08588940650224686,"366":0.5697294473648071,"367":0.4137859046459198,"368":-0.28597062826156616,"369":0.766922116279602,"370":-0.02852490544319153,"371":-0.9440611600875854,"372":0.025212476029992104,"373":0.6971051096916199,"374":-0.8822686076164246,"375":-0.7280405163764954,"376":0.25810062885284424,"377":0.17972424626350403,"378":0.7484844923019409,"379":1.0099503993988037,"380":-0.10413987934589386,"381":1.4472891092300415,"382":0.6832797527313232,"383":0.6799147129058838,"384":-0.15887987613677979,"385":0.030090080574154854,"386":0.37032008171081543,"387":0.041755981743335724,"388":-0.4287348985671997,"389":0.37336108088493347,"390":0.5414524078369141,"391":0.5510411858558655,"392":-0.008954293094575405,"393":0.8449447751045227,"394":-0.05195986106991768,"395":0.799883246421814,"396":0.6334683895111084,"397":-1.6886813640594482,"398":-0.6816138029098511,"399":0.6968784332275391}},"outputBias":{"rows":20,"columns":1,"weights":{"0":-0.7211143374443054,"1":0.1256827563047409,"2":0.5917536616325378,"3":-0.37533649802207947,"4":-0.8866384029388428,"5":-0.8486480712890625,"6":-0.2694711685180664,"7":-0.8099495768547058,"8":-0.33721375465393066,"9":0.27541667222976685,"10":0.23489779233932495,"11":-0.3180347979068756,"12":0.34367987513542175,"13":-0.36267852783203125,"14":-0.7153804898262024,"15":-0.28877103328704834,"16":0.31664764881134033,"17":0.2454850971698761,"18":1.04857337474823,"19":-0.8262706995010376}},"cellActivationMatrix":{"rows":20,"columns":25,"weights":{"0":-0.6147577166557312,"1":0.09927905350923538,"2":0.44378426671028137,"3":-0.007255338132381439,"4":-0.06392556428909302,"5":0.2950465977191925,"6":-0.14758828282356262,"7":0.5663725137710571,"8":-0.5903137922286987,"9":-0.09487807005643845,"10":0.43024611473083496,"11":-0.2101420909166336,"12":0.46412423253059387,"13":0.9386895895004272,"14":-0.17145419120788574,"15":-0.152549147605896,"16":0.4510909914970398,"17":0.3043038547039032,"18":0.6302787661552429,"19":-0.7956923246383667,"20":0.8144806623458862,"21":-0.48537716269493103,"22":0.4363671541213989,"23":-0.26795199513435364,"24":0.31805533170700073,"25":-0.43351876735687256,"26":-0.22653351724147797,"27":-0.48001858592033386,"28":-0.048782654106616974,"29":-0.5791081190109253,"30":-0.14868395030498505,"31":-0.9382967948913574,"32":0.11761994659900665,"33":-0.5516590476036072,"34":0.11219728738069534,"35":0.7034331560134888,"36":-0.028531616553664207,"37":-0.6515262722969055,"38":-1.1379858255386353,"39":-0.49531787633895874,"40":-0.3404972553253174,"41":0.4146135449409485,"42":-0.04435192048549652,"43":0.41589730978012085,"44":-0.23928800225257874,"45":-0.27065518498420715,"46":0.19021697342395782,"47":-0.17210786044597626,"48":-0.08825338631868362,"49":0.478351891040802,"50":-0.37984079122543335,"51":0.12332325428724289,"52":1.5048370361328125,"53":0.3127504587173462,"54":0.6823855638504028,"55":1.286977767944336,"56":0.573508083820343,"57":-0.01184240635484457,"58":-0.1782791018486023,"59":0.27239906787872314,"60":1.3529911041259766,"61":-0.7535357475280762,"62":0.02464577741920948,"63":-1.183072805404663,"64":-1.1024529933929443,"65":-0.517814576625824,"66":0.7789114117622375,"67":0.5652686953544617,"68":1.3083720207214355,"69":0.4557139575481415,"70":0.5077366232872009,"71":0.19648993015289307,"72":-0.4151688814163208,"73":-0.37689852714538574,"74":1.1882660388946533,"75":-1.8328489065170288,"76":0.24871711432933807,"77":1.0257987976074219,"78":0.16899751126766205,"79":-0.16419237852096558,"80":0.8174391388893127,"81":-0.329113632440567,"82":0.2557576894760132,"83":-0.47178539633750916,"84":0.14468488097190857,"85":1.2225446701049805,"86":-0.2639533579349518,"87":-0.4540746510028839,"88":-0.8411222696304321,"89":-0.6233860850334167,"90":-0.7122136354446411,"91":1.0924564599990845,"92":0.7018569707870483,"93":0.9486015439033508,"94":0.19278492033481598,"95":-0.016666822135448456,"96":0.25830280780792236,"97":-0.3022627830505371,"98":-0.42044416069984436,"99":2.1155388355255127,"100":-0.008197464980185032,"101":0.6336079835891724,"102":-0.04952177032828331,"103":-0.5863165259361267,"104":-0.028604108840227127,"105":0.6532824039459229,"106":-0.058158714324235916,"107":0.3491256535053253,"108":-0.18704353272914886,"109":-0.8478622436523438,"110":-0.08012387901544571,"111":0.2770208716392517,"112":-0.08100330084562302,"113":1.226542592048645,"114":0.10951603204011917,"115":-0.22734856605529785,"116":0.555122971534729,"117":0.6692970395088196,"118":-0.19581003487110138,"119":-0.1360507607460022,"120":0.745206892490387,"121":-0.8110271692276001,"122":0.9068990349769592,"123":-0.573634922504425,"124":-0.12758485972881317,"125":0.1700352281332016,"126":-0.30971211194992065,"127":0.44175589084625244,"128":0.6804632544517517,"129":0.9117475152015686,"130":-0.29338064789772034,"131":1.5227867364883423,"132":-0.31235188245773315,"133":0.5519835948944092,"134":0.28155317902565,"135":-0.7294660210609436,"136":-0.4712725281715393,"137":1.1531991958618164,"138":-0.5953063368797302,"139":0.45704224705696106,"140":0.17733505368232727,"141":-0.3596508204936981,"142":-0.34272268414497375,"143":-0.4989953935146332,"144":0.3684522807598114,"145":-0.4835428297519684,"146":0.2707720994949341,"147":-0.3957856595516205,"148":0.5696445107460022,"149":-0.6398323774337769,"150":-0.21628159284591675,"151":-0.47306811809539795,"152":0.3188154697418213,"153":0.46251195669174194,"154":0.10555366426706314,"155":0.012443169951438904,"156":0.06865648180246353,"157":-0.7473702430725098,"158":0.17128659784793854,"159":0.7369276285171509,"160":0.08706159144639969,"161":-0.014753074385225773,"162":0.09250179678201675,"163":-0.6412559151649475,"164":-0.013171353377401829,"165":0.3485214412212372,"166":-0.07846790552139282,"167":-0.2708883583545685,"168":0.1430588662624359,"169":0.8892220854759216,"170":-0.5603062510490417,"171":0.5171741247177124,"172":-0.541068971157074,"173":0.28071045875549316,"174":0.24984978139400482,"175":0.8559262752532959,"176":0.17600515484809875,"177":-0.5996814966201782,"178":-0.3713637590408325,"179":-0.7171500325202942,"180":-0.18398553133010864,"181":-1.045284628868103,"182":0.1412927508354187,"183":-0.20971879363059998,"184":-0.24420166015625,"185":-0.15152882039546967,"186":-0.4547266662120819,"187":-0.7449542880058289,"188":1.306593656539917,"189":-0.6101264953613281,"190":-0.2957877814769745,"191":-0.009885831736028194,"192":0.08813433349132538,"193":-0.20366770029067993,"194":-1.199265480041504,"195":0.12701871991157532,"196":-0.9167569279670715,"197":1.0251878499984741,"198":-0.39993229508399963,"199":-0.2581125497817993,"200":0.03410659730434418,"201":0.23082704842090607,"202":-0.4246959388256073,"203":-0.42424365878105164,"204":-0.4968527555465698,"205":0.5057523250579834,"206":-0.32559657096862793,"207":0.310118168592453,"208":-0.7306307554244995,"209":-0.34576210379600525,"210":0.518853485584259,"211":-0.06419011950492859,"212":-0.8550876379013062,"213":0.6655606627464294,"214":-0.49311771988868713,"215":-0.2145587056875229,"216":0.3788779675960541,"217":0.299047589302063,"218":0.5670170783996582,"219":-0.8567195534706116,"220":0.5262362957000732,"221":-0.2684183716773987,"222":0.5881505012512207,"223":-0.318699449300766,"224":0.4480475187301636,"225":0.10349973291158676,"226":-0.42053571343421936,"227":-0.4212038218975067,"228":0.5196419954299927,"229":-0.1690721958875656,"230":-0.05045543983578682,"231":-0.5885988473892212,"232":-1.3047356605529785,"233":0.5995312929153442,"234":1.3521307706832886,"235":0.0068053388968110085,"236":-0.9562363624572754,"237":-0.6379318237304688,"238":-1.5209228992462158,"239":-0.4571695029735565,"240":-0.09813659638166428,"241":-0.7307332754135132,"242":-0.030717507004737854,"243":0.19169014692306519,"244":0.5219882130622864,"245":-0.42968040704727173,"246":0.9372774958610535,"247":-0.8771293759346008,"248":0.2733217775821686,"249":0.30478161573410034,"250":0.7057074308395386,"251":-1.0109906196594238,"252":-0.4099915027618408,"253":1.0057923793792725,"254":-0.16052652895450592,"255":-0.47264885902404785,"256":-0.11077564209699631,"257":-1.4011704921722412,"258":1.2127017974853516,"259":1.3346112966537476,"260":-0.8328206539154053,"261":-0.8556751608848572,"262":-0.25839677453041077,"263":-0.94753497838974,"264":0.45382827520370483,"265":-0.49276983737945557,"266":-1.4288750886917114,"267":-0.7365572452545166,"268":-0.6644830703735352,"269":0.7408308386802673,"270":-0.9029210209846497,"271":0.7774444222450256,"272":-1.0374504327774048,"273":0.9695890545845032,"274":-0.9869465827941895,"275":-0.2677042782306671,"276":0.0803443118929863,"277":-0.9086946249008179,"278":0.46970006823539734,"279":-0.9783728122711182,"280":-0.32982197403907776,"281":-1.007926344871521,"282":-0.5378086566925049,"283":-0.04684905707836151,"284":0.792909562587738,"285":-0.13523581624031067,"286":-0.6898545622825623,"287":-1.0937836170196533,"288":0.332369863986969,"289":-0.8637933731079102,"290":-0.9052280783653259,"291":-0.6286579966545105,"292":0.692789614200592,"293":-0.20213010907173157,"294":-0.5130717754364014,"295":0.26446598768234253,"296":-0.3357061743736267,"297":-0.029160046949982643,"298":-0.5709079504013062,"299":0.07249951362609863,"300":-0.14733339846134186,"301":-0.5753313302993774,"302":0.002501219045370817,"303":-0.04306511953473091,"304":0.026030557230114937,"305":-0.4647335708141327,"306":0.770248532295227,"307":0.5830101370811462,"308":-0.07655368000268936,"309":-0.5091360807418823,"310":-0.45285794138908386,"311":1.4218276739120483,"312":0.3725760877132416,"313":0.3783309757709503,"314":0.692340612411499,"315":0.04405045136809349,"316":0.34225085377693176,"317":-0.5811648964881897,"318":-0.6687065362930298,"319":0.229653999209404,"320":-0.2984246015548706,"321":-0.10229336470365524,"322":0.15937356650829315,"323":0.15568843483924866,"324":-0.7819533944129944,"325":-0.4926871955394745,"326":0.0017295294674113393,"327":0.06641849875450134,"328":0.6237152218818665,"329":0.3176991641521454,"330":0.9691542387008667,"331":0.8094926476478577,"332":-0.9712582230567932,"333":-0.2668159306049347,"334":1.2526644468307495,"335":1.250205397605896,"336":0.08803676813840866,"337":-0.2159401923418045,"338":-1.0405579805374146,"339":0.15780416131019592,"340":-0.5059365034103394,"341":-0.42960643768310547,"342":-0.44910627603530884,"343":0.31954634189605713,"344":1.9452711343765259,"345":-0.34368896484375,"346":0.4916563928127289,"347":-0.9010593891143799,"348":0.5211657285690308,"349":0.919866144657135,"350":-0.6719791889190674,"351":-0.12743492424488068,"352":0.7876548767089844,"353":0.55295330286026,"354":0.7533090114593506,"355":0.5308904647827148,"356":0.7614578604698181,"357":0.3018609583377838,"358":-0.4427456557750702,"359":0.3084809482097626,"360":0.36499330401420593,"361":0.27408045530319214,"362":0.6329329609870911,"363":0.19203154742717743,"364":0.05291445925831795,"365":0.4652588367462158,"366":0.15003544092178345,"367":0.14385823905467987,"368":0.5548866987228394,"369":0.04072607681155205,"370":0.26680105924606323,"371":-0.0942341610789299,"372":-0.08300352096557617,"373":-0.2600872814655304,"374":0.682762086391449,"375":-0.27206286787986755,"376":-0.746295690536499,"377":-0.15882892906665802,"378":1.0425243377685547,"379":-0.6490923762321472,"380":-0.5366634726524353,"381":0.21969673037528992,"382":-1.3406908512115479,"383":0.34873878955841064,"384":1.4055445194244385,"385":-0.37523892521858215,"386":-0.3855251669883728,"387":-0.4829464256763458,"388":-0.9838348031044006,"389":0.1203712448477745,"390":-0.6506108045578003,"391":-1.041879653930664,"392":-0.4260806441307068,"393":-0.34163400530815125,"394":0.9099669456481934,"395":-0.9481383562088013,"396":0.9904298782348633,"397":-1.1431539058685303,"398":0.39814168214797974,"399":-0.3046497106552124,"400":0.19280731678009033,"401":0.15496531128883362,"402":-0.641862154006958,"403":0.3071971535682678,"404":-0.7088878154754639,"405":-0.28620415925979614,"406":-0.010451411828398705,"407":0.1036827564239502,"408":0.4939298629760742,"409":-0.2643393576145172,"410":-0.33416953682899475,"411":-0.4189121723175049,"412":-1.1767770051956177,"413":-0.3664519488811493,"414":-0.46375077962875366,"415":-0.7813955545425415,"416":-0.8841335773468018,"417":-0.07805368304252625,"418":-0.35141512751579285,"419":0.17989063262939453,"420":0.35316839814186096,"421":0.13588260114192963,"422":-0.29881152510643005,"423":0.20487026870250702,"424":-0.5201191306114197,"425":-0.7091794013977051,"426":1.210665225982666,"427":0.26272374391555786,"428":0.3164859116077423,"429":0.9395318031311035,"430":0.7387165427207947,"431":0.5797216892242432,"432":1.2819178104400635,"433":-1.2485138177871704,"434":-1.0964263677597046,"435":0.02782975509762764,"436":0.6589289307594299,"437":0.960814893245697,"438":0.8290020227432251,"439":0.46207794547080994,"440":0.17227213084697723,"441":0.8517919182777405,"442":1.1594969034194946,"443":0.723609209060669,"444":-1.4624577760696411,"445":0.4458492398262024,"446":-1.2552648782730103,"447":1.0574489831924438,"448":-0.10033794492483139,"449":0.40390700101852417,"450":0.16475486755371094,"451":-0.35763978958129883,"452":0.476916640996933,"453":0.5992941856384277,