{"type":"LSTM","options":{"inputSize":33,"inputRange":33,"hiddenLayers":[20,20],"outputSize":33,"decayRate":0.999,"smoothEps":1e-8,"regc":0.000001,"clipval":5,"maxPredictionLength":100,"dataFormatter":{"values":["show me the data betwween 1880 and 2019","range","show me the data from 1885 to 2014","show me the data betwween 1950 and 1960","show me the data of the past ten years","show me the range of the past 30 years","average of the data","non-range","tell me the median","tell me the average","what is the standard deviation"],"indexTable":{"0":14,"1":12,"2":15,"3":25,"4":21,"5":20,"6":22,"8":13,"9":16,"s":0,"h":1,"o":2,"w":3," ":4,"m":5,"e":6,"t":7,"d":8,"a":9,"b":10,"n":11,"r":17,"g":18,"f":19,"p":23,"y":24,"v":26,"-":27,"l":28,"i":29,"stop-input":30,"start-output":31,"unrecognized":32},"characterTable":{"0":"s","1":"h","2":"o","3":"w","4":" ","5":"m","6":"e","7":"t","8":"d","9":"a","10":"b","11":"n","12":"1","13":"8","14":"0","15":"2","16":"9","17":"r","18":"g","19":"f","20":"5","21":"4","22":"6","23":"p","24":"y","25":"3","26":"v","27":"-","28":"l","29":"i","30":null,"31":null,"32":null},"characters":["s","h","o","w"," ","m","e","t","d","a","b","n","1","8","0","2","9","r","g","f","5","4","6","p","y","3","v","-","l","i","stop-input","start-output","unrecognized"],"specialIndexes":[30,31,32]}},"input":{"rows":34,"columns":33,"weights":{"0":0.8522982001304626,"1":0.2329360693693161,"2":-0.052940718829631805,"3":-0.18429984152317047,"4":-0.5890514850616455,"5":-0.13071326911449432,"6":0.6122138500213623,"7":0.009170826524496078,"8":-0.2843463122844696,"9":-0.16693443059921265,"10":-0.16507373750209808,"11":0.13787493109703064,"12":-1.1519465446472168,"13":-0.793624222278595,"14":-0.05810505524277687,"15":0.29195380210876465,"16":0.8440033793449402,"17":-0.4379947781562805,"18":0.9298570156097412,"19":-0.03453393653035164,"20":0.0387226901948452,"21":0.012078717350959778,"22":-0.7232904434204102,"23":-0.8568247556686401,"24":0.4169762134552002,"25":0.014955763705074787,"26":-0.13398288190364838,"27":-0.37488919496536255,"28":0.9435024857521057,"29":0.7232699394226074,"30":-0.6798525452613831,"31":0.3975597321987152,"32":0.5808555483818054,"33":0.43994978070259094,"34":0.4195655882358551,"35":0.7268267273902893,"36":0.5586292743682861,"37":-0.2529354989528656,"38":-0.40047240257263184,"39":0.016284985467791557,"40":0.49317508935928345,"41":0.7506619095802307,"42":-0.1140252947807312,"43":0.6662244200706482,"44":0.5264818072319031,"45":-0.08692343533039093,"46":-0.12683117389678955,"47":-0.6204003095626831,"48":0.4231840670108795,"49":-0.09613446146249771,"50":0.12818437814712524,"51":0.28978344798088074,"52":0.5377839803695679,"53":-0.5852372646331787,"54":0.6244310140609741,"55":0.03228848800063133,"56":0.4166117310523987,"57":0.8784689903259277,"58":0.4322143495082855,"59":-0.4905797839164734,"60":0.12591814994812012,"61":-0.048766110092401505,"62":0.10552828013896942,"63":-0.3561588525772095,"64":0.3016807734966278,"65":0.28145918250083923,"66":0.7210832238197327,"67":0.9259925484657288,"68":0.4484964907169342,"69":0.49389949440956116,"70":-0.942201554775238,"71":-0.4803446829319,"72":0.4253178536891937,"73":-0.05208776146173477,"74":0.4297226071357727,"75":0.7518954277038574,"76":0.31330230832099915,"77":0.23958683013916016,"78":-1.0910320281982422,"79":-1.3413540124893188,"80":-0.5696500539779663,"81":0.8729556798934937,"82":0.5069503784179688,"83":-0.5120275616645813,"84":0.7407419681549072,"85":0.011682357639074326,"86":-0.34997427463531494,"87":0.10841412842273712,"88":-0.05377911031246185,"89":-0.44708821177482605,"90":0.26052653789520264,"91":0.3768896460533142,"92":-0.7812406420707703,"93":-0.629791796207428,"94":0.3918828070163727,"95":0.5775447487831116,"96":-0.5556260347366333,"97":0.8400187492370605,"98":0.9121971130371094,"99":-0.8084192276000977,"100":-1.2422541379928589,"101":-1.540320873260498,"102":-1.5903857946395874,"103":0.17385941743850708,"104":0.9818911552429199,"105":0.32785165309906006,"106":-0.8190985321998596,"107":-0.7199322581291199,"108":-0.3039265275001526,"109":-0.4968583881855011,"110":-0.5958640575408936,"111":0.5348615050315857,"112":-0.17202481627464294,"113":1.0185961723327637,"114":0.10232505202293396,"115":0.4240961968898773,"116":0.5625278353691101,"117":-0.3171859681606293,"118":0.08800561726093292,"119":0.7078278660774231,"120":-1.4678025245666504,"121":-0.9888670444488525,"122":-1.163548231124878,"123":0.8857532739639282,"124":-1.5010488033294678,"125":1.3281404972076416,"126":0.1481589376926422,"127":0.3473404049873352,"128":-0.7767629027366638,"129":0.6941756010055542,"130":-0.5379970073699951,"131":0.7050296068191528,"132":1.359146237373352,"133":0.5241649746894836,"134":0.1872871071100235,"135":0.5944200158119202,"136":-0.6686652302742004,"137":0.36790597438812256,"138":0.14011569321155548,"139":-1.314100742340088,"140":-0.6809006333351135,"141":2.1630172729492188,"142":-1.16631019115448,"143":1.4508028030395508,"144":-1.6254498958587646,"145":-0.9749723672866821,"146":0.08765095472335815,"147":-1.5707935094833374,"148":0.0024973684921860695,"149":0.5929437875747681,"150":1.1939247846603394,"151":-0.8312496542930603,"152":0.6709060072898865,"153":-0.800675630569458,"154":0.4371224343776703,"155":0.18952645361423492,"156":0.21931248903274536,"157":0.11179731786251068,"158":-0.04144689813256264,"159":-0.3289189636707306,"160":0.6742992997169495,"161":0.6789045333862305,"162":-1.1569483280181885,"163":0.06089651584625244,"164":0.7058208584785461,"165":0.5583773255348206,"166":1.0671440362930298,"167":1.2038248777389526,"168":0.8123841285705566,"169":-0.550471842288971,"170":0.3648257851600647,"171":0.37484320998191833,"172":1.1694139242172241,"173":1.464138150215149,"174":-0.7858234643936157,"175":1.6645326614379883,"176":1.0195376873016357,"177":0.11969103664159775,"178":-0.8093068599700928,"179":-1.2456670999526978,"180":1.055257797241211,"181":0.1954302191734314,"182":0.2381213754415512,"183":0.07210557907819748,"184":1.7817976474761963,"185":-1.5534836053848267,"186":0.7593515515327454,"187":-0.014471275731921196,"188":-0.26431572437286377,"189":-0.5314477682113647,"190":1.606276035308838,"191":-1.17269766330719,"192":-0.33032506704330444,"193":0.3406199812889099,"194":-0.0717705711722374,"195":-0.5889878273010254,"196":1.0903558731079102,"197":-0.29684919118881226,"198":-0.9328442215919495,"199":-0.7910667657852173,"200":-1.017149806022644,"201":-0.9215260744094849,"202":-0.5501396656036377,"203":0.8121017813682556,"204":0.060167618095874786,"205":-1.2771456241607666,"206":-0.6264179348945618,"207":0.10789467394351959,"208":-0.2499203383922577,"209":-0.9322855472564697,"210":0.5237594842910767,"211":-0.6205071210861206,"212":0.6966356039047241,"213":0.22756116092205048,"214":0.9634593725204468,"215":0.548158586025238,"216":-0.07447458803653717,"217":0.2611686885356903,"218":0.9635097980499268,"219":-1.323238730430603,"220":-0.16735169291496277,"221":-0.5804235339164734,"222":-0.08912485092878342,"223":-0.7688241600990295,"224":0.6457962393760681,"225":-0.8883663415908813,"226":0.1848088949918747,"227":-0.054931920021772385,"228":1.2400949001312256,"229":-0.07398640364408493,"230":1.1238181591033936,"231":0.40616875886917114,"232":0.7747091054916382,"233":0.4692932963371277,"234":0.33676841855049133,"235":0.01700276881456375,"236":-0.5596310496330261,"237":-1.2112504243850708,"238":0.1951308399438858,"239":0.03576624020934105,"240":1.076990008354187,"241":0.15372326970100403,"242":0.026618648320436478,"243":0.050773609429597855,"244":-0.19128459692001343,"245":-0.7808332443237305,"246":0.34624212980270386,"247":-0.6751522421836853,"248":-0.9381975531578064,"249":-0.31892502307891846,"250":-0.9618976712226868,"251":-0.2010900378227234,"252":0.5837266445159912,"253":1.1645675897598267,"254":1.1428755521774292,"255":-0.31003597378730774,"256":0.2631213963031769,"257":-0.6421691179275513,"258":0.39517223834991455,"259":-1.3848416805267334,"260":-0.14173075556755066,"261":-0.47700536251068115,"262":0.8288541436195374,"263":-0.6037433743476868,"264":1.237515926361084,"265":0.6560634970664978,"266":0.7272006869316101,"267":0.6910805106163025,"268":-0.01614244282245636,"269":-0.9016122817993164,"270":0.41014087200164795,"271":0.8424413204193115,"272":0.7249850630760193,"273":-0.6882579326629639,"274":0.8617756366729736,"275":0.5393373966217041,"276":-0.9326964616775513,"277":0.1608523577451706,"278":-0.9357618093490601,"279":1.016606330871582,"280":0.12474096566438675,"281":-0.39190569519996643,"282":-0.2720435559749603,"283":1.0385836362838745,"284":-0.7768334150314331,"285":0.8349001407623291,"286":-0.36358654499053955,"287":-0.4085131287574768,"288":0.41294169425964355,"289":0.7257501482963562,"290":-0.6806632876396179,"291":0.926278829574585,"292":0.39136332273483276,"293":1.0675008296966553,"294":-1.0900437831878662,"295":1.0138505697250366,"296":-0.23818199336528778,"297":-0.6973651051521301,"298":-0.008125064894557,"299":-0.018482755869627,"300":0.525660514831543,"301":1.6379063129425049,"302":0.1319020390510559,"303":-0.5439452528953552,"304":-0.5269796848297119,"305":-0.6638787984848022,"306":-0.1888304352760315,"307":-0.8588929772377014,"308":-1.3720308542251587,"309":0.733146607875824,"310":1.9788336753845215,"311":0.5719292759895325,"312":-0.889458179473877,"313":-2.130481004714966,"314":-0.34901511669158936,"315":-0.2620806097984314,"316":-0.6150943040847778,"317":0.619415819644928,"318":-0.1077396497130394,"319":0.6271107792854309,"320":1.79325270652771,"321":-0.39766934514045715,"322":0.4151628017425537,"323":0.06607220321893692,"324":2.1306192874908447,"325":-1.6490743160247803,"326":-0.7230803966522217,"327":1.0531296730041504,"328":-1.7665398120880127,"329":-2.3676154613494873,"330":-0.47259247303009033,"331":-0.3859495520591736,"332":-0.1862994134426117,"333":-0.22636298835277557,"334":0.48413828015327454,"335":-0.5139622092247009,"336":0.9942407608032227,"337":0.863269567489624,"338":-0.3530331552028656,"339":0.06297373026609421,"340":-0.13610120117664337,"341":-1.0119552612304688,"342":0.1869138479232788,"343":-0.34515631198883057,"344":0.3673941493034363,"345":-0.07992225885391235,"346":0.5075023174285889,"347":-0.26575401425361633,"348":-0.25294819474220276,"349":-0.0313250832259655,"350":0.3209317624568939,"351":-0.340353399515152,"352":-0.7441746592521667,"353":-0.20125113427639008,"354":-0.18067486584186554,"355":0.13682614266872406,"356":0.3128568232059479,"357":0.7542339563369751,"358":0.4635479152202606,"359":0.685823380947113,"360":0.34150931239128113,"361":-0.6115351319313049,"362":-0.7591553330421448,"363":-0.19620062410831451,"364":-0.045074716210365295,"365":1.6510372161865234,"366":1.1424059867858887,"367":0.24710842967033386,"368":0.8707244992256165,"369":-0.1510077267885208,"370":0.7118324637413025,"371":2.155534029006958,"372":0.09456472098827362,"373":1.9923642873764038,"374":1.335609793663025,"375":2.7721848487854004,"376":3.1639161109924316,"377":-1.1863261461257935,"378":0.8425779938697815,"379":-0.7414709329605103,"380":1.2295960187911987,"381":-0.6564174294471741,"382":0.900675892829895,"383":-2.1456899642944336,"384":2.126617431640625,"385":0.16262714564800262,"386":0.3613571524620056,"387":-2.340651512145996,"388":1.7708306312561035,"389":-0.9366890788078308,"390":-0.5038342475891113,"391":-0.6017057299613953,"392":-1.9301649332046509,"393":0.3148525655269623,"394":0.007024418096989393,"395":-0.9761618971824646,"396":0.9645989537239075,"397":0.19294863939285278,"398":0.15957778692245483,"399":0.05718362331390381,"400":-0.2292693853378296,"401":0.24037711322307587,"402":0.5401005744934082,"403":-0.4636353552341461,"404":0.1437230259180069,"405":0.6575804948806763,"406":0.05066648870706558,"407":0.6996377110481262,"408":-0.5333350300788879,"409":0.4075261950492859,"410":-0.34258797764778137,"411":0.1502590775489807,"412":0.06449519842863083,"413":0.4333799481391907,"414":0.18610578775405884,"415":-0.22767503559589386,"416":-0.13841184973716736,"417":0.009168623946607113,"418":-0.2468559741973877,"419":-0.5693720579147339,"420":-0.26149091124534607,"421":-0.4237065017223358,"422":0.0810137540102005,"423":-1.0647661685943604,"424":0.05343915894627571,"425":-1.1218746900558472,"426":-0.9560093879699707,"427":1.050478219985962,"428":1.0119823217391968,"429":0.28906533122062683,"430":-0.7324317097663879,"431":-1.1620168685913086,"432":-0.8860886096954346,"433":1.0447455644607544,"434":-1.5451842546463013,"435":3.228936195373535,"436":0.36091870069503784,"437":-1.856872797012329,"438":0.45434197783470154,"439":-1.3567945957183838,"440":-3.3880159854888916,"441":-1.0732519626617432,"442":-2.476750373840332,"443":0.9910083413124084,"444":0.6170399785041809,"445":2.8399550914764404,"446":-2.1745784282684326,"447":-0.287846177816391,"448":-1.8845350742340088,"449":1.5485000610351562,"450":-1.4064468145370483,"451":-2.5089974403381348,"452":1.1877834796905518,"453":1.0141446590423584,"454":-0.9355280995368958,"455":0.815486490726471,"456":0.6065035462379456,"457":-0.4642149806022644,"458":3.04240345954895,"459":-0.43228334188461304,"460":-2.4464356899261475,"461":-0.6423010230064392,"462":0.5172550082206726,"463":-0.09738922119140625,"464":-0.1495325118303299,"465":-0.25908854603767395,"466":-0.7258210182189941,"467":-0.22263476252555847,"468":1.4926215410232544,"469":0.6009728312492371,"470":-0.011251107789576054,"471":1.60017991065979,"472":0.06347350031137466,"473":-0.16330112516880035,"474":-1.7730140686035156,"475":-1.391661286354065,"476":0.11031004041433334,"477":0.5197177529335022,"478":2.61991024017334,"479":-0.42594531178474426,"480":1.175671100616455,"481":-3.115663766860962,"482":0.05987606942653656,"483":-0.2850521206855774,"484":-1.108413577079773,"485":-0.00831496063619852,"486":1.4722028970718384,"487":0.07872004806995392,"488":-0.07528122514486313,"489":-0.18879692256450653,"490":1.58616042137146,"491":0.8475441336631775,"492":-0.4284418821334839,"493":0.11039568483829498,"494":-0.22278423607349396,"495":1.6162874698638916,"496":0.17536437511444092,"497":0.156497523188591,"498":0.9907325506210327,"499":-1.5138638019561768,"500":0.6935463547706604,"501":1.4995319843292236,"502":-2.0861220359802246,"503":-2.3117387294769287,"504":2.3153605461120605,"505":-1.677381157875061,"506":-2.254741907119751,"507":-1.956125259399414,"508":-2.245323896408081,"509":1.233931303024292,"510":-2.094937324523926,"511":1.1490521430969238,"512":0.5500578284263611,"513":1.3748170137405396,"514":-0.7446150779724121,"515":1.4605094194412231,"516":-1.7906296253204346,"517":-0.4760241210460663,"518":0.3298957049846649,"519":1.3722190856933594,"520":0.128683939576149,"521":0.9132950305938721,"522":-0.3849520981311798,"523":1.6788822412490845,"524":1.940672516822815,"525":-0.9737637639045715,"526":-3.1275506019592285,"527":0.24916419386863708,"528":-2.613176107406616,"529":-2.407233238220215,"530":-0.7383114695549011,"531":-0.7723823189735413,"532":1.3878636360168457,"533":1.4645746946334839,"534":-0.43252480030059814,"535":-1.5358232259750366,"536":-0.8654049038887024,"537":-0.24953405559062958,"538":-0.22312891483306885,"539":-2.450701951980591,"540":2.6387851238250732,"541":0.9201462268829346,"542":2.126685857772827,"543":-2.3306305408477783,"544":-1.3947391510009766,"545":0.8804017305374146,"546":-1.3598027229309082,"547":-1.3240907192230225,"548":-0.49400773644447327,"549":0.8630262613296509,"550":-0.4188385307788849,"551":0.034240417182445526,"552":-0.25755929946899414,"553":-0.6781469583511353,"554":1.8985475301742554,"555":1.2600616216659546,"556":-1.1612811088562012,"557":-1.7254363298416138,"558":1.9780125617980957,"559":-2.6233086585998535,"560":-0.09407827258110046,"561":1.1150195598602295,"562":-0.22131526470184326,"563":-1.8448765277862549,"564":-1.2547799348831177,"565":-0.8025620579719543,"566":-2.4580650329589844,"567":0.4777892827987671,"568":-0.3763744831085205,"569":-1.5446374416351318,"570":-1.2852590084075928,"571":-1.3510524034500122,"572":-0.8629341125488281,"573":-2.366952657699585,"574":-3.7559280395507812,"575":0.8683285713195801,"576":1.3707412481307983,"577":0.05299387872219086,"578":-2.991478681564331,"579":0.6412672996520996,"580":0.8217659592628479,"581":1.1899161338806152,"582":-0.8992985486984253,"583":-0.36676886677742004,"584":-1.0113449096679688,"585":-0.9976532459259033,"586":-2.108926296234131,"587":1.3349759578704834,"588":0.8178200721740723,"589":0.3491709232330322,"590":3.2145931720733643,"591":-1.3885364532470703,"592":1.362239956855774,"593":0.6645612716674805,"594":1.0266164541244507,"595":0.25702789425849915,"596":0.4606877863407135,"597":0.5942745804786682,"598":-0.9400962591171265,"599":-0.6540396809577942,"600":0.44406548142433167,"601":0.36127299070358276,"602":0.5673620700836182,"603":0.236859992146492,"604":0.5027682185173035,"605":0.11332327127456665,"606":-0.46702879667282104,"607":-1.1435264348983765,"608":-0.67075514793396,"609":1.015296220779419,"610":0.545230507850647,"611":-0.2334572821855545,"612":0.8285748958587646,"613":0.16592173278331757,"614":-0.46794453263282776,"615":0.4550834596157074,"616":0.01834653876721859,"617":0.205185204744339,"618":-0.17182065546512604,"619":-0.021797388792037964,"620":-0.7224340438842773,"621":-0.6046246290206909,"622":0.37112441658973694,"623":0.8013097643852234,"624":-0.9383462071418762,"625":0.7145723104476929,"626":0.028275635093450546,"627":-0.19954176247119904,"628":-0.4796414375305176,"629":0.8553208708763123,"630":1.5794224739074707,"631":0.004725208505988121,"632":-0.05124985799193382,"633":0.3997268080711365,"634":0.8179625272750854,"635":1.7327736616134644,"636":-1.104278802871704,"637":1.6395368576049805,"638":0.7166383862495422,"639":1.305393099784851,"640":1.015410304069519,"641":-0.04132995754480362,"642":1.0008745193481445,"643":-0.7469584345817566,"644":0.686424970626831,"645":-0.5930501818656921,"646":1.4931628704071045,"647":-1.6976089477539062,"648":1.4002459049224854,"649":-0.35932430624961853,"650":0.17818725109100342,"651":-1.5269877910614014,"652":1.284514307975769,"653":0.0391165055334568,"654":0.4452212452888489,"655":-0.25360575318336487,"656":-1.0401809215545654,"657":0.3404878079891205,"658":-0.4477524757385254,"659":-0.6216021776199341,"660":0.5193297863006592,"661":1.5355587005615234,"662":1.435321569442749,"663":1.7691336870193481,"664":-0.33982133865356445,"665":-1.626171350479126,"666":-0.25238439440727234,"667":1.323536992073059,"668":0.18109437823295593,"669":0.9428704380989075,"670":0.9079022407531738,"671":-0.6001797318458557,"672":-0.48697277903556824,"673":-1.3029290437698364,"674":-1.330601692199707,"675":0.9096468687057495,"676":-0.2817629277706146,"677":-1.433717131614685,"678":0.15182745456695557,"679":0.14601795375347137,"680":-1.133020281791687,"681":1.200758934020996,"682":1.0691553354263306,"683":0.9857197999954224,"684":-0.36429253220558167,"685":1.4881856441497803,"686":-1.5829545259475708,"687":0.4200807809829712,"688":-0.9342475533485413,"689":0.6052536964416504,"690":-0.32503947615623474,"691":1.8848310708999634,"692":0.11592482030391693,"693":-1.2419593334197998,"694":-1.9367603063583374,"695":-1.9819201231002808,"696":-0.9702304005622864,"697":1.0882315635681152,"698":1.4841195344924927,"699":1.0158346891403198,"700":-2.4094271659851074,"701":0.2257365882396698,"702":-0.23403224349021912,"703":-1.921118140220642,"704":-2.5196335315704346,"705":0.5254209041595459,"706":1.7783390283584595,"707":1.086564064025879,"708":-0.4998171329498291,"709":-1.307401180267334,"710":0.8613594770431519,"711":-0.45893624424934387,"712":-1.9266802072525024,"713":1.6844584941864014,"714":-1.8764578104019165,"715":-0.588350772857666,"716":-1.0097929239273071,"717":-0.4526199698448181,"718":-2.8870506286621094,"719":2.1171936988830566,"720":-0.32768332958221436,"721":-0.9006894826889038,"722":-2.1549580097198486,"723":1.2025917768478394,"724":-3.9216432571411133,"725":2.5211520195007324,"726":-1.147727131843567,"727":-0.7504746317863464,"728":-1.1485811471939087,"729":-3.300835132598877,"730":1.0004630088806152,"731":3.7756874561309814,"732":-0.7929344177246094,"733":-4.396209716796875,"734":-0.3344305455684662,"735":0.11361845582723618,"736":-1.7758238315582275,"737":0.14643070101737976,"738":0.64640873670578,"739":0.012440960854291916,"740":2.1357362270355225,"741":-1.556613564491272,"742":-0.33127087354660034,"743":3.388695240020752,"744":-1.3878746032714844,"745":-0.6953656673431396,"746":3.2746260166168213,"747":0.10798584669828415,"748":-0.015183891169726849,"749":-1.0186409950256348,"750":0.479579895734787,"751":-0.6414133906364441,"752":2.0041732788085938,"753":-0.5018156170845032,"754":-0.660402238368988,"755":-3.4440338611602783,"756":0.998661994934082,"757":-0.3616583049297333,"758":1.9695764780044556,"759":2.443472385406494,"760":-0.08654695004224777,"761":-0.3665359616279602,"762":-0.3769802153110504,"763":-2.142874002456665,"764":-2.0476768016815186,"765":3.361891984939575,"766":-0.22679437696933746,"767":-1.6601874828338623,"768":3.22194242477417,"769":-1.0324958562850952,"770":-0.8577011823654175,"771":-3.101606845855713,"772":-2.7568552494049072,"773":0.47046804428100586,"774":1.1773347854614258,"775":3.573197841644287,"776":-1.9107638597488403,"777":2.9656500816345215,"778":-3.5496442317962646,"779":0.621494710445404,"780":-0.5945131778717041,"781":-2.2646896839141846,"782":-0.5594601631164551,"783":2.10642671585083,"784":-0.27251410484313965,"785":0.2675630748271942,"786":-1.1369458436965942,"787":3.50999116897583,"788":2.814378499984741,"789":-2.4464616775512695,"790":1.0032918453216553,"791":-0.14849595725536346,"792":1.396449089050293,"793":1.1223857402801514,"794":-0.012212921865284443,"795":-1.9701244831085205,"796":-1.6580373048782349,"797":-1.4518274068832397,"798":2.2173614501953125,"799":2.646043539047241,"800":-1.9321264028549194,"801":1.251237154006958,"802":-2.019249677658081,"803":-1.532982587814331,"804":-1.518994927406311,"805":-1.8832341432571411,"806":0.9629268646240234,"807":1.110563039779663,"808":2.1032257080078125,"809":-1.1516066789627075,"810":1.8983392715454102,"811":-2.282851219177246,"812":2.177135944366455,"813":-2.294994831085205,"814":-2.0720267295837402,"815":-2.0894508361816406,"816":1.9045743942260742,"817":1.0459603071212769,"818":-0.9608989357948303,"819":-1.3493871688842773,"820":2.1309733390808105,"821":1.9003053903579712,"822":-1.5925968885421753,"823":1.153458833694458,"824":1.6163324117660522,"825":1.8189666271209717,"826":-1.2314964532852173,"827":-1.5319873094558716,"828":-0.5178470015525818,"829":-2.3597373962402344,"830":-0.578265368938446,"831":0.6624647378921509,"832":-1.602506399154663,"833":-2.4040071964263916,"834":4.093815803527832,"835":-3.2957546710968018,"836":-0.06427318602800369,"837":-3.5080974102020264,"838":-2.5736544132232666,"839":1.97843337059021,"840":-0.5863182544708252,"841":1.1456449031829834,"842":-1.0283960103988647,"843":1.0991193056106567,"844":-0.6357174515724182,"845":2.084003210067749,"846":-1.8303031921386719,"847":0.47030502557754517,"848":-0.03364811837673187,"849":1.5023976564407349,"850":-1.8618052005767822,"851":2.16017484664917,"852":-1.7016124725341797,"853":0.8147223591804504,"854":1.3883904218673706,"855":-1.9100390672683716,"856":-2.289177656173706,"857":0.9648898839950562,"858":5.391638278961182,"859":-0.7674422860145569,"860":-0.8802222013473511,"861":-3.637233257293701,"862":0.13613469898700714,"863":2.876847743988037,"864":1.1511445045471191,"865":-3.1109542846679688,"866":-1.1787781715393066,"867":2.7857277393341064,"868":-0.6155379414558411,"869":0.6523093581199646,"870":-1.0989370346069336,"871":0.5746515989303589,"872":0.4726458191871643,"873":-3.2090625762939453,"874":1.3667232990264893,"875":2.3316612243652344,"876":-0.770166277885437,"877":-0.29714882373809814,"878":1.0261454582214355,"879":-1.403391718864441,"880":-1.132672905921936,"881":-3.6346893310546875,"882":0.9899071455001831,"883":-0.9329259395599365,"884":0.6749531030654907,"885":-2.6211235523223877,"886":1.3864490985870361,"887":0.1847289353609085,"888":-4.6551361083984375,"889":1.774918556213379,"890":3.5773403644561768,"891":1.286985993385315,"892":0.556768000125885,"893":0.6520688533782959,"894":0.4630499482154846,"895":-0.8214825987815857,"896":-0.32070356607437134,"897":0.3932167589664459,"898":0.689105212688446,"899":1.010894536972046,"900":-1.273849606513977,"901":1.097159743309021,"902":1.3205087184906006,"903":2.47434663772583,"904":0.526428759098053,"905":-0.7182024717330933,"906":1.027344822883606,"907":-0.8153870105743408,"908":-0.1444597840309143,"909":0.2889558672904968,"910":1.3333659172058105,"911":-1.0062707662582397,"912":0.6354486346244812,"913":0.19146379828453064,"914":-0.295121431350708,"915":-1.2765226364135742,"916":0.7532024383544922,"917":-0.5869888663291931,"918":-0.23787334561347961,"919":-0.4283004701137543,"920":-0.6136530637741089,"921":-1.2388709783554077,"922":1.2125377655029297,"923":-0.4267016649246216,"924":0.17062035202980042,"925":0.8681352734565735,"926":0.8160850405693054,"927":1.2673695087432861,"928":1.06996488571167,"929":-1.1707204580307007,"930":-1.368977665901184,"931":0.666686475276947,"932":0.7790751457214355,"933":0.655428409576416,"934":0.7607768177986145,"935":0.2076190710067749,"936":-0.14574304223060608,"937":-0.4614156484603882,"938":-0.8033286333084106,"939":0.6152752637863159,"940":-0.708232045173645,"941":0.0782148614525795,"942":-0.38132891058921814,"943":0.5675799250602722,"944":-0.6889494061470032,"945":0.8294031620025635,"946":1.200912356376648,"947":0.5759354829788208,"948":-1.1958982944488525,"949":0.8868262767791748,"950":-0.7946644425392151,"951":0.7379583716392517,"952":-1.0018519163131714,"953":-0.35043150186538696,"954":-0.26951998472213745,"955":0.5202867388725281,"956":-0.5245973467826843,"957":-1.8885657787322998,"958":-0.09751445800065994,"959":0.9409228563308716,"960":2.1190176010131836,"961":1.4931834936141968,"962":-1.3950145244598389,"963":-0.26034361124038696,"964":1.6045151948928833,"965":0.686713695526123,"966":-1.6578643321990967,"967":0.6963449716567993,"968":-1.4311243295669556,"969":1.1201567649841309,"970":1.6190890073776245,"971":-0.44986632466316223,"972":0.5420807600021362,"973":-1.6066780090332031,"974":-1.149342656135559,"975":-1.434494137763977,"976":2.7058682441711426,"977":-0.6806176900863647,"978":1.0432497262954712,"979":1.504831075668335,"980":1.3826159238815308,"981":-1.8914222717285156,"982":0.9028318524360657,"983":-0.6387320756912231,"984":1.485253930091858,"985":-1.4007009267807007,"986":1.6222813129425049,"987":1.8565529584884644,"988":-1.2657419443130493,"989":-1.2855243682861328,"990":-2.416746139526367,"991":-0.6292791366577148,"992":-0.12494630366563797,"993":-0.05456634238362312,"994":1.3542472124099731,"995":1.2546172142028809,"996":-2.2013559341430664,"997":-0.5680595636367798,"998":-0.024953262880444527,"999":-0.6777108311653137,"1000":-0.16112791001796722,"1001":-1.2450518608093262,"1002":0.6819190382957458,"1003":1.1743017435073853,"1004":0.22524569928646088,"1005":-1.043962001800537,"1006":-2.3437466621398926,"1007":0.40781477093696594,"1008":-1.4613796472549438,"1009":-1.5053330659866333,"1010":0.04876851290464401,"1011":0.04227966070175171,"1012":2.024221181869507,"1013":2.2017147541046143,"1014":-0.17847798764705658,"1015":-0.42822137475013733,"1016":0.2766687870025635,"1017":1.5501395463943481,"1018":-2.851905107498169,"1019":-0.0034259671811014414,"1020":2.4942686557769775,"1021":-1.631141185760498,"1022":-1.5680590867996216,"1023":0.4293200373649597,"1024":-1.3295166492462158,"1025":-1.079508662223816,"1026":-1.7569485902786255,"1027":0.17410093545913696,"1028":1.6942673921585083,"1029":0.6004490852355957,"1030":-0.782005786895752,"1031":-1.0108243227005005,"1032":-0.17510636150836945,"1033":-0.589752733707428,"1034":0.21345849335193634,"1035":-0.009304586797952652,"1036":0.41667336225509644,"1037":0.6724866628646851,"1038":-0.23940585553646088,"1039":1.2698689699172974,"1040":1.6053767204284668,"1041":0.6348960399627686,"1042":0.27827537059783936,"1043":0.6347242593765259,"1044":-1.5578587055206299,"1045":-1.2214163541793823,"1046":-2.1655173301696777,"1047":0.24037203192710876,"1048":-1.2650421857833862,"1049":0.7066898345947266,"1050":-1.0590108633041382,"1051":1.0377930402755737,"1052":-0.27258193492889404,"1053":-0.1625235229730606,"1054":0.1223217025399208,"1055":1.588244080543518,"1056":0.6673259139060974,"1057":0.05783326178789139,"1058":0.1080688014626503,"1059":0.1384386122226715,"1060":-0.44113409519195557,"1061":0.039988934993743896,"1062":0.6018997430801392,"1063":0.16839006543159485,"1064":-0.09723065048456192,"1065":0.4744998514652252,"1066":0.06890219449996948,"1067":0.7545974254608154,"1068":-1.0595284700393677,"1069":-0.6461477279663086,"1070":0.16998881101608276,"1071":-0.22070525586605072,"1072":0.989844799041748,"1073":0.2999480366706848,"1074":0.9686063528060913,"1075":-0.16563306748867035,"1076":0.17165757715702057,"1077":-0.2233356535434723,"1078":-0.29574331641197205,"1079":-0.12527985870838165,"1080":0.42007118463516235,"1081":0.36188024282455444,"1082":-0.03186047822237015,"1083":-0.7535734176635742,"1084":0.6442934274673462,"1085":-0.03729909285902977,"1086":-0.7514849901199341,"1087":-0.28911712765693665,"1088":0.0928904265165329,"1089":0.03554384782910347,"1090":0.05644446983933449,"1091":-0.018057767301797867,"1092":0.04649277776479721,"1093":-0.03748205676674843,"1094":-0.05500268191099167,"1095":-0.03924187645316124,"1096":-0.012592857703566551,"1097":0.03829629719257355,"1098":0.07112979143857956,"1099":-0.04646782949566841,"1100":-0.07057418674230576,"1101":0.03630940988659859,"1102":-0.008449471555650234,"1103":-0.06766112893819809,"1104":0.004949106834828854,"1105":0.016116293147206306,"1106":-0.0043089259415864944,"1107":-0.033464111387729645,"1108":0.031950537115335464,"1109":-0.04016931354999542,"1110":-0.05828456953167915,"1111":-0.049109846353530884,"1112":0.0776507630944252,"1113":0.005642393138259649,"1114":-0.03133150562644005,"1115":-0.05420294404029846,"1116":0.06266224384307861,"1117":-0.05247264727950096,"1118":0.02505520172417164,"1119":-0.0597032755613327,"1120":-0.07845145463943481,"1121":-0.027156366035342216}},"hiddenLayers":[{"inputMatrix":{"rows":20,"columns":33,"weights":{"0":0.693640410900116,"1":-0.5311325192451477,"2":-0.6468526124954224,"3":-0.7060211300849915,"4":-0.01811368018388748,"5":-0.495781272649765,"6":0.8660919666290283,"7":-0.4384101629257202,"8":-0.8711408972740173,"9":0.30534908175468445,"10":-0.7156216502189636,"11":-0.358369380235672,"12":-1.449375033378601,"13":-0.2257986068725586,"14":0.5423301458358765,"15":0.19185762107372284,"16":0.9843114018440247,"17":-0.7109681963920593,"18":0.5108765363693237,"19":-0.025410691276192665,"20":0.7192143201828003,"21":-0.6488563418388367,"22":-1.1284791231155396,"23":-2.0735902786254883,"24":0.9168274402618408,"25":-0.9814437031745911,"26":0.6608436703681946,"27":-0.4064030051231384,"28":1.1078585386276245,"29":0.7733876705169678,"30":-0.5127339363098145,"31":0.3693605065345764,"32":1.8242000341415405,"33":-0.7312712669372559,"34":-0.2876100540161133,"35":-0.07241343706846237,"36":-0.27988776564598083,"37":-0.2217516154050827,"38":1.4271539449691772,"39":1.1332999467849731,"40":0.2166903018951416,"41":0.48138049244880676,"42":-1.2202357053756714,"43":0.33760446310043335,"44":0.14860764145851135,"45":1.6553254127502441,"46":0.5417966842651367,"47":0.1361023336648941,"48":-0.11704637855291367,"49":-0.6045172810554504,"50":1.5446321964263916,"51":-0.39585545659065247,"52":0.8995527029037476,"53":-0.38356801867485046,"54":-0.23986464738845825,"55":-0.7721161842346191,"56":-0.9209352731704712,"57":-1.0034587383270264,"58":0.353309690952301,"59":0.2045033723115921,"60":-0.0504770502448082,"61":0.5778042674064636,"62":-1.4023009538650513,"63":0.5784003138542175,"64":-0.34737056493759155,"65":-0.7457160353660583,"66":0.23209922015666962,"67":0.7969697713851929,"68":0.4656687080860138,"69":0.5323182344436646,"70":0.3259846866130829,"71":-0.28046584129333496,"72":-0.013102413155138493,"73":0.025948697701096535,"74":0.34850090742111206,"75":-0.27551308274269104,"76":0.43674492835998535,"77":0.2947740852832794,"78":0.577616274356842,"79":0.8196151256561279,"80":-0.48235103487968445,"81":0.3669837713241577,"82":-0.7001128196716309,"83":-0.36887773871421814,"84":-0.3321782946586609,"85":0.47345948219299316,"86":-0.47087571024894714,"87":0.48090696334838867,"88":0.6392512917518616,"89":-0.06818646192550659,"90":-0.7405440807342529,"91":0.583448588848114,"92":-0.4989568293094635,"93":-0.04045381397008896,"94":-0.7114431262016296,"95":-0.7585715055465698,"96":-0.13394948840141296,"97":0.7201862931251526,"98":0.11440987884998322,"99":0.33660751581192017,"100":-0.843723475933075,"101":-0.7814489006996155,"102":-1.052411675453186,"103":0.477927565574646,"104":1.1340481042861938,"105":0.334593266248703,"106":-1.1726980209350586,"107":-0.8268955945968628,"108":0.4667719006538391,"109":-0.7753698825836182,"110":-0.13574104011058807,"111":-0.16227149963378906,"112":0.6704828143119812,"113":0.6308534741401672,"114":-0.8050719499588013,"115":0.2243724912405014,"116":0.5664267539978027,"117":0.3623310625553131,"118":-0.7890504598617554,"119":0.6336238980293274,"120":-0.5826298594474792,"121":-0.5703699588775635,"122":-0.7344140410423279,"123":0.446171373128891,"124":-0.7764222025871277,"125":0.7789394855499268,"126":-0.46236452460289,"127":0.37524059414863586,"128":-0.5694364309310913,"129":-0.4280618131160736,"130":-0.06172233447432518,"131":0.5195696949958801,"132":0.13528390228748322,"133":-0.7470219731330872,"134":-1.498190999031067,"135":-1.3669657707214355,"136":-0.47730737924575806,"137":0.8530333042144775,"138":0.6777456998825073,"139":-1.3302485942840576,"140":-0.7761695981025696,"141":0.46352219581604004,"142":-0.9003469347953796,"143":0.05030572786927223,"144":-0.3782278299331665,"145":0.042278315871953964,"146":1.068623661994934,"147":-0.40875256061553955,"148":0.8852549195289612,"149":0.9148066639900208,"150":0.8512158989906311,"151":-0.3336750566959381,"152":0.9803977012634277,"153":-1.109628677368164,"154":-0.7624666690826416,"155":-0.6034737229347229,"156":0.0950675681233406,"157":-0.9522665143013,"158":1.1023741960525513,"159":-0.5836183428764343,"160":0.6901187300682068,"161":-0.5038082003593445,"162":-0.011231409385800362,"163":-0.5492464303970337,"164":0.6473698616027832,"165":-0.27830785512924194,"166":-0.7558518052101135,"167":-0.26705577969551086,"168":-0.11784069985151291,"169":0.5451720952987671,"170":0.24808140099048615,"171":0.6931990385055542,"172":-0.3399221897125244,"173":-0.15169693529605865,"174":-0.23173978924751282,"175":-0.2098933905363083,"176":-0.4154236316680908,"177":0.5904229283332825,"178":1.6121890544891357,"179":0.4363332986831665,"180":0.00988365150988102,"181":-0.5831047296524048,"182":0.10854525864124298,"183":-0.7576482892036438,"184":-0.1565178483724594,"185":0.22102713584899902,"186":-0.19367749989032745,"187":-0.373483806848526,"188":0.4007391035556793,"189":-0.29522234201431274,"190":-0.3039572834968567,"191":0.5213412642478943,"192":0.9914436936378479,"193":-0.6003186106681824,"194":-0.05264987051486969,"195":0.0910545140504837,"196":-0.41268685460090637,"197":-0.8088889718055725,"198":-1.1382989883422852,"199":0.1473657637834549,"200":0.5518491864204407,"201":0.3568175733089447,"202":1.417387843132019,"203":-0.8626834750175476,"204":-0.48742955923080444,"205":1.0534133911132812,"206":0.3983357846736908,"207":-0.4676033556461334,"208":0.7429460883140564,"209":-1.296063780784607,"210":0.8695129156112671,"211":-0.8221414685249329,"212":-0.33731159567832947,"213":-0.028590863570570946,"214":-0.33887869119644165,"215":-1.0072482824325562,"216":-1.0238945484161377,"217":-0.022291405126452446,"218":-0.7417197823524475,"219":1.0222111940383911,"220":0.18105587363243103,"221":0.9403154850006104,"222":-0.5231227874755859,"223":0.673646867275238,"224":-0.43056413531303406,"225":0.8941367268562317,"226":-1.1542127132415771,"227":0.1748114824295044,"228":1.0126715898513794,"229":-0.4887202978134155,"230":-0.8300788998603821,"231":-0.6285157799720764,"232":-0.05389023572206497,"233":0.0217392947524786,"234":0.6485917568206787,"235":-0.48817718029022217,"236":0.3912065029144287,"237":-0.12428686767816544,"238":0.3625268042087555,"239":0.6884455680847168,"240":-0.4090941250324249,"241":0.5460630655288696,"242":0.45863351225852966,"243":1.129385232925415,"244":-0.9664697051048279,"245":0.14839906990528107,"246":0.4403277039527893,"247":-0.333168089389801,"248":0.6158930659294128,"249":-0.38998496532440186,"250":1.1338742971420288,"251":-0.307060569524765,"252":-0.19573499262332916,"253":0.29548636078834534,"254":0.4805659055709839,"255":-1.14454984664917,"256":0.5660434365272522,"257":-0.07118579745292664,"258":0.14917901158332825,"259":-0.46155813336372375,"260":-0.11441893875598907,"261":0.3678324818611145,"262":-0.2522905170917511,"263":-1.4720865488052368,"264":0.028436746448278427,"265":-0.5128101110458374,"266":-0.1456768661737442,"267":-0.30045342445373535,"268":0.14505620300769806,"269":1.1543705463409424,"270":0.0906134843826294,"271":-0.91384357213974,"272":0.011607564054429531,"273":0.3534066379070282,"274":-0.13340291380882263,"275":0.2086436152458191,"276":1.3129713535308838,"277":2.1051437854766846,"278":0.6630216836929321,"279":-0.5786392688751221,"280":-0.8106293678283691,"281":1.2034047842025757,"282":-0.23767288029193878,"283":-0.6127865314483643,"284":0.16308686137199402,"285":0.012036518193781376,"286":-0.2886705994606018,"287":-0.06410778313875198,"288":-0.5843974351882935,"289":-0.3047349452972412,"290":0.7134692072868347,"291":-0.042408086359500885,"292":-0.5056270360946655,"293":-2.2329649925231934,"294":0.05607667937874794,"295":-0.663378119468689,"296":0.19445517659187317,"297":0.3743530809879303,"298":-1.2734665870666504,"299":-1.1489472389221191,"300":-0.5024552941322327,"301":0.2642316520214081,"302":0.6729877591133118,"303":0.7582581043243408,"304":-0.4991402328014374,"305":-1.826137661933899,"306":0.9306532740592957,"307":-0.9871158599853516,"308":-0.5707746744155884,"309":-0.47695621848106384,"310":0.6208308339118958,"311":1.0446747541427612,"312":-0.5655672550201416,"313":0.7558228969573975,"314":0.8693062663078308,"315":0.19073596596717834,"316":-0.1958644688129425,"317":1.4267957210540771,"318":-1.6263929605484009,"319":-0.7329825758934021,"320":-0.19480717182159424,"321":0.6816736459732056,"322":-0.648537278175354,"323":1.102898120880127,"324":0.07627569884061813,"325":0.4245162308216095,"326":0.6830541491508484,"327":-0.17796523869037628,"328":-0.3253132998943329,"329":0.05286950245499611,"330":0.07593263685703278,"331":0.42218759655952454,"332":0.6195168495178223,"333":0.9695519208908081,"334":0.06209433451294899,"335":-0.39789581298828125,"336":0.7036914229393005,"337":0.542144775390625,"338":0.5831708312034607,"339":-0.4332529604434967,"340":0.45761099457740784,"341":0.18873390555381775,"342":0.29057255387306213,"343":1.0226799249649048,"344":-0.694466233253479,"345":0.3110160529613495,"346":-0.6495127081871033,"347":-0.11628514528274536,"348":-0.1663380116224289,"349":0.9140824675559998,"350":-0.6568085551261902,"351":0.6078194975852966,"352":-0.10794927179813385,"353":0.2719435691833496,"354":-0.7769035696983337,"355":0.5021921992301941,"356":-0.6667824983596802,"357":0.7741456627845764,"358":-0.04194341599941254,"359":-0.641626238822937,"360":-0.08750686049461365,"361":-0.029481220990419388,"362":-0.5617961287498474,"363":0.016066426411271095,"364":-0.8586754202842712,"365":-0.5907430648803711,"366":-0.7228628396987915,"367":-0.6653476357460022,"368":0.6180270314216614,"369":0.585685670375824,"370":-0.5100936889648438,"371":-0.46882402896881104,"372":0.5595290660858154,"373":-0.5919296741485596,"374":-0.42556944489479065,"375":0.13695232570171356,"376":-0.42456644773483276,"377":0.742851197719574,"378":-0.22026795148849487,"379":0.5622478723526001,"380":0.8142200708389282,"381":1.0031837224960327,"382":-0.755355954170227,"383":0.7658398747444153,"384":-0.6095176339149475,"385":-0.2737458646297455,"386":0.563409686088562,"387":0.18726691603660583,"388":-0.8748379945755005,"389":0.5107254385948181,"390":-0.7696508169174194,"391":0.5685171484947205,"392":0.0076863826252520084,"393":-0.03611883148550987,"394":-0.6877720355987549,"395":-0.04135587438941002,"396":-0.7192537784576416,"397":-0.2560570240020752,"398":-0.656469464302063,"399":-0.2099141627550125,"400":0.459316611289978,"401":-0.4747229814529419,"402":-0.13776184618473053,"403":-0.20052653551101685,"404":-1.160168170928955,"405":0.6913935542106628,"406":-1.2270511388778687,"407":-1.62859308719635,"408":-0.1806243360042572,"409":-0.910965621471405,"410":0.5881263017654419,"411":-0.21906417608261108,"412":-0.8641205430030823,"413":-0.6777735948562622,"414":-0.8408951163291931,"415":-0.6089979410171509,"416":1.4501899480819702,"417":-1.3198286294937134,"418":0.4866178631782532,"419":0.7376997470855713,"420":0.026169974356889725,"421":-0.825457751750946,"422":0.7974706292152405,"423":1.5534662008285522,"424":-0.8383697271347046,"425":0.8380610346794128,"426":0.484183132648468,"427":-0.22046734392642975,"428":-0.477421373128891,"429":-0.5264596939086914,"430":-0.1501961052417755,"431":0.4812659025192261,"432":0.4007627069950104,"433":1.1916800737380981,"434":-0.44704997539520264,"435":-0.2909950911998749,"436":1.1275660991668701,"437":0.36479315161705017,"438":-0.506032407283783,"439":0.37766075134277344,"440":-0.4397572875022888,"441":0.5193227529525757,"442":1.4086476564407349,"443":-0.27734890580177307,"444":-0.38751691579818726,"445":-0.7526656985282898,"446":-0.29660362005233765,"447":-0.40829014778137207,"448":0.5916541814804077,"449":-0.5160799622535706,"450":0.6118143796920776,"451":0.2694081664085388,"452":-0.0433020144701004,"453":-0.15785466134548187,"454":0.6095705628395081,"455":-0.42398524284362793,"456":0.8150041103363037,"457":0.14134332537651062,"458":0.19638453423976898,"459":0.5671513676643372,"460":-0.332127183675766,"461":-1.194334864616394,"462":0.4844106435775757,"463":-0.18307381868362427,"464":-0.13138361275196075,"465":-0.41162148118019104,"466":-0.3553401529788971,"467":0.7538090348243713,"468":-0.00287466193549335,"469":-0.6539777517318726,"470":-0.4401608109474182,"471":0.40103837847709656,"472":-0.2980029881000519,"473":0.07034548372030258,"474":0.14373478293418884,"475":-0.3461671769618988,"476":0.535161018371582,"477":-0.27890658378601074,"478":0.3730248212814331,"479":0.5960536599159241,"480":0.43023914098739624,"481":0.3998759388923645,"482":0.28825920820236206,"483":-0.4669692814350128,"484":-0.34838324785232544,"485":-0.6634635329246521,"486":0.6688550114631653,"487":0.2224595546722412,"488":0.18908604979515076,"489":-0.9943853616714478,"490":0.5890306234359741,"491":0.02933528460562229,"492":-0.46963587403297424,"493":0.06815691292285919,"494":0.9462920427322388,"495":0.20828236639499664,"496":-0.7295065522193909,"497":-0.7991601824760437,"498":-0.6735754609107971,"499":-0.04068930447101593,"500":0.7513697147369385,"501":0.4888521134853363,"502":-1.0411161184310913,"503":-0.412549763917923,"504":0.6267660856246948,"505":-0.7126119136810303,"506":-0.3989720344543457,"507":-0.2998484671115875,"508":-0.30068960785865784,"509":0.6640230417251587,"510":0.060046982020139694,"511":0.4997589588165283,"512":0.2322339415550232,"513":0.44624391198158264,"514":-0.8181802034378052,"515":0.7215090394020081,"516":-0.8692619204521179,"517":-0.1108003631234169,"518":-0.13386984169483185,"519":-0.21785162389278412,"520":-0.8776589632034302,"521":0.5782732963562012,"522":-0.8271080255508423,"523":0.33035898208618164,"524":-0.10823804885149002,"525":-0.264225035905838,"526":-0.33950725197792053,"527":-0.022805918008089066,"528":0.8388339877128601,"529":0.6173619031906128,"530":0.7697958946228027,"531":0.4783805310726166,"532":-0.6243759989738464,"533":-0.468509316444397,"534":0.5603953003883362,"535":0.6081345677375793,"536":0.8363329172134399,"537":0.5245022177696228,"538":0.9847438335418701,"539":0.8400828838348389,"540":-0.48186418414115906,"541":-0.41970905661582947,"542":-0.9607194066047668,"543":0.8830987215042114,"544":0.6239907145500183,"545":-0.11037712544202805,"546":0.762276291847229,"547":0.11562912166118622,"548":-0.9789741039276123,"549":0.9092779755592346,"550":-0.024499407038092613,"551":-0.3222174048423767,"552":-0.1517002284526825,"553":0.4220491647720337,"554":-0.8052739500999451,"555":0.15583717823028564,"556":0.28819116950035095,"557":-0.27387362718582153,"558":-0.7845802307128906,"559":1.2131434679031372,"560":0.5619441866874695,"561":-1.1344491243362427,"562":0.04134666547179222,"563":0.26456576585769653,"564":0.5545480251312256,"565":0.1542840152978897,"566":0.1404813975095749,"567":-0.31109917163848877,"568":-0.1515333503484726,"569":0.28971248865127563,"570":0.03491496667265892,"571":0.010592063888907433,"572":-0.03248926252126694,"573":-0.06932896375656128,"574":0.7403707504272461,"575":-0.006809907034039497,"576":-0.33309900760650635,"577":-0.49941855669021606,"578":0.29017001390457153,"579":-0.3856671154499054,"580":0.013318808749318123,"581":-0.15114493668079376,"582":0.2623979151248932,"583":0.3535480201244354,"584":0.49043920636177063,"585":-0.3956458568572998,"586":0.10853321105241776,"587":0.038427457213401794,"588":-0.22399736940860748,"589":-0.4057687520980835,"590":-0.7826171517372131,"591":1.0612539052963257,"592":-0.6878289580345154,"593":-0.07775556296110153,"594":-1.0006940364837646,"595":-1.6124708652496338,"596":-1.123157262802124,"597":-1.1872798204421997,"598":1.1688613891601562,"599":0.19365842640399933,"600":-0.07346119731664658,"601":0.4113443195819855,"602":0.06163318082690239,"603":-0.5845999121665955,"604":0.0809798538684845,"605":-0.8115996718406677,"606":0.5689795017242432,"607":0.649072527885437,"608":0.9544641971588135,"609":0.303254634141922,"610":0.056137729436159134,"611":0.2288866639137268,"612":-0.5267376899719238,"613":-0.2548961043357849,"614":0.09633733332157135,"615":-0.20173612236976624,"616":-0.5118767619132996,"617":-0.1836327314376831,"618":-0.23371347784996033,"619":-0.969045102596283,"620":0.9764580130577087,"621":0.44250208139419556,"622":-0.4207763671875,"623":-0.374481737613678,"624":1.0859392881393433,"625":-0.8304640650749207,"626":-0.6264798045158386,"627":-0.32508385181427,"628":-0.22405612468719482,"629":-0.2851325273513794,"630":-0.2110232561826706,"631":0.590632975101471,"632":-0.10450109094381332,"633":0.11982085555791855,"634":-0.12463879585266113,"635":-0.34592363238334656,"636":0.5573285818099976,"637":-0.21510809659957886,"638":-1.9838027954101562,"639":0.07477866113185883,"640":0.27363771200180054,"641":0.20194821059703827,"642":-0.03645627945661545,"643":-0.06258592009544373,"644":-0.17734916508197784,"645":-0.1015479564666748,"646":-0.7945324182510376,"647":0.3867014944553375,"648":-0.2612285315990448,"649":-0.05389358475804329,"650":0.022742606699466705,"651":0.5593680143356323,"652":-0.21424604952335358,"653":0.21318064630031586,"654":0.8994314074516296,"655":0.00822088960558176,"656":0.1193234771490097,"657":0.48432913422584534,"658":-1.8352572917938232,"659":-0.24351434409618378}},"inputHidden":{"rows":20,"columns":20,"weights":{"0":1.1283577680587769,"1":-1.231829047203064,"2":0.8658221960067749,"3":-1.0065672397613525,"4":-0.3166545033454895,"5":-0.9433858394622803,"6":0.6962153911590576,"7":0.9515480399131775,"8":0.7526127696037292,"9":-1.2344857454299927,"10":-0.707955539226532,"11":-0.7948366403579712,"12":-1.234447717666626,"13":1.0440363883972168,"14":-0.6707720160484314,"15":0.733090877532959,"16":0.47782883048057556,"17":0.8062222003936768,"18":2.3335015773773193,"19":-0.9228172302246094,"20":1.6306555271148682,"21":-1.7589654922485352,"22":1.0876634120941162,"23":1.2998055219650269,"24":-0.3364092707633972,"25":-1.2282577753067017,"26":0.9736679792404175,"27":1.0069881677627563,"28":-0.578252911567688,"29":-0.4743069112300873,"30":-0.2961925268173218,"31":-1.0871144533157349,"32":-0.325325608253479,"33":1.2221543788909912,"34":1.6669944524765015,"35":0.5154204964637756,"36":0.39166951179504395,"37":0.38118699193000793,"38":0.391429603099823,"39":-0.8867217898368835,"40":0.7049722075462341,"41":-1.2816462516784668,"42":1.3700816631317139,"43":-0.6695263981819153,"44":0.8341012001037598,"45":-1.2666678428649902,"46":0.18924495577812195,"47":1.359870195388794,"48":-0.5615766048431396,"49":-0.7337065935134888,"50":-1.206270694732666,"51":-0.36321941018104553,"52":-0.6848152875900269,"53":1.2025295495986938,"54":-0.24164721369743347,"55":0.42822322249412537,"56":0.8982391357421875,"57":0.01996314898133278,"58":0.7634789943695068,"59":-1.232283592224121,"60":0.2835213243961334,"61":-0.4603220522403717,"62":0.4906342625617981,"63":-0.6878923773765564,"64":-0.3648780584335327,"65":-0.13101816177368164,"66":0.09036342054605484,"67":0.8798275589942932,"68":-0.18989290297031403,"69":-1.048766016960144,"70":-0.39868441224098206,"71":-0.21037349104881287,"72":-0.5275570154190063,"73":1.3123536109924316,"74":-0.4108135998249054,"75":0.1618066430091858,"76":-0.3157481849193573,"77":0.2943189740180969,"78":1.1723616123199463,"79":-0.4030882716178894,"80":-0.6441069841384888,"81":0.6538383364677429,"82":-0.8661721348762512,"83":-0.4873872399330139,"84":-0.37227609753608704,"85":0.3551170825958252,"86":0.10467426478862762,"87":-0.2698524296283722,"88":0.18191249668598175,"89":0.8816205859184265,"90":0.9422140121459961,"91":-0.8836155533790588,"92":-1.6688188314437866,"93":0.6422066688537598,"94":0.1273261308670044,"95":0.6971714496612549,"96":-1.4576799869537354,"97":0.44962888956069946,"98":0.6745817065238953,"99":-0.41698262095451355,"100":1.0576661825180054,"101":-1.9875545501708984,"102":0.6019407510757446,"103":1.7265565395355225,"104":-1.1427834033966064,"105":-2.3877434730529785,"106":-1.6743091344833374,"107":1.5919137001037598,"108":-1.9902915954589844,"109":-0.9763941764831543,"110":-0.8357230424880981,"111":0.9837979078292847,"112":-0.40808403491973877,"113":1.1121031045913696,"114":2.754004955291748,"115":-1.1697325706481934,"116":0.6627034544944763,"117":-0.7585998773574829,"118":-0.30101892352104187,"119":-1.4569388628005981,"120":0.32366713881492615,"121":-0.011526678688824177,"122":0.037417929619550705,"123":0.014248661696910858,"124":0.5591604113578796,"125":0.09723404794931412,"126":0.35567507147789,"127":0.2141197770833969,"128":0.02683202736079693,"129":-0.06714184582233429,"130":0.04955698549747467,"131":-0.49222710728645325,"132":-0.6723114252090454,"133":0.03941292315721512,"134":0.14489690959453583,"135":0.514647364616394,"136":0.3317006230354309,"137":-0.06106090173125267,"138":0.3292556703090668,"139":0.2876693308353424,"140":1.8337314128875732,"141":-1.66132390499115,"142":1.2044188976287842,"143":1.1492555141448975,"144":-1.229764699935913,"145":-1.157914400100708,"146":0.29603177309036255,"147":0.8983110785484314,"148":-0.9465115666389465,"149":-0.10249168425798416,"150":-0.2666606605052948,"151":-1.3266288042068481,"152":-1.0036654472351074,"153":1.0727190971374512,"154":0.8038354516029358,"155":0.8272703289985657,"156":0.6986346244812012,"157":-0.1498250812292099,"158":0.5461677312850952,"159":-0.8167330026626587,"160":-1.7176562547683716,"161":0.3623459041118622,"162":-0.5204381346702576,"163":-0.7888661623001099,"164":0.978381335735321,"165":0.6487706303596497,"166":0.664786696434021,"167":-0.5992376208305359,"168":-0.3628867268562317,"169":-0.06763263046741486,"170":0.16522808372974396,"171":0.5054780840873718,"172":1.8185453414916992,"173":0.6626384258270264,"174":-0.7529752254486084,"175":-0.47654151916503906,"176":0.3146277666091919,"177":0.26022806763648987,"178":-0.0780671164393425,"179":0.833476722240448,"180":1.1041477918624878,"181":-0.14891237020492554,"182":0.07963528484106064,"183":-0.46968045830726624,"184":-0.6097055673599243,"185":0.05705229938030243,"186":0.0773826465010643,"187":0.750387966632843,"188":0.12637095153331757,"189":-0.1872735172510147,"190":-0.2679126262664795,"191":0.11024372279644012,"192":0.41504207253456116,"193":-0.01958504132926464,"194":-1.3330076932907104,"195":0.019586622714996338,"196":-0.5299054980278015,"197":0.6523013114929199,"198":0.5614111423492432,"199":0.2941942512989044,"200":1.0934717655181885,"201":-1.3985124826431274,"202":1.0825085639953613,"203":1.249699592590332,"204":-1.275274634361267,"205":-1.0960257053375244,"206":-0.21398113667964935,"207":0.6005387306213379,"208":-1.8185148239135742,"209":-0.6514557003974915,"210":-1.1378475427627563,"211":0.5161828398704529,"212":-0.5196388959884644,"213":0.9398249983787537,"214":1.0120577812194824,"215":-0.7789982557296753,"216":0.7467385530471802,"217":0.024176163598895073,"218":0.16463372111320496,"219":-1.4738160371780396,"220":-0.3925038278102875,"221":0.17910903692245483,"222":-0.5729893445968628,"223":1.3215038776397705,"224":-2.5241189002990723,"225":0.5866374969482422,"226":1.6837490797042847,"227":-1.021527886390686,"228":-0.30915021896362305,"229":1.4171580076217651,"230":1.3299341201782227,"231":-0.1389717310667038,"232":-0.3088280260562897,"233":1.4722700119018555,"234":1.8857414722442627,"235":0.15842147171497345,"236":-1.0659372806549072,"237":0.8743636608123779,"238":0.055620476603507996,"239":-0.6407026052474976,"240":1.8354195356369019,"241":-0.46441444754600525,"242":0.6086653470993042,"243":1.1202583312988281,"244":-1.484144926071167,"245":-0.5595788955688477,"246":0.6982386112213135,"247":0.6525405049324036,"248":0.7800778746604919,"249":0.9146554470062256,"250":-0.4132651090621948,"251":-0.3315354585647583,"252":-0.45301496982574463,"253":-0.07390166074037552,"254":0.4984457194805145,"255":0.7844453454017639,"256":0.6362491846084595,"257":0.27052372694015503,"258":-0.09143658727407455,"259":0.4200684130191803,"260":1.226802945137024,"261":0.4080754518508911,"262":-0.27318182587623596,"263":0.5134870409965515,"264":-0.7338143587112427,"265":0.7319897413253784,"266":0.18976198136806488,"267":-0.2059343457221985,"268":0.20281873643398285,"269":-0.13415564596652985,"270":0.3721916973590851,"271":0.7067036032676697,"272":-0.6628881096839905,"273":0.34916868805885315,"274":0.5888314843177795,"275":-0.2876531183719635,"276":-0.41480115056037903,"277":0.22359025478363037,"278":-0.1275358647108078,"279":-0.3708184063434601,"280":-0.10849475115537643,"281":-0.24377302825450897,"282":0.4869527220726013,"283":-1.0673433542251587,"284":1.3242844343185425,"285":0.0076437825337052345,"286":-0.14907386898994446,"287":1.2594587802886963,"288":0.373709112405777,"289":-1.8751790523529053,"290":0.2731037735939026,"291":-1.303045630455017,"292":-0.9971568584442139,"293":1.75871741771698,"294":-0.2674500048160553,"295":0.9607048630714417,"296":-0.6438217163085938,"297":0.45060792565345764,"298":0.8836863040924072,"299":-1.4008804559707642,"300":-0.0927821472287178,"301":0.7442265748977661,"302":-0.4809974133968353,"303":1.0208276510238647,"304":-2.313194990158081,"305":0.7065486311912537,"306":1.7261241674423218,"307":-1.2583740949630737,"308":-0.10389266163110733,"309":1.7013951539993286,"310":0.8428567051887512,"311":-0.27180302143096924,"312":-0.6697899699211121,"313":1.0805094242095947,"314":0.6200816035270691,"315":-0.11208663880825043,"316":-1.1087837219238281,"317":0.2743292450904846,"318":-0.6004435420036316,"319":-0.3156295418739319,"320":-0.37584754824638367,"321":0.30875861644744873,"322":-0.16175135970115662,"323":0.4424087405204773,"324":-0.6582556962966919,"325":0.12709321081638336,"326":0.010041411966085434,"327":-0.6340833902359009,"328":0.24699126183986664,"329":0.769923985004425,"330":0.09358692914247513,"331":0.013572337105870247,"332":1.487447738647461,"333":-0.8475823998451233,"334":0.43196558952331543,"335":-0.22415462136268616,"336":0.1296059787273407,"337":0.13205167651176453,"338":-0.2614108920097351,"339":0.30190175771713257,"340":-0.40478965640068054,"341":1.7791378498077393,"342":-1.7263802289962769,"343":-1.1764380931854248,"344":0.7733277678489685,"345":1.2317187786102295,"346":0.6705904603004456,"347":-1.1709330081939697,"348":0.7028694748878479,"349":0.11861922591924667,"350":0.991880476474762,"351":0.44539764523506165,"352":1.2553988695144653,"353":-0.861236572265625,"354":-1.3993699550628662,"355":0.168156236410141,"356":-1.0811797380447388,"357":0.0165407694876194,"358":-0.5272731184959412,"359":1.6404794454574585,"360":0.15490096807479858,"361":0.1728876680135727,"362":0.20780834555625916,"363":-0.33525800704956055,"364":-0.3271447420120239,"365":-0.04804668202996254,"366":0.6594918966293335,"367":-0.08402885496616364,"368":-0.5560028553009033,"369":-0.48372238874435425,"370":-0.06773176789283752,"371":0.8498786091804504,"372":-0.48161375522613525,"373":0.27346470952033997,"374":-0.13885490596294403,"375":-0.5968534350395203,"376":-0.7065610289573669,"377":0.3984558880329132,"378":0.8570946455001831,"379":-0.45679178833961487,"380":1.3957301378250122,"381":-0.5496110916137695,"382":0.5071936249732971,"383":-0.08438768237829208,"384":-0.05157610774040222,"385":-0.3949827551841736,"386":0.48596715927124023,"387":0.6100480556488037,"388":-0.0012852810323238373,"389":-0.13527418673038483,"390":-0.6075233221054077,"391":-0.9855464696884155,"392":-0.5586323142051697,"393":0.04841698706150055,"394":-1.45285964012146,"395":0.7918755412101746,"396":0.8980922102928162,"397":-0.17192986607551575,"398":1.055556297302246,"399":0.16480964422225952}},"inputBias":{"rows":20,"columns":1,"weights":{"0":-0.11753685027360916,"1":-0.03221097216010094,"2":-0.07154805958271027,"3":0.8326202630996704,"4":0.7723378539085388,"5":-0.22779212892055511,"6":-0.5250858068466187,"7":-0.3290112316608429,"8":-0.10023541003465652,"9":-0.4822847843170166,"10":-0.11205455660820007,"11":0.6143434643745422,"12":-0.5414764285087585,"13":0.017685571685433388,"14":0.7186969518661499,"15":0.1910075694322586,"16":-0.2535959780216217,"17":-0.3862175941467285,"18":-0.005576943513005972,"19":-0.05116306245326996}},"forgetMatrix":{"rows":20,"columns":33,"weights":{"0":0.24964973330497742,"1":-0.5784203410148621,"2":-0.4329648017883301,"3":-0.4644990861415863,"4":-0.19394485652446747,"5":-0.14054860174655914,"6":1.1287552118301392,"7":0.010350016877055168,"8":0.3083662986755371,"9":-0.2634262442588806,"10":-0.018071888014674187,"11":-0.13880203664302826,"12":-0.3298054039478302,"13":-0.35429513454437256,"14":0.15567070245742798,"15":1.1272578239440918,"16":0.503847062587738,"17":-0.028229977935552597,"18":0.2821630537509918,"19":-0.2006346881389618,"20":-0.06103923171758652,"21":-0.07795128971338272,"22":-1.1799653768539429,"23":-0.7313939929008484,"24":-0.06912039965391159,"25":-0.7127923369407654,"26":0.13448257744312286,"27":0.05107502266764641,"28":0.5939754843711853,"29":0.29950645565986633,"30":-0.2967580556869507,"31":0.15876364707946777,"32":0.26452401280403137,"33":1.4267141819000244,"34":-0.2610754370689392,"35":-0.46105116605758667,"36":-0.24625955522060394,"37":-0.7114402055740356,"38":-0.10775388032197952,"39":0.5261128544807434,"40":-0.6796038150787354,"41":-0.2979273498058319,"42":0.44820666313171387,"43":-0.3000854551792145,"44":-0.027972299605607986,"45":-1.3934932947158813,"46":-0.4076747000217438,"47":0.32531237602233887,"48":0.759412407875061,"49":1.4114339351654053,"50":0.3560408055782318,"51":1.0978962182998657,"52":-0.3404797911643982,"53":0.5368114709854126,"54":-0.282003790140152,"55":-0.6228466033935547,"56":-0.7793300151824951,"57":1.3241829872131348,"58":-0.7901585102081299,"59":0.44010818004608154,"60":-0.7560997009277344,"61":1.0490643978118896,"62":0.8531308770179749,"63":-1.0844402313232422,"64":0.3818092942237854,"65":1.3068114519119263,"66":0.5689764022827148,"67":-0.34785473346710205,"68":-0.37688878178596497,"69":-0.25743165612220764,"70":-0.8541831970214844,"71":0.0729551687836647,"72":0.6699389219284058,"73":-0.19733227789402008,"74":-0.24445366859436035,"75":-0.4404333531856537,"76":-0.03137268126010895,"77":0.03323309123516083,"78":-0.7615664601325989,"79":-1.3380831480026245,"80":0.34099894762039185,"81":0.20965366065502167,"82":1.1347779035568237,"83":0.3212674856185913,"84":0.6968635320663452,"85":0.140126571059227,"86":0.1549253761768341,"87":-0.22604723274707794,"88":-0.6977226138114929,"89":-0.4596787691116333,"90":-0.03336382657289505,"91":-0.3394136130809784,"92":0.20810386538505554,"93":-0.7897536158561707,"94":1.1400625705718994,"95":0.9551851749420166,"96":-0.3338511288166046,"97":-0.1672043651342392,"98":0.2583563029766083,"99":-0.43364688754081726,"100":0.08205614984035492,"101":0.26456400752067566,"102":0.13900668919086456,"103":-0.04621957615017891,"104":0.060346659272909164,"105":-0.5807573199272156,"106":0.22935733199119568,"107":0.7877007722854614,"108":-0.6089993119239807,"109":0.4256599545478821,"110":-0.11498325318098068,"111":0.6783309578895569,"112":0.33413514494895935,"113":0.012132534757256508,"114":0.3373957872390747,"115":-0.7812178730964661,"116":-0.12155705690383911,"117":-0.24393610656261444,"118":0.06397146731615067,"119":-0.5714889168739319,"120":0.575070321559906,"121":1.0964679718017578,"122":0.938942015171051,"123":-1.1726609468460083,"124":0.28114405274391174,"125":-0.5730682015419006,"126":0.1616678237915039,"127":-1.02394700050354,"128":0.06147034466266632,"129":0.5004063248634338,"130":-0.19811761379241943,"131":-0.7778551578521729,"132":-0.20033639669418335,"133":0.32465896010398865,"134":0.6858952045440674,"135":1.1352566480636597,"136":0.365507572889328,"137":-1.2105364799499512,"138":0.02399502880871296,"139":0.38217276334762573,"140":-0.7888738512992859,"141":0.890228271484375,"142":-0.280637264251709,"143":-0.38548046350479126,"144":-0.6741803884506226,"145":-1.0998269319534302,"146":0.1142917200922966,"147":-0.3483657240867615,"148":0.06725448369979858,"149":-0.6029468774795532,"150":0.11067105829715729,"151":-0.7201374769210815,"152":0.13535209000110626,"153":0.050465118139982224,"154":0.3983732759952545,"155":0.6775594353675842,"156":0.2750706970691681,"157":1.0764514207839966,"158":-0.15359430015087128,"159":0.482151061296463,"160":0.0026175796519964933,"161":1.5937204360961914,"162":-0.057409096509218216,"163":-0.7832067012786865,"164":-0.6306725740432739,"165":0.8905339241027832,"166":0.877780020236969,"167":0.678687334060669,"168":0.3842147886753082,"169":-0.9708222150802612,"170":-0.6190353631973267,"171":-0.5370588302612305,"172":0.16310089826583862,"173":0.26720955967903137,"174":0.33012276887893677,"175":0.19968432188034058,"176":0.28071537613868713,"177":-1.8139050006866455,"178":-2.183237075805664,"179":-0.8116409778594971,"180":0.21388234198093414,"181":0.68269282579422,"182":-0.6597538590431213,"183":0.626846969127655,"184":0.19362884759902954,"185":-0.3139905035495758,"186":0.45621395111083984,"187":0.29779738187789917,"188":0.4172908067703247,"189":0.7995686531066895,"190":0.6034773588180542,"191":-0.7021551132202148,"192":-0.028229378163814545,"193":0.42746469378471375,"194":0.7849227786064148,"195":-0.9642688632011414,"196":0.7630239725112915,"197":0.18593725562095642,"198":0.44965407252311707,"199":-0.5584254860877991,"200":-0.6382086873054504,"201":-0.5442303419113159,"202":-0.9983729124069214,"203":0.44747981429100037,"204":0.4943845868110657,"205":-0.8362186551094055,"206":-0.4249056279659271,"207":-0.0030689644627273083,"208":-0.5745488405227661,"209":0.026217954233288765,"210":-0.3638990521430969,"211":-0.07217451184988022,"212":0.5389350652694702,"213":0.3663141131401062,"214":0.35772332549095154,"215":0.39079731702804565,"216":0.7135899066925049,"217":-0.3491903841495514,"218":0.45964011549949646,"219":-0.5772356390953064,"220":-0.5032234787940979,"221":-0.7900068759918213,"222":0.28895366191864014,"223":-0.6136196255683899,"224":0.5164382457733154,"225":-1.103255033493042,"226":0.4127078056335449,"227":-0.6151971220970154,"228":-0.3512830436229706,"229":0.12789906561374664,"230":0.8730717897415161,"231":1.3041516542434692,"232":0.42906177043914795,"233":-0.1413670778274536,"234":-0.21213854849338531,"235":-0.7826262712478638,"236":0.5013972520828247,"237":0.6761572957038879,"238":-0.4299331605434418,"239":0.690703272819519,"240":-0.2212487757205963,"241":0.666241466999054,"242":0.8813391327857971,"243":-1.253631591796875,"244":-0.6541088223457336,"245":-0.4233831763267517,"246":0.7325138449668884,"247":1.8005578517913818,"248":0.6994612812995911,"249":0.9730901718139648,"250":0.47143876552581787,"251":-0.2618088126182556,"252":0.18161794543266296,"253":-0.6502023935317993,"254":-1.3949778079986572,"255":1.0376092195510864,"256":-0.5152581930160522,"257":-0.2351263463497162,"258":-1.6106023788452148,"259":1.3281617164611816,"260":-0.048017408698797226,"261":-1.287630558013916,"262":0.6555238962173462,"263":1.1515882015228271,"264":-0.4807072579860687,"265":-0.45168593525886536,"266":-0.4840811491012573,"267":-0.3940180540084839,"268":-0.1680159866809845,"269":0.2882954776287079,"270":1.700482964515686,"271":-0.1712147742509842,"272":-1.1051007509231567,"273":0.8581335544586182,"274":-0.9100914597511292,"275":-0.8220548629760742,"276":-0.7544364333152771,"277":-0.325610876083374,"278":0.6511286497116089,"279":-0.8454111218452454,"280":0.706452488899231,"281":0.18617549538612366,"282":0.8848385214805603,"283":-0.45084521174430847,"284":0.8510608077049255,"285":-0.8221685886383057,"286":-1.4399776458740234,"287":-0.6653065085411072,"288":0.09121530503034592,"289":-0.1798064261674881,"290":0.4503145217895508,"291":0.00889276247471571,"292":1.3045201301574707,"293":-0.1617872565984726,"294":0.2936551868915558,"295":-0.5774289965629578,"296":0.18517771363258362,"297":-0.9884035587310791,"298":-0.38292333483695984,"299":-0.7998491525650024,"300":-0.3749385476112366,"301":0.24044302105903625,"302":0.3614589273929596,"303":-0.4378095865249634,"304":-1.1422942876815796,"305":-0.3613322079181671,"306":0.847882866859436,"307":-1.23778235912323,"308":-1.5799022912979126,"309":0.1554885059595108,"310":-0.8002013564109802,"311":1.081182837486267,"312":-0.4361172616481781,"313":-0.3571266829967499,"314":-0.2671755850315094,"315":-0.5672436356544495,"316":-1.5141685009002686,"317":0.9365818500518799,"318":-0.18372437357902527,"319":0.24612613022327423,"320":0.4425183832645416,"321":0.4231968820095062,"322":-0.51222163438797,"323":0.9701970219612122,"324":0.6898320913314819,"325":-0.46386852860450745,"326":-0.15223659574985504,"327":1.2403851747512817,"328":-1.2842031717300415,"329":-0.3449172377586365,"330":0.36243653297424316,"331":-0.16953545808792114,"332":-0.33178257942199707,"333":-0.5101054906845093,"334":-0.4806120693683624,"335":0.15130116045475006,"336":-0.17207561433315277,"337":-0.33223757147789,"338":-0.35173550248146057,"339":0.2355993539094925,"340":-0.48003387451171875,"341":-0.150753453373909,"342":-1.4308972358703613,"343":-1.4183993339538574,"344":0.1375952959060669,"345":-0.0674055889248848,"346":0.7153798937797546,"347":-0.04757983982563019,"348":0.22783522307872772,"349":-0.24309413135051727,"350":0.4546649754047394,"351":-0.328546941280365,"352":-0.20426949858665466,"353":-0.4959462583065033,"354":0.5264583230018616,"355":-0.3227491080760956,"356":0.34072625637054443,"357":-0.6235849261283875,"358":0.5998144149780273,"359":0.933668851852417,"360":-0.4345446825027466,"361":-0.21409696340560913,"362":0.25302204489707947,"363":-0.5337111353874207,"364":0.12160855531692505,"365":0.7229939103126526,"366":0.21568314731121063,"367":0.1996772736310959,"368":0.9460048675537109,"369":0.2119009643793106,"370":0.4166734218597412,"371":-0.20516645908355713,"372":-0.026158709079027176,"373":0.33644115924835205,"374":0.20993971824645996,"375":-0.03842747211456299,"376":-0.026150185614824295,"377":0.21341098845005035,"378":-1.2147853374481201,"379":0.12347967177629471,"380":0.8529665470123291,"381":-0.4111897647380829,"382":0.4448556900024414,"383":-0.3544689416885376,"384":0.2662000060081482,"385":0.05847807601094246,"386":-0.1444573849439621,"387":-0.23544366657733917,"388":0.9485481381416321,"389":0.21370220184326172,"390":-0.8810043334960938,"391":0.07546065747737885,"392":-0.07052220404148102,"393":0.2899767756462097,"394":-0.21121104061603546,"395":-0.03357526659965515,"396":-0.35684895515441895,"397":-0.8690717220306396,"398":-1.0173259973526,"399":-0.7085999250411987,"400":0.23478926718235016,"401":0.3977908790111542,"402":1.3324345350265503,"403":-0.5231179594993591,"404":-0.8011595010757446,"405":0.42842161655426025,"406":-0.8619641065597534,"407":-1.0908390283584595,"408":-0.06277740001678467,"409":-0.5135666728019714,"410":0.8026368618011475,"411":-0.28363096714019775,"412":1.0332002639770508,"413":0.43845799565315247,"414":0.14500313997268677,"415":-0.5439609885215759,"416":0.8402205109596252,"417":-0.7099654078483582,"418":-1.4029245376586914,"419":-0.7004262804985046,"420":0.5721886157989502,"421":-1.2874442338943481,"422":0.7204186916351318,"423":0.3261207044124603,"424":1.232857346534729,"425":0.3494166433811188,"426":0.3163652718067169,"427":-0.9675818085670471,"428":0.22669735550880432,"429":-0.7170499563217163,"430":-0.7228249311447144,"431":-0.6914267539978027,"432":-0.568228006362915,"433":0.33270666003227234,"434":0.5976186990737915,"435":-0.04961836710572243,"436":-0.5848480463027954,"437":-0.6247630715370178,"438":0.22937293350696564,"439":-0.5654727816581726,"440":-0.7470477819442749,"441":-0.4115158021450043,"442":0.1624917984008789,"443":0.6472821831703186,"444":-0.6403597593307495,"445":0.5206906199455261,"446":0.5038931965827942,"447":-0.23822839558124542,"448":-0.80284184217453,"449":0.5382968187332153,"450":-0.6894417405128479,"451":-0.4053558111190796,"452":-0.28396615386009216,"453":0.5504757165908813,"454":-0.7114087343215942,"455":0.6099722385406494,"456":0.6317121982574463,"457":0.5574623346328735,"458":0.26977357268333435,"459":0.6492630839347839,"460":-0.6203941106796265,"461":-0.5260381102561951,"462":-0.33469969034194946,"463":-0.5475776195526123,"464":-0.690292239189148,"465":-0.44426634907722473,"466":0.6539389491081238,"467":0.17750567197799683,"468":-0.28411540389060974,"469":0.028263408690690994,"470":-0.7416142821311951,"471":0.11011165380477905,"472":-0.4598023593425751,"473":-1.8129104375839233,"474":0.1777116358280182,"475":0.18388374149799347,"476":0.696452260017395,"477":0.49994033575057983,"478":-0.34953659772872925,"479":-0.29979032278060913,"480":0.4710393249988556,"481":-0.435011625289917,"482":0.4508293867111206,"483":-0.5247865915298462,"484":-0.07369562238454819,"485":0.3214752674102783,"486":0.5101968050003052,"487":-0.47446519136428833,"488":0.7016435861587524,"489":1.0185078382492065,"490":-0.3638123869895935,"491":0.3998286724090576,"492":0.5575742721557617,"493":-0.7632710337638855,"494":-0.523929238319397,"495":-0.4969101846218109,"496":-0.5695075988769531,"497":-0.4041981101036072,"498":-0.6278306245803833,"499":0.9275867342948914,"500":-0.5466318130493164,"501":-0.012124106287956238,"502":0.5637035965919495,"503":-0.534771203994751,"504":0.10011892020702362,"505":-0.04392034187912941,"506":-0.7037341594696045,"507":-0.27105867862701416,"508":-0.17712794244289398,"509":0.5478966236114502,"510":0.19392339885234833,"511":0.219252809882164,"512":-0.9198663234710693,"513":-0.03537406399846077,"514":-0.2948845326900482,"515":0.15401041507720947,"516":0.1864154189825058,"517":-0.3483614921569824,"518":-0.23518148064613342,"519":0.3491353690624237,"520":-0.04923548176884651,"521":0.6290290951728821,"522":1.1523818969726562,"523":-0.02867778204381466,"524":0.5237324237823486,"525":0.2903229892253876,"526":-0.182643324136734,"527":-0.46900475025177,"528":0.3512745499610901,"529":0.3573513329029083,"530":0.5146646499633789,"531":0.39572104811668396,"532":-0.75667405128479,"533":-0.5050912499427795,"534":0.3680732846260071,"535":0.607628345489502,"536":0.7769490480422974,"537":-0.643828272819519,"538":0.86420077085495,"539":0.5620379447937012,"540":0.262064129114151,"541":-0.5893945097923279,"542":-0.595697283744812,"543":0.8490996360778809,"544":-0.232756569981575,"545":-0.23866695165634155,"546":-0.4483698606491089,"547":0.644928514957428,"548":-0.842736005783081,"549":0.7330077290534973,"550":0.2255338728427887,"551":-0.12373348325490952,"552":-0.5541921854019165,"553":0.34917891025543213,"554":-0.5490512847900391,"555":-0.6324674487113953,"556":0.4868687391281128,"557":0.4242543578147888,"558":-0.2958047389984131,"559":0.538787305355072,"560":0.565726637840271,"561":-0.2420583814382553,"562":0.27678632736206055,"563":0.31980249285697937,"564":0.4823519289493561,"565":-0.503263533115387,"566":0.3619423508644104,"567":-1.1333155632019043,"568":-0.44736984372138977,"569":0.7439708709716797,"570":0.02792285569012165,"571":0.4563411474227905,"572":0.2583779990673065,"573":-0.4663871228694916,"574":0.41157230734825134,"575":-0.2611226439476013,"576":-0.001312241074629128,"577":-0.6418800354003906,"578":0.5018327236175537,"579":0.42547333240509033,"580":-0.28601646423339844,"581":-0.5537250638008118,"582":0.8676022887229919,"583":0.7819685935974121,"584":0.573217511177063,"585":0.9815446138381958,"586":0.4908807873725891,"587":-0.38321927189826965,"588":0.22146989405155182,"589":-0.295671671628952,"590":-0.006012086756527424,"591":0.47306033968925476,"592":-0.6838041543960571,"593":-0.28731635212898254,"594":0.6782274842262268,"595":0.9271148443222046,"596":0.44127413630485535,"597":0.8678265810012817,"598":-0.34233587980270386,"599":-0.7194454669952393,"600":0.4739919900894165,"601":0.823434054851532,"602":-0.18665067851543427,"603":0.3709050416946411,"604":0.16812464594841003,"605":0.3013553321361542,"606":-1.1516560316085815,"607":-0.8815812468528748,"608":-0.4186977446079254,"609":0.22074544429779053,"610":0.41928550601005554,"611":-0.7281407713890076,"612":0.43402543663978577,"613":-0.9285067915916443,"614":-0.08975132554769516,"615":-0.04363163933157921,"616":0.2660689949989319,"617":0.2804369628429413,"618":0.16438113152980804,"619":0.5302113890647888,"620":-0.33804067969322205,"621":-0.07298818975687027,"622":0.07093872874975204,"623":0.5281851291656494,"624":-0.6222386360168457,"625":0.754625678062439,"626":-0.21081146597862244,"627":0.01348730269819498,"628":-0.7191500067710876,"629":-0.8258242011070251,"630":-0.8082561492919922,"631":-0.25132471323013306,"632":0.8663365840911865,"633":0.8539747595787048,"634":-0.9973294138908386,"635":-0.5918018817901611,"636":1.1785637140274048,"637":-0.6079195141792297,"638":-0.5695948600769043,"639":-0.2128196805715561,"640":-0.48272836208343506,"641":0.6972075700759888,"642":-0.1587781459093094,"643":0.7031518220901489,"644":0.6115527749061584,"645":0.6612480878829956,"646":-0.8028503060340881,"647":0.5972982048988342,"648":-0.7706518173217773,"649":-1.0044265985488892,"650":-1.12092924118042,"651":0.6908811330795288,"652":-0.836815595626831,"653":0.777124285697937,"654":-0.9763348698616028,"655":0.8410734534263611,"656":-0.14592482149600983,"657":-0.22503232955932617,"658":-0.6164958477020264,"659":1.0311325788497925}},"forgetHidden":{"rows":20,"columns":20,"weights":{"0":1.868188500404358,"1":-0.5906856060028076,"2":0.40801113843917847,"3":2.5865118503570557,"4":-1.9742331504821777,"5":-1.2511639595031738,"6":0.4690743684768677,"7":0.7999599575996399,"8":-1.164903998374939,"9":2.211247444152832,"10":-0.6289545297622681,"11":-0.4751698076725006,"12":0.07741302996873856,"13":0.13556000590324402,"14":0.4265056848526001,"15":0.7798084616661072,"16":-0.42103734612464905,"17":-0.8536306619644165,"18":-0.8718078136444092,"19":-0.5939759016036987,"20":-0.7664958834648132,"21":0.2423180341720581,"22":0.05120076984167099,"23":1.1270511150360107,"24":-0.515418291091919,"25":-0.1538674384355545,"26":-0.3944399654865265,"27":-0.5192428827285767,"28":-0.6573016047477722,"29":-0.0943332239985466,"30":-0.1812136471271515,"31":0.865100085735321,"32":0.17415611445903778,"33":0.30724018812179565,"34":0.635757565498352,"35":-0.6713799834251404,"36":0.03700217977166176,"37":0.2958132028579712,"38":-0.811509907245636,"39":-0.5823410153388977,"40":0.4237445294857025,"41":-0.4223509430885315,"42":0.6075997352600098,"43":0.7310678362846375,"44":-0.16024717688560486,"45":-0.5302338600158691,"46":-0.5408276319503784,"47":-0.020087597891688347,"48":-1.1192625761032104,"49":-1.2781471014022827,"50":-0.5071970820426941,"51":-0.41602030396461487,"52":0.1921006590127945,"53":0.17268924415111542,"54":0.9082829356193542,"55":-0.1761554628610611,"56":0.377144992351532,"57":-0.24557676911354065,"58":-0.09608498215675354,"59":-0.9587243795394897,"60":-0.8714147210121155,"61":-0.42806440591812134,"62":-0.017360826954245567,"63":0.1957416981458664,"64":-0.1770959496498108,"65":-0.5508469939231873,"66":0.6255730390548706,"67":-0.8756738305091858,"68":-0.25461018085479736,"69":0.18878091871738434,"70":0.02455218881368637,"71":0.16215713322162628,"72":-0.010767375119030476,"73":0.21252179145812988,"74":0.010967239737510681,"75":0.06300611048936844,"76":-0.20609188079833984,"77":-0.36810651421546936,"78":-0.5306926965713501,"79":-0.6231436729431152,"80":0.39283549785614014,"81":-0.22705648839473724,"82":0.6160973906517029,"83":-0.30235224962234497,"84":-0.2623646855354309,"85":-0.7043277025222778,"86":0.4464821219444275,"87":0.4076208770275116,"88":-0.3383956551551819,"89":-0.4546580910682678,"90":-1.1104167699813843,"91":-0.20667637884616852,"92":0.3846249580383301,"93":-0.18243937194347382,"94":-0.3558923602104187,"95":0.32831183075904846,"96":-0.20318546891212463,"97":0.05289832875132561,"98":0.67729651927948,"99":0.26075759530067444,"100":0.2100435495376587,"101":-0.46221867203712463,"102":0.9145125150680542,"103":0.7030498385429382,"104":-0.2063080221414566,"105":-0.02048228308558464,"106":-0.09191218763589859,"107":-0.08624470233917236,"108":-0.41407230496406555,"109":0.6079731583595276,"110":-0.3361484706401825,"111":0.2495279163122177,"112":-0.9780276417732239,"113":-0.2639879584312439,"114":1.3335810899734497,"115":-1.2620059251785278,"116":0.6069432497024536,"117":-0.054390646517276764,"118":-0.11459793150424957,"119":-0.8339740633964539,"120":0.05061496049165726,"121":-0.11048150062561035,"122":0.01650582067668438,"123":0.5609592795372009,"124":-1.2494146823883057,"125":0.09868008643388748,"126":0.012018546462059021,"127":0.5339536070823669,"128":0.016862500458955765,"129":-0.3205302953720093,"130":0.03704194352030754,"131":1.0017378330230713,"132":0.15542399883270264,"133":0.5211679935455322,"134":-0.08734875172376633,"135":-0.5184038281440735,"136":-0.14314264059066772,"137":0.22619281709194183,"138":-0.3308951258659363,"139":-0.024984126910567284,"140":-0.15501528978347778,"141":0.2607988119125366,"142":-0.141487717628479,"143":0.43596312403678894,"144":-0.213826522231102,"145":0.2570451498031616,"146":-0.4198407828807831,"147":-0.47672039270401,"148":0.2128341645002365,"149":-0.2704519033432007,"150":0.14973574876785278,"151":-0.032626647502183914,"152":-0.0679154172539711,"153":0.21712319552898407,"154":-0.17691373825073242,"155":0.4965288043022156,"156":-0.5243434906005859,"157":0.544764518737793,"158":0.44599705934524536,"159":0.1351754069328308,"160":-0.6340508460998535,"161":0.4390653669834137,"162":-0.4017018675804138,"163":-0.09646956622600555,"164":-0.4318459630012512,"165":0.4418986141681671,"166":0.25601819157600403,"167":-0.669024646282196,"168":0.041881151497364044,"169":-0.37134552001953125,"170":0.4113966226577759,"171":0.5914686322212219,"172":-0.06068262457847595,"173":0.21251003444194794,"174":-0.020055687054991722,"175":0.4192369282245636,"176":-0.2391042858362198,"177":-0.11620181053876877,"178":-0.386258989572525,"179":-0.11244769394397736,"180":0.9515466690063477,"181":-0.40275654196739197,"182":1.4995571374893188,"183":1.4161231517791748,"184":-0.9205267429351807,"185":-0.7340545058250427,"186":0.34772107005119324,"187":0.6681462526321411,"188":-0.9229881167411804,"189":0.5785741209983826,"190":-0.5170050859451294,"191":0.2198725789785385,"192":0.5512474179267883,"193":0.44282519817352295,"194":0.7698079347610474,"195":-0.47603195905685425,"196":0.11419583857059479,"197":-0.4951270818710327,"198":-1.2960020303726196,"199":-0.8392347097396851,"200":0.15540824830532074,"201":-0.8294311761856079,"202":0.7025686502456665,"203":0.31503453850746155,"204":-0.5600932836532593,"205":-1.3330599069595337,"206":-0.6394016742706299,"207":0.9269877672195435,"208":-0.8729727864265442,"209":-1.1729741096496582,"210":-0.6440737843513489,"211":-0.6239867806434631,"212":-0.17112146317958832,"213":0.4920905828475952,"214":0.7266115546226501,"215":-0.5479766726493835,"216":0.3751387596130371,"217":-0.6499727368354797,"218":-0.0616343691945076,"219":-0.9634689688682556,"220":-0.2897135615348816,"221":-1.5711545944213867,"222":1.1904027462005615,"223":-1.5158296823501587,"224":1.1239081621170044,"225":-1.706447958946228,"226":-0.0881565660238266,"227":1.6173712015151978,"228":-0.2987383008003235,"229":-2.147028923034668,"230":-1.766075849533081,"231":-0.4169742166996002,"232":0.6681105494499207,"233":0.9160887002944946,"234":-1.7133651971817017,"235":0.20846782624721527,"236":0.0921827033162117,"237":1.517344355583191,"238":0.7094192504882812,"239":-0.8156216740608215,"240":0.7236906290054321,"241":-0.054655153304338455,"242":0.5318344831466675,"243":-0.28562676906585693,"244":-0.8291593790054321,"245":-0.07271020114421844,"246":0.5275054574012756,"247":0.40100210905075073,"248":0.09393595159053802,"249":0.3791285753250122,"250":-0.07369253039360046,"251":-0.06680290400981903,"252":-0.1491016298532486,"253":0.41919857263565063,"254":-0.31066960096359253,"255":0.49679845571517944,"256":0.2269677370786667,"257":0.5445809960365295,"258":0.31317979097366333,"259":0.11232700943946838,"260":0.43460413813591003,"261":-0.07976846396923065,"262":-0.07084362208843231,"263":-0.09695645421743393,"264":0.058973778039216995,"265":0.044881392270326614,"266":0.23104406893253326,"267":0.2716231048107147,"268":0.07853057980537415,"269":0.6078054308891296,"270":0.09565433859825134,"271":0.09520872682332993,"272":-0.6745905876159668,"273":0.47284191846847534,"274":-0.10844778269529343,"275":-0.21778441965579987,"276":0.008071730844676495,"277":0.1614150106906891,"278":0.013033144176006317,"279":0.17729978263378143,"280":-0.9045222401618958,"281":-1.1525068283081055,"282":0.8816232681274414,"283":-0.500121533870697,"284":0.5331650972366333,"285":-0.9484243988990784,"286":-0.4841015040874481,"287":0.6463858485221863,"288":0.28971028327941895,"289":0.19589939713478088,"290":-0.9392138123512268,"291":0.04553801938891411,"292":1.3080978393554688,"293":-0.17542362213134766,"294":-0.08845522999763489,"295":0.0179610513150692,"296":0.5820955634117126,"297":-0.015349584631621838,"298":-0.0655600056052208,"299":0.42153653502464294,"300":0.16146302223205566,"301":-1.3850600719451904,"302":-0.00788513757288456,"303":-2.4020023345947266,"304":1.6576204299926758,"305":-0.18916448950767517,"306":0.6276893019676208,"307":1.0688759088516235,"308":0.7954425811767578,"309":-1.1157090663909912,"310":-1.0133553743362427,"311":-0.32405149936676025,"312":-0.30563682317733765,"313":-0.5194241404533386,"314":-2.091277837753296,"315":-0.14037197828292847,"316":-0.7824569940567017,"317":0.7633724212646484,"318":1.8925708532333374,"319":-0.554450511932373,"320":-0.10247083753347397,"321":-0.32557520270347595,"322":0.1985628306865692,"323":-0.35061880946159363,"324":0.46166640520095825,"325":-0.5810432434082031,"326":0.059219565242528915,"327":-0.4184951186180115,"328":-0.5294228792190552,"329":-0.2570722699165344,"330":-0.002832951955497265,"331":0.4662165641784668,"332":0.41220563650131226,"333":-0.4088658392429352,"334":-0.3532336950302124,"335":-0.6502521634101868,"336":0.5046907067298889,"337":-0.5373029708862305,"338":-0.5815187692642212,"339":-0.4150797128677368,"340":-0.08613314479589462,"341":0.2996421158313751,"342":-0.3186347484588623,"343":0.23490788042545319,"344":-0.8513961434364319,"345":0.0019542910158634186,"346":0.2208082377910614,"347":-0.406610369682312,"348":-0.5602395534515381,"349":-0.287862628698349,"350":0.6805253624916077,"351":1.0986661911010742,"352":0.6213347315788269,"353":0.8266441226005554,"354":0.07925588637590408,"355":-0.31922823190689087,"356":-0.4027971923351288,"357":0.5492786765098572,"358":-1.0515320301055908,"359":-0.40873536467552185,"360":-0.16101936995983124,"361":0.4709324538707733,"362":-0.31841138005256653,"363":0.38430774211883545,"364":-0.15629123151302338,"365":-0.04128542169928551,"366":0.30952009558677673,"367":-0.8580478429794312,"368":0.673956036567688,"369":0.5267489552497864,"370":-0.0514952726662159,"371":-1.0428231954574585,"372":0.6748936772346497,"373":-0.6055718660354614,"374":0.12669417262077332,"375":1.0821943283081055,"376":-0.7957271933555603,"377":-0.13675466179847717,"378":-0.3736174404621124,"379":0.3229200839996338,"380":0.9199013710021973,"381":-0.38452959060668945,"382":0.594150960445404,"383":-0.1767389178276062,"384":-0.15834271907806396,"385":-0.30341851711273193,"386":-0.44960951805114746,"387":0.7760213017463684,"388":0.06770554184913635,"389":-0.7409335970878601,"390":-0.37545138597488403,"391":0.29436665773391724,"392":-0.5185783505439758,"393":0.7736579775810242,"394":0.041292522102594376,"395":-0.3112013638019562,"396":0.21657206118106842,"397":0.22774623334407806,"398":0.16711260378360748,"399":-0.2680214047431946}},"forgetBias":{"rows":20,"columns":1,"weights":{"0":0,"1":0,"2":0,"3":0,"4":0,"5":0,"6":0,"7":0,"8":0,"9":0,"10":0,"11":0,"12":0,"13":0,"14":0,"15":0,"16":0,"17":0,"18":0,"19":0}},"outputMatrix":{"rows":20,"columns":33,"weights":{"0":1.154280662536621,"1":-0.19744282960891724,"2":-0.06762491911649704,"3":-0.1017063707113266,"4":-0.9433503746986389,"5":-0.325647234916687,"6":1.5315943956375122,"7":-0.3442690968513489,"8":-0.07631565630435944,"9":0.6594778299331665,"10":-0.20480427145957947,"11":0.39277663826942444,"12":-1.3022873401641846,"13":-0.5000059604644775,"14":0.18257907032966614,"15":0.5828314423561096,"16":0.7596437931060791,"17":-0.182041734457016,"18":1.136648178100586,"19":0.01015055924654007,"20":0.0980202853679657,"21":-0.19032330811023712,"22":-1.306032419204712,"23":-1.2608290910720825,"24":0.9079917669296265,"25":-0.45260244607925415,"26":0.12316969037055969,"27":-0.8446964621543884,"28":1.3675622940063477,"29":0.40540945529937744,"30":-0.9607632160186768,"31":0.6521089673042297,"32":1.717369794845581,"33":0.0599508099257946,"34":0.20815759897232056,"35":0.5012702345848083,"36":0.9881962537765503,"37":0.14185507595539093,"38":-0.799476146697998,"39":0.2242054045200348,"40":0.6125485897064209,"41":0.3632355332374573,"42":-0.4369647800922394,"43":0.13312357664108276,"44":-0.7027571201324463,"45":0.11811486631631851,"46":-0.1642371267080307,"47":-0.4907335042953491,"48":1.0382307767868042,"49":-0.6628389954566956,"50":-0.6998889446258545,"51":-0.14870841801166534,"52":0.33812904357910156,"53":-0.5248690247535706,"54":0.841094434261322,"55":0.3733583688735962,"56":0.6287611126899719,"57":-1.0698126554489136,"58":0.4730919897556305,"59":-0.6294605135917664,"60":0.9339752793312073,"61":-0.6525746583938599,"62":1.1237177848815918,"63":0.18233102560043335,"64":-0.3776075839996338,"65":-0.7965123057365417,"66":-0.2405199259519577,"67":0.5072162747383118,"68":0.3872837722301483,"69":0.8773937821388245,"70":-0.18055234849452972,"71":-0.21002048254013062,"72":-0.2948530912399292,"73":-0.003733674995601177,"74":0.22597196698188782,"75":0.5291679501533508,"76":0.18636687099933624,"77":-0.4031818211078644,"78":0.5071814656257629,"79":-0.0667138546705246,"80":-0.4291474521160126,"81":0.4988591969013214,"82":-0.8462952375411987,"83":-0.6310173869132996,"84":-0.34497305750846863,"85":-0.4301585853099823,"86":-0.38257497549057007,"87":0.46528759598731995,"88":1.2618061304092407,"89":0.8577194213867188,"90":-1.7731250524520874,"91":0.07187049835920334,"92":-0.5398576855659485,"93":-0.21012838184833527,"94":-1.2810007333755493,"95":-0.21276146173477173,"96":0.40332502126693726,"97":0.45337384939193726,"98":-0.5141820311546326,"99":0.7829136848449707,"100":-0.6054116487503052,"101":-0.8152092695236206,"102":-1.0144352912902832,"103":0.5154455304145813,"104":0.9530969858169556,"105":0.4928777515888214,"106":-1.511956810951233,"107":-0.4361858367919922,"108":0.5527120232582092,"109":-0.45063579082489014,"110":-0.0029249319341033697,"111":-0.1745815873146057,"112":0.7377514243125916,"113":0.5344157814979553,"114":-0.09087982773780823,"115":0.5845058560371399,"116":0.7918813824653625,"117":0.7318212985992432,"118":-0.6594066619873047,"119":0.41125211119651794,"120":-0.3668804168701172,"121":-0.6279906630516052,"122":-0.9530441761016846,"123":0.7310178875923157,"124":-1.1063342094421387,"125":0.6514222621917725,"126":-0.9337815642356873,"127":0.42108187079429626,"128":-0.7550539374351501,"129":-0.7408537864685059,"130":-0.18453523516654968,"131":0.9177479147911072,"132":-0.31135839223861694,"133":-0.26223206520080566,"134":-0.815839409828186,"135":-1.1849819421768188,"136":-0.3506608307361603,"137":0.07591933012008667,"138":0.9317695498466492,"139":-0.15202821791172028,"140":-1.4058690071105957,"141":1.0055859088897705,"142":-1.2928149700164795,"143":-0.6502404808998108,"144":-1.4972457885742188,"145":-0.44321078062057495,"146":0.5551365613937378,"147":-0.17007187008857727,"148":1.2230743169784546,"149":-0.35113176703453064,"150":0.6292966604232788,"151":-0.711940348148346,"152":1.592768907546997,"153":-1.657511591911316,"154":-0.6049068570137024,"155":-0.8424875736236572,"156":0.7565697431564331,"157":-0.2943509817123413,"158":0.3821561634540558,"159":-0.35676953196525574,"160":0.8621816635131836,"161":0.621573269367218,"162":0.19553497433662415,"163":-0.06774327158927917,"164":0.43753623962402344,"165":0.05613052099943161,"166":0.08473708480596542,"167":0.33374926447868347,"168":0.8260348439216614,"169":-0.055108316242694855,"170":-0.6177372336387634,"171":-0.04685397446155548,"172":0.5045474171638489,"173":0.5808001756668091,"174":-0.5116574168205261,"175":0.41222047805786133,"176":-0.2701033651828766,"177":-0.4513692557811737,"178":0.11490727961063385,"179":-0.20889157056808472,"180":0.16449156403541565,"181":-0.9848724007606506,"182":-0.9069187641143799,"183":-0.3316991329193115,"184":0.2825145125389099,"185":-0.3992251753807068,"186":0.37470290064811707,"187":0.2287641316652298,"188":1.200912356376648,"189":0.3427148759365082,"190":0.27622097730636597,"191":-0.1303144246339798,"192":0.608542799949646,"193":-0.9085495471954346,"194":1.0847512483596802,"195":0.08602894842624664,"196":-0.24670863151550293,"197":-0.930209755897522,"198":-0.7808194160461426,"199":-0.20852753520011902,"200":-0.061520371586084366,"201":-0.09448210895061493,"202":0.6512921452522278,"203":-0.3558218479156494,"204":-0.6250563859939575,"205":0.1191592812538147,"206":-0.6398739814758301,"207":1.171327829360962,"208":-0.5402690768241882,"209":-2.197033166885376,"210":-0.05804579332470894,"211":-0.9746523499488831,"212":0.4001975953578949,"213":-0.633782684803009,"214":-0.9651466012001038,"215":-0.4905208945274353,"216":-0.6261402368545532,"217":-0.5042107701301575,"218":0.44298362731933594,"219":-0.3044496476650238,"220":0.7615010142326355,"221":1.2617878913879395,"222":0.21358464658260345,"223":-0.10533883422613144,"224":0.28376057744026184,"225":1.652304768562317,"226":-1.0443724393844604,"227":0.6152609586715698,"228":0.728736400604248,"229":-0.5969111919403076,"230":-1.0025197267532349,"231":0.657015860080719,"232":0.3915233016014099,"233":0.35805201530456543,"234":0.724814236164093,"235":-0.15935680270195007,"236":-0.9298193454742432,"237":0.14313673973083496,"238":1.400935173034668,"239":0.3001807630062103,"240":-0.35460078716278076,"241":0.3337816298007965,"242":0.034727830439805984,"243":-0.23312784731388092,"244":-0.3615765869617462,"245":-0.3394615054130554,"246":0.9379478096961975,"247":-0.03329316899180412,"248":-0.8388776183128357,"249":0.46788862347602844,"250":0.3191729187965393,"251":-0.43180862069129944,"252":0.4516657590866089,"253":0.027390532195568085,"254":0.632605254650116,"255":-0.28360551595687866,"256":1.0061683654785156,"257":-0.5757445693016052,"258":0.746548056602478,"259":0.10543585568666458,"260":0.6320706605911255,"261":-0.31655389070510864,"262":-0.13477542996406555,"263":-1.2418296337127686,"264":-0.630833625793457,"265":0.10635221004486084,"266":0.30129775404930115,"267":0.4149278998374939,"268":0.8477377891540527,"269":-0.2925783693790436,"270":0.0997978001832962,"271":0.23887018859386444,"272":0.3994400203227997,"273":-0.10127514600753784,"274":-0.05515271797776222,"275":-0.4303598701953888,"276":0.2635906934738159,"277":1.216412901878357,"278":-0.11316761374473572,"279":-0.30480897426605225,"280":-0.7834057211875916,"281":-0.10954079777002335,"282":-0.4830608665943146,"283":-0.8233602643013,"284":0.0811581239104271,"285":0.3063533902168274,"286":0.1375773847103119,"287":0.38019800186157227,"288":-0.6024160385131836,"289":0.14925479888916016,"290":-0.00004588611045619473,"291":0.46472427248954773,"292":-0.76288902759552,"293":-0.8732119798660278,"294":0.4055188000202179,"295":-0.8465071320533752,"296":-0.25902238488197327,"297":-0.07185635715723038,"298":-0.6927619576454163,"299":-0.2754897475242615,"300":-0.4946178197860718,"301":-0.00923941656947136,"302":1.7333197593688965,"303":0.009276151657104492,"304":-0.6765417456626892,"305":-0.9552193880081177,"306":0.9433395862579346,"307":-0.8101453185081482,"308":-0.22180719673633575,"309":0.25738680362701416,"310":1.4062641859054565,"311":0.688035786151886,"312":-0.6242297291755676,"313":0.23079214990139008,"314":1.3089176416397095,"315":0.4388777017593384,"316":-1.4209047555923462,"317":0.7366055250167847,"318":-0.9866439700126648,"319":0.1795198619365692,"320":0.0831780731678009,"321":0.9887928366661072,"322":0.047083497047424316,"323":-0.09281359612941742,"324":-0.38315513730049133,"325":0.08647734671831131,"326":-0.576005756855011,"327":0.2384549230337143,"328":-0.9478908181190491,"329":-0.14544282853603363,"330":-0.83139568567276,"331":-0.37987229228019714,"332":0.025848539546132088,"333":0.25039729475975037,"334":-0.024265464395284653,"335":0.38245242834091187,"336":-1.160326600074768,"337":-0.5507011413574219,"338":0.17390254139900208,"339":-0.20693808794021606,"340":-0.050489507615566254,"341":-0.14997486770153046,"342":0.6993008852005005,"343":0.9551302790641785,"344":0.06789359450340271,"345":-0.44746580719947815,"346":-1.1552681922912598,"347":0.20494258403778076,"348":-0.35058411955833435,"349":0.17049837112426758,"350":-0.21216988563537598,"351":0.21564295887947083,"352":1.389737606048584,"353":0.729491651058197,"354":-1.4793994426727295,"355":-0.07948374003171921,"356":0.1218857392668724,"357":-0.6303244233131409,"358":-1.4180470705032349,"359":0.0777115449309349,"360":0.9223389625549316,"361":-0.5882810354232788,"362":-0.6158290505409241,"363":1.0446364879608154,"364":0.15861015021800995,"365":0.116922527551651,"366":-0.03175145760178566,"367":-1.0795860290527344,"368":-0.27818772196769714,"369":1.7042334079742432,"370":0.6282013058662415,"371":-0.464989572763443,"372":1.1267255544662476,"373":-0.08554752171039581,"374":-0.5314623117446899,"375":-1.0604583024978638,"376":-0.9437198638916016,"377":-0.01514291763305664,"378":0.3534393906593323,"379":1.7234687805175781,"380":-0.5098491311073303,"381":1.2800192832946777,"382":0.17716601490974426,"383":0.1767982691526413,"384":-0.4999207556247711,"385":-0.6437158584594727,"386":-0.504650354385376,"387":-0.02431616000831127,"388":0.5150192975997925,"389":-0.3900223970413208,"390":-0.5488251447677612,"391":1.1128284931182861,"392":1.1829890012741089,"393":-0.7524200677871704,"394":0.5204794406890869,"395":0.3820921778678894,"396":-0.7390723824501038,"397":-0.3596498966217041,"398":-0.794788122177124,"399":0.029845064505934715,"400":0.4399280846118927,"401":-0.5603277087211609,"402":-0.31584206223487854,"403":0.028129618614912033,"404":-1.1091797351837158,"405":0.6726556420326233,"406":-1.2962290048599243,"407":-1.5540434122085571,"408":-0.6900550723075867,"409":-0.47513049840927124,"410":0.9382362961769104,"411":-0.42931273579597473,"412":-0.4412119388580322,"413":-0.7822284698486328,"414":-0.4755387008190155,"415":-0.6188364624977112,"416":1.2535903453826904,"417":-0.8865528106689453,"418":0.43194201588630676,"419":0.865715503692627,"420":0.5237134695053101,"421":-0.5134509205818176,"422":0.8806387782096863,"423":1.2536197900772095,"424":-0.4058763086795807,"425":0.7733922004699707,"426":0.48696184158325195,"427":-0.713570237159729,"428":-0.9940829277038574,"429":-1.0249686241149902,"430":-0.7669890522956848,"431":-0.4431236982345581,"432":-0.04600699990987778,"433":0.6837355494499207,"434":-0.09876014292240143,"435":-0.02258654311299324,"436":0.09918632358312607,"437":-0.029579143971204758,"438":-0.07687065005302429,"439":-0.20650315284729004,"440":-0.9643339514732361,"441":0.9701157808303833,"442":0.7373946309089661,"443":0.6154964566230774,"444":-0.2741277515888214,"445":-0.8469582200050354,"446":-0.07137367129325867,"447":-1.1506036520004272,"448":-0.18326349556446075,"449":0.15660110116004944,"450":-0.23137304186820984,"451":-0.08005721122026443,"452":0.600464940071106,"453":-0.268841028213501,"454":-0.14640435576438904,"455":0.6724945306777954,"456":1.7115418910980225,"457":-0.826485276222229,"458":-0.5195350646972656,"459":0.8144533634185791,"460":-0.8683082461357117,"461":-1.2218674421310425,"462":0.4877963960170746,"463":-0.7846087217330933,"464":-1.217766284942627,"465":-1.025214672088623,"466":-0.15968424081802368,"467":1.071213722229004,"468":-0.07940539717674255,"469":-1.3199028968811035,"470":-0.8577879667282104,"471":-0.35120242834091187,"472":-0.9324319958686829,"473":0.49967700242996216,"474":-0.075386643409729,"475":0.10572250187397003,"476":0.9884116053581238,"477":-0.30995768308639526,"478":0.2257716804742813,"479":0.5650923252105713,"480":0.5774384140968323,"481":0.6012445092201233,"482":0.9332224726676941,"483":-0.944911777973175,"484":-0.41583219170570374,"485":-0.7463707327842712,"486":0.5225227475166321,"487":-1.0709501504898071,"488":0.8068973422050476,"489":-0.7742924094200134,"490":0.5347933769226074,"491":-0.19784888625144958,"492":-0.4024161100387573,"493":-0.3509237766265869,"494":0.8626839518547058,"495":0.669568657875061,"496":-0.6621624827384949,"497":-0.630835771560669,"498":-0.08542389422655106,"499":-0.8810704946517944,"500":0.18640018999576569,"501":1.2125439643859863,"502":-0.16890639066696167,"503":-0.950796902179718,"504":0.8658103346824646,"505":-0.4034198820590973,"506":-0.9744104743003845,"507":-0.7583078742027283,"508":-0.6234643459320068,"509":0.32136663794517517,"510":0.7042437195777893,"511":1.1058554649353027,"512":-0.7651196718215942,"513":0.8263858556747437,"514":-0.38515251874923706,"515":0.11812543869018555,"516":-1.0201457738876343,"517":-0.4884417653083801,"518":-0.5597840547561646,"519":-0.11363982409238815,"520":-0.7222516536712646,"521":0.35252103209495544,"522":-0.7948493957519531,"523":0.5336987972259521,"524":0.4933047294616699,"525":-0.4223285913467407,"526":0.45320481061935425,"527":0.7554888725280762,"528":0.3945533335208893,"529":0.6243804693222046,"530":0.7094383835792542,"531":0.8483479022979736,"532":-0.29370585083961487,"533":-0.4080633223056793,"534":-0.04445691034197807,"535":0.2848299741744995,"536":1.0558242797851562,"537":0.23700891435146332,"538":1.1007291078567505,"539":1.0315109491348267,"540":0.9413424730300903,"541":0.5526862144470215,"542":-0.7475756406784058,"543":0.7636651992797852,"544":-0.5321245193481445,"545":0.08275670558214188,"546":0.24794863164424896,"547":0.45670825242996216,"548":-0.9335072636604309,"549":0.7799863815307617,"550":0.5602573752403259,"551":0.5555208921432495,"552":-0.800925076007843,"553":0.5462480187416077,"554":-0.7904152274131775,"555":-0.45897167921066284,"556":-0.659935712814331,"557":-0.978154182434082,"558":-0.42542973160743713,"559":0.8272461891174316,"560":0.4259447157382965,"561":-1.0136252641677856,"562":-0.47907570004463196,"563":0.023443026468157768,"564":0.2405824065208435,"565":0.5150651931762695,"566":0.7906227707862854,"567":0.16720256209373474,"568":-0.7302212119102478,"569":0.08129531145095825,"570":-0.278886616230011,"571":0.04360344260931015,"572":-0.059568069875240326,"573":0.5597139596939087,