{"type":"LSTM","options":{"inputSize":25,"inputRange":25,"hiddenLayers":[20,20],"outputSize":25,"decayRate":0.999,"smoothEps":1e-8,"regc":0.000001,"clipval":5,"maxPredictionLength":100,"dataFormatter":{"values":["the data betwween 1880 and 2659","1","give me the data betwween 1900 and 2000","the data betwween 1726 and 2041"],"indexTable":{"0":11,"1":9,"2":12,"4":21,"5":14,"6":13,"7":20,"8":10,"9":15,"t":0,"h":1,"e":2," ":3,"d":4,"a":5,"b":6,"w":7,"n":8,"g":16,"i":17,"v":18,"m":19,"stop-input":22,"start-output":23,"unrecognized":24},"characterTable":{"0":"t","1":"h","2":"e","3":" ","4":"d","5":"a","6":"b","7":"w","8":"n","9":"1","10":"8","11":"0","12":"2","13":"6","14":"5","15":"9","16":"g","17":"i","18":"v","19":"m","20":"7","21":"4","22":null,"23":null,"24":null},"characters":["t","h","e"," ","d","a","b","w","n","1","8","0","2","6","5","9","g","i","v","m","7","4","stop-input","start-output","unrecognized"],"specialIndexes":[22,23,24]}},"input":{"rows":26,"columns":25,"weights":{"0":0.2732704281806946,"1":-0.16566479206085205,"2":0.3125338554382324,"3":-0.1859932392835617,"4":0.22599458694458008,"5":0.21574318408966064,"6":0.07464040070772171,"7":0.01711972989141941,"8":-0.06711886823177338,"9":-0.036964051425457,"10":-0.21987836062908173,"11":-0.2700101137161255,"12":-0.0136949447914958,"13":-0.1813412457704544,"14":-0.1421097368001938,"15":0.29593735933303833,"16":-0.28148072957992554,"17":-0.27380144596099854,"18":-0.0843702033162117,"19":0.011484741233289242,"20":-0.2837122082710266,"21":-0.36361366510391235,"22":0.234843909740448,"23":0.10442119091749191,"24":-0.19940067827701569,"25":-0.05597476661205292,"26":0.03997037932276726,"27":0.1172732561826706,"28":-0.04026619344949722,"29":0.04901602491736412,"30":0.002746772486716509,"31":-0.05146430432796478,"32":-0.05220367759466171,"33":-0.012819351628422737,"34":0.09264858812093735,"35":-0.08631619065999985,"36":-0.11364826560020447,"37":-0.050868794322013855,"38":-0.10639701038599014,"39":0.0067166914232075214,"40":0.10789049416780472,"41":-0.0848737433552742,"42":-0.004616512451320887,"43":-0.03636491671204567,"44":-0.09275456517934799,"45":-0.06561291962862015,"46":-0.07591583579778671,"47":0.1670534610748291,"48":-0.03500841185450554,"49":-0.012979047372937202,"50":-0.25142723321914673,"51":0.15472617745399475,"52":-0.3291761577129364,"53":0.2938002347946167,"54":-0.2724386155605316,"55":-0.27110812067985535,"56":-0.11592908203601837,"57":0.0847693383693695,"58":0.2518579065799713,"59":-0.1192522644996643,"60":0.25866976380348206,"61":0.22406607866287231,"62":-0.10470730066299438,"63":0.3112507164478302,"64":0.03709235042333603,"65":-0.3902185261249542,"66":0.2341867983341217,"67":0.14998571574687958,"68":0.049505360424518585,"69":-0.13181790709495544,"70":0.2135820835828781,"71":0.34164637327194214,"72":-0.35796600580215454,"73":-0.20402531325817108,"74":0.28939107060432434,"75":-0.19467611610889435,"76":0.13114620745182037,"77":-0.34730014204978943,"78":0.16618765890598297,"79":-0.18820904195308685,"80":-0.1900523453950882,"81":-0.025525519624352455,"82":0.08796124160289764,"83":0.21576544642448425,"84":-0.039408788084983826,"85":0.20437008142471313,"86":0.33388522267341614,"87":-0.10988067090511322,"88":0.20555968582630157,"89":0.024531347677111626,"90":-0.41998422145843506,"91":0.25536787509918213,"92":0.22531943023204803,"93":0.06174706667661667,"94":-0.08915699273347855,"95":0.3402003347873688,"96":0.30972737073898315,"97":-0.396334171295166,"98":-0.15097898244857788,"99":0.3291710913181305,"100":-0.06488347798585892,"101":0.24322839081287384,"102":-0.25191572308540344,"103":0.3209783434867859,"104":-0.29527339339256287,"105":-0.1831422597169876,"106":-0.09307459741830826,"107":0.04964409023523331,"108":-0.017481962218880653,"109":-0.13806097209453583,"110":0.2940334379673004,"111":0.2981586456298828,"112":-0.16566844284534454,"113":0.30787160992622375,"114":-0.13509461283683777,"115":-0.23523741960525513,"116":0.0034856318961828947,"117":-0.1849573403596878,"118":0.14578694105148315,"119":-0.1908511221408844,"120":0.3118419647216797,"121":0.36519092321395874,"122":-0.39940282702445984,"123":-0.11843309551477432,"124":0.1976819783449173,"125":-0.004308405797928572,"126":0.2586718201637268,"127":0.034767623990774155,"128":0.30179524421691895,"129":-0.18591850996017456,"130":-0.08933241665363312,"131":-0.04710580036044121,"132":0.14108487963676453,"133":-0.05963817238807678,"134":0.012863082811236382,"135":0.1706899106502533,"136":0.08438173681497574,"137":-0.2551496624946594,"138":0.19940945506095886,"139":-0.06382609903812408,"140":0.044338371604681015,"141":-0.06491115689277649,"142":-0.18069714307785034,"143":0.19583405554294586,"144":-0.12899096310138702,"145":0.04486686363816261,"146":0.11151459813117981,"147":-0.1878693550825119,"148":0.03677835315465927,"149":-0.05252690240740776,"150":0.05283890664577484,"151":-0.10014741122722626,"152":0.13492457568645477,"153":-0.23072731494903564,"154":0.14447030425071716,"155":0.12425589561462402,"156":0.07238605618476868,"157":-0.032407063990831375,"158":-0.06484399735927582,"159":-0.059369612485170364,"160":-0.1761149913072586,"161":-0.18513257801532745,"162":0.14259231090545654,"163":-0.07335517555475235,"164":-0.07472440600395203,"165":0.1703566461801529,"166":-0.12877635657787323,"167":-0.19332365691661835,"168":-0.03465130925178528,"169":0.06797382235527039,"170":-0.18499575555324554,"171":-0.1213458925485611,"172":0.19860628247261047,"173":0.12665383517742157,"174":-0.10028766095638275,"175":0.06870612502098083,"176":-0.008120182901620865,"177":-0.0838175117969513,"178":0.11154740303754807,"179":-0.2185707837343216,"180":-0.02045380510389805,"181":-0.05995367094874382,"182":0.02640308067202568,"183":0.08218257874250412,"184":-0.030885832384228706,"185":0.11717649549245834,"186":0.12541794776916504,"187":-0.006089078728109598,"188":0.022911664098501205,"189":0.06536588072776794,"190":-0.08403424918651581,"191":0.038227543234825134,"192":0.01111565064638853,"193":0.07155346125364304,"194":0.0456230603158474,"195":0.11168459802865982,"196":0.25015929341316223,"197":-0.18277835845947266,"198":-0.11515265703201294,"199":0.07866060733795166,"200":-0.21509253978729248,"201":0.28742194175720215,"202":-0.30143678188323975,"203":0.17797540128231049,"204":-0.22721785306930542,"205":-0.1264134794473648,"206":-0.10010568052530289,"207":0.22765551507472992,"208":0.13950006663799286,"209":-0.019479630514979362,"210":0.1770840436220169,"211":0.3469217121601105,"212":-0.176670640707016,"213":0.13340449333190918,"214":0.10644741356372833,"215":-0.2749612033367157,"216":0.2624851167201996,"217":0.16879792511463165,"218":0.15913556516170502,"219":-0.21394234895706177,"220":0.23123306035995483,"221":0.22010014951229095,"222":-0.24665813148021698,"223":-0.23689240217208862,"224":0.28209033608436584,"225":-0.21431870758533478,"226":0.04150526970624924,"227":-0.25437429547309875,"228":0.21760308742523193,"229":-0.11418156325817108,"230":-0.14914266765117645,"231":0.01309893373399973,"232":-0.056109532713890076,"233":0.17506517469882965,"234":-0.059379108250141144,"235":0.11217931658029556,"236":0.28262296319007874,"237":0.038228411227464676,"238":0.16063489019870758,"239":-0.062094517052173615,"240":-0.2264840006828308,"241":0.1663622409105301,"242":0.21632516384124756,"243":-0.008534735068678856,"244":0.0017927652224898338,"245":0.2792432904243469,"246":0.18019405007362366,"247":-0.2640475630760193,"248":0.07051870971918106,"249":0.2419002205133438,"250":0.24186715483665466,"251":-0.3326100707054138,"252":0.309532105922699,"253":-0.38201162219047546,"254":0.2750222086906433,"255":0.28451016545295715,"256":0.17848379909992218,"257":-0.2536538243293762,"258":-0.20653142035007477,"259":0.0451868399977684,"260":-0.1839352697134018,"261":-0.2653292715549469,"262":0.2599271535873413,"263":-0.38327664136886597,"264":0.07053422927856445,"265":0.4495185613632202,"266":-0.2639033794403076,"267":-0.012505730614066124,"268":-0.2752310335636139,"269":0.32065194845199585,"270":-0.3161730468273163,"271":-0.3892655670642853,"272":0.4227484166622162,"273":0.221624955534935,"274":-0.2898092269897461,"275":0.04705017805099487,"276":-0.08825183659791946,"277":0.008237083442509174,"278":0.03764316812157631,"279":-0.0054246471263468266,"280":0.07808670401573181,"281":0.06088975444436073,"282":-0.043642688542604446,"283":-0.09608294814825058,"284":0.07143479585647583,"285":0.05265083536505699,"286":0.04842902719974518,"287":-0.047829121351242065,"288":-0.054837364703416824,"289":0.09599465131759644,"290":0.11149723827838898,"291":-0.03208360821008682,"292":-0.06487148255109787,"293":-0.05375099927186966,"294":0.052224621176719666,"295":-0.045645371079444885,"296":-0.03210902214050293,"297":0.04591673985123634,"298":-0.02140333130955696,"299":-0.054321568459272385,"300":0.20807082951068878,"301":-0.20200170576572418,"302":0.3571937680244446,"303":-0.35846877098083496,"304":0.3789145350456238,"305":0.21932755410671234,"306":0.23817786574363708,"307":-0.2220405489206314,"308":-0.16771700978279114,"309":0.06651677191257477,"310":-0.2860775887966156,"311":-0.27127569913864136,"312":0.32500162720680237,"313":-0.3148120641708374,"314":0.05235372856259346,"315":0.3275776505470276,"316":-0.2146061509847641,"317":0.025038810446858406,"318":-0.19830328226089478,"319":0.20605814456939697,"320":-0.33463233709335327,"321":-0.2759855091571808,"322":0.3052974343299866,"323":0.21958859264850616,"324":-0.29498061537742615,"325":-0.024814343079924583,"326":-0.15051190555095673,"327":0.03178966045379639,"328":-0.2507047951221466,"329":0.2886934280395508,"330":0.08882831037044525,"331":0.11683949083089828,"332":-0.12554556131362915,"333":-0.12955135107040405,"334":-0.02112787589430809,"335":-0.10853464156389236,"336":0.08445337414741516,"337":0.1346207559108734,"338":-0.19105324149131775,"339":0.007677801884710789,"340":0.031273987144231796,"341":0.14640934765338898,"342":0.11454998701810837,"343":-0.18955610692501068,"344":0.08095727860927582,"345":-0.06800881028175354,"346":-0.04584620147943497,"347":0.11798492819070816,"348":-0.010265152901411057,"349":0.04486190155148506,"350":-0.2066231071949005,"351":0.1512366235256195,"352":-0.32890480756759644,"353":0.2537718415260315,"354":-0.24833084642887115,"355":-0.26504313945770264,"356":-0.07241302728652954,"357":0.1834973841905594,"358":0.20990018546581268,"359":0.06790517270565033,"360":0.13198457658290863,"361":0.19723176956176758,"362":-0.22968408465385437,"363":0.2839478850364685,"364":0.04533906280994415,"365":-0.25897082686424255,"366":0.22041721642017365,"367":0.0528472363948822,"368":0.09159223735332489,"369":-0.2438497543334961,"370":0.2869356572628021,"371":0.3798094391822815,"372":-0.28536683320999146,"373":-0.22624142467975616,"374":0.2729306221008301,"375":0.130281463265419,"376":-0.09338060021400452,"377":-0.0873970314860344,"378":0.033297568559646606,"379":0.04033748432993889,"380":0.04710479825735092,"381":0.03396216034889221,"382":0.01779557578265667,"383":-0.027711201459169388,"384":-0.03144776076078415,"385":-0.054688092321157455,"386":0.05338815227150917,"387":-0.06772799044847488,"388":-0.07220155745744705,"389":0.020149260759353638,"390":0.028127718716859818,"391":-0.0030426583252847195,"392":-0.11534536629915237,"393":0.0578860305249691,"394":0.05858679488301277,"395":-0.06060653552412987,"396":0.06165849789977074,"397":0.032816868275403976,"398":-0.020868519321084023,"399":-0.07599364966154099,"400":-0.015324919484555721,"401":0.03665861859917641,"402":0.0047662933357059956,"403":0.03706261143088341,"404":0.0670328140258789,"405":0.059880487620830536,"406":-0.05377573519945145,"407":0.017006192356348038,"408":-0.15686684846878052,"409":0.08099091053009033,"410":0.06052839010953903,"411":0.041460953652858734,"412":-0.12667451798915863,"413":-0.006773903500288725,"414":0.004297350998967886,"415":0.0816652774810791,"416":0.04770147055387497,"417":0.06664837896823883,"418":-0.08280031383037567,"419":0.024579886347055435,"420":-0.0689716786146164,"421":-0.08719204366207123,"422":0.01963014155626297,"423":-0.0003204897802788764,"424":-0.0313633568584919,"425":-0.05159655213356018,"426":0.03745857626199722,"427":-0.04394952580332756,"428":-0.1435118317604065,"429":0.04689525067806244,"430":-0.0023478709626942873,"431":-0.008088701404631138,"432":0.06039457395672798,"433":-0.026511915028095245,"434":0.06746486574411392,"435":-0.11698435992002487,"436":0.0005402576643973589,"437":-0.05746383219957352,"438":-0.08117982000112534,"439":-0.06317834556102753,"440":-0.05155544728040695,"441":-0.0026153477374464273,"442":0.018246835097670555,"443":-0.026355888694524765,"444":-0.022494198754429817,"445":0.02003583125770092,"446":-0.0990084707736969,"447":-0.07505688071250916,"448":-0.015092333778738976,"449":-0.0016544682439416647,"450":0.0409100279211998,"451":-0.07004602998495102,"452":-0.01156491320580244,"453":-0.15158836543560028,"454":0.07498335838317871,"455":0.09770367294549942,"456":0.007025687489658594,"457":0.030879603698849678,"458":0.05795871838927269,"459":0.004657687619328499,"460":-0.1606653779745102,"461":-0.0848577544093132,"462":-0.0340515673160553,"463":-0.13034279644489288,"464":-0.02374592423439026,"465":-0.045488931238651276,"466":0.0970827266573906,"467":0.08737953007221222,"468":-0.029264219105243683,"469":0.022832144051790237,"470":-0.03240896388888359,"471":-0.04021763056516647,"472":0.043559178709983826,"473":0.03307468444108963,"474":0.013476078398525715,"475":0.009164451621472836,"476":-0.0949772521853447,"477":0.003857233328744769,"478":-0.20071732997894287,"479":0.09307430684566498,"480":0.006997823249548674,"481":0.05980522185564041,"482":-0.04140679910778999,"483":-0.02628355473279953,"484":-0.06105443835258484,"485":-0.03376905620098114,"486":0.033767081797122955,"487":0.16180191934108734,"488":-0.12979446351528168,"489":0.028489351272583008,"490":-0.006140649318695068,"491":-0.04988059401512146,"492":0.10465409606695175,"493":-0.08665311336517334,"494":0.06567355990409851,"495":-0.10155685991048813,"496":-0.07109006494283676,"497":-0.01719687320291996,"498":0.028861714527010918,"499":0.07480964809656143,"500":-0.04467696323990822,"501":-0.0490841269493103,"502":-0.08896499872207642,"503":-0.17998072504997253,"504":0.15346834063529968,"505":-0.002095539588481188,"506":0.10623345524072647,"507":-0.10457015782594681,"508":0.039060089737176895,"509":-0.05068441852927208,"510":-0.152091383934021,"511":0.019131362438201904,"512":0.08774107694625854,"513":-0.0964803546667099,"514":-0.07144705951213837,"515":0.0035400947090238333,"516":0.05719892680644989,"517":-0.031138647347688675,"518":-0.034658025950193405,"519":0.08262282609939575,"520":-0.0756678357720375,"521":-0.00262472010217607,"522":-0.07106412202119827,"523":-0.05069979652762413,"524":0.005851726047694683,"525":0.13715384900569916,"526":-0.24602165818214417,"527":0.2361665517091751,"528":-0.27814918756484985,"529":0.2614777982234955,"530":0.2689935564994812,"531":0.16976948082447052,"532":-0.24218572676181793,"533":-0.14348627626895905,"534":0.03362107276916504,"535":-0.27148106694221497,"536":-0.253020703792572,"537":0.22254712879657745,"538":-0.3306601643562317,"539":0.04223740100860596,"540":0.3265143036842346,"541":-0.18121163547039032,"542":-0.03556801378726959,"543":-0.146941676735878,"544":0.23377767205238342,"545":-0.3551206886768341,"546":-0.29920902848243713,"547":0.33909672498703003,"548":0.15443171560764313,"549":-0.3333849310874939,"550":0.11624541133642197,"551":-0.20582932233810425,"552":0.2261350005865097,"553":-0.10943746566772461,"554":0.25711172819137573,"555":0.14047352969646454,"556":-0.03222600370645523,"557":-0.08404595404863358,"558":-0.06504102796316147,"559":-0.07966648042201996,"560":-0.19243015348911285,"561":-0.36432626843452454,"562":0.0681416392326355,"563":-0.07489315420389175,"564":-0.06445833295583725,"565":0.2635177969932556,"566":-0.22169125080108643,"567":-0.14958283305168152,"568":0.033250145614147186,"569":0.007542216219007969,"570":-0.27643704414367676,"571":-0.27821725606918335,"572":0.28884759545326233,"573":0.18376073241233826,"574":-0.2764086127281189,"575":0.1903739869594574,"576":-0.25680306553840637,"577":0.35719865560531616,"578":-0.17221380770206451,"579":0.27395716309547424,"580":0.13913777470588684,"581":0.02008473314344883,"582":-0.17959152162075043,"583":-0.20028769969940186,"584":-0.11616742610931396,"585":-0.2327890247106552,"586":-0.2469165176153183,"587":0.18976028263568878,"588":-0.1734985113143921,"589":0.047705307602882385,"590":0.3864154815673828,"591":-0.2869546115398407,"592":-0.12686286866664886,"593":-0.03842007741332054,"594":0.16329795122146606,"595":-0.3638838529586792,"596":-0.2672591209411621,"597":0.36881038546562195,"598":0.1719243973493576,"599":-0.2739797830581665,"600":0.1428462266921997,"601":-0.03264123573899269,"602":0.11886774003505707,"603":0.19816260039806366,"604":-0.04068870469927788,"605":-0.019105298444628716,"606":-0.17310236394405365,"607":-0.09119392931461334,"608":0.01929302141070366,"609":-0.03016590140759945,"610":0.031070463359355927,"611":-0.14232686161994934,"612":-0.05594470351934433,"613":0.15310926735401154,"614":0.017064323648810387,"615":0.13519659638404846,"616":-0.17998024821281433,"617":-0.03862811625003815,"618":0.1090705543756485,"619":-0.006671401672065258,"620":-0.1350407898426056,"621":-0.2814406156539917,"622":0.3238740563392639,"623":0.10065735131502151,"624":-0.10223111510276794,"625":0.029695266857743263,"626":-0.07786714285612106,"627":0.017990726977586746,"628":0.024669978767633438,"629":-0.011700796894729137,"630":-0.036339085549116135,"631":0.04236599802970886,"632":0.009160186164081097,"633":0.07319889217615128,"634":0.011320803314447403,"635":0.0315568745136261,"636":0.07507414370775223,"637":0.015727318823337555,"638":-0.058017659932374954,"639":-0.0772281363606453,"640":0.058297187089920044,"641":-0.0017239968292415142,"642":-0.0715467557311058,"643":-0.04953531548380852,"644":-0.05353517085313797,"645":0.053811464458703995,"646":0.058007847517728806,"647":0.011457917280495167,"648":-0.0036974565591663122,"649":-0.0591912604868412}},"hiddenLayers":[{"inputMatrix":{"rows":20,"columns":25,"weights":{"0":-0.030766259878873825,"1":-0.03607155382633209,"2":-0.10150979459285736,"3":-0.0966939851641655,"4":0.0800110474228859,"5":0.051265280693769455,"6":0.03744688257575035,"7":0.04483973607420921,"8":-0.007141635753214359,"9":0.03683800622820854,"10":-0.01704256422817707,"11":-0.024516846984624863,"12":0.07801920920610428,"13":0.012828441336750984,"14":0.02627488411962986,"15":-0.11514607071876526,"16":-0.005531230475753546,"17":0.022481724619865417,"18":0.05604585260152817,"19":0.032628294080495834,"20":0.040941834449768066,"21":0.003864873666316271,"22":0.046438127756118774,"23":0.03813086077570915,"24":0.057169172912836075,"25":-0.04426174238324165,"26":0.052704062312841415,"27":-0.012878329493105412,"28":-0.03585329279303551,"29":-0.022312534973025322,"30":-0.0698830708861351,"31":0.06965578347444534,"32":-0.07662464678287506,"33":-0.07968100905418396,"34":-0.00556271243840456,"35":0.084922194480896,"36":0.023577919229865074,"37":0.014922001399099827,"38":-0.04343460127711296,"39":0.06941554695367813,"40":0.0343417152762413,"41":-0.05580538883805275,"42":0.017976345494389534,"43":-0.041856829077005386,"44":0.029496511444449425,"45":0.04331336170434952,"46":0.022061994299292564,"47":0.024796435609459877,"48":-0.037269316613674164,"49":0.02320805750787258,"50":-0.05233370140194893,"51":-0.017732499167323112,"52":-0.04092134162783623,"53":0.0024272347800433636,"54":0.005540624726563692,"55":-0.01209213212132454,"56":-0.04700479656457901,"57":0.04497428610920906,"58":-0.06333817541599274,"59":-0.05080093443393707,"60":0.0051050493493676186,"61":0.058231763541698456,"62":-0.029797831550240517,"63":0.025913286954164505,"64":-0.07449585944414139,"65":-0.09031245857477188,"66":0.028966160491108894,"67":-0.021533316001296043,"68":-0.07044655084609985,"69":0.0026389153208583593,"70":-0.041850745677948,"71":-0.00825180672109127,"72":0.03853883594274521,"73":-0.001053160522133112,"74":0.029994962736964226,"75":-0.0849941223859787,"76":-0.06466632336378098,"77":-0.07108146697282791,"78":-0.039295610040426254,"79":-0.06685549020767212,"80":-0.050838686525821686,"81":0.039279866963624954,"82":0.009220078587532043,"83":-0.03322974592447281,"84":0.007592766545712948,"85":-0.08740234375,"86":0.041890837252140045,"87":0.06402745097875595,"88":0.001145610585808754,"89":0.025209687650203705,"90":-0.054374027997255325,"91":-0.00034833652898669243,"92":0.049327194690704346,"93":-0.07828955352306366,"94":0.07111596316099167,"95":-0.03098134510219097,"96":0.060135483741760254,"97":-0.09739290922880173,"98":-0.004280568566173315,"99":0.07186530530452728,"100":-0.04498524218797684,"101":-0.0029456010088324547,"102":0.0380016528069973,"103":-0.022755498066544533,"104":0.05415700376033783,"105":0.05688003450632095,"106":-0.0471431128680706,"107":-0.015835290774703026,"108":-0.07336066663265228,"109":0.013392548076808453,"110":-0.02605144865810871,"111":-0.06818327307701111,"112":-0.011852237395942211,"113":-0.010408986359834671,"114":-0.04292933642864227,"115":0.014975642785429955,"116":-0.07730516791343689,"117":-0.004201218951493502,"118":0.026954827830195427,"119":-0.05664558336138725,"120":-0.04226846247911453,"121":-0.017968477681279182,"122":-0.06839530915021896,"123":0.030661268159747124,"124":0.03495579957962036,"125":-0.05628925934433937,"126":-0.024973029270768166,"127":-0.049652568995952606,"128":0.07029793411493301,"129":0.003363640746101737,"130":-0.01661279983818531,"131":0.01849435083568096,"132":-0.06984993815422058,"133":-0.025879407301545143,"134":0.03558466583490372,"135":0.03038119524717331,"136":0.07334522157907486,"137":0.03220025822520256,"138":-0.054023608565330505,"139":0.04402860626578331,"140":0.045756954699754715,"141":0.028040887787938118,"142":0.01395446341484785,"143":-0.01974095031619072,"144":-0.03976698964834213,"145":0.02825971692800522,"146":-0.07560640573501587,"147":-0.0342683345079422,"148":0.07755010575056076,"149":-0.000781048322096467,"150":0.046959761530160904,"151":0.0011507475282996893,"152":-0.1308002471923828,"153":-0.010677755810320377,"154":0.030559517443180084,"155":-0.05543680489063263,"156":0.008411611430346966,"157":0.04560510814189911,"158":0.10510608553886414,"159":0.009325727820396423,"160":-0.11649752408266068,"161":0.010213733650743961,"162":0.027266664430499077,"163":0.055400218814611435,"164":0.05312397703528404,"165":-0.048424866050481796,"166":0.01588558964431286,"167":0.13071224093437195,"168":-0.05848367139697075,"169":0.04575646296143532,"170":-0.019580939784646034,"171":-0.0013697477988898754,"172":-0.01434604823589325,"173":0.01518287230283022,"174":0.07589718699455261,"175":-0.06271884590387344,"176":0.05605723708868027,"177":-0.002807073760777712,"178":-0.035974834114313126,"179":0.059264808893203735,"180":0.058546263724565506,"181":-0.027775071561336517,"182":0.010348856449127197,"183":0.052756428718566895,"184":0.046635702252388,"185":-0.015658777207136154,"186":0.02587972767651081,"187":-0.06759013235569,"188":0.07639997452497482,"189":-0.06033231317996979,"190":-0.07552875578403473,"191":0.04031065106391907,"192":-0.024300485849380493,"193":-0.033552385866642,"194":0.05417351424694061,"195":-0.06882771849632263,"196":0.0563301183283329,"197":-0.06329268962144852,"198":0.0663672387599945,"199":-0.06699807941913605,"200":0.023680465295910835,"201":-0.005813357420265675,"202":-0.04884599521756172,"203":-0.03613489493727684,"204":0.061209455132484436,"205":-0.046049606055021286,"206":-0.016460180282592773,"207":-0.008454743772745132,"208":-0.01922653801739216,"209":-0.09433364868164062,"210":-0.0893736481666565,"211":-0.04744655638933182,"212":0.03218664601445198,"213":-0.0039711701683700085,"214":-0.0387173593044281,"215":-0.10138164460659027,"216":0.06829865276813507,"217":0.1492830067873001,"218":-0.02534998022019863,"219":0.10720964521169662,"220":0.01591608300805092,"221":-0.040308162569999695,"222":-0.030455680564045906,"223":0.0014267765218392015,"224":0.08094140142202377,"225":-0.08663368970155716,"226":0.06349365413188934,"227":-0.048275139182806015,"228":-0.07370538264513016,"229":0.07495637983083725,"230":0.06726416945457458,"231":-0.0423368476331234,"232":-0.011736474931240082,"233":-0.07576537877321243,"234":0.047854065895080566,"235":0.02534269541501999,"236":-0.03748302534222603,"237":-0.00018926564371213317,"238":0.05035620555281639,"239":0.014616218395531178,"240":0.061669740825891495,"241":0.07757620513439178,"242":-0.001888614147901535,"243":0.016850342974066734,"244":0.07459715008735657,"245":0.06935367733240128,"246":0.09656652808189392,"247":-0.04889741912484169,"248":-0.06002451851963997,"249":-0.022760676220059395,"250":-0.10345422476530075,"251":-0.017392544075846672,"252":-0.024609258398413658,"253":-0.1039237231016159,"254":0.04615630581974983,"255":-0.011437922716140747,"256":0.040782079100608826,"257":0.0016608369769528508,"258":-0.014556188136339188,"259":-0.062381476163864136,"260":-0.07337597012519836,"261":0.028003478422760963,"262":0.12377262860536575,"263":-0.05552973970770836,"264":0.007801027502864599,"265":-0.16149692237377167,"266":-0.01911233179271221,"267":0.11770115792751312,"268":0.04371889680624008,"269":0.004414111841470003,"270":-0.048797763884067535,"271":0.09561737626791,"272":-0.0449223592877388,"273":-0.06441693753004074,"274":0.13299736380577087,"275":-0.04928024113178253,"276":0.02038809098303318,"277":0.07102494686841965,"278":0.045179326087236404,"279":0.016001679003238678,"280":-0.015076924115419388,"281":0.01301097497344017,"282":-0.026744937524199486,"283":-0.01586306095123291,"284":-0.07201778888702393,"285":0.05492691323161125,"286":0.017661137506365776,"287":-0.03708967566490173,"288":-0.028058014810085297,"289":-0.025765113532543182,"290":0.030923638492822647,"291":0.06706351786851883,"292":0.0064072683453559875,"293":-0.06944262236356735,"294":0.05595550313591957,"295":0.007477507460862398,"296":-0.01887097768485546,"297":-0.0699920579791069,"298":-0.038137175142765045,"299":-0.05247801914811134,"300":-0.048765961080789566,"301":0.014787343330681324,"302":-0.07196970283985138,"303":0.012589486315846443,"304":-0.004376522731035948,"305":-0.04573913291096687,"306":0.07213406264781952,"307":-0.03671020641922951,"308":0.06829202175140381,"309":0.0047164554707705975,"310":-0.017479553818702698,"311":-0.01928543671965599,"312":0.0833481028676033,"313":0.042772021144628525,"314":-0.006849685218185186,"315":-0.12086251378059387,"316":-0.034891314804553986,"317":0.06524796038866043,"318":0.04887678474187851,"319":-0.012417525053024292,"320":0.024705737829208374,"321":0.10072564333677292,"322":-0.012265654280781746,"323":0.03348841890692711,"324":0.009399501606822014,"325":-0.06169741228222847,"326":0.02670273929834366,"327":-0.017870139330625534,"328":0.03912206366658211,"329":0.021048041060566902,"330":0.049230773001909256,"331":0.028638765215873718,"332":-0.049324702471494675,"333":-0.07247061282396317,"334":-0.0010171312605962157,"335":-0.06938693672418594,"336":0.017361534759402275,"337":0.07894419133663177,"338":0.010040413588285446,"339":0.026288829743862152,"340":-0.04040214791893959,"341":-0.020141510292887688,"342":-0.046907879412174225,"343":-0.030005743727087975,"344":-0.03586040437221527,"345":0.07436606287956238,"346":-0.011711603961884975,"347":-0.03788958117365837,"348":0.05655732378363609,"349":0.05757192522287369,"350":-0.028861762955784798,"351":0.051134031265974045,"352":-0.05589834228157997,"353":0.09876907616853714,"354":-0.0736343115568161,"355":0.02405962534248829,"356":-0.09612423926591873,"357":0.047818053513765335,"358":-0.08722387254238129,"359":-0.03216966986656189,"360":0.08616841584444046,"361":0.034598130732774734,"362":-0.0678558424115181,"363":0.02812790498137474,"364":0.008378954604268074,"365":0.06349203735589981,"366":0.033966973423957825,"367":-0.006096642464399338,"368":0.07342559099197388,"369":-0.08600391447544098,"370":-0.05991927534341812,"371":-0.030337834730744362,"372":0.07707532495260239,"373":0.0764874592423439,"374":-0.04494018852710724,"375":-0.011183096095919609,"376":-0.0021182007621973753,"377":0.038604483008384705,"378":0.09866876155138016,"379":0.04735342040657997,"380":-0.05716150254011154,"381":0.036503925919532776,"382":-0.03434484452009201,"383":-0.020534001290798187,"384":-0.0016859766328707337,"385":0.02003328502178192,"386":0.04183652251958847,"387":-0.04509066417813301,"388":0.03853221982717514,"389":0.002773669082671404,"390":0.07027145475149155,"391":-0.01325320266187191,"392":-0.097499318420887,"393":0.05504421517252922,"394":0.007201869040727615,"395":0.057527363300323486,"396":0.03367592394351959,"397":-0.01926133967936039,"398":0.09075472503900528,"399":0.06554978340864182,"400":-0.01560515072196722,"401":0.045090094208717346,"402":0.04990306496620178,"403":0.0008618016727268696,"404":0.05670725181698799,"405":-0.0546770878136158,"406":0.012117977254092693,"407":-0.015323756262660027,"408":-0.03352702036499977,"409":0.07283009588718414,"410":-0.00023265069467015564,"411":0.02444685809314251,"412":-0.021390365436673164,"413":-0.06569839268922806,"414":-0.07258256524801254,"415":-0.02313300594687462,"416":-0.036547742784023285,"417":0.07288817316293716,"418":0.010026033967733383,"419":-0.07679157704114914,"420":0.045558422803878784,"421":-0.016315817832946777,"422":0.022661929950118065,"423":0.017260128632187843,"424":0.07259784638881683,"425":0.06396976858377457,"426":0.025898834690451622,"427":-0.006036079954355955,"428":0.006858083885163069,"429":0.034660808742046356,"430":0.06483997404575348,"431":-0.08039454370737076,"432":0.07612669467926025,"433":0.049012258648872375,"434":0.0019229187164455652,"435":0.0008450202294625342,"436":0.07839112728834152,"437":0.06737764179706573,"438":-0.03971704840660095,"439":-0.037803713232278824,"440":0.06831938028335571,"441":-0.04957842081785202,"442":0.015373222529888153,"443":-0.067137211561203,"444":-0.07512668520212173,"445":0.07200540602207184,"446":0.029231971129775047,"447":-0.026075324043631554,"448":-0.04023543372750282,"449":0.025841068476438522,"450":-0.08364276587963104,"451":0.041005320847034454,"452":-0.09750811010599136,"453":0.05168117582798004,"454":-0.04169813171029091,"455":0.03646994009613991,"456":0.010017666034400463,"457":0.04425014182925224,"458":0.05189824476838112,"459":-0.0332983136177063,"460":-0.010970937088131905,"461":0.02481813170015812,"462":0.07491973787546158,"463":-0.02753528207540512,"464":-0.0008465232676826417,"465":-0.049629244953393936,"466":-0.02381817251443863,"467":0.0879405215382576,"468":-0.03846634179353714,"469":-0.031263966113328934,"470":0.03332566097378731,"471":-0.018047962337732315,"472":-0.0076723950915038586,"473":-0.009566296823322773,"474":-0.020303744822740555,"475":0.01488256361335516,"476":0.00021255717729218304,"477":0.04674641042947769,"478":0.02080347202718258,"479":-0.013247182592749596,"480":0.0698753073811531,"481":0.04177067056298256,"482":-0.028404103592038155,"483":0.024613944813609123,"484":-0.0026830872520804405,"485":-0.01107623428106308,"486":0.00914230477064848,"487":0.04066009074449539,"488":-0.08480428904294968,"489":0.011408823542296886,"490":0.011202152818441391,"491":-0.032165829092264175,"492":0.03906296193599701,"493":0.032627712935209274,"494":-0.027510017156600952,"495":-0.06562765687704086,"496":0.07654167711734772,"497":0.04493286460638046,"498":0.05134665593504906,"499":-0.02451150491833687}},"inputHidden":{"rows":20,"columns":20,"weights":{"0":-0.08235181868076324,"1":0.05618424341082573,"2":0.09125292301177979,"3":0.038134440779685974,"4":-0.026126883924007416,"5":-0.05060768872499466,"6":-0.08734442293643951,"7":0.03684195876121521,"8":0.0813206136226654,"9":0.08314158767461777,"10":-0.020471472293138504,"11":0.02032536268234253,"12":-0.0779678076505661,"13":-0.04639231413602829,"14":-0.0481613464653492,"15":0.004651414230465889,"16":-0.05429795756936073,"17":-0.04276832193136215,"18":-0.012125091627240181,"19":0.058548614382743835,"20":0.02399044670164585,"21":-0.07119850069284439,"22":-0.034071605652570724,"23":-0.0756136029958725,"24":0.07255810499191284,"25":-0.016435403376817703,"26":-0.05781611427664757,"27":0.027217164635658264,"28":-0.008902291767299175,"29":0.025048669427633286,"30":0.0249310489743948,"31":-0.017716027796268463,"32":-0.06317541003227234,"33":0.07531172782182693,"34":0.07721735537052155,"35":-0.07989354431629181,"36":0.024706948548555374,"37":-0.04261048510670662,"38":0.016515441238880157,"39":-0.005872663110494614,"40":0.06616830080747604,"41":-0.04530579224228859,"42":0.012499338015913963,"43":0.06775160133838654,"44":-0.017353788018226624,"45":0.06526149064302444,"46":-0.038345977663993835,"47":-0.0783129557967186,"48":-0.07262089103460312,"49":0.0360700748860836,"50":-0.04382581636309624,"51":-0.013856482692062855,"52":-0.023317700251936913,"53":0.032537855207920074,"54":-0.06791413575410843,"55":0.0006323916604742408,"56":-0.036343224346637726,"57":-0.0018299684161320329,"58":0.006692362949252129,"59":-0.03379013389348984,"60":-0.026556596159934998,"61":-0.01789725013077259,"62":0.006885921582579613,"63":0.05621735751628876,"64":0.03894267603754997,"65":-0.022030483931303024,"66":-0.014229685999453068,"67":0.04405323415994644,"68":0.08940578997135162,"69":0.011069652624428272,"70":-0.0004994498449377716,"71":0.06383567303419113,"72":0.02540678344666958,"73":-0.05273070186376572,"74":0.050264935940504074,"75":-0.04498685151338577,"76":-0.024961499497294426,"77":0.006127916742116213,"78":-0.06528355926275253,"79":0.015949126332998276,"80":0.04548117145895958,"81":0.06433230638504028,"82":-0.05235580727458,"83":0.07711533457040787,"84":-0.05128784477710724,"85":-0.009731407277286053,"86":-0.04837391898036003,"87":-0.037188075482845306,"88":0.06234550476074219,"89":0.04821637272834778,"90":-0.050060708075761795,"91":-0.051385145634412766,"92":0.057115595787763596,"93":-0.02909281849861145,"94":0.016549095511436462,"95":-0.0764046385884285,"96":0.023425353690981865,"97":0.06413828581571579,"98":-0.051052190363407135,"99":-0.07732102274894714,"100":-0.02273946814239025,"101":-0.02052832953631878,"102":-0.030787641182541847,"103":0.01835438422858715,"104":-0.033122990280389786,"105":-0.026340220123529434,"106":-0.05427439138293266,"107":0.03505386784672737,"108":-0.013725962489843369,"109":0.046164222061634064,"110":-0.06811587512493134,"111":0.009449307806789875,"112":-0.01475975289940834,"113":-0.08223193138837814,"114":-0.05784905329346657,"115":-0.04592253267765045,"116":-0.07665976881980896,"117":0.04270115867257118,"118":0.021939309313893318,"119":-0.028632402420043945,"120":0.009262177161872387,"121":-0.02534397318959236,"122":-0.008093802258372307,"123":-0.04702275991439819,"124":0.010396248660981655,"125":-0.012355521321296692,"126":-0.007639918010681868,"127":-0.01461875345557928,"128":0.07910911738872528,"129":0.03508751466870308,"130":-0.005457423161715269,"131":0.06919059157371521,"132":-0.04411723092198372,"133":0.05572519451379776,"134":0.03767066076397896,"135":-0.05090909078717232,"136":0.03710115700960159,"137":-0.0306007731705904,"138":-0.052163027226924896,"139":-0.03732290863990784,"140":-0.04683248698711395,"141":0.06253369897603989,"142":-0.04336641728878021,"143":-0.007430356927216053,"144":0.07768476754426956,"145":-0.014912709593772888,"146":-0.030734729021787643,"147":0.03467857837677002,"148":-0.028665367513895035,"149":0.0162668377161026,"150":0.019507311284542084,"151":0.031077014282345772,"152":-0.026197317987680435,"153":0.031240681186318398,"154":0.003636620007455349,"155":0.013649675995111465,"156":-0.022868383675813675,"157":0.07484312355518341,"158":-0.07365494966506958,"159":-0.04084083065390587,"160":-0.10167468339204788,"161":-0.002527414821088314,"162":-0.016169359907507896,"163":-0.04348486661911011,"164":0.08584441989660263,"165":-0.02690909430384636,"166":-0.004268643446266651,"167":-0.05645721033215523,"168":0.10955888777971268,"169":0.08841360360383987,"170":0.035294026136398315,"171":-0.006374390795826912,"172":-0.09528577327728271,"173":-0.039058882743120193,"174":0.07136808335781097,"175":-0.019356589764356613,"176":0.0894276574254036,"177":0.04174250364303589,"178":0.0076555050909519196,"179":-0.004746745806187391,"180":0.045509036630392075,"181":-0.030960453674197197,"182":0.014494171366095543,"183":0.04153358191251755,"184":-0.011316219344735146,"185":0.002994649112224579,"186":0.0690094530582428,"187":-0.019334424287080765,"188":0.01425448153167963,"189":-0.04743048548698425,"190":0.08055262267589569,"191":0.0009603928192518651,"192":-0.04841642454266548,"193":-0.04780130833387375,"194":0.05282428115606308,"195":0.07072395831346512,"196":-0.026676230132579803,"197":0.04196949303150177,"198":0.04980887100100517,"199":0.0765480175614357,"200":-0.005225883796811104,"201":0.07721296697854996,"202":0.11344476789236069,"203":0.06070975214242935,"204":0.030295206233859062,"205":0.09311337023973465,"206":-0.008146059699356556,"207":0.04113591089844704,"208":-0.0036567163188010454,"209":-0.06324225664138794,"210":0.011341354809701443,"211":-0.07062582671642303,"212":-0.05331972613930702,"213":0.008195657283067703,"214":0.0381762720644474,"215":0.08875709772109985,"216":-0.021487591788172722,"217":-0.03034980781376362,"218":0.006671328563243151,"219":-0.013470661826431751,"220":-0.001492039067670703,"221":0.06834077090024948,"222":0.022230876609683037,"223":0.0637073740363121,"224":0.07936649769544601,"225":0.038027647882699966,"226":-0.0523151271045208,"227":0.001619029208086431,"228":0.03094511479139328,"229":-0.0051159183494746685,"230":-0.025735100731253624,"231":0.06547994166612625,"232":0.06574255228042603,"233":0.06847824901342392,"234":-0.05907998979091644,"235":0.059813760221004486,"236":0.021411679685115814,"237":-0.06341934204101562,"238":-0.058037128299474716,"239":0.008909156545996666,"240":-0.09389201551675797,"241":0.03384345397353172,"242":0.04277890920639038,"243":-0.03736622631549835,"244":-0.03039059042930603,"245":-0.008545033633708954,"246":0.028571533039212227,"247":-0.03525456041097641,"248":0.08994460105895996,"249":0.06909352540969849,"250":0.008726587519049644,"251":-0.04379504546523094,"252":0.005216263700276613,"253":-0.0650104433298111,"254":-0.008795945905148983,"255":0.04352986067533493,"256":-0.010158727876842022,"257":-0.023970283567905426,"258":-0.0413876548409462,"259":0.03424226492643356,"260":0.012638210318982601,"261":0.02294231578707695,"262":0.01601552590727806,"263":-0.07163750380277634,"264":-0.04722805321216583,"265":0.04874899983406067,"266":0.06715700030326843,"267":-0.05484257638454437,"268":0.0763048455119133,"269":-0.057519204914569855,"270":0.03247840330004692,"271":0.06454205513000488,"272":0.03144495561718941,"273":0.027097830548882484,"274":-0.00684245815500617,"275":-0.022595331072807312,"276":0.02676190435886383,"277":-0.05843430757522583,"278":0.06882171332836151,"279":-0.008813867345452309,"280":0.07717431336641312,"281":-0.010956013575196266,"282":0.001771967625245452,"283":-0.014123639091849327,"284":-0.019064970314502716,"285":0.07487842440605164,"286":0.07073129713535309,"287":0.06397540867328644,"288":-0.09191475808620453,"289":0.02310263179242611,"290":-0.00662021292373538,"291":-0.02589484676718712,"292":-0.0004773242981173098,"293":0.054013267159461975,"294":-0.058820657432079315,"295":-0.05769115313887596,"296":-0.05389488488435745,"297":0.034673843532800674,"298":-0.014210243709385395,"299":-0.007219805847853422,"300":0.023018864914774895,"301":-0.005177802871912718,"302":0.0633057951927185,"303":-0.026569906622171402,"304":-0.0003295218921266496,"305":-0.07041411101818085,"306":-0.07307884842157364,"307":0.04155978560447693,"308":-0.024106459692120552,"309":0.07435015588998795,"310":-0.07757623493671417,"311":-0.03327072411775589,"312":0.015265312977135181,"313":-0.05002995580434799,"314":-0.06162172183394432,"315":0.06940486282110214,"316":0.04362178593873978,"317":0.06408745795488358,"318":-0.006414404138922691,"319":0.061765510588884354,"320":-0.05031466484069824,"321":0.013798655942082405,"322":-0.0629706159234047,"323":0.06821013242006302,"324":-0.02947109378874302,"325":0.05166156217455864,"326":0.05624499171972275,"327":-0.004123398568481207,"328":0.017090950161218643,"329":0.020098967477679253,"330":-0.0198513250797987,"331":-0.003974254708737135,"332":-0.021912412717938423,"333":-0.012128439731895924,"334":-0.021857578307390213,"335":-0.011380678042769432,"336":0.026310743764042854,"337":-0.05384397134184837,"338":-0.07171546667814255,"339":-0.01322770956903696,"340":-0.07214325666427612,"341":0.07931067049503326,"342":0.03800828382372856,"343":0.07816904038190842,"344":-0.05955306440591812,"345":-0.05204393342137337,"346":0.0021845505107194185,"347":0.03461413085460663,"348":-0.04133905470371246,"349":-0.06872750073671341,"350":0.021457958966493607,"351":-0.06051282212138176,"352":-0.01389793585985899,"353":0.04647323861718178,"354":-0.010365834459662437,"355":0.045972149819135666,"356":0.05226925015449524,"357":0.02223142795264721,"358":0.02001504972577095,"359":0.05678768828511238,"360":0.00215680873952806,"361":-0.019213629886507988,"362":-0.03532722219824791,"363":0.041348475962877274,"364":0.051497358828783035,"365":-0.06656282395124435,"366":0.035952117294073105,"367":0.0024127026554197073,"368":-0.033589936792850494,"369":-0.02535393089056015,"370":0.07360532134771347,"371":0.07258235663175583,"372":-0.04726589471101761,"373":0.0532415434718132,"374":0.03781388700008392,"375":0.06971832364797592,"376":-0.07089819014072418,"377":-0.016301263123750687,"378":-0.0031295432709157467,"379":-0.01595757156610489,"380":-0.07967416942119598,"381":0.062349047511816025,"382":-0.03378980979323387,"383":-0.005817248951643705,"384":0.007062508724629879,"385":0.07009904831647873,"386":-0.03960767760872841,"387":-0.073947973549366,"388":-0.0561310276389122,"389":0.07547729462385178,"390":0.05878076329827309,"391":-0.05495893582701683,"392":-0.007436234503984451,"393":-0.054440755397081375,"394":0.04573015496134758,"395":-0.07037238776683807,"396":0.0478750504553318,"397":-0.037447694689035416,"398":0.02078714221715927,"399":0.013541236519813538}},"inputBias":{"rows":20,"columns":1,"weights":{"0":-0.0039048600010573864,"1":0.006221534684300423,"2":-0.065089151263237,"3":-0.06835240125656128,"4":0.0016547171398997307,"5":0.014038532972335815,"6":-0.12358389794826508,"7":-0.006884981878101826,"8":-0.0951143428683281,"9":-0.06641370803117752,"10":-0.1003766655921936,"11":0.0000016999275658236002,"12":-0.18007777631282806,"13":-0.05972126126289368,"14":0.009343007579445839,"15":0.05520997941493988,"16":-0.06760361045598984,"17":0.011681860312819481,"18":-0.01775221899151802,"19":-0.016337798908352852}},"forgetMatrix":{"rows":20,"columns":25,"weights":{"0":0.06830771267414093,"1":-0.05238509178161621,"2":0.024845751002430916,"3":0.05053186044096947,"4":-0.010012326762080193,"5":0.036995913833379745,"6":-0.011777233332395554,"7":-0.07830452919006348,"8":0.06702584028244019,"9":-0.02376478910446167,"10":-0.046726737171411514,"11":-0.0018058146815747023,"12":0.004484707023948431,"13":0.01343065220862627,"14":-0.015897534787654877,"15":-0.08941672742366791,"16":-0.015314617194235325,"17":-0.0068464381620287895,"18":0.05223815143108368,"19":-0.0616338849067688,"20":0.04462844878435135,"21":0.0064609115943312645,"22":-0.031923845410346985,"23":-0.012233609333634377,"24":-0.06137780845165253,"25":-0.07923449575901031,"26":-0.05563148856163025,"27":-0.019697146490216255,"28":0.07291975617408752,"29":0.04684242233633995,"30":-0.05834472179412842,"31":0.07284942269325256,"32":-0.06723324209451675,"33":-0.02747991494834423,"34":0.043805692344903946,"35":0.07341493666172028,"36":-0.03474210947751999,"37":-0.052547112107276917,"38":0.018201736733317375,"39":-0.053824227303266525,"40":-0.002196950139477849,"41":0.012288607656955719,"42":-0.038385357707738876,"43":0.03578856214880943,"44":0.07329579442739487,"45":-0.0017976381350308657,"46":0.003374550025910139,"47":-0.05667447671294212,"48":0.0012012060033157468,"49":0.04264915734529495,"50":-0.07642899453639984,"51":0.006032545119524002,"52":-0.0606699138879776,"53":0.0010414380813017488,"54":-0.008415897376835346,"55":0.02775121107697487,"56":-0.030450645834207535,"57":-0.03952637314796448,"58":0.07179030030965805,"59":0.04465426132082939,"60":-0.020435599610209465,"61":-0.02892165072262287,"62":0.060865096747875214,"63":-0.02871984802186489,"64":0.026044998317956924,"65":0.0020330098923295736,"66":-0.041491057723760605,"67":-0.0070834713988006115,"68":0.052544966340065,"69":0.004545597825199366,"70":0.07470786571502686,"71":-0.0555819496512413,"72":0.05494236573576927,"73":-0.08275119960308075,"74":-0.009525914676487446,"75":0.03907298669219017,"76":0.04858265444636345,"77":-0.03763500228524208,"78":0.015557345002889633,"79":0.024122729897499084,"80":-0.03258099406957626,"81":-0.015053274109959602,"82":-0.0002327353140572086,"83":-0.005304848775267601,"84":-0.08088356256484985,"85":-0.027894308790564537,"86":-0.06784483045339584,"87":0.06361513584852219,"88":-0.056370291858911514,"89":-0.004683057777583599,"90":-0.07957450300455093,"91":-0.04221666604280472,"92":-0.05969507619738579,"93":0.039793260395526886,"94":0.025604169815778732,"95":-0.08100632578134537,"96":0.06736655533313751,"97":-0.01610119640827179,"98":0.0047128573060035706,"99":-0.03164668753743172,"100":0.005031220614910126,"101":0.06421402096748352,"102":-0.043003953993320465,"103":-0.07222995907068253,"104":0.027718408033251762,"105":-0.0670301765203476,"106":0.05438195914030075,"107":0.06567157804965973,"108":-0.0626610592007637,"109":-0.05151637643575668,"110":0.03518588840961456,"111":-0.06049521639943123,"112":0.05352470278739929,"113":0.012587846256792545,"114":0.01143802609294653,"115":-0.052176736295223236,"116":-0.0219721719622612,"117":-0.07765800505876541,"118":0.05577094107866287,"119":0.0715746283531189,"120":0.04361722245812416,"121":-0.06878376007080078,"122":-0.042224157601594925,"123":0.015402732416987419,"124":-0.044778186827898026,"125":0.03172915056347847,"126":-0.0006970905815251172,"127":0.06470353156328201,"128":-0.051782675087451935,"129":-0.02800614945590496,"130":-0.007769228424876928,"131":-0.06292078644037247,"132":-0.055903155356645584,"133":0.02286585606634617,"134":-0.041771288961172104,"135":0.06184326857328415,"136":0.020270464941859245,"137":-0.01066215243190527,"138":-0.0023385053500533104,"139":0.01613895781338215,"140":0.004217028617858887,"141":0.029809430241584778,"142":-0.02964150905609131,"143":0.043142326176166534,"144":0.002713145688176155,"145":-0.057902272790670395,"146":-0.00008333440200658515,"147":-0.006141158286482096,"148":-0.07179214805364609,"149":-0.08254587650299072,"150":-0.003170082811266184,"151":0.0527840219438076,"152":-0.02769998088479042,"153":0.04421320557594299,"154":-0.03809957578778267,"155":0.019945206120610237,"156":0.09335850924253464,"157":0.02505352720618248,"158":0.06724637001752853,"159":-0.057018429040908813,"160":-0.004607423208653927,"161":-0.033456578850746155,"162":0.039608024060726166,"163":-0.02286481112241745,"164":0.06253707408905029,"165":-0.03409226983785629,"166":0.027487803250551224,"167":0.041573457419872284,"168":-0.02126179076731205,"169":-0.014470872469246387,"170":-0.06477740406990051,"171":0.0400824099779129,"172":-0.10480067878961563,"173":0.04198666661977768,"174":0.09297411143779755,"175":-0.018943889066576958,"176":0.03631763905286789,"177":-0.04059997573494911,"178":-0.03358962759375572,"179":0.02909857966005802,"180":0.03538564592599869,"181":0.032018739730119705,"182":0.044078536331653595,"183":-0.023221906274557114,"184":-0.03660813719034195,"185":0.07191596925258636,"186":-0.04148692637681961,"187":0.07666845619678497,"188":-0.08120040595531464,"189":-0.0665479376912117,"190":0.05204372480511665,"191":-0.003790619783103466,"192":0.04930609092116356,"193":0.027921512722969055,"194":0.06790222972631454,"195":-0.04034043103456497,"196":0.06425569206476212,"197":-0.03924427926540375,"198":0.01340668834745884,"199":-0.0030861019622534513,"200":0.010547495447099209,"201":-0.03932780772447586,"202":-0.0945281907916069,"203":-0.006409395020455122,"204":-0.007279776036739349,"205":-0.03754255175590515,"206":-0.016553329303860664,"207":0.014598904177546501,"208":-0.06531713902950287,"209":0.03010629303753376,"210":-0.08350745588541031,"211":-0.020643848925828934,"212":0.043927084654569626,"213":0.005511605180799961,"214":-0.05699382722377777,"215":-0.07984760403633118,"216":0.02046305313706398,"217":0.042883727699518204,"218":0.049077220261096954,"219":-0.07221426069736481,"220":0.02912505343556404,"221":0.0015617252793163061,"222":-0.03808361291885376,"223":0.0027644315268844366,"224":-0.030634330585598946,"225":-0.04715947061777115,"226":-0.05039316415786743,"227":-0.04355382174253464,"228":0.06201401725411415,"229":-0.008804641664028168,"230":-0.016721202060580254,"231":-0.035882096737623215,"232":0.04957985877990723,"233":-0.0033197966404259205,"234":0.04894276708364487,"235":0.03455232083797455,"236":0.05687052384018898,"237":0.06288672238588333,"238":0.058965910226106644,"239":-0.08015172183513641,"240":0.05093192681670189,"241":-0.024102210998535156,"242":0.07427156716585159,"243":-0.06389828026294708,"244":-0.017083099111914635,"245":-0.007832393050193787,"246":-0.0096440389752388,"247":-0.0044925925321877,"248":-0.06275196373462677,"249":0.04966457560658455,"250":-0.034379493445158005,"251":0.009400234557688236,"252":-0.018355196341872215,"253":-0.06766083091497421,"254":0.05501268431544304,"255":0.06871378421783447,"256":-0.05775345489382744,"257":-0.06653712689876556,"258":-0.0024518414866179228,"259":-0.034661877900362015,"260":-0.06824065744876862,"261":0.0765872597694397,"262":0.08192086964845657,"263":-0.017139384523034096,"264":0.043418239802122116,"265":0.02673940919339657,"266":0.06816162914037704,"267":0.01136721484363079,"268":0.035637665539979935,"269":-0.06395535171031952,"270":-0.06615718454122543,"271":-0.05911850929260254,"272":0.007520835846662521,"273":-0.0656159296631813,"274":0.09325096756219864,"275":0.056365966796875,"276":-0.039484113454818726,"277":0.07173311710357666,"278":0.0045059542171657085,"279":0.0768100768327713,"280":-0.07526925951242447,"281":-0.016628308221697807,"282":-0.043741144239902496,"283":-0.07542213052511215,"284":-0.04525106027722359,"285":0.047920070588588715,"286":-0.04767429828643799,"287":-0.02910168282687664,"288":0.01590971276164055,"289":-0.0187565665692091,"290":-0.02695925161242485,"291":0.02575220726430416,"292":-0.015359598211944103,"293":0.01380985602736473,"294":0.06395411491394043,"295":-0.052518073469400406,"296":0.07945664972066879,"297":0.06894992291927338,"298":-0.06137441471219063,"299":0.010140735656023026,"300":0.02326972223818302,"301":-0.048961441963911057,"302":0.046080153435468674,"303":-0.05953747779130936,"304":0.05331303924322128,"305":0.060352180153131485,"306":-0.03669564053416252,"307":0.025607654824852943,"308":0.0919375792145729,"309":0.013058729469776154,"310":0.03526994585990906,"311":-0.005935696419328451,"312":0.053113993257284164,"313":0.0467098131775856,"314":0.04051841422915459,"315":-0.11931134015321732,"316":0.008281913585960865,"317":0.1119164228439331,"318":0.03229563683271408,"319":0.025947652757167816,"320":0.04315333813428879,"321":0.07069738954305649,"322":-0.08176248520612717,"323":-0.015885842964053154,"324":0.06661714613437653,"325":-0.0017201603623107076,"326":-0.06990209966897964,"327":0.009525594301521778,"328":-0.016070015728473663,"329":0.07630375772714615,"330":-0.011706650257110596,"331":0.08194202184677124,"332":-0.07405862957239151,"333":-0.009964393451809883,"334":0.030426807701587677,"335":-0.010619061067700386,"336":0.023508265614509583,"337":-0.023565400391817093,"338":-0.06112811714410782,"339":0.06532211601734161,"340":-0.001453632372431457,"341":-0.06478794664144516,"342":0.05008961260318756,"343":-0.03545346483588219,"344":0.01632346399128437,"345":-0.020041052252054214,"346":-0.014361378736793995,"347":-0.07272972166538239,"348":-0.035946641117334366,"349":0.013543607667088509,"350":-0.043661344796419144,"351":0.0018955753184854984,"352":0.06804349273443222,"353":-0.01524243876338005,"354":0.04540098085999489,"355":-0.05640675127506256,"356":-0.035227760672569275,"357":0.04097733274102211,"358":0.00892635341733694,"359":-0.026847293600440025,"360":0.03959367051720619,"361":0.050457168370485306,"362":0.051226627081632614,"363":0.08244971185922623,"364":-0.03765970095992088,"365":-0.06508909910917282,"366":0.045142095535993576,"367":0.05076603591442108,"368":-0.010158278048038483,"369":0.06733398139476776,"370":-0.009325976483523846,"371":0.07490871846675873,"372":-0.043510716408491135,"373":-0.03852427005767822,"374":-0.009460321627557278,"375":0.0008761444478295743,"376":-0.017881277948617935,"377":0.009953366592526436,"378":0.008962483145296574,"379":-0.05997220054268837,"380":0.07691624760627747,"381":-0.054529331624507904,"382":0.025979934260249138,"383":-0.06294461339712143,"384":0.0582912378013134,"385":0.08508478850126266,"386":-0.006312141194939613,"387":-0.08790384978055954,"388":-0.04798584431409836,"389":-0.028545860201120377,"390":-0.05598446726799011,"391":-0.06005328893661499,"392":-0.018761001527309418,"393":0.04184112697839737,"394":-0.003967596683651209,"395":-0.05524976924061775,"396":0.02635946497321129,"397":-0.06658316403627396,"398":0.01417459174990654,"399":-0.019754229113459587,"400":-0.011615677736699581,"401":0.009220416657626629,"402":-0.015564273111522198,"403":0.03293049335479736,"404":0.08285874873399734,"405":-0.05146004632115364,"406":0.06697908788919449,"407":-0.007156327832490206,"408":0.04277994483709335,"409":-0.07171983271837234,"410":0.03533586114645004,"411":-0.08083895593881607,"412":-0.05457492917776108,"413":0.006456403993070126,"414":0.046499691903591156,"415":-0.018181992694735527,"416":-0.0057460772804915905,"417":0.06001938879489899,"418":-0.012414580211043358,"419":0.04871007427573204,"420":0.07593852281570435,"421":0.03440403938293457,"422":0.04683205485343933,"423":0.01255652867257595,"424":0.04309496656060219,"425":0.018170418217778206,"426":-0.03873255476355553,"427":-0.027708791196346283,"428":0.05704803019762039,"429":0.054803308099508286,"430":0.03369829058647156,"431":0.016559414565563202,"432":-0.031194549053907394,"433":0.01967652700841427,"434":-0.0552513413131237,"435":-0.04160718619823456,"436":-0.060982123017311096,"437":-0.06316493451595306,"438":-0.036897268146276474,"439":-0.004411595407873392,"440":0.03715389221906662,"441":-0.052772872149944305,"442":0.07572901248931885,"443":0.040554918348789215,"444":-0.057666290551424026,"445":0.04691164940595627,"446":-0.04833872988820076,"447":0.014017505571246147,"448":-0.007504614070057869,"449":0.005035515874624252,"450":-0.02534722350537777,"451":0.034525755792856216,"452":0.002028312999755144,"453":-0.060931455343961716,"454":0.007131393067538738,"455":0.005536436103284359,"456":0.009904790669679642,"457":-0.04015811160206795,"458":-0.02129664458334446,"459":-0.04096376895904541,"460":-0.027864422649145126,"461":0.03879773989319801,"462":0.033405281603336334,"463":0.029145075008273125,"464":0.0714557096362114,"465":-0.0244717039167881,"466":0.046763353049755096,"467":0.054188311100006104,"468":-0.05390634387731552,"469":-0.021640513092279434,"470":-0.04179077595472336,"471":0.06375877559185028,"472":-0.0471668504178524,"473":-0.01485983282327652,"474":-0.001543232356198132,"475":0.0038673165254294872,"476":0.012957115657627583,"477":0.010791506618261337,"478":-0.010452323593199253,"479":0.0068104020319879055,"480":0.05327378213405609,"481":-0.06464657187461853,"482":0.06416230648756027,"483":0.06247763708233833,"484":0.03528556227684021,"485":0.02036292478442192,"486":0.007305302657186985,"487":-0.02665642648935318,"488":-0.02002047188580036,"489":0.03498043864965439,"490":0.05903023108839989,"491":-0.04828811064362526,"492":-0.04849233478307724,"493":-0.019138162955641747,"494":-0.057979416102170944,"495":-0.0658893957734108,"496":0.03021991066634655,"497":-0.04392636939883232,"498":0.04421438276767731,"499":-0.020478226244449615}},"forgetHidden":{"rows":20,"columns":20,"weights":{"0":-0.022333277389407158,"1":0.028401128947734833,"2":0.016888463869690895,"3":0.02696763537824154,"4":0.044183697551488876,"5":0.012758098542690277,"6":-0.038942135870456696,"7":-0.06520827114582062,"8":0.0806739330291748,"9":-0.03259185329079628,"10":-0.012611464597284794,"11":0.04794241115450859,"12":-0.07319571822881699,"13":0.05139836296439171,"14":-0.0485539548099041,"15":-0.021394485607743263,"16":-0.015993895009160042,"17":-0.0033422638662159443,"18":-0.04595906659960747,"19":-0.0678100511431694,"20":0.07322690635919571,"21":-0.016836898401379585,"22":0.06315169483423233,"23":-0.0651695504784584,"24":-0.07196595519781113,"25":0.07945604622364044,"26":0.022040382027626038,"27":-0.042174287140369415,"28":-0.01964426413178444,"29":-0.05000852793455124,"30":-0.07091937214136124,"31":-0.07282518595457077,"32":0.019453728571534157,"33":0.07700657099485397,"34":-0.0429476834833622,"35":-0.06412813067436218,"36":-0.0027321355883032084,"37":-0.07131300866603851,"38":0.051850754767656326,"39":0.07765473425388336,"40":-0.0784609243273735,"41":-0.031794432550668716,"42":-0.008515939116477966,"43":0.07762030512094498,"44":0.07601616531610489,"45":-0.07005578279495239,"46":0.07059283554553986,"47":-0.038803424686193466,"48":0.037358108907938004,"49":0.07392633706331253,"50":0.06292034685611725,"51":0.049590982496738434,"52":-0.02380182221531868,"53":0.03198107331991196,"54":-0.05376211553812027,"55":-0.046197306364774704,"56":-0.018083374947309494,"57":0.04170943796634674,"58":-0.05855068936944008,"59":-0.0391986109316349,"60":-0.016841018572449684,"61":0.06793970614671707,"62":-0.07032595574855804,"63":0.07970672845840454,"64":-0.04950914531946182,"65":-0.01324958074837923,"66":-0.0008704871870577335,"67":-0.0102208461612463,"68":-0.023012923076748848,"69":-0.04806634783744812,"70":0.019379163160920143,"71":-0.0014950226759538054,"72":0.01308736577630043,"73":-0.012877748347818851,"74":0.02754158154129982,"75":-0.013850441202521324,"76":-0.028208788484334946,"77":0.02736315131187439,"78":-0.0485122948884964,"79":-0.049177296459674835,"80":-0.028544915840029716,"81":0.05160455405712128,"82":-0.016541756689548492,"83":0.06360852718353271,"84":0.07427509129047394,"85":0.002204525051638484,"86":-0.01606163941323757,"87":-0.058572251349687576,"88":0.049939870834350586,"89":-0.033507056534290314,"90":-0.033141084015369415,"91":-0.03424835205078125,"92":-0.04720306769013405,"93":-0.071476049721241,"94":0.012480804696679115,"95":0.0151057168841362,"96":-0.07294551283121109,"97":0.02261601947247982,"98":0.07736178487539291,"99":0.044961877167224884,"100":0.07374244928359985,"101":0.05945252254605293,"102":-0.025877082720398903,"103":-0.07268400490283966,"104":-0.006284644361585379,"105":-0.021210474893450737,"106":0.011282429099082947,"107":-0.030754297971725464,"108":0.07327241450548172,"109":0.020970480516552925,"110":-0.052813027054071426,"111":-0.04286950081586838,"112":0.05236786603927612,"113":0.03237619623541832,"114":0.03096131980419159,"115":0.016532400622963905,"116":-0.014740408398211002,"117":-0.0722174346446991,"118":-0.016733752563595772,"119":0.004499708767980337,"120":-0.004029350355267525,"121":0.006715463474392891,"122":-0.07687541097402573,"123":-0.044251490384340286,"124":0.02491619624197483,"125":0.06624046713113785,"126":-0.029233189299702644,"127":-0.004690064582973719,"128":-0.05350552871823311,"129":0.06669004261493683,"130":-0.06884366273880005,"131":0.025579340755939484,"132":0.04311778023838997,"133":0.04821765422821045,"134":-0.05555359646677971,"135":-0.019536657258868217,"136":-0.03095039166510105,"137":0.059492629021406174,"138":0.04486203193664551,"139":-0.009802984073758125,"140":0.00760866142809391,"141":-0.06404560059309006,"142":0.028073573485016823,"143":0.0018938486464321613,"144":-0.02479364722967148,"145":0.009568599984049797,"146":-0.033344533294439316,"147":0.0007876282907091081,"148":-0.0140395388007164,"149":-0.056541889905929565,"150":-0.061814725399017334,"151":-0.07914403080940247,"152":-0.0011026476277038455,"153":0.07698774337768555,"154":0.06549526005983353,"155":-0.059435125440359116,"156":-0.023340731859207153,"157":0.07307669520378113,"158":0.019561728462576866,"159":-0.077818863093853,"160":-0.08632011711597443,"161":-0.020680928602814674,"162":-0.0008969276677817106,"163":-0.01755622588098049,"164":-0.03076578490436077,"165":0.0027520523872226477,"166":0.016983887180685997,"167":-0.03768943250179291,"168":-0.020479382947087288,"169":-0.04168786108493805,"170":0.04079553484916687,"171":0.022473663091659546,"172":0.004183576442301273,"173":0.005160377826541662,"174":0.06793107837438583,"175":-0.016433121636509895,"176":-0.05939093232154846,"177":0.002988600404933095,"178":-0.06213381513953209,"179":0.03395263850688934,"180":-0.07744292169809341,"181":-0.04073512181639671,"182":-0.07337358593940735,"183":0.06474822014570236,"184":0.0662626102566719,"185":-0.07018300890922546,"186":-0.02929929457604885,"187":0.04584193602204323,"188":-0.05917368456721306,"189":-0.007409762125462294,"190":0.07423324882984161,"191":-0.04633055627346039,"192":-0.06533938646316528,"193":-0.014269731007516384,"194":-0.06654680520296097,"195":-0.03349661827087402,"196":0.03505655750632286,"197":-0.05156591534614563,"198":-0.061566658318042755,"199":0.00003342323543620296,"200":-0.08276581764221191,"201":-0.021968288347125053,"202":0.05545957386493683,"203":-0.021630430594086647,"204":0.0016133030876517296,"205":-0.008617832325398922,"206":-0.012030037119984627,"207":0.05006684362888336,"208":0.06227570399641991,"209":-0.06977082788944244,"210":-0.03796221688389778,"211":0.07696670293807983,"212":0.053767602890729904,"213":0.06257263571023941,"214":-0.009135250933468342,"215":-0.03358864411711693,"216":-0.04850808531045914,"217":-0.024805106222629547,"218":-0.04244643822312355,"219":-0.07239095121622086,"220":0.030275102704763412,"221":-0.01973545551300049,"222":0.07249358296394348,"223":-0.04386631026864052,"224":0.02375347726047039,"225":-0.024185743182897568,"226":-0.058970872312784195,"227":-0.03841261565685272,"228":0.06077953428030014,"229":-0.0034547941759228706,"230":0.06682325899600983,"231":0.005421330686658621,"232":0.036103129386901855,"233":0.02903551049530506,"234":-0.024893617257475853,"235":-0.014716972596943378,"236":0.03917226940393448,"237":0.07102126628160477,"238":0.03568926826119423,"239":0.008559438399970531,"240":-0.0472722090780735,"241":0.053945157676935196,"242":0.0730394795536995,"243":0.0051082419231534,"244":-0.020026780664920807,"245":-0.00224346318282187,"246":0.024726105853915215,"247":0.013508790172636509,"248":-0.003243883140385151,"249":-0.0312822200357914,"250":-0.007117575034499168,"251":-0.05855473503470421,"252":-0.020737651735544205,"253":-0.041628144681453705,"254":-0.025106387212872505,"255":-0.015890710055828094,"256":0.07560727745294571,"257":0.058867957442998886,"258":-0.013602153398096561,"259":-0.03723420575261116,"260":-0.04574534296989441,"261":0.01605798490345478,"262":0.039706114679574966,"263":0.018981045112013817,"264":-0.07292953133583069,"265":0.025360263884067535,"266":-0.012591775506734848,"267":0.016993360593914986,"268":-0.05989501625299454,"269":0.07371346652507782,"270":0.006430746056139469,"271":-0.046655189245939255,"272":-0.01648143120110035,"273":0.06240031123161316,"274":0.0627957284450531,"275":0.07222284376621246,"276":0.024728957563638687,"277":0.053691986948251724,"278":0.061603765934705734,"279":-0.07681608200073242,"280":0.03063061460852623,"281":-0.05571515113115311,"282":0.05366797372698784,"283":-0.07244701683521271,"284":0.03627414628863335,"285":0.008399050682783127,"286":-0.03720133751630783,"287":0.038642480969429016,"288":0.07233727723360062,"289":-0.0066675469279289246,"290":0.07537147402763367,"291":0.04183665290474892,"292":-0.032659292221069336,"293":-0.01742258109152317,"294":0.024256277829408646,"295":-0.038294874131679535,"296":-0.055808085948228836,"297":-0.05304703116416931,"298":-0.021065212786197662,"299":-0.01616901531815529,"300":-0.06798025220632553,"301":0.07608913630247116,"302":0.009055855683982372,"303":-0.019670624285936356,"304":-0.013102471828460693,"305":0.022145505994558334,"306":0.06133605167269707,"307":0.04756825789809227,"308":-0.06309501826763153,"309":-0.0704813003540039,"310":0.05346394330263138,"311":-0.024371448904275894,"312":-0.06949172914028168,"313":0.05673043429851532,"314":-0.042524516582489014,"315":0.054017696529626846,"316":-0.0024739650543779135,"317":0.06818746775388718,"318":-0.023657623678445816,"319":-0.022377582266926765,"320":-0.014970471151173115,"321":-0.026714153587818146,"322":0.04590461775660515,"323":0.07378979027271271,"324":-0.07194364815950394,"325":0.06404730677604675,"326":-0.033365000039339066,"327":-0.07929416745901108,"328":0.0318412184715271,"329":-0.010456615127623081,"330":-0.014002599753439426,"331":0.027374185621738434,"332":0.07363574951887131,"333":-0.022609269246459007,"334":-0.056328170001506805,"335":0.06052810326218605,"336":0.0756911039352417,"337":0.029492590576410294,"338":-0.06378328800201416,"339":0.05400700867176056,"340":-0.05511904135346413,"341":-0.05396822467446327,"342":0.004973359405994415,"343":0.0388280488550663,"344":-0.05023832991719246,"345":-0.009787547402083874,"346":0.07739733159542084,"347":-0.03190680593252182,"348":-0.04029100015759468,"349":-0.07688248157501221,"350":-0.07552440464496613,"351":-0.05209816247224808,"352":-0.0435623899102211,"353":-0.009253457188606262,"354":-0.01352912187576294,"355":0.04546211659908295,"356":-0.006890580523759127,"357":-0.04547502100467682,"358":-0.014833822846412659,"359":-0.05256485193967819,"360":0.009862898848950863,"361":-0.017329538241028786,"362":-0.024671951308846474,"363":-0.045436810702085495,"364":0.06747100502252579,"365":0.07702483981847763,"366":-0.07189177721738815,"367":0.06483911722898483,"368":0.004545359406620264,"369":0.025040268898010254,"370":0.0408363863825798,"371":0.07107598334550858,"372":-0.010551966726779938,"373":-0.0531986802816391,"374":-0.03991562873125076,"375":0.05271276831626892,"376":-0.015554538927972317,"377":-0.01020905002951622,"378":-0.0062445541843771935,"379":-0.0723709687590599,"380":0.009505795314908028,"381":-0.06478382647037506,"382":-0.05116158351302147,"383":0.00842784158885479,"384":0.06163245067000389,"385":-0.04811538755893707,"386":0.0568726509809494,"387":-0.07720664143562317,"388":-0.01525250542908907,"389":-0.012587287463247776,"390":0.051977284252643585,"391":-0.07137017697095871,"392":0.021196383982896805,"393":0.009604631923139095,"394":0.032667942345142365,"395":0.026905154809355736,"396":0.0037896272260695696,"397":0.07090074568986893,"398":-0.025490323081612587,"399":-0.03990572690963745}},"forgetBias":{"rows":20,"columns":1,"weights":{"0":0,"1":0,"2":0,"3":0,"4":0,"5":0,"6":0,"7":0,"8":0,"9":0,"10":0,"11":0,"12":0,"13":0,"14":0,"15":0,"16":0,"17":0,"18":0,"19":0}},"outputMatrix":{"rows":20,"columns":25,"weights":{"0":0.008444620296359062,"1":-0.08622491359710693,"2":-0.10682093352079391,"3":-0.09421481937170029,"4":0.030683357268571854,"5":0.06089251860976219,"6":0.023503361269831657,"7":0.030305158346891403,"8":0.003142742905765772,"9":-0.012190697714686394,"10":-0.09953876584768295,"11":-0.009341799654066563,"12":0.09081674367189407,"13":-0.02081795036792755,"14":-0.051270268857479095,"15":-0.0851668044924736,"16":0.01731167733669281,"17":0.1081719622015953,"18":-0.06594928354024887,"19":0.09600620716810226,"20":0.06983446329832077,"21":-0.04003782942891121,"22":-0.0700841024518013,"23":-0.03420310840010643,"24":0.055581942200660706,"25":-0.015398278832435608,"26":-0.07264840602874756,"27":-0.028562651947140694,"28":0.0302176121622324,"29":-0.06392689794301987,"30":-0.03618060052394867,"31":0.011760166846215725,"32":-0.0016276879468932748,"33":-0.0212249718606472,"34":-0.06726253032684326,"35":-0.01295389048755169,"36":-0.07235626876354218,"37":-0.03148110583424568,"38":0.006582626607269049,"39":0.046561259776353836,"40":-0.06422294676303864,"41":-0.05970302224159241,"42":0.002347491215914488,"43":-0.005025442689657211,"44":0.06435547769069672,"45":0.06909744441509247,"46":-0.08068060874938965,"47":0.03156718984246254,"48":0.06408952176570892,"49":-0.026312021538615227,"50":0.007635989226400852,"51":0.01594536006450653,"52":-0.08438479900360107,"53":-0.026334024965763092,"54":-0.0495012104511261,"55":-0.07909857481718063,"56":0.0423649437725544,"57":-0.016788169741630554,"58":-0.022247271612286568,"59":-0.008635984733700752,"60":-0.10547827929258347,"61":-0.05232282355427742,"62":0.04553622379899025,"63":-0.059475574642419815,"64":-0.03586989641189575,"65":-0.028056882321834564,"66":0.10209496319293976,"67":0.02452000044286251,"68":0.05760876089334488,"69":-0.03624558448791504,"70":-0.05636558681726456,"71":0.07206455618143082,"72":-0.03893286734819412,"73":-0.00429976312443614,"74":-0.022916525602340698,"75":0.003964554984122515,"76":0.06056273728609085,"77":-0.08496024459600449,"78":-0.048550575971603394,"79":-0.015028346329927444,"80":0.022034628316760063,"81":0.052176449447870255,"82":-0.028761327266693115,"83":0.021965282037854195,"84":-0.03441708907485008,"85":-0.07708471268415451,"86":0.04063204303383827,"87":0.09565100073814392,"88":-0.04616693779826164,"89":0.04680716246366501,"90":-0.13242459297180176,"91":-0.05125264823436737,"92":-0.019895290955901146,"93":0.02473692037165165,"94":0.03752030059695244,"95":0.009562334977090359,"96":0.039973966777324677,"97":-0.1040939912199974,"98":0.019265582785010338,"99":0.08400581032037735,"100":-0.012481058947741985,"101":0.020088210701942444,"102":-0.028386101126670837,"103":-0.038048069924116135,"104":-0.0668444037437439,"105":-0.07663742452859879,"106":0.02101309411227703,"107":0.028007706627249718,"108":-0.053147099912166595,"109":0.049738042056560516,"110":0.0810384601354599,"111":-0.07503576576709747,"112":0.044792499393224716,"113":0.030652981251478195,"114":0.05086388811469078,"115":0.0516815111041069,"116":0.07440647482872009,"117":-0.05286223068833351,"118":0.002908885944634676,"119":-0.02886579930782318,"120":0.07900363206863403,"121":-0.01021430641412735,"122":-0.06394506990909576,"123":0.06762672960758209,"124":-0.051853079348802567,"125":0.054324887692928314,"126":-0.03119598515331745,"127":0.008306872099637985,"128":0.07062139362096786,"129":-0.10290110856294632,"130":0.020034799352288246,"131":-0.013151932507753372,"132":0.06178433448076248,"133":0.04328715056180954,"134":0.03585117310285568,"135":0.0627385750412941,"136":0.0194337647408247,"137":-0.08357537537813187,"138":0.04029934108257294,"139":0.07168726623058319,"140":0.005377356894314289,"141":0.032309066504240036,"142":-0.06627321988344193,"143":-0.0012054198887199163,"144":0.046484097838401794,"145":0.02830103226006031,"146":0.007017840631306171,"147":-0.03477882221341133,"148":-0.015348763205111027,"149":0.03788286820054054,"150":-0.06021301448345184,"151":-0.02569875679910183,"152":-0.1085858941078186,"153":0.009524619206786156,"154":0.00014221658057067543,"155":-0.07463023066520691,"156":0.09698066115379333,"157":-0.0634218156337738,"158":0.04645352065563202,"159":0.03839929401874542,"160":-0.06304816156625748,"161":0.0038309453520923853,"162":0.10761629045009613,"163":0.023777611553668976,"164":-0.0912925973534584,"165":-0.21310727298259735,"166":0.13197778165340424,"167":0.10970742255449295,"168":-0.010123996995389462,"169":0.07215312868356705,"170":0.0015110765816643834,"171":0.11523687839508057,"172":-0.16540491580963135,"173":0.01828117109835148,"174":0.08413258194923401,"175":0.00018999063468072563,"176":0.06555737555027008,"177":0.021756276488304138,"178":-0.06404729932546616,"179":-0.05121465399861336,"180":-0.07798665761947632,"181":0.029936833307147026,"182":0.001999456901103258,"183":-0.0011861446546390653,"184":0.05983930453658104,"185":-0.01953493058681488,"186":0.04621679708361626,"187":0.02991802804172039,"188":0.03949350863695145,"189":0.045737579464912415,"190":-0.02234332077205181,"191":0.07784164696931839,"192":0.0884421318769455,"193":-0.07089480012655258,"194":0.05327200889587402,"195":-0.003017683979123831,"196":0.04562811926007271,"197":-0.06682892143726349,"198":-0.04636164382100105,"199":0.07045623660087585,"200":0.05469626933336258,"201":-0.10225055366754532,"202":-0.02367791160941124,"203":-0.1422632336616516,"204":0.07912547886371613,"205":0.02245885133743286,"206":-0.011285580694675446,"207":0.04341645538806915,"208":0.1157178282737732,"209":-0.061557818204164505,"210":-0.14346130192279816,"211":-0.003634199732914567,"212":0.04945480078458786,"213":-0.1283029466867447,"214":-0.0022259270772337914,"215":-0.08475435525178909,"216":0.012320363894104958,"217":0.18193739652633667,"218":-0.002906497335061431,"219":0.031737614423036575,"220":-0.03167705610394478,"221":0.06986813247203827,"222":-0.1003473550081253,"223":-0.04103684797883034,"224":0.09342993050813675,"225":-0.010373680852353573,"226":-0.0677705779671669,"227":-0.07513830065727234,"228":0.0044012549333274364,"229":-0.007706148084253073,"230":0.025022346526384354,"231":0.0543363019824028,"232":-0.0584808848798275,"233":-0.057180967181921005,"234":0.06945639103651047,"235":-0.09788129478693008,"236":-0.008588969707489014,"237":0.07214510440826416,"238":0.02527121640741825,"239":-0.019488124176859856,"240":0.028032660484313965,"241":0.030738480389118195,"242":-0.005000189878046513,"243":-0.000154775902046822,"244":-0.030985841527581215,"245":0.031491778790950775,"246":-0.03186357766389847,"247":0.02101513370871544,"248":-0.02845984324812889,"249":0.07371305674314499,"250":-0.10179129987955093,"251":-0.081508107483387,"252":-0.13691328465938568,"253":-0.11553794890642166,"254":0.12314415723085403,"255":-0.05434422940015793,"256":0.07895256578922272,"257":-0.02808680757880211,"258":0.028759457170963287,"259":0.06303068995475769,"260":-0.1026117280125618,"261":0.05964857339859009,"262":0.159372016787529,"263":-0.007937416434288025,"264":-0.05042930319905281,"265":-0.23148004710674286,"266":0.011865664273500443,"267":0.09568367153406143,"268":0.022183574736118317,"269":0.012542087584733963,"270":0.05218921974301338,"271":-0.000039204151107696816,"272":-0.05514905974268913,"273":-0.00427686283364892,"274":0.12074136734008789,"275":-0.0522301159799099,"276":0.06259092688560486,"277":-0.005003382917493582,"278":0.06950780004262924,"279":0.04823831468820572,"280":0.001186375506222248,"281":0.03049684688448906,"282":0.07375343888998032,"283":-0.022548764944076538,"284":-0.043662961572408676,"285":0.027913328260183334,"286":-0.059101201593875885,"287":0.07438493520021439,"288":0.07705526798963547,"289":0.04216374084353447,"290":-0.07621309906244278,"291":-0.0482790507376194,"292":-0.041994575411081314,"293":0.020146705210208893,"294":-0.07563977688550949,"295":0.035167329013347626,"296":0.028947854414582253,"297":-0.011999270878732204,"298":-0.07715046405792236,"299":0.07356320321559906,"300":-0.005972187500447035,"301":0.05462534725666046,"302":-0.15654365718364716,"303":-0.016524815931916237,"304":0.06402145326137543,"305":-0.029148869216442108,"306":-0.016372010111808777,"307":-0.03218947350978851,"308":0.10695892572402954,"309":0.017177676782011986,"310":-0.1282287836074829,"311":-0.08456183969974518,"312":0.011251546442508698,"313":-0.05267483368515968,"314":0.01912924274802208,"315":-0.16961026191711426,"316":0.060310058295726776,"317":0.0394635833799839,"318":-0.025197165086865425,"319":-0.0515175424516201,"320":-0.007643094751983881,"321":0.0628991574048996,"322":-0.13999778032302856,"323":-0.08747859299182892,"324":0.09820590913295746,"325":-0.016863631084561348,"326":0.06633929163217545,"327":0.053064730018377304,"328":-0.05255434662103653,"329":-0.013254065997898579,"330":0.053370337933301926,"331":-0.01775563508272171,"332":0.02203587256371975,"333":0.056463953107595444,"334":-0.04211286082863808,"335":-0.010730644688010216,"336":0.02883846126496792,"337":-0.0152133172377944,"338":0.01016795914620161,"339":0.04546134173870087,"340":-0.010173378512263298,"341":0.0961838886141777,"342":0.08349480479955673,"343":0.021727392449975014,"344":-0.05459068343043327,"345":-0.0010205036960542202,"346":-0.018683498725295067,"347":-0.04254060983657837,"348":0.048279572278261185,"349":0.06637737900018692,"350":0.0316350944340229,"351":0.017132610082626343,"352":0.005072042811661959,"353":0.01805940829217434,"354":-0.04864812642335892,"355":-0.034423235803842545,"356":-0.06875716149806976,"357":0.053088296204805374,"358":-0.021894073113799095,"359":0.03519140183925629,"360":-0.008916497230529785,"361":-0.03245403990149498,"362":-0.044844869524240494,"363":0.012772155925631523,"364":-0.010233287699520588,"365":0.09027714282274246,"366":-0.010077660903334618,"367":-0.00576495286077261,"368":0.02772453986108303,"369":-0.03841165080666542,"370":-0.03724900260567665,"371":-0.07847718149423599,"372":0.038551777601242065,"373":-0.041201137006282806,"374":-0.04560687020421028,"375":-0.05016141012310982,"376":-0.06485597789287567,"377":0.03083694353699684,"378":0.0368129163980484,"379":-0.0298322606831789,"380":0.06425900757312775,"381":0.044413886964321136,"382":-0.03482239693403244,"383":0.06423909962177277,"384":-0.017692575231194496,"385":0.047979775816202164,"386":0.029890151694417,"387":-0.0496494434773922,"388":-0.06641533970832825,"389":-0.0008376869955100119,"390":-0.010224565863609314,"391":-0.08801450580358505,"392":-0.09583263844251633,"393":-0.040944572538137436,"394":0.06666713953018188,"395":-0.0017946986481547356,"396":-0.024204805493354797,"397":-0.05704926699399948,"398":-0.022396598011255264,"399":0.026459690183401108,"400":0.03280113637447357,"401":0.08513832837343216,"402":-0.0327642597258091,"403":-0.019486140459775925,"404":0.026570359244942665,"405":-0.07869686186313629,"406":0.012539947405457497,"407":-0.07030201703310013,"408":-0.049954019486904144,"409":-0.04001588374376297,"410":-0.10585352033376694,"411":-0.07404567301273346,"412":-0.044940222054719925,"413":0.05569742992520332,"414":-0.07248441129922867,"415":-0.08258461207151413,"416":-0.04798185080289841,"417":0.11954498291015625,"418":0.07734504342079163,"419":0.008261440321803093,"420":-0.022454464808106422,"421":0.06560215353965759,"422":-0.0914868488907814,"423":0.02220652438700199,"424":0.048690877854824066,"425":0.07695513218641281,"426":0.022419992834329605,"427":-0.024009358137845993,"428":0.0467686727643013,"429":0.0692911148071289,"430":0.07794409245252609,"431":0.06672453135251999,"432":-0.05880545452237129,"433":-0.07362256944179535,"434":-0.0746510699391365,"435":-0.010562155395746231,"436":0.06874909996986389,"437":0.054707784205675125,"438":0.050451554358005524,"439":-0.022625893354415894,"440":-0.05510004237294197,"441":-0.058902181684970856,"442":-0.059722281992435455,"443":-0.058413371443748474,"444":0.07770072668790817,"445":-0.05568137764930725,"446":-0.005874425172805786,"447":0.026896264404058456,"448":-0.07003330439329147,"449":0.06349857896566391,"450":0.007683544885367155,"451":-0.09331388026475906,"452":-0.06727945804595947,"453":0.03170806169509888,"454":0.10117261856794357,"455":-0.06853779405355453,"456":0.04504898935556412,"457":0.04534350335597992,"458":0.013699971139431,"459":-0.04254531487822533,"460":-0.09524601697921753,"461":-0.04353516548871994,"462":-0.01782502606511116,"463":-0.05728159099817276,"464":-0.028632640838623047,"465":-0.005078156478703022,"466":-0.011613544076681137,"467":0.1142578050494194,"468":0.008796410635113716,"469":-0.018492961302399635,"470":0.048647187650203705,"471":-0.07248815149068832,"472":-0.06827815622091293,"473":-0.019317803904414177,"474":0.044436950236558914,"475":0.024161947891116142,"476":0.04701325297355652,"477":0.02585984393954277,"478":0.0011000947561115026,"479":0.05909449979662895,"480":0.061842240393161774,"481":-0.0667969286441803,"482":-0.0321972519159317,"483":-0.03900446742773056,"484":-0.02636532112956047,"485":0.014382505789399147,"486":-0.05063537880778313,"487":0.005335123743861914,"488":-0.08395450562238693,"489":-0.0102930199354887,"490":-0.07996854931116104,"491":0.04487719386816025,"492":0.015706658363342285,"493":-0.07906221598386765,"494":-0.06599177420139313,"495":0.04080626741051674,"496":0.004461484961211681,"497":-0.012821940705180168,"498":-0.0514688640832901,"499":-0.04319053888320923}},"outputHidden":{"rows":20,"columns":20,"weights":{"0":-0.08846616744995117,"1":-0.021640140563249588,"2":0.02474629133939743,"3":-0.021225646138191223,"4":0.0053352899849414825,"5":0.042018625885248184,"6":-0.08291543275117874,"7":0.07066509127616882,"8":-0.010525682009756565,"9":-0.05608632415533066,"10":0.0029954593628644943,"11":0.07178323715925217,"12":-0.08233992755413055,"13":0.012442907318472862,"14":0.08149728178977966,"15":0.07669790834188461,"16":0.04474320635199547,"17":0.037467170506715775,"18":0.027142733335494995,"19":0.06017820164561272,"20":0.00861600786447525,"21":0.02162800170481205,"22":-0.025940995663404465,"23":-0.003468727460131049,"24":-0.000892382231540978,"25":-0.019940363243222237,"26":-0.02553103119134903,"27":-0.053988244384527206,"28":-0.0075125121511518955,"29":0.012356802821159363,"30":-0.07745882868766785,"31":-0.06051304191350937,"32":-0.051235657185316086,"33":-0.032770972698926926,"34":0.07419547438621521,"35":0.06101806089282036,"36":0.04022258520126343,"37":0.02823820896446705,"38":-0.030807022005319595,"39":-0.020134253427386284,"40":0.04654151573777199,"41":-0.0023892878089100122,"42":-0.07292366027832031,"43":0.05028414726257324,"44":0.08188505470752716,"45":-0.05749230086803436,"46":-0.05357090383768082,"47":-0.07042799890041351,"48":-0.06693758815526962,"49":-0.07733838260173798,"50":-0.017450863495469093,"51":0.03637603670358658,"52":0.02242392674088478,"53":-0.015029585920274258,"54":-0.009911694563925266,"55":0.038547370582818985,"56":-0.06417956948280334,"57":0.0592183880507946,"58":-0.0217432864010334,"59":0.023152844980359077,"60":0.0651843249797821,"61":0.04322141036391258,"62":-0.03443603217601776,"63":0.04183456674218178,"64":0.04427911341190338,"65":0.051707904785871506,"66":-0.009277315810322762,"67":0.03625380992889404,"68":0.024256253615021706,"69":0.0027894244994968176,"70":-0.013165169395506382,"71":-0.04744992032647133,"72":-0.020428461953997612,"73":-0.04268837720155716,"74":0.07828235626220703,"75":0.02969226986169815,"76":-0.07539030909538269,"77":0.06744798272848129,"78":0.012248014099895954,"79":0.055193834006786346,"80":0.06129879876971245,"81":-0.041836220771074295,"82":-0.037135932594537735,"83":0.053153038024902344,"84":0.05662223696708679,"85":-0.04001213610172272,"86":-0.05968654528260231,"87":0.00903758779168129,"88":0.021537071093916893,"89":0.020251791924238205,"90":-0.07262491434812546,"91":-0.03763573616743088,"92":0.05813414976000786,"93":-0.06992163509130478,"94":-0.03688685968518257,"95":-0.04451346769928932,"96":-0.06524810194969177,"97":-0.053699593991041183,"98":-0.04615860432386398,"99":-0.02617836929857731,"100":0.04473099857568741,"101":-0.037802599370479584,"102":0.0191805362701416,"103":0.04382782429456711,"104":-0.055862367153167725,"105":-0.009461491368710995,"106":-0.03765622898936272,"107":-0.02565068192780018,"108":-0.06478027999401093,"109":-0.026445701718330383,"110":0.002470846986398101,"111":0.0011498265666887164,"112":-0.006412469316273928,"113":-0.06816277652978897,"114":0.022825852036476135,"115":0.033871281892061234,"116":0.06859274953603745,"117":-0.0679599940776825,"118":-0.04440363869071007,"119":0.022309929132461548,"120":0.009153373539447784,"121":-0.022206919267773628,"122":0.06546346843242645,"123":-0.0127060916274786,"124":-0.014074178412556648,"125":0.002167578088119626,"126":-0.04921543225646019,"127":0.0006313052726909518,"128":0.012966473586857319,"129":0.025428524240851402,"130":0.10430126637220383,"131":0.019696110859513283,"132":0.03043198771774769,"133":0.07757891714572906,"134":0.04692116379737854,"135":-0.054736845195293427,"136":0.04304933920502663,"137":-0.045210931450128555,"138":0.05378321185708046,"139":0.019782966002821922,"140":-0.06869092583656311,"141":-0.023599762469530106,"142":0.029504839330911636,"143":-0.06333175301551819,"144":-0.07321006804704666,"145":0.07064084708690643,"146":-0.01784364879131317,"147":0.01968209072947502,"148":0.010465586557984352,"149":0.04316871240735054,"150":-0.012274627573788166,"151":-0.03854425996541977,"152":-0.06620238721370697,"153":0.017985539510846138,"154":0.04020840674638748,"155":0.05534752830862999,"156":0.0641433373093605,"157":-0.07000326365232468,"158":0.04384783282876015,"159":0.043554626405239105,"160":-0.0343758687376976,"161":0.04923798516392708,"162":-0.00962674431502819,"163":0.02039739489555359,"164":0.020162906497716904,"165":0.056042492389678955,"166":-0.05375155061483383,"167":0.008912784978747368,"168":0.0605204775929451,"169":0.019287269562482834,"170":0.01419407594949007,"171":-0.00235736439935863,"172":-0.017608802765607834,"173":0.00009962985495803878,"174":-0.03891526535153389,"175":0.014803431928157806,"176":-0.029467236250638962,"177":0.05815546587109566,"178":0.10070943087339401,"179":0.03530010208487511,"180":0.05477575957775116,"181":0.03788283094763756,"182":0.054380226880311966,"183":-0.026497187092900276,"184":0.07890715450048447,"185":0.0251016765832901,"186":0.050211358815431595,"187":0.0024000615812838078,"188":-0.028502533212304115,"189":0.032889723777770996,"190":-0.0029831307474523783,"191":-0.06183639541268349,"192":0.03379596769809723,"193":-0.04809008911252022,"194":0.014011458493769169,"195":0.015917377546429634,"196":0.019859876483678818,"197":0.07486742734909058,"198":-0.05506819859147072,"199":-0.04510217532515526,"200":-0.10839997977018356,"201":0.10990678519010544,"202":0.11231693625450134,"203":0.02624473348259926,"204":0.021708868443965912,"205":0.0067270961590111256,"206":-0.020917097106575966,"207":0.028038205578923225,"208":0.13118356466293335,"209":-0.005021304357796907,"210":0.15085625648498535,"211":-0.07265599817037582,"212":-0.11043210327625275,"213":0.05367797240614891,"214":0.018539417535066605,"215":0.05506313964724541,"216":-0.04388284683227539,"217":0.04838019236922264,"218":0.01566719077527523,"219":-0.06635552644729614,"220":0.07722610235214233,"221":-0.002812479855492711,"222":0.06834693998098373,"223":0.043199002742767334,"224":0.05568259209394455,"225":0.007528569549322128,"226":-0.006972786504775286,"227":0.06640941649675369,"228":0.04349733516573906,"229":0.03205147385597229,"230":0.0757465586066246,"231":-0.051311418414115906,"232":0.03655814379453659,"233":-0.047096896916627884,"234":-0.014702243730425835,"235":-0.017333198338747025,"236":0.013527746312320232,"237":0.03196123614907265,"238":-0.00630462821573019,"239":0.07431558519601822,"240":-0.07930908352136612,"241":0.04728784039616585,"242":0.054786164313554764,"243":0.057888276875019073,"244":0.07600074261426926,"245":-0.05067417770624161,"246":-0.027898870408535004,"247":-0.07703043520450592,"248":0.05707228556275368,"249":-0.08232827484607697,"250":0.026122307404875755,"251":-0.05293112248182297,"252":-0.059851378202438354,"253":0.023978983983397484,"254":-0.05040359124541283,"255":0.03946593031287193,"256":-0.04498184099793434,"257":-0.09420563280582428,"258":0.02763333171606064,"259":-0.04857264459133148,"260":0.060867346823215485,"261":-0.005967569537460804,"262":-0.027024364098906517,"263":-0.006214823108166456,"264":0.07193554937839508,"265":-0.06280189752578735,"266":0.056832779198884964,"267":0.013618743978440762,"268":-0.05094144865870476,"269":-0.013140573166310787,"270":-0.039855435490608215,"271":-0.03513485565781593,"272":-0.06306099891662598,"273":0.033306512981653214,"274":0.0030129363294690847,"275":-0.06274990737438202,"276":0.06771919131278992,"277":-0.039830561727285385,"278":0.023725159466266632,"279":-0.025778045877814293,"280":0.06428929418325424,"281":0.007901920937001705,"282":0.04086602106690407,"283":0.05322244018316269,"284":-0.009905051440000534,"285":0.02048582211136818,"286":-0.0635635033249855,"287":0.05339230224490166,"288":-0.008994736708700657,"289":-0.016094079241156578,"290":-0.08171063661575317,"291":0.0520637109875679,"292":0.0004772588436026126,"293":0.06420276314020157,"294":0.058764006942510605,"295":-0.014040080830454826,"296":-0.028081119060516357,"297":-0.0642729103565216,"298":0.02124304324388504,"299":0.02381015568971634,"300":0.02700771391391754,"301":-0.08322371542453766,"302":-0.009108282625675201,"303":0.015672750771045685,"304":0.00030197988962754607,"305":0.03263689577579498,"306":0.05869926139712334,"307":0.0066065373830497265,"308":0.043441999703645706,"309":-0.056897010654211044,"310":0.04298791289329529,"311":0.04334556311368942,"312":-0.00827502366155386,"313":0.06797410547733307,"314":0.03669225051999092,"315":0.004038227256387472,"316":0.03323455527424812,"317":-0.045791786164045334,"318":0.026189975440502167,"319":-0.031471092253923416,"320":0.06753715127706528,"321":0.02499569207429886,"322":0.07612761110067368,"323":0.01241268590092659,"324":-0.026967914775013924,"325":-0.055608153343200684,"326":-0.02737855166196823,"327":-0.010355084203183651,"328":-0.06630095094442368,"329":0.005014682654291391,"330":0.039246123284101486,"331":0.0466703437268734,"332":0.07184085994958878,"333":0.020770102739334106,"334":-0.0402214378118515,"335":-0.07184629142284393,"336":-0.04889519885182381,"337":0.06220530346035957,"338":0.05547570437192917,"339":0.014486320316791534,"340":-0.07151962071657181,"341":-0.035380084067583084,"342":-0.07667052000761032,"343":-0.07622010260820389,"344":0.038622550666332245,"345":-0.003810776863247156,"346":-0.06624724715948105,"347":0.041596513241529465,"348":0.04533198103308678,"349":-0.0068597509525716305,"350":0.03504427522420883,"351":-0.03309142589569092,"352":0.014591827988624573,"353":0.019519461318850517,"354":0.05182887613773346,"355":0.03100804053246975,"356":0.015791065990924835,"357":0.004779734183102846,"358":0.05522887036204338,"359":0.03724529594182968,"360":-0.06833511590957642,"361":0.017001468688249588,"362":-0.04880891367793083,"363":-0.0507422611117363,"364":0.05843115597963333,"365":0.049978114664554596,"366":0.027595413848757744,"367":0.07523898035287857,"368":0.07261834293603897,"369":-0.06656921654939651,"370":-0.0027437491808086634,"371":-0.08232222497463226,"372":-0.006599280051887035,"373":-0.018246768042445183,"374":-0.06507008522748947,"375":0.08085225522518158,"376":0.08733751624822617,"377":-0.06699585914611816,"378":-0.035991769284009933,"379":0.03319695591926575,"380":0.029379965737462044,"381":-0.02931961789727211,"382":-0.004945988766849041,"383":0.06927623599767685,"384":0.07075173407793045,"385":-0.01551966555416584,"386":0.05772111564874649,"387":0.01653715968132019,"388":0.02546287514269352,"389":0.0033622770570218563,"390":-0.017251135781407356,"391":0.0017404723912477493,"392":0.03419322520494461,"393":-0.009064443409442902,"394":-0.020690985023975372,"395":0.055864062160253525,"396":0.034921638667583466,"397":0.07624969631433487,"398":0.001537816016934812,"399":-0.04207419976592064}},"outputBias":{"rows":20,"columns":1,"weights":{"0":-0.0038904468528926373,"1":0.006203323137015104,"2":-0.06587404012680054,"3":-0.06842970848083496,"4":0.001649464713409543,"5":0.01383217889815569,"6":-0.12478718161582947,"7":-0.006835261359810829,"8":-0.0947490781545639,"9":-0.06582248955965042,"10":-0.0999976173043251,"11":0.0000016735391454858473,"12":-0.17937888205051422,"13":-0.059452399611473083,"14":0.009295678697526455,"15":0.05510984733700752,"16":-0.06843080371618271,"17":0.011907530017197132,"18":-0.017777036875486374,"19":-0.016283411532640457}},"cellActivationMatrix":{"rows":20,"columns":25,"weights":{"0":0.09258908778429031,"1":0.2265929877758026,"2":0.3538810908794403,"3":0.4452648162841797,"4":-0.3525986969470978,"5":0.06670700758695602,"6":-0.3809196650981903,"7":-0.05318168178200722,"8":-0.1746896356344223,"9":0.15810929238796234,"10":0.38787686824798584,"11":0.22540904581546783,"12":-0.41884174942970276,"13":0.3044458329677582,"14":0.07770820707082748,"15":0.3368065059185028,"16":-0.34174811840057373,"17":-0.28973570466041565,"18":0.17183946073055267,"19":-0.29628294706344604,"20":-0.06877168267965317,"21":-0.2290971428155899,"22":0.38126394152641296,"23":0.2821718156337738,"24":-0.21432550251483917,"25":0.025485947728157043,"26":-0.11211485415697098,"27":0.07560418546199799,"28":-0.1585979163646698,"29":0.013615223579108715,"30":0.13822466135025024,"31":0.04009363055229187,"32":-0.042221032083034515,"33":0.02424948662519455,"34":-0.06182389333844185,"35":0.09515007585287094,"36":0.02638746052980423,"37":-0.007382347714155912,"38":-0.14163503050804138,"39":0.001511989044956863,"40":0.1786825954914093,"41":-0.034777287393808365,"42":-0.15242977440357208,"43":-0.08986376971006393,"44":0.04859226569533348,"45":-0.019814278930425644,"46":-0.13537992537021637,"47":0.1635528802871704,"48":0.08035697042942047,"49":-0.03737760707736015,"50":-0.025031838566064835,"51":0.06844500452280045,"52":-0.22739169001579285,"53":-0.044369686394929886,"54":0.1376548707485199,"55":-0.14107684791088104,"56":0.1743525117635727,"57":0.16814497113227844,"58":0.12233524769544601,"59":-0.05815912038087845,"60":-0.18346136808395386,"61":-0.16295580565929413,"62":0.21992602944374084,"63":0.09262421727180481,"64":-0.19755473732948303,"65":-0.3223647177219391,"66":0.20266948640346527,"67":0.26030388474464417,"68":0.016694122925400734,"69":-0.016752857714891434,"70":0.010819521732628345,"71":0.07810129970312119,"72":-0.2933001220226288,"73":-0.15586423873901367,"74":0.07327479124069214,"75":-0.2616567015647888,"76":-0.12720394134521484,"77":-0.3566521108150482,"78":-0.16874602437019348,"79":0.18387052416801453,"80":-0.27113670110702515,"81":0.2756401598453522,"82":0.2030104249715805,"83":0.24531789124011993,"84":-0.012599934823811054,"85":-0.23232708871364594,"86":-0.2735583484172821,"87":0.30251315236091614,"88":-0.1603609174489975,"89":-0.221303328871727,"90":-0.4018300175666809,"91":0.27122485637664795,"92":0.3030150830745697,"93":-0.0874839797616005,"94":-0.001291130087338388,"95":0.2725313603878021,"96":0.31036239862442017,"97":-0.3064786195755005,"98":-0.36947256326675415,"99":0.2724337577819824,"100":0.010519733652472496,"101":-0.03366461023688316,"102":0.12992416322231293,"103":-0.053441859781742096,"104":-0.03248489275574684,"105":0.06277674436569214,"106":-0.027737021446228027,"107":0.06381594389677048,"108":0.032632749527692795,"109":0.10341418534517288,"110":0.06088514253497124,"111":-0.07927172631025314,"112":-0.1342919021844864,"113":0.08406583964824677,"114":0.05604169890284538,"115":0.10892140120267868,"116":-0.00575389014557004,"117":0.013802588917315006,"118":0.013820230029523373,"119":-0.038575444370508194,"120":0.04432625323534012,"121":-0.17868222296237946,"122":0.09703631699085236,"123":0.1999376118183136,"124":-0.04614461958408356,"125":0.15938898921012878,"126":0.11469592154026031,"127":0.25108110904693604,"128":0.25738054513931274,"129":-0.22804288566112518,"130":0.09628789871931076,"131":-0.18855422735214233,"132":-0.2164507657289505,"133":-0.2521883547306061,"134":0.08523792028427124,"135":0.3262636065483093,"136":0.18365411460399628,"137":-0.26920196413993835,"138":0.14480791985988617,"139":0.2067468911409378,"140":0.311384379863739,"141":-0.30279824137687683,"142":-0.27904191613197327,"143":0.08085167407989502,"144":0.05063445493578911,"145":-0.02215236984193325,"146":-0.32542508840560913,"147":0.22918608784675598,"148":0.27732276916503906,"149":-0.1788882315158844,"150":0.23344114422798157,"151":0.22328436374664307,"152":0.2988383173942566,"153":0.2426205575466156,"154":-0.2864168584346771,"155":0.23903197050094604,"156":-0.2583441436290741,"157":-0.23284722864627838,"158":-0.351173996925354,"159":0.04369865730404854,"160":0.2956487536430359,"161":0.24424926936626434,"162":-0.21025806665420532,"163":0.0736871287226677,"164":0.17792527377605438,"165":0.2857014834880829,"166":-0.2744079828262329,"167":-0.3238433301448822,"168":0.20525586605072021,"169":-0.03924086317420006,"170":-0.2586534321308136,"171":-0.3852740228176117,"172":0.4104897081851959,"173":0.30037936568260193,"174":-0.31323468685150146,"175":-0.13087701797485352,"176":0.008490105159580708,"177":-0.21448573470115662,"178":-0.2969913184642792,"179":0.32548385858535767,"180":-0.004236853681504726,"181":0.33389732241630554,"182":0.1067412942647934,"183":0.08961940556764603,"184":-0.0049267360009253025,"185":-0.26899847388267517,"186":-0.05956967920064926,"187":0.2012285739183426,"188":-0.2071111500263214,"189":-0.18252158164978027,"190":-0.19917169213294983,"191":0.23250915110111237,"192":0.28692057728767395,"193":-0.11111792922019958,"194":0.06106081232428551,"195":0.0740765929222107,"196":0.26079827547073364,"197":-0.3020669221878052,"198":-0.20939552783966064,"199":0.18014740943908691,"200":-0.24997469782829285,"201":-0.3091469705104828,"202":-0.4236639142036438,"203":-0.44625693559646606,"204":0.40468013286590576,"205":-0.1692444086074829,"206":0.3214442729949951,"207":0.1775730401277542,"208":0.24000617861747742,"209":-0.006341932807117701,"210":-0.3519205152988434,"211":-0.11960464715957642,"212":0.4342448115348816,"213":-0.3063104748725891,"214":-0.0867677703499794,"215":-0.47290101647377014,"216":0.4058702886104584,"217":0.4295381009578705,"218":-0.1605461984872818,"219":0.2877345085144043,"220":0.059622880071401596,"221":0.28152915835380554,"222":-0.44263896346092224,"223":-0.3185003697872162,"224":0.31180500984191895,"225":-0.17427577078342438,"226":0.04444733262062073,"227":-0.24384696781635284,"228":-0.11838854104280472,"229":0.23017553985118866,"230":-0.2529824674129486,"231":0.23003070056438446,"232":0.16739989817142487,"233":0.15365393459796906,"234":-0.07827553898096085,"235":-0.25486212968826294,"236":-0.2436804175376892,"237":0.28226298093795776,"238":0.03314385190606117,"239":-0.31078043580055237,"240":-0.37677913904190063,"241":0.2223517745733261,"242":0.20648978650569916,"243":-0.12539544701576233,"244":0.0001001326454570517,"245":0.19734835624694824,"246":0.2756592035293579,"247":-0.349046528339386,"248":-0.3646153211593628,"249":0.2833608388900757,"250":-0.3477955758571625,"251":-0.10836559534072876,"252":-0.4278969466686249,"253":-0.3245154321193695,"254":0.36576592922210693,"255":-0.21431595087051392,"256":0.3587424159049988,"257":0.1494082808494568,"258":0.31440386176109314,"259":-0.14849728345870972,"260":-0.3847293555736542,"261":-0.18593375384807587,"262":0.32887306809425354,"263":-0.2512861490249634,"264":-0.29801052808761597,"265":-0.5100024938583374,"266":0.3477228283882141,"267":0.40413469076156616,"268":-0.178922638297081,"269":0.19967378675937653,"270":0.26536402106285095,"271":0.3347623944282532,"272":-0.47897228598594666,"273":-0.2961142957210541,"274":0.3596109449863434,"275":0.10780775547027588,"276":0.02189761959016323,"277":-0.06304854899644852,"278":0.03303094953298569,"279":0.010191898792982101,"280":-0.023038187995553017,"281":0.04681935906410217,"282":0.14965206384658813,"283":0.06472332030534744,"284":-0.09260377287864685,"285":-0.2205086350440979,"286":-0.17276757955551147,"287":0.10396155714988708,"288":0.06983887404203415,"289":-0.0030709216371178627,"290":-0.12400016188621521,"291":0.008771016262471676,"292":0.08635357767343521,"293":0.08482037484645844,"294":-0.06636878103017807,"295":-0.06209572032094002,"296":0.10767359286546707,"297":-0.11999258399009705,"298":-0.18872937560081482,"299":0.035944342613220215,"300":0.30321553349494934,"301":-0.010474609211087227,"302":0.3635806739330292,"303":0.13691413402557373,"304":-0.15775281190872192,"305":0.3694494068622589,"306":-0.2968042194843292,"307":-0.2890241742134094,"308":-0.2821993827819824,"309":0.03720252215862274,"310":0.2988511621952057,"311":0.25466805696487427,"312":-0.1882838010787964,"313":0.045030515640974045,"314":0.32451385259628296,"315":0.3397563099861145,"316":-0.29586130380630493,"317":-0.2312261313199997,