{"type":"LSTM","options":{"inputSize":37,"inputRange":37,"hiddenLayers":[20,20],"outputSize":37,"decayRate":0.999,"smoothEps":1e-8,"regc":0.000001,"clipval":5,"maxPredictionLength":100,"dataFormatter":{"values":["the data betwween 170 and 26759","1","give me the data betwween 900 and 205","the data betwween 1726 and 2041","tell me the data betwween 13440 and 83","please tell me the data betwween 1939 and 1979","what is the data betwween 1944 and 8452","can you give me the data betwween 195 and 7356","show me the data from 1885 to 2014","the data from 1900 and 577","please give me the data from 197 to 2045","tell me the data betwween 192 to 19","data from 14535 to 197","what is the data from 944 to 4","hey, can you give me the data betwween 1935 and 0","show me the statistics of the past ten years","please give me the range of the past 302 years","tell me the data of the past ten years","are you able to give me the average of the last 79 years","what is the median of the last 80 years","are you able to give me the range of the last 2 years","what is the maximum of the last 80 years","give me the greatest value of the data","0","tell me the median","tell me the average","what is the standard deviation","please tell me the average of the data","show tell me the median","tell me the trend of the data","what is the range of the data","tell me the range","show me the range and the greatest value","give me the average and range","can you tell me the range of the data","tell me the the range of the median","tell me the trend of the data range","show me the mean of the table","give me the median from the chart","please give me the trend from this","from this chart, what is the average","data from here","the max from the dataset","where are you from"],"indexTable":{"0":11,"1":9,"2":12,"3":22,"4":20,"5":14,"6":13,"7":10,"8":23,"9":15,"t":0,"h":1,"e":2," ":3,"d":4,"a":5,"b":6,"w":7,"n":8,"g":16,"i":17,"v":18,"m":19,"l":21,"p":24,"s":25,"c":26,"y":27,"o":28,"u":29,"f":30,"r":31,",":32,"x":33,"stop-input":34,"start-output":35,"unrecognized":36},"characterTable":{"0":"t","1":"h","2":"e","3":" ","4":"d","5":"a","6":"b","7":"w","8":"n","9":"1","10":"7","11":"0","12":"2","13":"6","14":"5","15":"9","16":"g","17":"i","18":"v","19":"m","20":"4","21":"l","22":"3","23":"8","24":"p","25":"s","26":"c","27":"y","28":"o","29":"u","30":"f","31":"r","32":",","33":"x","34":null,"35":null,"36":null},"characters":["t","h","e"," ","d","a","b","w","n","1","7","0","2","6","5","9","g","i","v","m","4","l","3","8","p","s","c","y","o","u","f","r",",","x","stop-input","start-output","unrecognized"],"specialIndexes":[34,35,36]}},"input":{"rows":38,"columns":37,"weights":{"0":-0.378807932138443,"1":0.5312151312828064,"2":0.8068636655807495,"3":-1.4719171524047852,"4":-0.10199414193630219,"5":0.9276102185249329,"6":1.350205421447754,"7":0.0433063730597496,"8":-1.1640368700027466,"9":-0.21266163885593414,"10":0.6890769004821777,"11":0.6437584757804871,"12":-0.23725053668022156,"13":0.5003812909126282,"14":0.09867452830076218,"15":-0.6479155421257019,"16":-1.0288586616516113,"17":0.8997836709022522,"18":0.25358355045318604,"19":1.3573925495147705,"20":-0.004066293593496084,"21":0.793169379234314,"22":-2.449185848236084,"23":-1.4118492603302002,"24":0.10981616377830505,"25":-0.5616596937179565,"26":0.043582819402217865,"27":0.23924985527992249,"28":-0.06730517745018005,"29":0.4871814548969269,"30":2.9340765476226807,"31":0.2445012629032135,"32":-1.0007497072219849,"33":0.26616066694259644,"34":0.801817774772644,"35":1.077820897102356,"36":-0.11075852811336517,"37":-0.3441339433193207,"38":0.0028473385609686375,"39":-0.7107097506523132,"40":-0.8318060040473938,"41":0.21849261224269867,"42":0.5074970126152039,"43":1.4068304300308228,"44":-0.32578784227371216,"45":-0.3294771909713745,"46":-0.4757142961025238,"47":0.46798303723335266,"48":0.3790811598300934,"49":-0.2291032373905182,"50":-0.11271841078996658,"51":-0.3112378418445587,"52":-0.7033080458641052,"53":0.08011473715305328,"54":0.2235856056213379,"55":0.07460282742977142,"56":0.6355456709861755,"57":0.06902036815881729,"58":0.9683758020401001,"59":0.11875666677951813,"60":-1.0855610370635986,"61":-0.8354768753051758,"62":0.1945117712020874,"63":0.49087080359458923,"64":0.06477907299995422,"65":-0.5842707753181458,"66":-1.488849401473999,"67":-0.6322909593582153,"68":0.2464849203824997,"69":0.08504211157560349,"70":0.25885674357414246,"71":-0.16244836151599884,"72":0.06849666684865952,"73":0.15707886219024658,"74":-0.8182461857795715,"75":0.03778303042054176,"76":1.4335589408874512,"77":-1.074783205986023,"78":0.8315296173095703,"79":1.1950945854187012,"80":0.5567322373390198,"81":0.8017481565475464,"82":-0.9022267460823059,"83":0.6563346982002258,"84":-0.04531969130039215,"85":0.15046437084674835,"86":1.178371787071228,"87":-0.28724542260169983,"88":-0.7999064922332764,"89":-0.3816576898097992,"90":-1.0475974082946777,"91":1.3110321760177612,"92":-0.07112180441617966,"93":0.9501367807388306,"94":0.14876103401184082,"95":0.3016534149646759,"96":-1.7466011047363281,"97":-0.4474535584449768,"98":-1.366292119026184,"99":0.07959841191768646,"100":-0.8160602450370789,"101":0.7217639088630676,"102":0.6703928709030151,"103":0.5617535710334778,"104":1.3093228340148926,"105":2.0272998809814453,"106":-1.5770270824432373,"107":0.6255944967269897,"108":-0.29863739013671875,"109":0.8050016164779663,"110":-0.1381530910730362,"111":-1.1057519912719727,"112":-0.30244380235671997,"113":-0.12605859339237213,"114":-1.8314367532730103,"115":1.3868582248687744,"116":0.9466691613197327,"117":0.033665236085653305,"118":0.1288207620382309,"119":-1.715545415878296,"120":-0.9538246393203735,"121":-0.22193543612957,"122":-1.8366864919662476,"123":0.3256832957267761,"124":0.0627419650554657,"125":-1.4480247497558594,"126":-0.11988899111747742,"127":0.14755003154277802,"128":1.6642314195632935,"129":0.31167513132095337,"130":0.9996171593666077,"131":0.7728423476219177,"132":0.2507660984992981,"133":1.1586991548538208,"134":-1.4128398895263672,"135":0.23713025450706482,"136":1.5371352434158325,"137":0.10051462054252625,"138":-0.025576956570148468,"139":0.8936383128166199,"140":-0.6394330859184265,"141":-1.0503261089324951,"142":0.6853984594345093,"143":0.016803599894046783,"144":0.32591712474823,"145":-2.121339797973633,"146":0.7050591707229614,"147":0.7157232761383057,"148":0.0769694596529007,"149":-0.6793436408042908,"150":-0.21977832913398743,"151":0.3697781562805176,"152":-0.4344952404499054,"153":-0.30277079343795776,"154":0.18726955354213715,"155":-0.3345172703266144,"156":0.2990015745162964,"157":-1.5351980924606323,"158":0.06645406037569046,"159":0.40830838680267334,"160":-0.4902868866920471,"161":0.19025148451328278,"162":0.30308088660240173,"163":-0.12098351120948792,"164":-0.04043791815638542,"165":0.024386495351791382,"166":-0.31813374161720276,"167":0.053615882992744446,"168":-0.6886354684829712,"169":-0.012078559957444668,"170":-1.2691311836242676,"171":0.14764145016670227,"172":0.587827742099762,"173":-0.6256262063980103,"174":0.1251499354839325,"175":-0.5736402273178101,"176":-0.08319500088691711,"177":-0.08354291319847107,"178":0.7586766481399536,"179":0.04780741408467293,"180":0.014599068090319633,"181":-0.32565930485725403,"182":0.34725698828697205,"183":-0.16957522928714752,"184":-0.894328773021698,"185":0.18784815073013306,"186":-0.21191845834255219,"187":-0.6139445900917053,"188":-0.40021979808807373,"189":-0.38419315218925476,"190":0.5794652700424194,"191":2.1525042057037354,"192":-0.05067829787731171,"193":-0.579616904258728,"194":-0.33463308215141296,"195":-0.6647467017173767,"196":-0.0675174742937088,"197":0.3448033332824707,"198":0.3245450556278229,"199":-0.33972597122192383,"200":1.617647409439087,"201":0.6674524545669556,"202":0.9929320216178894,"203":-0.17460164427757263,"204":0.5490702986717224,"205":0.020153092220425606,"206":-0.8277314305305481,"207":-1.8902652263641357,"208":-0.4255005419254303,"209":-2.111100196838379,"210":0.44494304060935974,"211":0.5312243103981018,"212":0.27547305822372437,"213":-0.11922503262758255,"214":0.8708868622779846,"215":1.052571177482605,"216":-0.1479569524526596,"217":-0.8528170585632324,"218":0.156748965382576,"219":0.2578166127204895,"220":-0.10931400209665298,"221":0.36313533782958984,"222":-0.6445817947387695,"223":-0.13794976472854614,"224":-0.45780205726623535,"225":-1.232114315032959,"226":-0.8663320541381836,"227":0.05139046907424927,"228":0.6344278454780579,"229":-0.8991376757621765,"230":-1.0347380638122559,"231":-0.7303423285484314,"232":2.6016945838928223,"233":-0.38565945625305176,"234":1.9058648347854614,"235":0.2598375976085663,"236":-1.0875797271728516,"237":0.560090184211731,"238":-1.6465829610824585,"239":0.6668096780776978,"240":0.03083951771259308,"241":0.6513736248016357,"242":-0.4666520953178406,"243":0.032376766204833984,"244":0.10155432671308517,"245":-1.711682915687561,"246":0.3539971113204956,"247":-0.5601083040237427,"248":0.33226463198661804,"249":-0.37766432762145996,"250":-0.40551042556762695,"251":-0.20656736195087433,"252":0.2927834689617157,"253":1.5319081544876099,"254":-2.3396589756011963,"255":-0.59798264503479,"256":0.5273915529251099,"257":1.4347712993621826,"258":-0.47344255447387695,"259":-2.643667221069336,"260":4.586487293243408,"261":0.8243286609649658,"262":-3.4452552795410156,"263":-0.0558137409389019,"264":3.2486510276794434,"265":1.0685867071151733,"266":-0.5361096262931824,"267":2.3522250652313232,"268":1.4327795505523682,"269":-2.969113826751709,"270":-2.8580665588378906,"271":-1.443681001663208,"272":-3.1040337085723877,"273":-2.8384313583374023,"274":0.7619256377220154,"275":0.9397611021995544,"276":2.2752525806427,"277":-1.3324756622314453,"278":0.7510380148887634,"279":2.387887716293335,"280":-0.5813403725624084,"281":3.2160778045654297,"282":-2.3391456604003906,"283":1.4577592611312866,"284":2.420614719390869,"285":-2.0201833248138428,"286":-1.5534489154815674,"287":1.1945010423660278,"288":0.17046859860420227,"289":-1.6897867918014526,"290":0.24943813681602478,"291":-0.5416720509529114,"292":-3.155038595199585,"293":-2.625312566757202,"294":-0.6242756843566895,"295":-0.4717407822608948,"296":2.07348895072937,"297":-1.1707370281219482,"298":-1.2591757774353027,"299":-0.2624332010746002,"300":-0.6261423230171204,"301":0.09960293024778366,"302":0.9487231969833374,"303":-0.610965371131897,"304":-0.409296452999115,"305":-0.06542278081178665,"306":-1.2963016033172607,"307":-0.04216080158948898,"308":-2.599208116531372,"309":1.1953505277633667,"310":0.5183742642402649,"311":1.3381468057632446,"312":-1.4861962795257568,"313":-0.3809216320514679,"314":-1.1575051546096802,"315":-0.13765709102153778,"316":-1.492392659187317,"317":-1.0117956399917603,"318":0.5323519110679626,"319":-0.42300161719322205,"320":0.030706729739904404,"321":-1.755657434463501,"322":0.41393837332725525,"323":-0.3714376986026764,"324":-0.6072438359260559,"325":0.6648553609848022,"326":-1.3622558116912842,"327":-1.5308036804199219,"328":2.6488072872161865,"329":0.010202930308878422,"330":0.9471461772918701,"331":0.09312298148870468,"332":-1.4343338012695312,"333":-0.02536574937403202,"334":0.4970909655094147,"335":-1.3169238567352295,"336":1.5602322816848755,"337":-0.7039965987205505,"338":-0.7899389863014221,"339":-0.9104831218719482,"340":-0.841788649559021,"341":1.4168912172317505,"342":1.997431993484497,"343":1.1905744075775146,"344":2.6793878078460693,"345":-0.33830469846725464,"346":1.2448060512542725,"347":1.4573168754577637,"348":1.8671860694885254,"349":0.58376544713974,"350":-1.9400838613510132,"351":-1.9523929357528687,"352":0.0001324101467616856,"353":-0.570414125919342,"354":-2.096736192703247,"355":-0.2272501140832901,"356":0.33320653438568115,"357":-1.5912973880767822,"358":-0.8160155415534973,"359":0.31585752964019775,"360":-0.7514740824699402,"361":-1.7611607313156128,"362":2.1384572982788086,"363":0.7726714015007019,"364":0.03604515269398689,"365":0.42720142006874084,"366":-0.7346962094306946,"367":0.9251708388328552,"368":0.24836833775043488,"369":0.1483132392168045,"370":-0.6737924814224243,"371":0.021344458684325218,"372":-0.5203518867492676,"373":-0.18156971037387848,"374":-0.7231827974319458,"375":0.09631243348121643,"376":0.016648881137371063,"377":-0.5575185418128967,"378":0.2762904465198517,"379":-0.7826952934265137,"380":-1.6263961791992188,"381":-1.2767271995544434,"382":1.4182395935058594,"383":-0.7053226232528687,"384":-0.38636699318885803,"385":0.6818807125091553,"386":0.4356227517127991,"387":0.5482276082038879,"388":-0.825636088848114,"389":-0.3420106768608093,"390":-0.4024754464626312,"391":-1.695399522781372,"392":0.7052181959152222,"393":0.17806634306907654,"394":0.3943979740142822,"395":-0.05801834538578987,"396":0.34626099467277527,"397":-0.6204979419708252,"398":-0.6919228434562683,"399":0.7137237787246704,"400":-0.8962381482124329,"401":-0.06737479567527771,"402":0.38851872086524963,"403":-1.0571215152740479,"404":-0.46054184436798096,"405":-0.37083378434181213,"406":-1.447248935699463,"407":-0.5354819297790527,"408":0.6893916130065918,"409":-3.366168975830078,"410":0.8473225235939026,"411":-2.3485164642333984,"412":-0.4235318899154663,"413":-2.8687174320220947,"414":-5.578183650970459,"415":-0.5970407128334045,"416":2.6967525482177734,"417":3.2797319889068604,"418":1.3091299533843994,"419":-4.159597396850586,"420":7.515671253204346,"421":1.550876498222351,"422":1.3207579851150513,"423":1.307949423789978,"424":-1.882346272468567,"425":-3.3543663024902344,"426":0.4336846172809601,"427":-0.15786577761173248,"428":-0.23273678123950958,"429":2.7299702167510986,"430":0.36476290225982666,"431":-0.7835206389427185,"432":-0.08018596470355988,"433":5.303795337677002,"434":-2.102403163909912,"435":0.4386684000492096,"436":2.7552592754364014,"437":-1.9863612651824951,"438":-1.1613831520080566,"439":0.25609028339385986,"440":-3.2598793506622314,"441":-0.0611223429441452,"442":-0.702185332775116,"443":-0.7064839601516724,"444":-0.012651951983571053,"445":-0.4480302035808563,"446":0.48103296756744385,"447":1.1741604804992676,"448":-0.6181775331497192,"449":-0.7818195819854736,"450":-1.3367037773132324,"451":0.6996015310287476,"452":0.42170944809913635,"453":-0.21269561350345612,"454":-1.612527847290039,"455":-0.836386501789093,"456":-1.8812118768692017,"457":0.14176566898822784,"458":1.7623523473739624,"459":-0.04238057881593704,"460":0.036770522594451904,"461":-0.8226166367530823,"462":-0.9722371697425842,"463":1.818300485610962,"464":-0.07913243025541306,"465":0.01506196241825819,"466":1.4340358972549438,"467":1.0724577903747559,"468":-1.0888060331344604,"469":0.08660717308521271,"470":-0.5972826480865479,"471":0.2032107710838318,"472":1.3623731136322021,"473":0.39275774359703064,"474":-1.8939028978347778,"475":-0.340860515832901,"476":0.5968034267425537,"477":0.07633005827665329,"478":-0.48358920216560364,"479":0.07759808003902435,"480":0.4669865667819977,"481":0.47146010398864746,"482":4.4858927726745605,"483":5.9038872718811035,"484":-1.1810534000396729,"485":1.0172102451324463,"486":0.43752437829971313,"487":-0.5957579612731934,"488":2.6408181190490723,"489":0.46128028631210327,"490":-2.1110355854034424,"491":1.1413427591323853,"492":0.941606879234314,"493":-3.1926324367523193,"494":-3.78204607963562,"495":-0.664069652557373,"496":-5.032015323638916,"497":-0.05438406020402908,"498":0.5586931109428406,"499":2.1652002334594727,"500":-0.9044068455696106,"501":2.940998077392578,"502":1.9755760431289673,"503":0.5451415777206421,"504":0.17670464515686035,"505":1.7991079092025757,"506":1.8697795867919922,"507":-5.033958911895752,"508":4.308030605316162,"509":-1.3816033601760864,"510":-2.5340356826782227,"511":-1.4681732654571533,"512":-1.6498727798461914,"513":-0.6197767853736877,"514":7.066466808319092,"515":1.9676977396011353,"516":-2.8764209747314453,"517":4.502142906188965,"518":1.6914218664169312,"519":-0.09152176976203918,"520":0.05526449531316757,"521":-0.06324397027492523,"522":5.59442138671875,"523":1.10442316532135,"524":1.8019908666610718,"525":2.081606149673462,"526":1.5577857494354248,"527":-10.229440689086914,"528":-2.395644426345825,"529":-0.4327538311481476,"530":-3.184091567993164,"531":-2.7530460357666016,"532":-2.293184757232666,"533":2.034853935241699,"534":1.5412898063659668,"535":1.9535192251205444,"536":4.546937942504883,"537":-6.58232307434082,"538":1.376285433769226,"539":2.949138879776001,"540":7.54763126373291,"541":-0.734721302986145,"542":3.3618574142456055,"543":1.8086578845977783,"544":-5.856130123138428,"545":3.1092777252197266,"546":-0.8339767456054688,"547":-7.345850467681885,"548":-7.794437885284424,"549":-2.5509307384490967,"550":2.1802725791931152,"551":0.4778885841369629,"552":-1.7956244945526123,"553":-0.3464594781398773,"554":0.7548449635505676,"555":-1.0579646825790405,"556":-0.5321574807167053,"557":-2.619211196899414,"558":-0.19063064455986023,"559":-2.7544641494750977,"560":-0.977384626865387,"561":-1.726913332939148,"562":-1.9212981462478638,"563":-1.7791820764541626,"564":2.7888400554656982,"565":-3.5051653385162354,"566":3.298999309539795,"567":3.0681653022766113,"568":1.2268383502960205,"569":0.45232105255126953,"570":4.873420715332031,"571":0.9805617928504944,"572":0.10193983465433121,"573":-5.315310955047607,"574":-0.4416666328907013,"575":-2.483954429626465,"576":-5.7975006103515625,"577":3.281747817993164,"578":0.2516367435455322,"579":-0.16589012742042542,"580":-2.1038269996643066,"581":2.6678075790405273,"582":-4.304935932159424,"583":-1.0789752006530762,"584":4.641336917877197,"585":-4.251153469085693,"586":0.2161908745765686,"587":2.481463670730591,"588":-3.3192026615142822,"589":3.0979650020599365,"590":-2.4604010581970215,"591":-0.8383558988571167,"592":-1.1284985542297363,"593":0.4119419455528259,"594":3.079078435897827,"595":-1.1345913410186768,"596":1.5956777334213257,"597":1.3036566972732544,"598":1.6839104890823364,"599":2.7931313514709473,"600":-0.05358611047267914,"601":-3.7682912349700928,"602":-0.3101664185523987,"603":-1.8353369235992432,"604":-2.073213577270508,"605":-1.850914716720581,"606":-1.2909941673278809,"607":-2.8569629192352295,"608":0.17043106257915497,"609":-0.042570870369672775,"610":1.6649746894836426,"611":0.585902988910675,"612":-0.48612314462661743,"613":2.4745657444000244,"614":-1.3860069513320923,"615":-1.3817938566207886,"616":-0.3588358759880066,"617":-0.23344944417476654,"618":-2.2004404067993164,"619":1.9346283674240112,"620":1.813437819480896,"621":-1.2734723091125488,"622":1.751739501953125,"623":0.9065287113189697,"624":-1.3272727727890015,"625":1.8492252826690674,"626":-2.0837297439575195,"627":-0.9002197980880737,"628":0.7089133262634277,"629":0.6044455766677856,"630":2.727973222732544,"631":1.4128986597061157,"632":-0.9730066061019897,"633":-0.2333938479423523,"634":-0.18534095585346222,"635":0.3318890631198883,"636":1.0812112092971802,"637":1.1620407104492188,"638":1.0563770532608032,"639":-1.0385395288467407,"640":-3.7743659019470215,"641":-2.1440629959106445,"642":-1.1861590147018433,"643":0.420989453792572,"644":-0.7798982858657837,"645":-0.6853546500205994,"646":-0.37725314497947693,"647":0.12270798534154892,"648":-0.12459433078765869,"649":0.6184066534042358,"650":0.2643750011920929,"651":1.689392328262329,"652":0.05490785092115402,"653":1.9798328876495361,"654":0.23488454520702362,"655":-1.9872411489486694,"656":0.3598208427429199,"657":1.0870264768600464,"658":1.200729250907898,"659":0.0574987418949604,"660":-0.34161731600761414,"661":0.7667089700698853,"662":-0.7268931269645691,"663":-1.896499514579773,"664":-0.5929998755455017,"665":-0.47616517543792725,"666":0.032607726752758026,"667":-0.1907869130373001,"668":1.6663329601287842,"669":0.9461070895195007,"670":0.9995756149291992,"671":-1.0593650341033936,"672":0.21541665494441986,"673":1.9675934314727783,"674":0.7430211305618286,"675":-2.4245989322662354,"676":-2.0225167274475098,"677":-3.842933177947998,"678":-0.8921758532524109,"679":0.10798075795173645,"680":0.6415664553642273,"681":-4.289596080780029,"682":-0.045522600412368774,"683":-1.1277506351470947,"684":-0.33862581849098206,"685":1.6375696659088135,"686":-1.2402880191802979,"687":4.011831760406494,"688":-0.3078101873397827,"689":0.4215557873249054,"690":1.3581082820892334,"691":0.36467859148979187,"692":0.1628723442554474,"693":1.7399098873138428,"694":2.751300096511841,"695":-2.019287586212158,"696":3.179516553878784,"697":3.0384042263031006,"698":0.37102681398391724,"699":1.4413093328475952,"700":-3.776383638381958,"701":-0.6277639269828796,"702":1.3612385988235474,"703":0.10501433163881302,"704":-0.18174520134925842,"705":4.087009906768799,"706":-0.04105018824338913,"707":3.631147623062134,"708":0.07897283136844635,"709":-0.6454522609710693,"710":4.023794651031494,"711":-0.9587292075157166,"712":0.04692615568637848,"713":0.17690593004226685,"714":-0.5942426323890686,"715":0.532309353351593,"716":-2.323127031326294,"717":-0.431680828332901,"718":-1.4375211000442505,"719":0.36635822057724,"720":1.3108654022216797,"721":4.002844333648682,"722":2.037416934967041,"723":1.6155574321746826,"724":2.2273080348968506,"725":1.2234776020050049,"726":-1.5479342937469482,"727":0.38294127583503723,"728":0.9315521717071533,"729":-5.160451412200928,"730":5.002884864807129,"731":1.436762809753418,"732":-1.397108793258667,"733":-0.08619153499603271,"734":2.428415060043335,"735":-1.0005202293395996,"736":2.73925518989563,"737":0.4314047396183014,"738":0.8705691695213318,"739":2.8464887142181396,"740":0.05914609879255295,"741":1.3769140243530273,"742":0.7568241953849792,"743":0.4317958354949951,"744":1.9015552997589111,"745":-0.02461221069097519,"746":0.07945401966571808,"747":0.9908199906349182,"748":-0.8943304419517517,"749":-0.1995687186717987,"750":1.0420193672180176,"751":-0.9973545670509338,"752":-0.2930222749710083,"753":-0.32552874088287354,"754":0.03864238038659096,"755":0.04078985005617142,"756":-0.8975830674171448,"757":-0.23093202710151672,"758":1.1008652448654175,"759":-0.5314283967018127,"760":1.373355507850647,"761":0.4310453236103058,"762":-1.0036191940307617,"763":0.23311947286128998,"764":0.02761836163699627,"765":1.852952003479004,"766":-0.38966792821884155,"767":0.17882956564426422,"768":1.8015120029449463,"769":-1.5032941102981567,"770":0.9710091948509216,"771":-0.12549425661563873,"772":-0.1107093021273613,"773":0.07509960979223251,"774":-0.9645636677742004,"775":1.1029834747314453,"776":1.880623459815979,"777":-1.3894544839859009,"778":6.048566818237305,"779":3.5918948650360107,"780":-4.009886264801025,"781":1.6896733045578003,"782":2.8253440856933594,"783":2.6954970359802246,"784":2.596595525741577,"785":2.5103371143341064,"786":-4.271246433258057,"787":2.556962251663208,"788":-4.045724391937256,"789":2.430251121520996,"790":-5.555087089538574,"791":-4.540189266204834,"792":2.145267963409424,"793":-4.017560005187988,"794":-0.3559001684188843,"795":2.715362071990967,"796":0.002241171197965741,"797":4.635128021240234,"798":-3.6108782291412354,"799":2.0410120487213135,"800":-2.9804134368896484,"801":-1.0356791019439697,"802":3.809112310409546,"803":-4.546631336212158,"804":-0.4697258472442627,"805":2.8100228309631348,"806":2.7544076442718506,"807":0.936836302280426,"808":1.7240031957626343,"809":-0.3900597393512726,"810":-1.127677083015442,"811":-2.9567601680755615,"812":1.2932119369506836,"813":1.8831908702850342,"814":0.6319702863693237,"815":-2.8298137187957764,"816":1.600295066833496,"817":1.808064341545105,"818":3.030078649520874,"819":-1.691683292388916,"820":-1.8303338289260864,"821":1.810062289237976,"822":0.26160991191864014,"823":3.782928943634033,"824":-1.2531944513320923,"825":0.8963255882263184,"826":-1.419073224067688,"827":-1.9636975526809692,"828":1.7178025245666504,"829":-0.6493842601776123,"830":0.26515257358551025,"831":-0.6673896908760071,"832":2.6074419021606445,"833":-0.4978547990322113,"834":-1.2657862901687622,"835":1.9883993864059448,"836":1.1286917924880981,"837":1.8336230516433716,"838":2.698387622833252,"839":-1.1120679378509521,"840":-1.6829789876937866,"841":1.8354092836380005,"842":-0.45318251848220825,"843":-2.4512970447540283,"844":-0.23467229306697845,"845":0.7010725140571594,"846":1.1102392673492432,"847":0.2929048240184784,"848":0.8987088799476624,"849":0.3494753837585449,"850":-1.1217724084854126,"851":5.456020355224609,"852":-0.44824865460395813,"853":-0.459233820438385,"854":4.385112285614014,"855":5.006471633911133,"856":-2.9911916255950928,"857":-3.331202983856201,"858":3.639667510986328,"859":-1.2327702045440674,"860":-1.2344095706939697,"861":0.34296709299087524,"862":-3.0164520740509033,"863":-0.6216941475868225,"864":-0.41815394163131714,"865":2.8515613079071045,"866":-0.2253662794828415,"867":-1.3589887619018555,"868":-1.0687189102172852,"869":2.2707102298736572,"870":-2.320192813873291,"871":2.0925252437591553,"872":2.2134411334991455,"873":2.998384952545166,"874":2.353320837020874,"875":-1.0046107769012451,"876":2.0683605670928955,"877":0.3944743275642395,"878":1.3810137510299683,"879":5.124147891998291,"880":-2.8767523765563965,"881":0.2599950432777405,"882":-0.9684901833534241,"883":4.229952335357666,"884":-1.324074387550354,"885":-4.388095378875732,"886":2.1766927242279053,"887":2.4049887657165527,"888":-0.900194525718689,"889":-1.379547119140625,"890":-0.6683670282363892,"891":-0.487265944480896,"892":-1.6866176128387451,"893":-0.8226644396781921,"894":0.0523119680583477,"895":-2.2376792430877686,"896":1.3669447898864746,"897":0.6517252922058105,"898":-3.863271713256836,"899":3.9324214458465576,"900":2.2679641246795654,"901":1.4942482709884644,"902":-0.013250185176730156,"903":0.1515849232673645,"904":3.528038263320923,"905":-1.3914035558700562,"906":-2.825913667678833,"907":0.2833394706249237,"908":-4.212197303771973,"909":-1.8403351306915283,"910":1.5235675573349,"911":-1.0897735357284546,"912":-1.7852141857147217,"913":-3.900472640991211,"914":1.0179367065429688,"915":-1.4504473209381104,"916":-3.3629672527313232,"917":3.7930870056152344,"918":1.1752896308898926,"919":0.6587358117103577,"920":-0.27468141913414,"921":0.2463626116514206,"922":2.8486530780792236,"923":-2.8857035636901855,"924":-1.187420129776001,"925":-0.1676478236913681,"926":1.6870087385177612,"927":0.7358174324035645,"928":-0.3261222839355469,"929":0.21635951101779938,"930":-0.4748629629611969,"931":-1.092559576034546,"932":-1.9185124635696411,"933":3.000746965408325,"934":0.5752099752426147,"935":-3.1498019695281982,"936":-0.6578131318092346,"937":3.701009750366211,"938":-2.0776565074920654,"939":-0.06721484661102295,"940":1.1595890522003174,"941":2.3921401500701904,"942":-0.10650544613599777,"943":-1.663267970085144,"944":-1.1230804920196533,"945":0.33536484837532043,"946":-3.3289477825164795,"947":3.550175666809082,"948":0.18318341672420502,"949":1.2733721733093262,"950":0.020181693136692047,"951":-2.4412992000579834,"952":-0.6434988975524902,"953":-3.672816038131714,"954":1.6084262132644653,"955":-3.3222763538360596,"956":-0.15390464663505554,"957":2.872363567352295,"958":1.991103172302246,"959":-0.3130452632904053,"960":-2.8932106494903564,"961":0.32739800214767456,"962":1.0445318222045898,"963":-1.817690372467041,"964":-0.913004994392395,"965":1.5207114219665527,"966":-1.448904275894165,"967":-1.3257319927215576,"968":-1.1332532167434692,"969":-1.503330111503601,"970":0.19962286949157715,"971":3.5893518924713135,"972":-0.48598334193229675,"973":2.6905224323272705,"974":-1.441433072090149,"975":1.2046526670455933,"976":1.7858397960662842,"977":1.8298203945159912,"978":0.15600575506687164,"979":-1.0676935911178589,"980":-0.2916070222854614,"981":-1.5107883214950562,"982":-1.8049027919769287,"983":-0.7003681063652039,"984":-0.5764932036399841,"985":1.2752100229263306,"986":0.5519322156906128,"987":-1.6317952871322632,"988":0.5697116851806641,"989":-0.39946019649505615,"990":-1.6550166606903076,"991":1.0754656791687012,"992":-0.8998944759368896,"993":-1.385475754737854,"994":0.8537712693214417,"995":-0.09244298189878464,"996":2.806171178817749,"997":0.3030816614627838,"998":-2.505220890045166,"999":-3.4039008617401123,"1000":1.8941611051559448,"1001":0.34623223543167114,"1002":-3.4081356525421143,"1003":0.8247621655464172,"1004":3.6276516914367676,"1005":4.338145732879639,"1006":1.5543206930160522,"1007":-0.5621455907821655,"1008":1.3790112733840942,"1009":2.585944890975952,"1010":-3.8284616470336914,"1011":3.729334831237793,"1012":-1.3372485637664795,"1013":-3.6136250495910645,"1014":-0.24575749039649963,"1015":-6.282060623168945,"1016":3.2644598484039307,"1017":0.953453540802002,"1018":3.361250162124634,"1019":0.8177530765533447,"1020":0.36923179030418396,"1021":-5.237584590911865,"1022":-3.483072519302368,"1023":-4.889636039733887,"1024":1.9967128038406372,"1025":-0.20103716850280762,"1026":0.5472464561462402,"1027":1.7839857339859009,"1028":0.16076958179473877,"1029":2.3751144409179688,"1030":5.033712863922119,"1031":-4.245067119598389,"1032":-0.35789230465888977,"1033":-2.780294418334961,"1034":3.95233416557312,"1035":-0.1825268715620041,"1036":3.3936524391174316,"1037":0.0073610893450677395,"1038":2.640810012817383,"1039":0.8196951746940613,"1040":2.7675321102142334,"1041":-1.9136898517608643,"1042":-3.2546236515045166,"1043":1.4981582164764404,"1044":-0.5238876938819885,"1045":3.2631609439849854,"1046":-0.22484493255615234,"1047":-2.880516767501831,"1048":-2.962303638458252,"1049":-1.6997140645980835,"1050":3.1536333560943604,"1051":0.07161321491003036,"1052":-1.9393947124481201,"1053":-2.5891923904418945,"1054":2.830552101135254,"1055":-3.836552858352661,"1056":0.8580428957939148,"1057":0.12547646462917328,"1058":0.8021128177642822,"1059":3.392791271209717,"1060":3.600045919418335,"1061":1.46206533908844,"1062":-0.33899280428886414,"1063":0.3138113021850586,"1064":3.4212334156036377,"1065":-0.504369854927063,"1066":0.292710542678833,"1067":-4.878448963165283,"1068":3.6936564445495605,"1069":-0.7088280320167542,"1070":-0.6921529769897461,"1071":2.700951337814331,"1072":-0.14203207194805145,"1073":-0.7550093531608582,"1074":-0.8280973434448242,"1075":1.7244480848312378,"1076":0.2649655342102051,"1077":0.5081819891929626,"1078":-0.08184468746185303,"1079":0.2728964686393738,"1080":2.3715710639953613,"1081":-0.550617516040802,"1082":-2.6470999717712402,"1083":-0.4535987377166748,"1084":-2.1848909854888916,"1085":-0.3606332838535309,"1086":0.11375222355127335,"1087":0.09653422236442566,"1088":-4.0131449699401855,"1089":0.2366814762353897,"1090":1.139594316482544,"1091":0.8417446613311768,"1092":1.1657458543777466,"1093":-0.3037989139556885,"1094":2.5362002849578857,"1095":-2.0595145225524902,"1096":-0.11335385590791702,"1097":1.9244465827941895,"1098":0.30643564462661743,"1099":-0.03364886716008186,"1100":1.5452020168304443,"1101":1.7159440517425537,"1102":-1.7053792476654053,"1103":2.354259729385376,"1104":0.9480314254760742,"1105":-1.659659504890442,"1106":0.5142359137535095,"1107":-1.8850675821304321,"1108":-0.008886124938726425,"1109":-0.09761226922273636,"1110":-2.0037829875946045,"1111":-1.5236557722091675,"1112":-2.016505241394043,"1113":-2.213630199432373,"1114":-1.814969539642334,"1115":0.26090505719184875,"1116":2.3321797847747803,"1117":-1.7279982566833496,"1118":-1.4961293935775757,"1119":-1.5286303758621216,"1120":3.910712718963623,"1121":0.754501223564148,"1122":2.316226005554199,"1123":1.6289472579956055,"1124":-1.9007619619369507,"1125":1.3664581775665283,"1126":-2.8477768898010254,"1127":1.3793317079544067,"1128":-2.8843512535095215,"1129":2.2146265506744385,"1130":-0.7886222004890442,"1131":-1.95748770236969,"1132":-1.0185226202011108,"1133":-2.6322057247161865,"1134":-2.2427825927734375,"1135":-0.516450822353363,"1136":1.3904019594192505,"1137":-3.001110553741455,"1138":-0.6746817231178284,"1139":0.6666070818901062,"1140":1.4794431924819946,"1141":3.109513521194458,"1142":-0.06749171763658524,"1143":-0.388976514339447,"1144":0.9151049852371216,"1145":2.502873420715332,"1146":-1.105478048324585,"1147":0.7159993052482605,"1148":0.10460372269153595,"1149":-0.6809609532356262,"1150":-0.721102774143219,"1151":-1.0297309160232544,"1152":0.8127096891403198,"1153":-0.04438493028283119,"1154":-1.292354941368103,"1155":-0.7219217419624329,"1156":2.6404130458831787,"1157":0.22227978706359863,"1158":0.4086255431175232,"1159":-3.8065669536590576,"1160":2.266465663909912,"1161":-0.4606349468231201,"1162":0.5147467851638794,"1163":-1.603596806526184,"1164":0.3374982476234436,"1165":-2.702620029449463,"1166":0.8764471411705017,"1167":-0.20935377478599548,"1168":-0.3594386875629425,"1169":0.7738004326820374,"1170":-0.47366729378700256,"1171":0.11533086001873016,"1172":-0.371243953704834,"1173":1.7254595756530762,"1174":-1.3876981735229492,"1175":0.3535982072353363,"1176":0.24665389955043793,"1177":-1.4783082008361816,"1178":-0.7998582124710083,"1179":0.641034722328186,"1180":-1.2257369756698608,"1181":0.04023594409227371,"1182":0.41160884499549866,"1183":-1.2882747650146484,"1184":-0.21161165833473206,"1185":0.7502419352531433,"1186":-0.3594200909137726,"1187":-0.563822865486145,"1188":2.3698582649230957,"1189":0.26620006561279297,"1190":-0.13804107904434204,"1191":-0.4055783748626709,"1192":-0.5572396516799927,"1193":-2.5799691677093506,"1194":1.2743185758590698,"1195":-1.18008291721344,"1196":0.2690298855304718,"1197":1.104267954826355,"1198":-1.5957393646240234,"1199":-1.1044641733169556,"1200":0.17638812959194183,"1201":0.737199068069458,"1202":0.5020188689231873,"1203":-1.4867308139801025,"1204":1.8335362672805786,"1205":1.0961443185806274,"1206":0.791557252407074,"1207":0.2616850733757019,"1208":1.2278369665145874,"1209":2.7789411544799805,"1210":0.48818129301071167,"1211":-0.0700494647026062,"1212":-0.30982348322868347,"1213":-3.844620943069458,"1214":-1.8611319065093994,"1215":-0.8825715184211731,"1216":1.1071977615356445,"1217":1.8401966094970703,"1218":-0.47530221939086914,"1219":0.03096603788435459,"1220":3.034954786300659,"1221":-6.8256683349609375,"1222":-2.3833634853363037,"1223":-4.245187759399414,"1224":-5.932280540466309,"1225":-4.6894731521606445,"1226":7.679804801940918,"1227":4.582594871520996,"1228":-2.682670831680298,"1229":-7.580305576324463,"1230":3.416999101638794,"1231":-1.8869504928588867,"1232":0.4579990804195404,"1233":-0.6829208135604858,"1234":5.327272891998291,"1235":-10.838634490966797,"1236":4.8988237380981445,"1237":2.00461483001709,"1238":5.43306827545166,"1239":-3.0986454486846924,"1240":4.575726509094238,"1241":-0.37288087606430054,"1242":-3.8110294342041016,"1243":0.3239370584487915,"1244":-5.709359169006348,"1245":1.5209382772445679,"1246":-0.8076978325843811,"1247":5.677144527435303,"1248":-4.423488140106201,"1249":-0.5013960599899292,"1250":6.402259349822998,"1251":-0.7619799971580505,"1252":6.673828601837158,"1253":-4.555619239807129,"1254":-7.95059061050415,"1255":-0.488981693983078,"1256":-0.27020421624183655,"1257":-1.1302144527435303,"1258":-1.5124059915542603,"1259":-0.55782151222229,"1260":-3.1132333278656006,"1261":-4.088253974914551,"1262":-0.41672295331954956,"1263":4.321552276611328,"1264":10.485624313354492,"1265":-1.371302843093872,"1266":-1.898828387260437,"1267":-3.9695017337799072,"1268":-1.4745336771011353,"1269":1.1097962856292725,"1270":-4.2187957763671875,"1271":0.5636054277420044,"1272":-3.4779279232025146,"1273":3.577772378921509,"1274":0.9203478097915649,"1275":3.847996950149536,"1276":-0.057527169585227966,"1277":0.6270630955696106,"1278":1.0408762693405151,"1279":-2.2968437671661377,"1280":-10.206793785095215,"1281":-5.010361194610596,"1282":-4.241267204284668,"1283":0.7642139196395874,"1284":1.9764548540115356,"1285":-1.9239819049835205,"1286":-0.7250696420669556,"1287":2.849435806274414,"1288":8.461078643798828,"1289":1.7725898027420044,"1290":-2.6626155376434326,"1291":-1.1600871086120605,"1292":0.3683939278125763,"1293":-0.1464797705411911,"1294":-0.4183914363384247,"1295":0.5745702385902405,"1296":0.117863729596138,"1297":-0.7697551250457764,"1298":0.70811527967453,"1299":-0.7702392339706421,"1300":-2.328631639480591,"1301":-2.5671801567077637,"1302":-1.229270339012146,"1303":0.1448536068201065,"1304":-2.218122720718384,"1305":-0.06605499237775803,"1306":-2.0863595008850098,"1307":1.3744443655014038,"1308":-0.10473273694515228,"1309":0.9998263120651245,"1310":1.6691498756408691,"1311":2.46073317527771,"1312":-1.1564545631408691,"1313":0.005409287288784981,"1314":-0.41889652609825134,"1315":1.2069127559661865,"1316":-1.6389750242233276,"1317":3.793905019760132,"1318":-0.03835240751504898,"1319":2.3427836894989014,"1320":1.2800770998001099,"1321":0.5440883040428162,"1322":-0.6022886633872986,"1323":0.4702586531639099,"1324":0.9641295671463013,"1325":-1.6253002882003784,"1326":0.1069587916135788,"1327":-0.6872608065605164,"1328":-1.1167678833007812,"1329":-1.2195693254470825,"1330":-2.4250617027282715,"1331":-0.19215016067028046,"1332":0.4142034351825714,"1333":-0.3441621959209442,"1334":0.23581191897392273,"1335":0.7213423252105713,"1336":0.29927149415016174,"1337":-0.6997198462486267,"1338":-0.15594926476478577,"1339":0.6181448698043823,"1340":0.9254356622695923,"1341":-0.14794927835464478,"1342":0.07073412835597992,"1343":-0.6360377669334412,"1344":0.5825185179710388,"1345":-0.10260079056024551,"1346":0.1954553723335266,"1347":-0.6413389444351196,"1348":0.5777750611305237,"1349":-0.548136830329895,"1350":0.11610858887434006,"1351":0.836531400680542,"1352":-0.11761349439620972,"1353":0.7091817855834961,"1354":0.6668076515197754,"1355":0.18836060166358948,"1356":-1.059399962425232,"1357":0.08856025338172913,"1358":-0.040491461753845215,"1359":-0.009362353011965752,"1360":0.8873881101608276,"1361":-0.2859082818031311,"1362":-0.26458820700645447,"1363":0.8140568137168884,"1364":0.13940013945102692,"1365":-0.40333783626556396,"1366":-0.9030981659889221,"1367":-0.8112314939498901,"1368":-0.3697291910648346,"1369":0.003129306947812438,"1370":-0.009442176669836044,"1371":-0.029110390692949295,"1372":0.04536207392811775,"1373":0.06778223067522049,"1374":0.02869875356554985,"1375":-0.06001609191298485,"1376":-0.025322474539279938,"1377":0.04328351467847824,"1378":0.03702234476804733,"1379":-0.012129171751439571,"1380":0.007615561131387949,"1381":0.0062590488232672215,"1382":0.06443116068840027,"1383":0.0486399382352829,"1384":0.003515026532113552,"1385":0.03137970715761185,"1386":-0.008129711262881756,"1387":-0.06496924161911011,"1388":0.016184303909540176,"1389":-0.04350152239203453,"1390":0.037792302668094635,"1391":0.07428919523954391,"1392":0.05842991918325424,"1393":-0.07712803781032562,"1394":-0.05889388918876648,"1395":-0.022752011194825172,"1396":-0.058661092072725296,"1397":0.05931779369711876,"1398":-0.04985010251402855,"1399":-0.03784008324146271,"1400":0.05233460292220116,"1401":0.03202303498983383,"1402":0.027783669531345367,"1403":0.04781591147184372,"1404":-0.04381999745965004,"1405":-0.05694056674838066}},"hiddenLayers":[{"inputMatrix":{"rows":20,"columns":37,"weights":{"0":-0.5407852530479431,"1":0.6027706861495972,"2":0.6826022863388062,"3":-1.2062228918075562,"4":0.47634831070899963,"5":0.477779746055603,"6":-0.06579235196113586,"7":0.8301094174385071,"8":-0.6580341458320618,"9":-0.5928388833999634,"10":-0.053467608988285065,"11":-1.7190237045288086,"12":0.9293906688690186,"13":-0.8266963958740234,"14":-0.14711381494998932,"15":0.5754446387290955,"16":-0.9026429653167725,"17":0.5753815770149231,"18":0.4336068034172058,"19":0.9161034226417542,"20":0.6091459393501282,"21":-0.32773977518081665,"22":-0.8159431219100952,"23":-0.7086211442947388,"24":-0.21058063209056854,"25":0.6179203391075134,"26":0.052447497844696045,"27":-0.43491724133491516,"28":2.3659698963165283,"29":0.7094599008560181,"30":1.097983717918396,"31":0.612114667892456,"32":-0.11112354695796967,"33":-1.1944950819015503,"34":-1.2406132221221924,"35":1.1638798713684082,"36":0.11731334030628204,"37":0.03232736885547638,"38":0.0511607825756073,"39":0.39799579977989197,"40":0.1193731501698494,"41":1.071920394897461,"42":0.3684561252593994,"43":-0.36264315247535706,"44":1.4180431365966797,"45":0.3955478072166443,"46":-0.42805954813957214,"47":0.2224012315273285,"48":-1.6484218835830688,"49":-0.06463150680065155,"50":-0.24701562523841858,"51":-0.7492053508758545,"52":-2.1280267238616943,"53":-0.2179206907749176,"54":0.22735437750816345,"55":1.0075838565826416,"56":0.004313137847930193,"57":0.34331658482551575,"58":1.6830573081970215,"59":0.3284631073474884,"60":0.2310211956501007,"61":-0.2587283253669739,"62":0.6939008831977844,"63":-0.16551043093204498,"64":0.4368196129798889,"65":1.3104963302612305,"66":-1.1946779489517212,"67":-0.5037906765937805,"68":0.3579978942871094,"69":0.09229761362075806,"70":0.20790104568004608,"71":-1.7656766176223755,"72":0.43383485078811646,"73":0.22750698029994965,"74":-0.5840951204299927,"75":-0.1345769613981247,"76":-0.29260489344596863,"77":-0.1107458844780922,"78":-0.24444922804832458,"79":0.14483952522277832,"80":-0.568978488445282,"81":-0.3597380220890045,"82":0.6026026606559753,"83":-0.827632486820221,"84":-0.11490052938461304,"85":0.247325137257576,"86":-0.0834888443350792,"87":-0.1809144765138626,"88":-0.1544395387172699,"89":-0.34306734800338745,"90":1.7156405448913574,"91":0.45128747820854187,"92":-0.13317668437957764,"93":-0.20173469185829163,"94":0.5656406283378601,"95":-0.390870064496994,"96":0.7690330147743225,"97":0.06503257900476456,"98":0.24772576987743378,"99":0.7297124862670898,"100":0.3005576431751251,"101":-0.3298241198062897,"102":-0.6796329617500305,"103":-0.5382859706878662,"104":-2.14833664894104,"105":-1.6118533611297607,"106":0.05055097118020058,"107":0.6286675333976746,"108":-0.037949055433273315,"109":-1.4651483297348022,"110":0.006765768397599459,"111":0.25681272149086,"112":0.23716694116592407,"113":0.4799194633960724,"114":-0.1623893529176712,"115":1.3051118850708008,"116":-0.0007609618478454649,"117":-1.0094213485717773,"118":0.5221498012542725,"119":-0.021717380732297897,"120":0.0036819446831941605,"121":-1.2299177646636963,"122":-1.4366213083267212,"123":-1.3183485269546509,"124":-0.4569394886493683,"125":-0.45292022824287415,"126":-0.36296921968460083,"127":0.6174741387367249,"128":-0.10591670125722885,"129":0.5214929580688477,"130":-0.5253276228904724,"131":0.8252993822097778,"132":0.07963370531797409,"133":1.6494840383529663,"134":0.46372824907302856,"135":1.2665594816207886,"136":1.2598762512207031,"137":-0.34272870421409607,"138":-0.3036540150642395,"139":0.5613484382629395,"140":-1.340962290763855,"141":-1.127264142036438,"142":-0.2395336627960205,"143":1.2316340208053589,"144":-0.7421783208847046,"145":-1.8250502347946167,"146":-0.17869174480438232,"147":1.1448849439620972,"148":-0.39456114172935486,"149":-0.9179731607437134,"150":-0.23255270719528198,"151":1.5308376550674438,"152":-0.7563055157661438,"153":-1.2396199703216553,"154":-1.2586206197738647,"155":-0.29100897908210754,"156":0.6707177758216858,"157":-0.030769487842917442,"158":0.04985535144805908,"159":1.1768165826797485,"160":0.6681056022644043,"161":0.2809884548187256,"162":1.5738641023635864,"163":-0.08555798977613449,"164":2.230280876159668,"165":-0.38856983184814453,"166":0.39009252190589905,"167":-0.14095337688922882,"168":-0.6521663665771484,"169":0.008492673747241497,"170":-0.6101890802383423,"171":0.871675968170166,"172":0.3134402334690094,"173":-0.5903747081756592,"174":0.32208171486854553,"175":0.005222757812589407,"176":-0.7992650866508484,"177":0.2644273042678833,"178":0.7188613414764404,"179":0.05567723140120506,"180":-1.6312675476074219,"181":-0.2519490718841553,"182":1.1893949508666992,"183":-0.7349417209625244,"184":-1.0267515182495117,"185":-0.863278865814209,"186":0.6014561653137207,"187":0.4502491056919098,"188":-0.25287288427352905,"189":1.7777788639068604,"190":0.5418606996536255,"191":0.16487693786621094,"192":0.9721790552139282,"193":-1.5278384685516357,"194":0.3275259733200073,"195":1.6524899005889893,"196":-0.7213742733001709,"197":0.24101456999778748,"198":-1.226749300956726,"199":-0.7244007587432861,"200":-0.24247877299785614,"201":-1.2540887594223022,"202":0.5098167061805725,"203":2.6153340339660645,"204":0.11222533881664276,"205":0.6362637877464294,"206":0.9300743937492371,"207":-0.4926769435405731,"208":-0.4120197594165802,"209":1.1432759761810303,"210":0.762617826461792,"211":-0.08807385712862015,"212":0.5822077393531799,"213":0.6632800102233887,"214":-1.486850619316101,"215":0.454684853553772,"216":0.17304371297359467,"217":-0.6394704580307007,"218":0.28193360567092896,"219":-0.2012522667646408,"220":1.1427247524261475,"221":0.330501914024353,"222":1.1492358446121216,"223":-0.31912368535995483,"224":-0.9641713500022888,"225":0.7658019065856934,"226":0.09410364180803299,"227":-0.7446448802947998,"228":-1.028396725654602,"229":-0.26021289825439453,"230":0.6667099595069885,"231":1.0733658075332642,"232":-0.6785160899162292,"233":0.00766126811504364,"234":-1.0698680877685547,"235":0.25378501415252686,"236":0.9661330580711365,"237":0.9552277326583862,"238":0.546737790107727,"239":-1.1910808086395264,"240":0.14623220264911652,"241":-1.5239657163619995,"242":-0.6482915878295898,"243":-0.49511173367500305,"244":1.7789894342422485,"245":0.7169127464294434,"246":-0.11075782775878906,"247":-0.39345815777778625,"248":0.38947123289108276,"249":-0.34020406007766724,"250":-0.34371745586395264,"251":0.23344194889068604,"252":-0.8855111002922058,"253":-1.5486476421356201,"254":1.4553537368774414,"255":-1.2743637561798096,"256":-0.15611077845096588,"257":-0.4310401380062103,"258":-0.55262291431427,"259":-0.030999857932329178,"260":1.8520727157592773,"261":-0.19507603347301483,"262":-0.5025675296783447,"263":1.2369780540466309,"264":-0.04997503012418747,"265":0.08057428151369095,"266":-0.37766578793525696,"267":-0.7413271069526672,"268":-1.5819997787475586,"269":2.5129411220550537,"270":-1.673927903175354,"271":0.7100172638893127,"272":-0.8231067061424255,"273":-0.09098939597606659,"274":-0.37223726511001587,"275":-0.3071736693382263,"276":-0.12178654968738556,"277":1.4673352241516113,"278":0.5585224628448486,"279":2.321220874786377,"280":1.0828748941421509,"281":0.47951021790504456,"282":-0.7082566618919373,"283":0.06710119545459747,"284":2.6142683029174805,"285":0.028001107275485992,"286":0.3884715437889099,"287":1.7787433862686157,"288":-1.2434319257736206,"289":-0.573367714881897,"290":0.7071205973625183,"291":-0.1774214804172516,"292":0.3553279936313629,"293":-2.024524211883545,"294":-0.07754374295473099,"295":0.4531911611557007,"296":-1.0629185438156128,"297":0.23865662515163422,"298":-0.9400445222854614,"299":-0.36639663577079773,"300":-0.495642751455307,"301":0.5289923548698425,"302":0.5196431279182434,"303":-0.2682897746562958,"304":0.20275716483592987,"305":-0.9101839065551758,"306":-0.20821541547775269,"307":-1.7764338254928589,"308":-0.8644330501556396,"309":0.6224033832550049,"310":-0.15318936109542847,"311":-0.5638003349304199,"312":0.855039119720459,"313":0.6632499694824219,"314":-0.6107648611068726,"315":1.296354055404663,"316":0.6882723569869995,"317":0.3344625234603882,"318":0.17218410968780518,"319":-0.6566415429115295,"320":-0.5020294785499573,"321":1.0839532613754272,"322":1.3238855600357056,"323":-0.8967611193656921,"324":1.2834124565124512,"325":-0.5320121049880981,"326":0.27849623560905457,"327":-0.118642158806324,"328":-0.6572156548500061,"329":-0.892265260219574,"330":-2.242741823196411,"331":0.007648925296962261,"332":0.07634948194026947,"333":-1.7665159702301025,"334":-0.23735815286636353,"335":0.0033853123895823956,"336":-1.7430353164672852,"337":-0.34007495641708374,"338":0.8091596364974976,"339":1.7473020553588867,"340":-0.01077904924750328,"341":-0.17112955451011658,"342":-1.8018641471862793,"343":-1.8068116903305054,"344":-0.4523701071739197,"345":0.7514513731002808,"346":-0.4253954291343689,"347":-1.4971846342086792,"348":-0.7498735189437866,"349":0.5432218909263611,"350":1.333656668663025,"351":-0.6820418834686279,"352":1.3343288898468018,"353":-0.18761961162090302,"354":-0.3389577865600586,"355":0.28921911120414734,"356":-1.5186675786972046,"357":0.1568431705236435,"358":-0.0942549854516983,"359":0.14130423963069916,"360":-0.6855584383010864,"361":0.09893286228179932,"362":0.03441944718360901,"363":1.13826584815979,"364":1.0241429805755615,"365":-0.4891660511493683,"366":-0.24627289175987244,"367":-0.4804999530315399,"368":-1.2939152717590332,"369":0.12138430774211884,"370":0.3385566771030426,"371":0.6746821999549866,"372":0.8939056992530823,"373":-0.17391163110733032,"374":-0.8067529797554016,"375":-0.4392176568508148,"376":-0.8024913668632507,"377":-0.6332347393035889,"378":1.390660047531128,"379":1.6161837577819824,"380":-1.9449656009674072,"381":-0.3431748151779175,"382":-1.5086497068405151,"383":-0.44697025418281555,"384":1.2081589698791504,"385":-0.2953243851661682,"386":1.155678629875183,"387":-0.5326629281044006,"388":-0.5637363791465759,"389":-0.714497983455658,"390":-0.46239495277404785,"391":-0.6489836573600769,"392":0.6227533221244812,"393":0.8405799865722656,"394":1.4445053339004517,"395":-0.2879122495651245,"396":-0.658117413520813,"397":-0.47972679138183594,"398":-0.546256422996521,"399":1.123350739479065,"400":-1.2113678455352783,"401":-1.170924186706543,"402":0.42219996452331543,"403":0.09759024530649185,"404":0.8190497159957886,"405":-1.3978641033172607,"406":-0.9129049181938171,"407":-0.9072607159614563,"408":-0.26165032386779785,"409":-0.193381205201149,"410":-1.3978846073150635,"411":1.1999387741088867,"412":0.44517749547958374,"413":-0.01229462306946516,"414":0.02865014411509037,"415":-1.0164278745651245,"416":3.0214500427246094,"417":-0.27354344725608826,"418":-0.8806247115135193,"419":1.3387279510498047,"420":-1.9813008308410645,"421":-0.1549687534570694,"422":1.878189206123352,"423":-0.06283172219991684,"424":0.6217042803764343,"425":1.306221842765808,"426":1.1122921705245972,"427":0.9795186519622803,"428":-0.5931938290596008,"429":0.8955448269844055,"430":-1.1282477378845215,"431":-0.49690937995910645,"432":1.1128100156784058,"433":-0.0331156887114048,"434":-0.4388657808303833,"435":0.019515763968229294,"436":0.29577723145484924,"437":-0.2906748950481415,"438":1.089455008506775,"439":0.09305866062641144,"440":-2.5383195877075195,"441":-1.2035884857177734,"442":1.0756336450576782,"443":-0.17941860854625702,"444":-0.6782444715499878,"445":0.9810652136802673,"446":0.1961766481399536,"447":-1.0460567474365234,"448":-0.32360461354255676,"449":0.4325193464756012,"450":1.1152287721633911,"451":-0.2064891755580902,"452":0.5737504363059998,"453":-1.3212358951568604,"454":0.6247825622558594,"455":-0.888967752456665,"456":0.7404276132583618,"457":-0.4321492314338684,"458":-0.9823481440544128,"459":-0.36543920636177063,"460":-0.4839034080505371,"461":0.6979150772094727,"462":-0.182626411318779,"463":0.7348124980926514,"464":0.3755185306072235,"465":-0.16193953156471252,"466":-0.5423672795295715,"467":-1.2276309728622437,"468":-0.05981035158038139,"469":0.24456021189689636,"470":-0.5881437063217163,"471":-0.14248378574848175,"472":0.08724759519100189,"473":-0.012439366430044174,"474":0.5591986179351807,"475":0.9256142377853394,"476":-0.8154972195625305,"477":0.17511086165905,"478":-0.33828240633010864,"479":-0.03837712109088898,"480":0.25837746262550354,"481":-0.48191240429878235,"482":-0.5860849022865295,"483":-0.88957679271698,"484":0.44211307168006897,"485":-1.8000134229660034,"486":0.016279226168990135,"487":-0.4252147674560547,"488":-1.9470150470733643,"489":0.11281376332044601,"490":0.28234922885894775,"491":-0.3473420739173889,"492":1.0286436080932617,"493":0.5608671307563782,"494":1.1878972053527832,"495":-0.15842433273792267,"496":2.0507681369781494,"497":0.553530752658844,"498":-0.3739781975746155,"499":-1.3355417251586914,"500":0.00590168172493577,"501":-1.2775834798812866,"502":-2.075822114944458,"503":0.33943885564804077,"504":0.2978939116001129,"505":-0.6818317770957947,"506":-0.8137686252593994,"507":0.4083557426929474,"508":-0.7581841945648193,"509":-1.328208088874817,"510":1.9044573307037354,"511":-0.8986278772354126,"512":0.07318761944770813,"513":-0.4554939568042755,"514":0.19993405044078827,"515":1.869031310081482,"516":-0.3165372908115387,"517":-0.7936171889305115,"518":0.48674362897872925,"519":-0.05494449660181999,"520":0.14046582579612732,"521":0.36758360266685486,"522":0.526986837387085,"523":-0.6267312169075012,"524":-0.45693138241767883,"525":0.598555862903595,"526":-0.23336124420166016,"527":0.22851873934268951,"528":-0.054589007049798965,"529":-0.40616098046302795,"530":-0.5161797404289246,"531":-0.289188027381897,"532":0.6323954463005066,"533":-1.6480568647384644,"534":0.3293982744216919,"535":-0.26934903860092163,"536":0.6372373104095459,"537":-0.4394073486328125,"538":-0.07675378024578094,"539":1.589959979057312,"540":-0.3392156660556793,"541":0.42427873611450195,"542":0.6306787133216858,"543":-0.017815249040722847,"544":-0.09538816660642624,"545":1.1208598613739014,"546":0.22230957448482513,"547":-1.4710736274719238,"548":0.15171444416046143,"549":-0.5090308785438538,"550":0.8951608538627625,"551":0.5806827545166016,"552":-0.49126312136650085,"553":-0.2963203191757202,"554":0.3019222021102905,"555":-0.5970275402069092,"556":0.5051034092903137,"557":-0.36114591360092163,"558":-0.8176261186599731,"559":-0.17978498339653015,"560":0.6518263816833496,"561":-0.14535430073738098,"562":0.3308548331260681,"563":-0.12855325639247894,"564":0.8875133991241455,"565":0.8784303665161133,"566":-0.6579753160476685,"567":-1.318171501159668,"568":0.661578357219696,"569":-0.770893394947052,"570":-0.6947779059410095,"571":0.06792879104614258,"572":-0.0031689517199993134,"573":-0.07529433071613312,"574":0.8156783580780029,"575":1.3063645362854004,"576":1.2132841348648071,"577":1.470829963684082,"578":-0.7291531562805176,"579":0.7053201198577881,"580":1.0426362752914429,"581":0.9044336080551147,"582":-0.41524550318717957,"583":1.4166215658187866,"584":-0.8140510320663452,"585":-1.5196752548217773,"586":-0.16318081319332123,"587":-0.15575918555259705,"588":-1.3170876502990723,"589":-1.2779127359390259,"590":-0.48366931080818176,"591":1.2285634279251099,"592":0.27246129512786865,"593":-1.9894826412200928,"594":-1.3415313959121704,"595":0.46374449133872986,"596":-2.0637025833129883,"597":-0.6893240213394165,"598":0.4205930531024933,"599":-0.8764519691467285,"600":0.8316737413406372,"601":-1.2511824369430542,"602":-0.7870305180549622,"603":0.9050357341766357,"604":-0.2177242636680603,"605":1.438672423362732,"606":0.8189488649368286,"607":0.46111682057380676,"608":1.8283878564834595,"609":-0.49851933121681213,"610":-1.9547933340072632,"611":0.25889265537261963,"612":-0.9533312916755676,"613":-1.5294731855392456,"614":-0.2876185178756714,"615":0.3393094837665558,"616":-0.8646236062049866,"617":-0.8291159272193909,"618":1.4168672561645508,"619":-0.5360492467880249,"620":-0.8695806860923767,"621":1.763536810874939,"622":-0.01494379248470068,"623":-0.5120223164558411,"624":0.4261619448661804,"625":0.34863731265068054,"626":0.9025534987449646,"627":-1.9767054319381714,"628":-0.6975740790367126,"629":0.2936917543411255,"630":0.041929446160793304,"631":0.7900698781013489,"632":0.17982716858386993,"633":0.3570757806301117,"634":-0.16621430218219757,"635":0.5318000316619873,"636":0.5724020004272461,"637":-0.15638019144535065,"638":-1.43061363697052,"639":1.0044033527374268,"640":0.0323890745639801,"641":0.7852563858032227,"642":-0.1943356990814209,"643":-0.25492408871650696,"644":-1.1855254173278809,"645":-0.4679223895072937,"646":-0.32956597208976746,"647":0.7138540744781494,"648":0.4859668016433716,"649":0.05685364082455635,"650":0.7807892560958862,"651":-1.6152058839797974,"652":-0.4233505427837372,"653":-0.6604443192481995,"654":0.04627799987792969,"655":-0.5833614468574524,"656":0.7805846929550171,"657":0.13556720316410065,"658":-0.3185679018497467,"659":1.2192233800888062,"660":0.6315901875495911,"661":-0.10412749648094177,"662":1.3334283828735352,"663":-0.32823413610458374,"664":0.16278144717216492,"665":0.43513941764831543,"666":0.5718429684638977,"667":0.859090268611908,"668":0.06748069822788239,"669":0.0036517081316560507,"670":-2.4395718574523926,"671":-0.375489741563797,"672":-0.49760353565216064,"673":-0.20527437329292297,"674":0.41819286346435547,"675":0.5386407971382141,"676":0.4136502742767334,"677":0.2589417099952698,"678":-1.0458987951278687,"679":1.6290758848190308,"680":0.6806872487068176,"681":-0.46110743284225464,"682":-0.05566692352294922,"683":-0.6795024871826172,"684":-2.017740488052368,"685":0.26538020372390747,"686":0.3216872811317444,"687":-0.2517545819282532,"688":0.42674851417541504,"689":0.07381605356931686,"690":0.10912769287824631,"691":0.04753832891583443,"692":0.3263295888900757,"693":0.503117024898529,"694":-0.5243849754333496,"695":1.388045072555542,"696":-1.0846328735351562,"697":-0.9264802932739258,"698":0.12705208361148834,"699":0.351156085729599,"700":0.2937832772731781,"701":-1.939225673675537,"702":0.7040507793426514,"703":-0.547074019908905,"704":0.34673768281936646,"705":-0.8208748698234558,"706":-0.6831902861595154,"707":0.1982283890247345,"708":0.5971277356147766,"709":0.5164586901664734,"710":-0.6487691402435303,"711":-0.4600599408149719,"712":-1.1384234428405762,"713":1.112432599067688,"714":-1.2553530931472778,"715":-0.3380812406539917,"716":0.4418468177318573,"717":-0.626500129699707,"718":0.43387147784233093,"719":0.3700556457042694,"720":0.4926552474498749,"721":0.4744120240211487,"722":0.35955706238746643,"723":1.3357768058776855,"724":-0.03418051823973656,"725":-0.44936755299568176,"726":-0.6028748154640198,"727":-0.0386975072324276,"728":1.5381847620010376,"729":1.060128092765808,"730":-0.4864973723888397,"731":0.6587125658988953,"732":0.2780131697654724,"733":0.8509648442268372,"734":0.5969951152801514,"735":-0.4302952289581299,"736":-0.9807764291763306,"737":-0.9124923348426819,"738":0.19816789031028748,"739":0.3648855984210968}},"inputHidden":{"rows":20,"columns":20,"weights":{"0":-2.33705997467041,"1":-1.7282627820968628,"2":0.5735375285148621,"3":1.6667170524597168,"4":1.0981072187423706,"5":0.5024341344833374,"6":-0.44011446833610535,"7":-0.5585842728614807,"8":-1.807167410850525,"9":-1.7173734903335571,"10":-0.4405888020992279,"11":0.507689356803894,"12":-0.5657493472099304,"13":2.7345151901245117,"14":-0.7924468517303467,"15":-0.09648571908473969,"16":1.6776736974716187,"17":-0.32921165227890015,"18":0.25158125162124634,"19":-2.252032518386841,"20":-0.3106328248977661,"21":-0.3226862847805023,"22":-0.7004873156547546,"23":-0.2666798233985901,"24":-1.1030100584030151,"25":0.9560498595237732,"26":2.8490262031555176,"27":0.24420298635959625,"28":0.8833674788475037,"29":-1.8950927257537842,"30":-0.3409682810306549,"31":-0.21600443124771118,"32":-0.7985512018203735,"33":-1.4790980815887451,"34":0.5825034379959106,"35":0.8456670641899109,"36":0.3892352283000946,"37":-2.504681348800659,"38":-0.20300813019275665,"39":0.40685173869132996,"40":1.5055088996887207,"41":-0.047781120985746384,"42":2.119623899459839,"43":-0.17339447140693665,"44":2.248363733291626,"45":-0.27851641178131104,"46":0.4271571934223175,"47":-0.6329936385154724,"48":1.2999522686004639,"49":1.6607182025909424,"50":-2.1129233837127686,"51":-1.9646254777908325,"52":1.3399595022201538,"53":0.6094418168067932,"54":0.9071381092071533,"55":0.35052579641342163,"56":-2.242278575897217,"57":1.8099607229232788,"58":-1.4829657077789307,"59":3.3293309211730957,"60":-0.4097349941730499,"61":-0.5537768006324768,"62":-1.1922930479049683,"63":0.7639092803001404,"64":0.10516057908535004,"65":1.0236597061157227,"66":1.0084402561187744,"67":1.1708298921585083,"68":-3.6527185440063477,"69":-1.9260705709457397,"70":0.8592442274093628,"71":0.8935630321502686,"72":-1.2868914604187012,"73":-0.7951453328132629,"74":-2.695312738418579,"75":-0.4014296531677246,"76":1.0085093975067139,"77":-0.5561718344688416,"78":0.06345900148153305,"79":-2.343045234680176,"80":0.074689120054245,"81":1.369565725326538,"82":1.4642562866210938,"83":2.147817373275757,"84":0.9323822855949402,"85":-1.0420525074005127,"86":-2.8690690994262695,"87":-2.1498754024505615,"88":2.3891642093658447,"89":-1.2012040615081787,"90":-1.7478684186935425,"91":-1.7520487308502197,"92":-0.49907737970352173,"93":2.1777713298797607,"94":0.8452098965644836,"95":1.9384504556655884,"96":1.9845194816589355,"97":-1.0652023553848267,"98":-0.5807109475135803,"99":0.48917877674102783,"100":0.9971014857292175,"101":0.321500688791275,"102":0.8292902112007141,"103":-0.06655559688806534,"104":-0.2532234489917755,"105":-0.6793020367622375,"106":0.28959912061691284,"107":0.0615159347653389,"108":2.0411617755889893,"109":-0.753014087677002,"110":0.6688588261604309,"111":-0.15824498236179352,"112":-0.12744204699993134,"113":-1.1655699014663696,"114":-0.36657625436782837,"115":1.3822354078292847,"116":-1.6216509342193604,"117":-0.27478066086769104,"118":0.6239736676216125,"119":1.334121823310852,"120":0.5290815830230713,"121":-0.6432842016220093,"122":0.6634101867675781,"123":0.02034478634595871,"124":-0.11111923307180405,"125":-0.711938738822937,"126":-0.5199820399284363,"127":1.3458397388458252,"128":-0.044460974633693695,"129":-0.05216389149427414,"130":0.6843249797821045,"131":0.5048921704292297,"132":-0.2587355077266693,"133":-0.5355598330497742,"134":-0.5421804785728455,"135":0.24926479160785675,"136":0.6882280707359314,"137":0.05444030091166496,"138":-0.6852054595947266,"139":-0.7136373519897461,"140":-0.09663969278335571,"141":-0.7842972278594971,"142":-0.24648568034172058,"143":0.2161676287651062,"144":0.7363336682319641,"145":0.19577476382255554,"146":-0.20677676796913147,"147":-0.5337417125701904,"148":-0.9382033944129944,"149":-0.3260307013988495,"150":0.16145235300064087,"151":0.534018874168396,"152":0.4983564615249634,"153":1.1935932636260986,"154":-0.5233882069587708,"155":-0.7289294600486755,"156":-0.4417087137699127,"157":0.6934661865234375,"158":0.7188717126846313,"159":-0.20674853026866913,"160":-0.13649658858776093,"161":-2.6113033294677734,"162":0.830374002456665,"163":0.5538520216941833,"164":-2.669130325317383,"165":0.5860680937767029,"166":-1.3877686262130737,"167":1.862993836402893,"168":-0.6075401902198792,"169":-0.8349994421005249,"170":-2.1942436695098877,"171":0.29642486572265625,"172":0.11761702597141266,"173":1.4250630140304565,"174":-0.333613783121109,"175":-0.49959343671798706,"176":0.31226444244384766,"177":-1.6062297821044922,"178":-1.0921375751495361,"179":0.4706391394138336,"180":0.9446895122528076,"181":-0.861529529094696,"182":1.7404663562774658,"183":-1.7905315160751343,"184":-0.6674699187278748,"185":-1.1384751796722412,"186":0.6990906596183777,"187":-1.2583421468734741,"188":1.9652284383773804,"189":0.1522781252861023,"190":0.21762117743492126,"191":-2.5106661319732666,"192":0.14733459055423737,"193":0.0030191666446626186,"194":-1.4886202812194824,"195":1.9654405117034912,"196":-0.28602564334869385,"197":0.2113465517759323,"198":-1.4028065204620361,"199":1.7191143035888672,"200":-0.24843519926071167,"201":1.3041473627090454,"202":-1.107101321220398,"203":2.146106481552124,"204":0.623855710029602,"205":-1.6947228908538818,"206":0.5995013117790222,"207":-0.6248602867126465,"208":-0.458109974861145,"209":-2.6210286617279053,"210":1.5317386388778687,"211":-0.36986297369003296,"212":-2.0369815826416016,"213":-0.4083869457244873,"214":0.2161540538072586,"215":0.9780452847480774,"216":-0.6702060699462891,"217":-0.2625409960746765,"218":-1.2918179035186768,"219":0.5344770550727844,"220":-1.4843167066574097,"221":-0.7234549522399902,"222":-0.5145425200462341,"223":-0.14772015810012817,"224":0.5160402059555054,"225":0.3594045042991638,"226":-1.5841559171676636,"227":-0.13834531605243683,"228":-0.9384468793869019,"229":0.37266191840171814,"230":0.1064428836107254,"231":-0.13620376586914062,"232":0.9069474935531616,"233":1.1821151971817017,"234":-0.21033473312854767,"235":0.37898871302604675,"236":1.172982931137085,"237":1.0880268812179565,"238":-0.4286717474460602,"239":-0.28042933344841003,"240":0.9033038020133972,"241":-3.0212881565093994,"242":-0.4396173059940338,"243":2.195582628250122,"244":-1.9198070764541626,"245":2.221686601638794,"246":-1.1360300779342651,"247":0.685059666633606,"248":-2.078012466430664,"249":1.2929823398590088,"250":-3.0556609630584717,"251":-0.13866668939590454,"252":1.4788280725479126,"253":2.2156054973602295,"254":-0.6578969359397888,"255":0.4271017014980316,"256":3.488994598388672,"257":1.3323001861572266,"258":-0.11842211335897446,"259":-2.9716477394104004,"260":-0.7154644131660461,"261":1.2517762184143066,"262":-0.2392449676990509,"263":2.013731002807617,"264":1.4377613067626953,"265":-0.7761262655258179,"266":-0.8585578799247742,"267":0.4971020817756653,"268":-0.2886141836643219,"269":-1.9274193048477173,"270":2.315980911254883,"271":-0.4555722773075104,"272":-0.8973376154899597,"273":-0.6711825728416443,"274":0.7128044366836548,"275":-0.48839008808135986,"276":0.4801250994205475,"277":-1.3223202228546143,"278":0.7388724684715271,"279":-0.14906300604343414,"280":0.7257469296455383,"281":-1.3692936897277832,"282":-0.8369536995887756,"283":-0.7763521075248718,"284":-1.0403189659118652,"285":3.078796625137329,"286":1.4288101196289062,"287":2.608220338821411,"288":-1.1068629026412964,"289":-0.41444990038871765,"290":-2.2993805408477783,"291":1.3580504655838013,"292":-1.415785789489746,"293":0.9606587290763855,"294":-1.545182228088379,"295":-3.0138654708862305,"296":0.16799384355545044,"297":-1.4437406063079834,"298":0.5351652503013611,"299":-1.0917575359344482,"300":-0.03134329617023468,"301":-0.6292296051979065,"302":0.9846815466880798,"303":-0.7884587645530701,"304":0.28023087978363037,"305":-0.49373242259025574,"306":0.5578590035438538,"307":-0.30257633328437805,"308":-0.08629881590604782,"309":-0.49192529916763306,"310":2.109471321105957,"311":-0.3771626353263855,"312":-0.24790434539318085,"313":-1.098738431930542,"314":-0.34350499510765076,"315":1.031908392906189,"316":-1.0428566932678223,"317":-0.9086073637008667,"318":-0.5933973789215088,"319":0.590255081653595,"320":0.06986655294895172,"321":-0.9742509126663208,"322":0.020306259393692017,"323":-0.5849722027778625,"324":-0.02138599008321762,"325":0.16824549436569214,"326":-0.1461789906024933,"327":0.019388915970921516,"328":-0.6817042827606201,"329":0.24324949085712433,"330":-1.1166203022003174,"331":-0.15111565589904785,"332":0.460614949464798,"333":0.758582353591919,"334":-0.9938846230506897,"335":-0.33269640803337097,"336":1.1268020868301392,"337":0.7854140996932983,"338":0.2922135591506958,"339":0.5339388251304626,"340":-0.8609766364097595,"341":1.416890263557434,"342":0.24011126160621643,"343":-0.1338808834552765,"344":2.417694091796875,"345":-3.7918949127197266,"346":-0.11520645022392273,"347":-1.9152145385742188,"348":-1.3471763134002686,"349":-0.9957112073898315,"350":3.749035596847534,"351":1.9697916507720947,"352":0.24645881354808807,"353":1.4829221963882446,"354":0.9783861041069031,"355":0.39863553643226624,"356":1.2170121669769287,"357":1.3678946495056152,"358":-2.4555869102478027,"359":-0.006019238382577896,"360":0.21641825139522552,"361":1.4210461378097534,"362":-1.5397393703460693,"363":1.623275876045227,"364":0.8781582117080688,"365":-1.1215571165084839,"366":0.33715173602104187,"367":0.41841211915016174,"368":-0.14167258143424988,"369":-0.3954148590564728,"370":2.791809558868408,"371":1.875680923461914,"372":-1.3273969888687134,"373":-0.48978951573371887,"374":1.1742018461227417,"375":2.6709001064300537,"376":-0.9640238881111145,"377":0.12299918383359909,"378":-2.6292736530303955,"379":-1.9921057224273682,"380":-1.2490755319595337,"381":-1.448095440864563,"382":-1.0353018045425415,"383":0.07719669491052628,"384":-0.7167672514915466,"385":-0.803472638130188,"386":-1.493827223777771,"387":0.38371777534484863,"388":-1.4869531393051147,"389":-0.7969855666160583,"390":-0.6690139174461365,"391":0.5392364263534546,"392":-0.7905214428901672,"393":0.9570856094360352,"394":-0.3227726221084595,"395":1.0104198455810547,"396":1.1844487190246582,"397":-1.2833352088928223,"398":-0.9024483561515808,"399":-1.6048702001571655}},"inputBias":{"rows":20,"columns":1,"weights":{"0":0.3638514280319214,"1":-0.35219359397888184,"2":-1.375750184059143,"3":-0.5185592174530029,"4":0.1643465906381607,"5":0.18595382571220398,"6":-0.3179950416088104,"7":-0.30157387256622314,"8":-0.22067399322986603,"9":0.060238953679800034,"10":-0.15570953488349915,"11":-0.18977907299995422,"12":-0.685562789440155,"13":-0.042668666690588,"14":-0.4801279306411743,"15":0.020708605647087097,"16":-0.020331615582108498,"17":0.25961992144584656,"18":-0.24397477507591248,"19":-0.6582034826278687}},"forgetMatrix":{"rows":20,"columns":37,"weights":{"0":0.033959679305553436,"1":-2.1315574645996094,"2":-0.9991122484207153,"3":0.4951380789279938,"4":-0.9191637635231018,"5":-0.7112102508544922,"6":-0.7305760979652405,"7":-0.7818441390991211,"8":0.40746626257896423,"9":0.9371392726898193,"10":-1.8972336053848267,"11":0.8702338337898254,"12":0.12904132902622223,"13":0.6695973873138428,"14":0.4952288568019867,"15":1.049591302871704,"16":1.6132946014404297,"17":-0.6414878368377686,"18":-1.2577956914901733,"19":-0.17262880504131317,"20":-1.5452502965927124,"21":-0.9861145615577698,"22":0.3160165548324585,"23":0.6210793256759644,"24":0.003995589446276426,"25":-1.3964760303497314,"26":0.26378968358039856,"27":-0.9261863231658936,"28":-0.7313840389251709,"29":0.7796785235404968,"30":-1.0515495538711548,"31":-0.3426435887813568,"32":0.6264317035675049,"33":-0.8828712105751038,"34":0.7315297722816467,"35":-1.065182089805603,"36":-1.678403377532959,"37":0.17700272798538208,"38":-0.27958282828330994,"39":0.6540830135345459,"40":-0.13008250296115875,"41":-0.40955594182014465,"42":-0.1767413169145584,"43":0.30678462982177734,"44":0.3212754428386688,"45":0.28828880190849304,"46":-1.4360697269439697,"47":-0.3739864230155945,"48":1.0097516775131226,"49":0.5133355855941772,"50":-0.5273613333702087,"51":0.7532209753990173,"52":-0.5725148320198059,"53":0.869169294834137,"54":-0.2674471139907837,"55":0.026325272396206856,"56":0.7097852230072021,"57":-0.8133443593978882,"58":0.3867487609386444,"59":-0.6106104254722595,"60":-0.6338397264480591,"61":-0.5490918159484863,"62":-0.8641229271888733,"63":-1.0272986888885498,"64":1.2229900360107422,"65":-0.7986273169517517,"66":0.18489274382591248,"67":-0.08320638537406921,"68":-0.18605725467205048,"69":-0.0292400773614645,"70":1.2909995317459106,"71":1.0605894327163696,"72":-1.398134708404541,"73":-0.30379247665405273,"74":-0.9146559238433838,"75":-0.21620972454547882,"76":-0.16102628409862518,"77":-1.1156704425811768,"78":-0.4471462666988373,"79":0.4897482097148895,"80":-0.024648580700159073,"81":-0.6721023321151733,"82":0.2584991455078125,"83":3.031705379486084,"84":-1.2974956035614014,"85":0.4266778826713562,"86":-0.3271433115005493,"87":-0.699507474899292,"88":0.20735321938991547,"89":-0.5271759629249573,"90":0.9428256154060364,"91":-0.14368712902069092,"92":0.18727292120456696,"93":0.39528167247772217,"94":-0.31659963726997375,"95":0.45786410570144653,"96":1.5140231847763062,"97":-0.28963932394981384,"98":1.1111292839050293,"99":-0.25797900557518005,"100":0.3853776156902313,"101":-0.5587157607078552,"102":-0.9771899580955505,"103":0.16991060972213745,"104":-2.3334453105926514,"105":-0.29027822613716125,"106":1.3316172361373901,"107":-0.5981875658035278,"108":-0.5273630023002625,"109":-0.46163737773895264,"110":-0.7027710676193237,"111":0.40126070380210876,"112":-0.9449272751808167,"113":1.1979105472564697,"114":0.954115629196167,"115":0.14236079156398773,"116":-1.2668583393096924,"117":-1.0162534713745117,"118":0.36533087491989136,"119":0.7539198398590088,"120":-0.9125304818153381,"121":-1.1887290477752686,"122":0.38636431097984314,"123":0.7698278427124023,"124":-0.656388521194458,"125":1.1245090961456299,"126":-0.363321453332901,"127":0.22240670025348663,"128":-0.5022842884063721,"129":-0.0830291360616684,"130":-0.002949655521661043,"131":-1.0198484659194946,"132":0.04756706580519676,"133":0.42294520139694214,"134":1.1051677465438843,"135":0.22117123007774353,"136":-1.4321540594100952,"137":-1.2235660552978516,"138":1.0797028541564941,"139":0.19322626292705536,"140":1.7726393938064575,"141":0.8195396661758423,"142":0.43946442008018494,"143":0.8097789287567139,"144":0.8017480969429016,"145":0.9951940178871155,"146":-0.5491226315498352,"147":-1.2686619758605957,"148":0.030096353963017464,"149":-0.4852428436279297,"150":0.09441034495830536,"151":-0.3143172562122345,"152":-0.09595335274934769,"153":0.5745909810066223,"154":0.18204905092716217,"155":-0.5355752110481262,"156":-0.23489275574684143,"157":2.0698165893554688,"158":-0.6031415462493896,"159":0.3578055202960968,"160":-0.6932486891746521,"161":0.2796727120876312,"162":-0.12620404362678528,"163":0.3740852475166321,"164":-0.5265353322029114,"165":0.5490519404411316,"166":0.34918132424354553,"167":0.3049563765525818,"168":-0.5741844177246094,"169":-0.40643730759620667,"170":-0.8175035715103149,"171":-0.12164456397294998,"172":0.9320634007453918,"173":-0.750285267829895,"174":0.5808573961257935,"175":-0.12698271870613098,"176":-0.8161882162094116,"177":0.5683305263519287,"178":0.46556785702705383,"179":0.3090878129005432,"180":-0.16859449446201324,"181":-0.3000091314315796,"182":0.7072329521179199,"183":0.30101457238197327,"184":-1.3987966775894165,"185":0.1400100588798523,"186":0.05721224099397659,"187":-0.33917638659477234,"188":-0.028716862201690674,"189":0.34657022356987,"190":-0.6509012579917908,"191":-0.4599582552909851,"192":-0.6264387965202332,"193":0.1627310961484909,"194":0.2222423404455185,"195":-0.3639368414878845,"196":0.2517734467983246,"197":-0.7495063543319702,"198":-0.5708496570587158,"199":0.03765595331788063,"200":0.511110246181488,"201":0.5734000205993652,"202":-0.44569921493530273,"203":0.05509809032082558,"204":-0.4816708564758301,"205":0.26984602212905884,"206":-0.4794793725013733,"207":1.301320195198059,"208":0.00508902920410037,"209":0.48606768250465393,"210":0.27711179852485657,"211":-0.4346378445625305,"212":-0.3248339891433716,"213":-0.5530545711517334,"214":0.12618482112884521,"215":-0.8685833215713501,"216":-0.5440908670425415,"217":0.6356852054595947,"218":-0.1784844547510147,"219":0.04456835985183716,"220":-0.15719929337501526,"221":-0.10117394477128983,"222":1.5469110012054443,"223":-0.7089463472366333,"224":-0.5018967390060425,"225":1.464703917503357,"226":-0.5143207907676697,"227":-1.6324981451034546,"228":-1.2562892436981201,"229":0.11939483135938644,"230":1.0412380695343018,"231":0.7780725955963135,"232":-0.5376652479171753,"233":-0.6536336541175842,"234":0.19651615619659424,"235":0.43823206424713135,"236":1.2765446901321411,"237":-0.24658256769180298,"238":0.7916092276573181,"239":-1.5542916059494019,"240":-0.5081655383110046,"241":-1.0803061723709106,"242":-0.452658087015152,"243":-0.703417956829071,"244":1.51514732837677,"245":1.0626673698425293,"246":0.8085672855377197,"247":0.10186918079853058,"248":0.54815274477005,"249":-0.2577381134033203,"250":-0.5532090067863464,"251":0.057852938771247864,"252":-1.1835765838623047,"253":-0.8242620825767517,"254":1.1529449224472046,"255":-0.3114272356033325,"256":-0.5656335353851318,"257":-0.932556688785553,"258":-0.7741557955741882,"259":0.6086311936378479,"260":0.24305079877376556,"261":-0.47364941239356995,"262":-0.4021238684654236,"263":0.5506916642189026,"264":0.08232709765434265,"265":-0.2352156937122345,"266":-0.4558405876159668,"267":-0.5027309656143188,"268":-0.7757568359375,"269":-0.032630011439323425,"270":-1.527135968208313,"271":0.14014461636543274,"272":0.7013173699378967,"273":-0.5526123046875,"274":1.8594061136245728,"275":-0.8535000681877136,"276":-0.22134733200073242,"277":-0.37171751260757446,"278":-1.1009953022003174,"279":0.5713914036750793,"280":-1.905627965927124,"281":-0.4357813000679016,"282":0.2947273552417755,"283":-0.13730961084365845,"284":0.9207538366317749,"285":0.3257736563682556,"286":-1.0629040002822876,"287":0.0995795875787735,"288":0.25825005769729614,"289":-0.13839757442474365,"290":-0.4985482096672058,"291":0.7756816744804382,"292":-1.222751259803772,"293":-1.5583971738815308,"294":0.6899629235267639,"295":0.28525039553642273,"296":0.753319501876831,"297":-0.2855719327926636,"298":-0.4395536184310913,"299":0.9432628154754639,"300":0.4095058739185333,"301":-0.1386476755142212,"302":-2.0146400928497314,"303":-0.2214767336845398,"304":-0.5549163222312927,"305":1.5807980298995972,"306":0.040932994335889816,"307":1.3367434740066528,"308":0.018384145572781563,"309":0.659702479839325,"310":0.21763943135738373,"311":1.5362545251846313,"312":0.0197602566331625,"313":-0.8295990824699402,"314":-0.3649447560310364,"315":-1.4958491325378418,"316":-0.09369785338640213,"317":-0.9502108097076416,"318":2.4113335609436035,"319":0.9022035002708435,"320":-0.904559314250946,"321":-0.054116927087306976,"322":0.3527793288230896,"323":0.39958468079566956,"324":-0.6784241795539856,"325":0.751537561416626,"326":-1.9317924976348877,"327":-1.0619072914123535,"328":-0.06474556773900986,"329":0.20963537693023682,"330":1.5174927711486816,"331":0.2618969678878784,"332":0.23864243924617767,"333":0.1867937296628952,"334":1.5440053939819336,"335":1.6775531768798828,"336":0.27516278624534607,"337":0.8686839938163757,"338":0.19642698764801025,"339":-0.19842664897441864,"340":1.5182909965515137,"341":-0.03805994242429733,"342":-0.20165054500102997,"343":0.6239413022994995,"344":-1.0379176139831543,"345":0.4392276108264923,"346":-0.2727625370025635,"347":-0.10364124923944473,"348":-1.0322239398956299,"349":-0.5050939321517944,"350":0.12600021064281464,"351":0.5896041393280029,"352":-0.348039835691452,"353":1.072189450263977,"354":0.8654657006263733,"355":0.020862264558672905,"356":0.21339274942874908,"357":-0.19263385236263275,"358":0.9645246267318726,"359":-0.7096660733222961,"360":1.3789575099945068,"361":1.2988827228546143,"362":-0.7824126482009888,"363":-0.3147426247596741,"364":0.003503574291244149,"365":-0.6024014949798584,"366":0.5804452896118164,"367":-0.6771858334541321,"368":0.08251113444566727,"369":1.22255277633667,"370":0.3382117450237274,"371":-0.7953604459762573,"372":-0.6084129810333252,"373":-0.8036699891090393,"374":-0.1527184396982193,"375":1.2654643058776855,"376":2.3052594661712646,"377":0.32474905252456665,"378":-0.25155550241470337,"379":-1.0479021072387695,"380":-0.2952379286289215,"381":-0.5759896039962769,"382":-0.16706477105617523,"383":0.5051625370979309,"384":-0.8080611228942871,"385":0.9266050457954407,"386":-1.0855005979537964,"387":1.0771955251693726,"388":0.770609438419342,"389":0.09055139869451523,"390":-0.29207611083984375,"391":-0.25199708342552185,"392":-0.7548089027404785,"393":-0.8842658996582031,"394":-0.13173937797546387,"395":-0.47619369626045227,"396":-0.4202791154384613,"397":0.7353724241256714,"398":-0.3228038251399994,"399":0.17698872089385986,"400":0.6505160927772522,"401":-0.5555902123451233,"402":0.23140808939933777,"403":-0.9761433005332947,"404":0.13916060328483582,"405":0.7775664329528809,"406":-0.9098737835884094,"407":0.662388801574707,"408":-1.5565507411956787,"409":-0.624169647693634,"410":0.7467657923698425,"411":0.37080270051956177,"412":-0.5703331828117371,"413":-0.3511304259300232,"414":0.13670533895492554,"415":0.30550211668014526,"416":1.6634222269058228,"417":-1.9614131450653076,"418":0.20862720906734467,"419":-0.5506254434585571,"420":0.5051862001419067,"421":1.0410435199737549,"422":-0.03978624567389488,"423":-0.3905756175518036,"424":-0.6019912958145142,"425":-0.5460336804389954,"426":-0.4332481622695923,"427":-1.3124746084213257,"428":0.21025972068309784,"429":-0.19027653336524963,"430":0.9278309345245361,"431":-0.856103777885437,"432":-1.2945529222488403,"433":0.15458954870700836,"434":-0.48592162132263184,"435":-0.1852109581232071,"436":-0.18894976377487183,"437":-0.5761560797691345,"438":-1.0193190574645996,"439":1.6227149963378906,"440":-0.5935244560241699,"441":0.15097926557064056,"442":0.5501108765602112,"443":-1.3428184986114502,"444":-0.14464925229549408,"445":0.4869457483291626,"446":0.6048396825790405,"447":-0.1184452548623085,"448":0.8710812330245972,"449":-0.09380142390727997,"450":0.0038589327596127987,"451":0.6166862845420837,"452":1.1450841426849365,"453":-0.08446671813726425,"454":-0.16728730499744415,"455":-1.1270169019699097,"456":-0.42959433794021606,"457":-1.773417592048645,"458":0.0190251674503088,"459":0.034231945872306824,"460":-0.3554898798465729,"461":-0.24350763857364655,"462":0.9268364310264587,"463":0.20821703970432281,"464":0.32277223467826843,"465":0.15215620398521423,"466":0.4748103618621826,"467":-0.13395202159881592,"468":0.22045612335205078,"469":0.43751096725463867,"470":-1.1743683815002441,"471":0.12589529156684875,"472":0.5910472869873047,"473":-0.40696054697036743,"474":-0.0789489895105362,"475":0.36100539565086365,"476":-0.20988386869430542,"477":-0.5837799906730652,"478":-1.0869468450546265,"479":-0.05234258621931076,"480":0.5071985125541687,"481":0.7245478630065918,"482":0.3238421082496643,"483":-0.057565998286008835,"484":0.8458077311515808,"485":0.32726216316223145,"486":-0.7442101836204529,"487":-0.7400228977203369,"488":0.17191988229751587,"489":0.6609707474708557,"490":-0.40330013632774353,"491":0.3720757067203522,"492":0.4314095079898834,"493":-0.8703005909919739,"494":-0.1606907993555069,"495":0.6153925061225891,"496":0.14552129805088043,"497":0.1450842320919037,"498":-1.0201042890548706,"499":0.03960688039660454,"500":-1.0917086601257324,"501":0.14569438993930817,"502":-0.1173412874341011,"503":1.0060858726501465,"504":0.7401437759399414,"505":0.7718275785446167,"506":0.26799607276916504,"507":-0.10874204337596893,"508":0.10738857090473175,"509":-0.20405319333076477,"510":-0.5671407580375671,"511":-1.2056936025619507,"512":-0.7346909642219543,"513":0.7451987266540527,"514":0.041582778096199036,"515":0.0841764509677887,"516":-0.5360377430915833,"517":0.43161413073539734,"518":0.39094430208206177,"519":0.8834854960441589,"520":1.2853682041168213,"521":0.49999499320983887,"522":0.670920193195343,"523":-0.5730103254318237,"524":-1.0999912023544312,"525":1.6693485975265503,"526":0.4591861367225647,"527":-0.8664879202842712,"528":0.21665450930595398,"529":-1.546036958694458,"530":-0.2874101996421814,"531":-0.46283385157585144,"532":0.2240363508462906,"533":-0.42767947912216187,"534":-0.06238768249750137,"535":-0.6599699258804321,"536":0.7137742638587952,"537":-0.5223941802978516,"538":0.9303640127182007,"539":0.4133366048336029,"540":1.0701801776885986,"541":0.49896833300590515,"542":0.9465774297714233,"543":1.0151454210281372,"544":-1.4442123174667358,"545":1.0089524984359741,"546":2.2532074451446533,"547":-0.3544531762599945,"548":-0.4071787893772125,"549":-0.47690650820732117,"550":0.12907828390598297,"551":0.5220707058906555,"552":-1.1421135663986206,"553":-0.4638820290565491,"554":1.2612987756729126,"555":0.6252120137214661,"556":-0.7026387453079224,"557":-0.2205217480659485,"558":1.2737658023834229,"559":-0.5136727690696716,"560":-0.8948326706886292,"561":-0.5131063461303711,"562":-0.37392657995224,"563":-0.08416371792554855,"564":0.46449923515319824,"565":-0.6918386220932007,"566":0.9055554866790771,"567":0.8046188950538635,"568":-0.20203006267547607,"569":0.8276392221450806,"570":0.3506999909877777,"571":0.0411968007683754,"572":-1.3530774116516113,"573":-0.1145639568567276,"574":-0.5517059564590454,"575":-0.9020189642906189,"576":0.14930635690689087,"577":0.3666854500770569,"578":0.5348305702209473,"579":0.031533580273389816,"580":-1.026000738143921,"581":-0.3437546491622925,"582":-0.08114900439977646,"583":-0.738051176071167,"584":-0.23722217977046967,"585":-0.4483005106449127,"586":-0.4876885712146759,"587":1.6431245803833008,"588":-0.32058894634246826,"589":1.355071783065796,"590":-0.13782237470149994,"591":-0.7562564015388489,"592":0.2882842421531677,"593":-0.006984866689890623,"594":0.605126142501831,"595":-0.3082047700881958,"596":-0.20266209542751312,"597":0.25334739685058594,"598":-0.6315516233444214,"599":0.26411205530166626,"600":-0.6408330202102661,"601":1.364864468574524,"602":0.11558669060468674,"603":1.0387208461761475,"604":-0.6820133328437805,"605":0.45448949933052063,"606":-0.31329697370529175,"607":-0.38042858242988586,"608":-0.23680083453655243,"609":0.02134343609213829,"610":0.00229243328794837,"611":-0.20709671080112457,"612":-0.46877095103263855,"613":0.3921591341495514,"614":0.5574380159378052,"615":-0.4618842303752899,"616":-0.5362350940704346,"617":-0.6991125345230103,"618":-0.062080368399620056,"619":0.755094051361084,"620":-0.19708161056041718,"621":1.0530617237091064,"622":-0.3775973916053772,"623":0.0531967431306839,"624":-0.6062681674957275,"625":0.5743398070335388,"626":1.111000657081604,"627":-0.08760077506303787,"628":-0.11256829649209976,"629":-1.0835304260253906,"630":-1.7033991813659668,"631":-1.1400659084320068,"632":-0.6329606175422668,"633":-0.7986382246017456,"634":0.29639288783073425,"635":0.12707851827144623,"636":-1.3378392457962036,"637":-1.231931447982788,"638":0.7701011300086975,"639":0.16203530132770538,"640":0.5657455325126648,"641":1.8924798965454102,"642":1.4116246700286865,"643":-0.7648276090621948,"644":0.9998385310173035,"645":0.18127767741680145,"646":0.8357353210449219,"647":-1.0398120880126953,"648":1.4323598146438599,"649":-0.7411068677902222,"650":-1.8994262218475342,"651":-0.6838741302490234,"652":-0.4697401821613312,"653":-0.7390155792236328,"654":-0.6352050304412842,"655":1.0772995948791504,"656":-1.2078534364700317,"657":-0.29453128576278687,"658":1.1460893154144287,"659":0.1323697715997696,"660":1.67169189453125,"661":-1.0073235034942627,"662":-0.20982912182807922,"663":0.48682814836502075,"664":0.7996668815612793,"665":-0.7552213072776794,"666":0.8155141472816467,"667":0.13300001621246338,"668":0.2818458080291748,"669":0.9284883737564087,"670":-0.4794519245624542,"671":-1.2434234619140625,"672":-1.1736136674880981,"673":-0.26331281661987305,"674":0.8752968907356262,"675":1.4885042905807495,"676":0.15447410941123962,"677":0.40065303444862366,"678":-1.0806760787963867,"679":0.2387688159942627,"680":1.440521001815796,"681":-0.12670685350894928,"682":-0.2085692137479782,"683":-1.4515935182571411,"684":-0.4232284426689148,"685":0.3806900084018707,"686":-0.19667544960975647,"687":-0.4776705801486969,"688":0.3209056258201599,"689":0.9435585737228394,"690":0.50506591796875,"691":-0.32418176531791687,"692":0.33342257142066956,"693":-0.43430811166763306,"694":0.1618587225675583,"695":1.0760470628738403,"696":0.2468213438987732,"697":-0.009313765913248062,"698":0.8088521957397461,"699":-0.20914915204048157,"700":0.21227118372917175,"701":-0.6910674571990967,"702":-0.19043707847595215,"703":0.9995288848876953,"704":-0.27359285950660706,"705":-0.5216496586799622,"706":0.9269152283668518,"707":-0.5146896243095398,"708":-0.8881251215934753,"709":-0.575150728225708,"710":-0.33500754833221436,"711":0.7012949585914612,"712":-1.17636239528656,"713":-1.1438277959823608,"714":-0.0061079817824065685,"715":0.8341014385223389,"716":1.0586310625076294,"717":0.6428273916244507,"718":0.8891273140907288,"719":1.9392272233963013,"720":-0.5704527497291565,"721":-0.6312432289123535,"722":-1.0728089809417725,"723":-0.21718962490558624,"724":-1.2982085943222046,"725":0.07065245509147644,"726":1.0198324918746948,"727":-0.05785263329744339,"728":-0.34318843483924866,"729":-0.08371470123529434,"730":0.015400377102196217,"731":-0.49642178416252136,"732":1.005100131034851,"733":-0.22108234465122223,"734":-1.041601300239563,"735":0.4092719256877899,"736":0.03551051765680313,"737":0.855897843837738,"738":-1.4208569526672363,"739":-0.17044921219348907}},"forgetHidden":{"rows":20,"columns":20,"weights":{"0":-0.5394068956375122,"1":-0.544016420841217,"2":-0.19221681356430054,"3":0.32998180389404297,"4":-0.45955854654312134,"5":0.16914141178131104,"6":-0.05958884209394455,"7":0.6200525164604187,"8":-0.5170992612838745,"9":0.07570113986730576,"10":-0.5563245415687561,"11":0.25260215997695923,"12":0.11287524551153183,"13":0.4972876012325287,"14":-0.4886936843395233,"15":-0.2693498134613037,"16":-0.11265841126441956,"17":-0.7376320362091064,"18":0.30481046438217163,"19":-0.46244797110557556,"20":-0.46223095059394836,"21":-1.2983437776565552,"22":0.14746801555156708,"23":-1.7336982488632202,"24":-2.8729324340820312,"25":1.2795441150665283,"26":-0.33384090662002563,"27":0.6044374704360962,"28":-1.5569907426834106,"29":1.6075475215911865,"30":0.1798306554555893,"31":2.2911975383758545,"32":0.9048478007316589,"33":-0.939797043800354,"34":-1.1787443161010742,"35":-1.4897167682647705,"36":-1.1963492631912231,"37":0.962541401386261,"38":2.651899814605713,"39":-1.1784968376159668,"40":0.3027726113796234,"41":4.346793174743652,"42":-1.9536802768707275,"43":2.4789364337921143,"44":1.8625633716583252,"45":-3.4587836265563965,"46":-0.7586210370063782,"47":-2.5528931617736816,"48":-0.4801211357116699,"49":-0.9964808225631714,"50":1.1964426040649414,"51":-1.1301487684249878,"52":-1.4378219842910767,"53":-0.9389899373054504,"54":-0.13995926082134247,"55":-0.31950077414512634,"56":1.300102710723877,"57":-1.6372419595718384,"58":-0.2519909143447876,"59":-0.06351304799318314,"60":-0.8226248621940613,"61":-1.897921085357666,"62":-1.3709319829940796,"63":2.5399105548858643,"64":0.3522612452507019,"65":0.7171836495399475,"66":0.48587149381637573,"67":-0.3904413878917694,"68":-4.006871223449707,"69":-1.617042899131775,"70":-1.0854268074035645,"71":0.7739477157592773,"72":0.10420385003089905,"73":2.107779026031494,"74":-2.125854015350342,"75":-2.188075542449951,"76":0.9496607780456543,"77":0.4364788234233856,"78":-0.5672957897186279,"79":-3.301896810531616,"80":-0.4382823407649994,"81":1.48573637008667,"82":-0.41631990671157837,"83":1.7145004272460938,"84":-0.02784922532737255,"85":-0.9716572165489197,"86":1.3200167417526245,"87":-1.5855803489685059,"88":3.5872130393981934,"89":-1.3251831531524658,"90":1.9409854412078857,"91":-2.4144108295440674,"92":0.8108636736869812,"93":-0.9557018280029297,"94":1.1212104558944702,"95":3.1380064487457275,"96":-1.8606853485107422,"97":-0.7937670350074768,"98":-0.6383364200592041,"99":2.4597508907318115,"100":-1.288355827331543,"101":-1.7213023900985718,"102":1.5912128686904907,"103":-0.39150741696357727,"104":-0.8146493434906006,"105":0.16893590986728668,"106":0.057098373770713806,"107":-0.6657876968383789,"108":1.2730903625488281,"109":-0.5943967700004578,"110":-2.039717435836792,"111":-1.0117580890655518,"112":0.9110937714576721,"113":0.7514966726303101,"114":-1.404157042503357,"115":-0.3705211877822876,"116":0.36572617292404175,"117":-0.18448351323604584,"118":0.9545656442642212,"119":0.849338948726654,"120":-0.505142867565155,"121":0.17299248278141022,"122":-0.17791901528835297,"123":0.7389441728591919,"124":0.09455674886703491,"125":-1.6418204307556152,"126":-0.40804094076156616,"127":-0.18906176090240479,"128":0.2457169145345688,"129":-0.6857828497886658,"130":0.5457271933555603,"131":0.316659539937973,"132":-1.4367822408676147,"133":0.12659582495689392,"134":-0.19735786318778992,"135":0.9873259663581848,"136":0.310293585062027,"137":0.3983350396156311,"138":-0.5569010376930237,"139":-1.0004209280014038,"140":-1.5257611274719238,"141":-0.8752923011779785,"142":2.231064558029175,"143":0.3006337285041809,"144":-1.4437447786331177,"145":1.6650651693344116,"146":-0.271546870470047,"147":1.2569859027862549,"148":-0.9331247806549072,"149":0.0024439699482172728,"150":-0.3807680308818817,"151":0.16010300815105438,"152":-0.1628366857767105,"153":-0.8006653785705566,"154":-0.7059637308120728,"155":-1.356895923614502,"156":1.6136246919631958,"157":-0.01928190141916275,"158":0.5510038137435913,"159":-0.707965075969696,"160":0.4526357054710388,"161":-0.1901787966489792,"162":-0.8086230158805847,"163":0.48683974146842957,"164":-0.10912688821554184,"165":0.22727039456367493,"166":0.8260594010353088,"167":1.0125423669815063,"168":-1.1295491456985474,"169":0.13518676161766052,"170":0.7318885922431946,"171":1.2963647842407227,"172":0.36045321822166443,"173":-0.7191680669784546,"174":-0.4858112037181854,"175":-0.22851236164569855,"176":-0.07102808356285095,"177":-1.5554920434951782,"178":0.4339228570461273,"179":-1.5230635404586792,"180":-1.8393362760543823,"181":4.089504718780518,"182":0.6984719038009644,"183":-3.6620688438415527,"184":0.5727308392524719,"185":-1.6735540628433228,"186":1.8081156015396118,"187":-2.0619680881500244,"188":3.7222797870635986,"189":-0.6409663558006287,"190":2.0228993892669678,"191":-1.8061248064041138,"192":-0.19754041731357574,"193":-0.8257559537887573,"194":-0.2737346589565277,"195":0.7922677397727966,"196":-2.3131351470947266,"197":-0.5766775608062744,"198":0.3720148801803589,"199":3.482494592666626,"200":1.366854190826416,"201":-1.2408629655838013,"202":-1.705003261566162,"203":-1.3400933742523193,"204":-1.103150486946106,"205":1.7368801832199097,"206":0.8385095000267029,"207":1.748555064201355,"208":1.5775493383407593,"209":2.4200098514556885,"210":-1.4056090116500854,"211":-1.1088379621505737,"212":0.9775927662849426,"213":-0.6313210725784302,"214":-1.6730854511260986,"215":0.8646262884140015,"216":-0.4935515522956848,"217":-1.3311312198638916,"218":0.8662429451942444,"219":-1.394899845123291,"220":-0.48065462708473206,"221":-0.7792662978172302,"222":0.20917877554893494,"223":0.10586637258529663,"224":0.016921142116189003,"225":0.2834671139717102,"226":-0.038298238068819046,"227":-0.08097530901432037,"228":-0.6834219098091125,"229":-0.5780341029167175,"230":-0.2959432899951935,"231":0.4597388505935669,"232":0.28742170333862305,"233":0.22621162235736847,"234":-0.052114058285951614,"235":-0.14185194671154022,"236":-0.3892420828342438,"237":-0.2983914017677307,"238":0.3933127522468567,"239":-0.9347743988037109,"240":0.18381956219673157,"241":3.697260856628418,"242":-0.7185623049736023,"243":-0.8689203858375549,"244":3.7581212520599365,"245":-3.0375378131866455,"246":0.06475688517093658,"247":-1.681650996208191,"248":2.5811474323272705,"249":0.646611750125885,"250":6.031078338623047,"251":-0.4407638609409332,"252":-0.28337985277175903,"253":-0.8911394476890564,"254":3.2531886100769043,"255":-0.06811314821243286,"256":1.520231008529663,"257":0.6952237486839294,"258":-0.8605152368545532,"259":3.2188215255737305,"260":0.08625134080648422,"261":-0.9332514405250549,"262":0.19730006158351898,"263":-0.9294520020484924,"264":-0.7689576148986816,"265":1.033106803894043,"266":0.1197981908917427,"267":0.8997074365615845,"268":-0.5487539768218994,"269":-0.3078254461288452,"270":-1.3255422115325928,"271":0.2904624044895172,"272":0.2796538174152374,"273":1.025724172592163,"274":-1.0738462209701538,"275":-1.1870529651641846,"276":0.7457547783851624,"277":-0.27235519886016846,"278":0.20083260536193848,"279":0.6741260290145874,"280":-0.20434096455574036,"281":-0.14185625314712524,"282":-1.1595996618270874,"283":0.5867162346839905,"284":0.3553532660007477,"285":-0.31965723633766174,"286":0.8110895752906799,"287":0.5604364275932312,"288":-0.04791410639882088,"289":0.24856506288051605,"290":0.8576449155807495,"291":0.49460577964782715,"292":0.023479696363210678,"293":-0.2453736960887909,"294":-0.1667647808790207,"295":0.58028244972229,"296":-1.034180760383606,"297":-0.680583655834198,"298":-1.159460186958313,"299":-0.08504309505224228,"300":1.0178759098052979,"301":-0.18079599738121033,"302":-0.6841979026794434,"303":-2.842845916748047,"304":1.1161422729492188,"305":0.9344894289970398,"306":1.9595272541046143,"307":2.289189100265503,"308":0.10570467263460159,"309":1.2750715017318726,"310":-1.1333988904953003,"311":2.786327600479126,"312":-1.72439706325531,"313":-0.5903752446174622,"314":-0.22656559944152832,"315":0.7637150287628174,"316":-0.6451034545898438,"317":-0.2057691067457199,"318":0.6589112281799316,"319":0.5618097186088562,"320":-1.2465946674346924,"321":2.176056385040283,"322":0.828788161277771,"323":1.8747471570968628,"324":2.4413533210754395,"325":-0.9525110125541687,"326":-0.25303635001182556,"327":0.655414879322052,"328":0.7709193229675293,"329":2.8532865047454834,"330":0.012784603051841259,"331":-1.0695505142211914,"332":2.4171576499938965,"333":1.0707976818084717,"334":2.02176833152771,"335":-0.030458107590675354,"336":1.9370250701904297,"337":-2.0233020782470703,"338":-2.9383513927459717,"339":-0.6413684487342834,"340":-0.3258691430091858,"341":0.3781411051750183,"342":-1.529975414276123,"343":-0.9913303256034851,"344":0.47629332542419434,"345":-0.20734593272209167,"346":-0.17603890597820282,"347":-0.4741482436656952,"348":0.2634003460407257,"349":0.7223026752471924,"350":0.16387449204921722,"351":-0.4363196790218353,"352":1.443899154663086,"353":0.07829016447067261,"354":-0.37685832381248474,"355":-1.2990031242370605,"356":-1.5283745527267456,"357":0.48520517349243164,"358":0.4641662538051605,"359":0.20707088708877563,"360":-1.31691312789917,"361":0.708309531211853,"362":-1.0316498279571533,"363":0.686784029006958,"364":-0.0716756135225296,"365":-0.3084247410297394,"366":0.0022138420026749372,"367":0.7104341983795166,"368":-0.47230392694473267,"369":1.0881024599075317,"370":0.5399625897407532,"371":2.1619744300842285,"372":0.8033239245414734,"373":0.5843929052352905,"374":0.8799031972885132,"375":0.38318464159965515,"376":0.16227810084819794,"377":-0.6495619416236877,"378":-0.13454291224479675,"379":-1.7383078336715698,"380":-0.5066196322441101,"381":-0.5709162354469299,"382":-0.6173255443572998,"383":0.1497354805469513,"384":-1.1212058067321777,"385":0.3923959732055664,"386":-1.184493899345398,"387":0.6307117342948914,"388":-0.62611985206604,"389":0.34152424335479736,"390":-1.0153884887695312,"391":0.591974139213562,"392":0.4146589934825897,"393":1.2786684036254883,"394":-0.688232421875,"395":-1.1564750671386719,"396":0.9271108508110046,"397":-0.6960285305976868,"398":-0.4675702750682831,"399":-0.29127219319343567}},"forgetBias":{"rows":20,"columns":1,"weights":{"0":0,"1":0,"2":0,"3":0,"4":0,"5":0,"6":0,"7":0,"8":0,"9":0,"10":0,"11":0,"12":0,"13":0,"14":0,"15":0,"16":0,"17":0,"18":0,"19":0}},"outputMatrix":{"rows":20,"columns":37,"weights":{"0":-0.6483631134033203,"1":-0.38061603903770447,"2":0.9008767008781433,"3":0.12316437810659409,"4":2.5986127853393555,"5":0.23750659823417664,"6":-0.537662148475647,"7":2.1706583499908447,"8":0.6023964285850525,"9":0.3494354784488678,"10":-0.7652631402015686,"11":-1.512495756149292,"12":-0.5708279609680176,"13":-1.4786380529403687,"14":-0.019358448684215546,"15":-1.0410929918289185,"16":0.20211748778820038,"17":0.3432796001434326,"18":0.4125717878341675,"19":0.2508718967437744,"20":0.2713238596916199,"21":1.2192891836166382,"22":0.509320080280304,"23":0.43211492896080017,"24":-0.16722598671913147,"25":1.1790144443511963,"26":-1.1207150220870972,"27":1.1264376640319824,"28":2.1234500408172607,"29":-1.8847042322158813,"30":-1.0340924263000488,"31":0.13893245160579681,"32":0.4737607538700104,"33":0.6124464273452759,"34":-1.7642545700073242,"35":-0.10715606808662415,"36":0.6884034872055054,"37":0.8684408068656921,"38":-0.5086171627044678,"39":-0.06338413804769516,"40":1.0082833766937256,"41":-1.1934053897857666,"42":-1.1335216760635376,"43":-0.10835433751344681,"44":0.12245466560125351,"45":1.0407675504684448,"46":-2.0671324729919434,"47":-0.3739602863788605,"48":-0.5035052299499512,"49":-1.0825914144515991,"50":0.4744809567928314,"51":0.8011735677719116,"52":-1.7678101062774658,"53":0.11143096536397934,"54":-1.0253944396972656,"55":-0.7192052602767944,"56":-0.5458257794380188,"57":-1.218333125114441,"58":0.5673205852508545,"59":-0.057800695300102234,"60":0.6498515605926514,"61":0.39343294501304626,"62":-1.169203281402588,"63":-0.05689141899347305,"64":0.3898039758205414,"65":-0.6132023930549622,"66":0.09095144271850586,"67":0.6327478289604187,"68":-0.9552613496780396,"69":0.6115338206291199,"70":0.9780428409576416,"71":-0.35420507192611694,"72":-1.1517279148101807,"73":-0.5729870200157166,"74":-0.3952059745788574,"75":1.0369198322296143,"76":0.2488444596529007,"77":-0.6904383301734924,"78":0.1913057118654251,