{"type":"LSTM","options":{"inputSize":25,"inputRange":25,"hiddenLayers":[20,20],"outputSize":25,"decayRate":0.999,"smoothEps":1e-8,"regc":0.000001,"clipval":5,"maxPredictionLength":100,"dataFormatter":{"values":["the data betwween 1880 and 2659","1","give me the data betwween 1900 and 2000","the data betwween 1726 and 2041"],"indexTable":{"0":11,"1":9,"2":12,"4":21,"5":14,"6":13,"7":20,"8":10,"9":15,"t":0,"h":1,"e":2," ":3,"d":4,"a":5,"b":6,"w":7,"n":8,"g":16,"i":17,"v":18,"m":19,"stop-input":22,"start-output":23,"unrecognized":24},"characterTable":{"0":"t","1":"h","2":"e","3":" ","4":"d","5":"a","6":"b","7":"w","8":"n","9":"1","10":"8","11":"0","12":"2","13":"6","14":"5","15":"9","16":"g","17":"i","18":"v","19":"m","20":"7","21":"4","22":null,"23":null,"24":null},"characters":["t","h","e"," ","d","a","b","w","n","1","8","0","2","6","5","9","g","i","v","m","7","4","stop-input","start-output","unrecognized"],"specialIndexes":[22,23,24]}},"input":{"rows":26,"columns":25,"weights":{"0":-0.26519346237182617,"1":-0.208535835146904,"2":0.2086629420518875,"3":0.32731202244758606,"4":-0.21706117689609528,"5":0.3200802505016327,"6":-0.4052029252052307,"7":-0.279790997505188,"8":0.26526138186454773,"9":-0.32884183526039124,"10":0.2386137843132019,"11":0.1329665184020996,"12":-0.3464774489402771,"13":-0.1934833824634552,"14":0.25867146253585815,"15":0.2631157636642456,"16":0.26774874329566956,"17":0.2613101899623871,"18":0.24853935837745667,"19":-0.13276809453964233,"20":0.3253936469554901,"21":0.38421255350112915,"22":0.26739975810050964,"23":0.23999904096126556,"24":-0.2597042918205261,"25":-0.2553572654724121,"26":-0.24444325268268585,"27":0.3986031413078308,"28":0.42313382029533386,"29":-0.27184391021728516,"30":0.42653605341911316,"31":-0.28272220492362976,"32":-0.28219839930534363,"33":0.29328787326812744,"34":-0.44686102867126465,"35":0.19190613925457,"36":-0.05669829249382019,"37":-0.34866175055503845,"38":-0.33292847871780396,"39":0.3230355679988861,"40":0.1984296441078186,"41":0.4268699586391449,"42":0.056354448199272156,"43":0.3169807195663452,"44":-0.10334892570972443,"45":0.2707146406173706,"46":0.3102240264415741,"47":0.23188218474388123,"48":0.3584524393081665,"49":-0.3075943887233734,"50":0.23990429937839508,"51":0.2389918565750122,"52":-0.3674854040145874,"53":-0.3890799880027771,"54":0.14357823133468628,"55":-0.4335166811943054,"56":0.4558362662792206,"57":0.3767928183078766,"58":-0.31947019696235657,"59":0.2901114821434021,"60":-0.2789977490901947,"61":0.057589415460824966,"62":0.36350569128990173,"63":0.22331489622592926,"64":-0.2832643985748291,"65":-0.3854549825191498,"66":-0.38287684321403503,"67":-0.2636502683162689,"68":-0.328439325094223,"69":0.1984199583530426,"70":-0.24367494881153107,"71":-0.27393820881843567,"72":-0.3129122257232666,"73":-0.33988842368125916,"74":0.372112512588501,"75":0.366845965385437,"76":0.25296518206596375,"77":-0.38751649856567383,"78":-0.4197751581668854,"79":0.20269793272018433,"80":-0.4316365420818329,"81":0.431745320558548,"82":0.2876012325286865,"83":-0.34688642621040344,"84":0.32354652881622314,"85":-0.1222911849617958,"86":0.06065714731812477,"87":0.3795259892940521,"88":0.11518657952547073,"89":-0.378288209438324,"90":-0.2819910943508148,"91":-0.38846760988235474,"92":-0.1277996301651001,"93":-0.41314953565597534,"94":0.15247616171836853,"95":-0.22676345705986023,"96":-0.3920004069805145,"97":-0.38986340165138245,"98":-0.24514909088611603,"99":0.2957448959350586,"100":0.19104105234146118,"101":0.232842817902565,"102":-0.19520579278469086,"103":-0.3012872040271759,"104":-0.041019752621650696,"105":-0.3493099510669708,"106":0.22295033931732178,"107":0.20483633875846863,"108":-0.32333770394325256,"109":0.3140394985675812,"110":-0.11871238052845001,"111":-0.004216664936393499,"112":0.12729322910308838,"113":0.06852058321237564,"114":-0.11975832283496857,"115":-0.16172365844249725,"116":-0.3380793333053589,"117":-0.033433932811021805,"118":-0.25075361132621765,"119":-0.0008684247732162476,"120":-0.11420165747404099,"121":-0.17719358205795288,"122":-0.26252055168151855,"123":-0.27495118975639343,"124":0.17333224415779114,"125":-0.1285916566848755,"126":-0.3433663845062256,"127":0.32822850346565247,"128":0.2171231359243393,"129":-0.05026350915431976,"130":0.11787580698728561,"131":-0.17644086480140686,"132":-0.10514305531978607,"133":0.23636966943740845,"134":-0.31293919682502747,"135":0.0988016277551651,"136":-0.010485063306987286,"137":-0.22434447705745697,"138":0.03724731132388115,"139":0.15614640712738037,"140":0.1354106217622757,"141":0.13957780599594116,"142":0.06728101521730423,"143":0.11773674190044403,"144":-0.23190149664878845,"145":0.14605161547660828,"146":0.17350907623767853,"147":0.16908682882785797,"148":0.3600786626338959,"149":-0.006352792493999004,"150":-0.20653872191905975,"151":-0.22730353474617004,"152":0.163547083735466,"153":0.13300958275794983,"154":-0.08733317255973816,"155":0.12840963900089264,"156":-0.23492328822612762,"157":-0.13659343123435974,"158":0.15845298767089844,"159":-0.14171098172664642,"160":0.236837700009346,"161":-0.10334749519824982,"162":-0.241718590259552,"163":-0.12414267659187317,"164":0.27916109561920166,"165":0.26995667815208435,"166":0.149601548910141,"167":0.12514421343803406,"168":0.17465808987617493,"169":-0.1662052869796753,"170":0.297115296125412,"171":0.2766433656215668,"172":0.20534639060497284,"173":0.26115354895591736,"174":-0.1888488531112671,"175":-0.2751459777355194,"176":-0.16903352737426758,"177":0.2589952051639557,"178":0.25886276364326477,"179":-0.0918833389878273,"180":0.28758904337882996,"181":-0.28391706943511963,"182":-0.2234867811203003,"183":0.27781251072883606,"184":-0.21386107802391052,"185":0.12366963177919388,"186":-0.02081390656530857,"187":-0.3149075508117676,"188":-0.18088752031326294,"189":0.21748554706573486,"190":0.0965961366891861,"191":0.20769846439361572,"192":-0.013499810360372066,"193":0.16218560934066772,"194":-0.08355432748794556,"195":0.2077498435974121,"196":0.3373613655567169,"197":0.25610631704330444,"198":0.20607297122478485,"199":-0.1664443016052246,"200":0.31161826848983765,"201":0.20877614617347717,"202":-0.21206946671009064,"203":-0.2389867901802063,"204":0.05719837173819542,"205":-0.3922060430049896,"206":0.3889305889606476,"207":0.2732852101325989,"208":-0.3448127508163452,"209":0.3046248257160187,"210":-0.25920385122299194,"211":0.10927444696426392,"212":0.3582308888435364,"213":0.12408822774887085,"214":-0.20540983974933624,"215":-0.22447404265403748,"216":-0.2856209874153137,"217":-0.08557400107383728,"218":-0.20729698240756989,"219":0.25806209444999695,"220":-0.2091919630765915,"221":-0.2581618130207062,"222":-0.31922784447669983,"223":-0.30670642852783203,"224":0.19729968905448914,"225":-0.3777281939983368,"226":-0.39372342824935913,"227":0.3059884309768677,"228":0.3262885808944702,"229":-0.0373888723552227,"230":0.26969414949417114,"231":-0.22768230736255646,"232":-0.24009785056114197,"233":0.4016439914703369,"234":-0.24497219920158386,"235":0.1764277219772339,"236":-0.1036224514245987,"237":-0.20515547692775726,"238":-0.2832638621330261,"239":0.10485750436782837,"240":0.23387901484966278,"241":0.22767844796180725,"242":0.29111340641975403,"243":0.34866777062416077,"244":-0.18975669145584106,"245":0.3577190041542053,"246":0.15169084072113037,"247":0.24128510057926178,"248":0.35388311743736267,"249":-0.12197484076023102,"250":-0.3978884518146515,"251":-0.39127397537231445,"252":0.4136671721935272,"253":0.41269856691360474,"254":-0.18081773817539215,"255":0.44456392526626587,"256":-0.373258113861084,"257":-0.44166651368141174,"258":0.3602382242679596,"259":-0.3653590679168701,"260":0.2641192674636841,"261":-0.1967092901468277,"262":-0.270440936088562,"263":-0.3496665954589844,"264":0.37206241488456726,"265":0.35485926270484924,"266":0.43050357699394226,"267":0.27488863468170166,"268":0.443871408700943,"269":-0.3073258101940155,"270":0.23631317913532257,"271":0.38481074571609497,"272":0.49260005354881287,"273":0.34798720479011536,"274":-0.42213186621665955,"275":-0.030778737738728523,"276":-0.049841661006212234,"277":0.08721821010112762,"278":0.10450798273086548,"279":-0.06836842745542526,"280":0.05709778890013695,"281":-0.023403478786349297,"282":0.027780698612332344,"283":0.06047160550951958,"284":-0.027287887409329414,"285":-0.0031172826420515776,"286":-0.032245662063360214,"287":-0.018915994092822075,"288":0.02019406482577324,"289":0.0532357394695282,"290":0.09973668307065964,"291":0.14279954135417938,"292":0.030353855341672897,"293":0.16042938828468323,"294":-0.033250126987695694,"295":-0.06234563887119293,"296":0.09756162762641907,"297":0.13296711444854736,"298":-0.031923502683639526,"299":-0.02574783004820347,"300":-0.28805044293403625,"301":-0.4063746929168701,"302":0.2910049557685852,"303":0.3223390579223633,"304":-0.17463219165802002,"305":0.2887498438358307,"306":-0.20027971267700195,"307":-0.2362409383058548,"308":0.30599620938301086,"309":-0.3439602851867676,"310":0.315513014793396,"311":-0.1887817084789276,"312":-0.2792820334434509,"313":-0.26527950167655945,"314":0.2688755691051483,"315":0.352646142244339,"316":0.40135928988456726,"317":0.2548865079879761,"318":0.36348265409469604,"319":-0.31105154752731323,"320":0.30493786931037903,"321":0.4102143347263336,"322":0.3020140826702118,"323":0.42513227462768555,"324":-0.2637380361557007,"325":-0.3206673860549927,"326":-0.3058369755744934,"327":0.3719595670700073,"328":0.4312356412410736,"329":-0.010124782100319862,"330":0.43217259645462036,"331":-0.4279369115829468,"332":-0.27250802516937256,"333":0.46787190437316895,"334":-0.4584641456604004,"335":0.3309740722179413,"336":0.005197586491703987,"337":-0.3194297254085541,"338":-0.18429794907569885,"339":0.3609376549720764,"340":0.3325721323490143,"341":0.4443824291229248,"342":0.11908744275569916,"343":0.35244515538215637,"344":-0.15806324779987335,"345":0.23622190952301025,"346":0.2916854918003082,"347":0.3530304431915283,"348":0.3276045322418213,"349":-0.3107970654964447,"350":0.14814841747283936,"351":0.4153796136379242,"352":-0.22153690457344055,"353":-0.32283815741539,"354":0.12738433480262756,"355":-0.22294388711452484,"356":0.3113994598388672,"357":0.28405749797821045,"358":-0.3221980631351471,"359":0.22320246696472168,"360":-0.23881787061691284,"361":0.13565421104431152,"362":0.34450358152389526,"363":0.16278117895126343,"364":-0.2795257866382599,"365":-0.22163812816143036,"366":-0.32841092348098755,"367":-0.11808336526155472,"368":-0.1816697120666504,"369":0.2535196542739868,"370":-0.3260376453399658,"371":-0.3058977723121643,"372":-0.21035242080688477,"373":-0.25228455662727356,"374":0.2921885848045349,"375":-0.24039357900619507,"376":-0.020938128232955933,"377":-0.01980035938322544,"378":0.07728400826454163,"379":-0.06425883620977402,"380":-0.04547802358865738,"381":-0.02343803271651268,"382":-0.004432146903127432,"383":0.07965315133333206,"384":-0.04691282659769058,"385":-0.023689111694693565,"386":-0.050053950399160385,"387":0.0411960706114769,"388":-0.0019888293463736773,"389":0.04066033288836479,"390":0.0037988643161952496,"391":0.1262596994638443,"392":0.0748446062207222,"393":0.13836881518363953,"394":-0.03379793465137482,"395":-0.05220253765583038,"396":-0.018998362123966217,"397":0.06481320410966873,"398":-0.022041676566004753,"399":-0.09030503779649734,"400":-0.19306212663650513,"401":-0.040863435715436935,"402":0.14455333352088928,"403":0.11912193894386292,"404":-0.0408402644097805,"405":0.08286060392856598,"406":-0.1522371619939804,"407":-0.09889265149831772,"408":0.12618018686771393,"409":-0.18501856923103333,"410":0.1455175131559372,"411":-0.08901923149824142,"412":-0.04003676772117615,"413":-0.1836041957139969,"414":-0.023062709718942642,"415":0.13620081543922424,"416":0.1803179681301117,"417":-0.030153345316648483,"418":0.19387617707252502,"419":-0.027703896164894104,"420":-0.016003098338842392,"421":-0.02972276695072651,"422":0.20985665917396545,"423":0.09115191549062729,"424":-0.07628171145915985,"425":-0.1570652574300766,"426":0.023311825469136238,"427":-0.027356961742043495,"428":0.0043696933425962925,"429":-0.041205260902643204,"430":0.14472472667694092,"431":-0.06518801301717758,"432":0.01056789793074131,"433":0.03332629054784775,"434":-0.09494902193546295,"435":0.11071429401636124,"436":-0.0624406635761261,"437":-0.010671844705939293,"438":-0.07409249246120453,"439":-0.003899906761944294,"440":-0.046408940106630325,"441":0.10295236110687256,"442":0.0040376209653913975,"443":0.11546774953603745,"444":0.019424742087721825,"445":-0.012843530625104904,"446":0.014362444169819355,"447":0.07598325610160828,"448":0.08241858333349228,"449":-0.14100736379623413,"450":-0.22104600071907043,"451":-0.05065591260790825,"452":0.026158012449741364,"453":0.11590708792209625,"454":-0.015339257195591927,"455":0.04520965367555618,"456":0.059893760830163956,"457":-0.11719133704900742,"458":0.09176218509674072,"459":-0.11815614253282547,"460":-0.027137666940689087,"461":0.007433405611664057,"462":-0.05181395635008812,"463":-0.1338738203048706,"464":-0.049122005701065063,"465":0.06945601105690002,"466":-0.03308786451816559,"467":0.05836101621389389,"468":0.11701681464910507,"469":0.048723235726356506,"470":0.052042264491319656,"471":-0.0233901496976614,"472":0.1707918792963028,"473":-0.04886842519044876,"474":-0.029159940779209137,"475":-0.03191366791725159,"476":0.02714541181921959,"477":-0.009677765890955925,"478":-0.049547117203474045,"479":0.039725687354803085,"480":-0.1809605211019516,"481":0.10560279339551926,"482":0.01119083259254694,"483":-0.002648897236213088,"484":0.09077443927526474,"485":-0.07927073538303375,"486":0.06478958576917648,"487":0.09836794435977936,"488":-0.032452382147312164,"489":-0.0960812121629715,"490":-0.009519780986011028,"491":-0.16335709393024445,"492":0.0008767425897531211,"493":0.022184865549206734,"494":-0.027382701635360718,"495":0.05478538200259209,"496":-0.05917798727750778,"497":-0.11845013499259949,"498":-0.01863459311425686,"499":0.06217227876186371,"500":0.037135884165763855,"501":0.011145262978971004,"502":-0.0007282618316821754,"503":-0.13331234455108643,"504":-0.08612114936113358,"505":-0.185574471950531,"506":0.15646934509277344,"507":0.028842611238360405,"508":-0.11388755589723587,"509":0.05336778238415718,"510":-0.043445318937301636,"511":0.03199673071503639,"512":0.04408919811248779,"513":0.035670049488544464,"514":-0.10788270831108093,"515":0.05295701324939728,"516":-0.19409345090389252,"517":0.06043195351958275,"518":-0.10082416981458664,"519":0.010646900162100792,"520":-0.011664438992738724,"521":0.007713023107498884,"522":-0.019740736111998558,"523":-0.020965367555618286,"524":0.14390210807323456,"525":-0.3344085216522217,"526":-0.29539021849632263,"527":0.30311888456344604,"528":0.33720943331718445,"529":-0.1839553564786911,"530":0.271037220954895,"531":-0.3559257388114929,"532":-0.2972393035888672,"533":0.27406683564186096,"534":-0.34717151522636414,"535":0.3465624749660492,"536":-0.13082735240459442,"537":-0.24118608236312866,"538":-0.2790808081626892,"539":0.34452417492866516,"540":0.35626220703125,"541":0.24826297163963318,"542":0.2749853730201721,"543":0.360534131526947,"544":-0.25745880603790283,"545":0.36849597096443176,"546":0.35105398297309875,"547":0.3060312867164612,"548":0.33086884021759033,"549":-0.2764641344547272,"550":-0.3692920506000519,"551":-0.2368924766778946,"552":0.3467327654361725,"553":0.2554413080215454,"554":-0.19466593861579895,"555":0.3090265691280365,"556":-0.33996737003326416,"557":-0.24871161580085754,"558":0.24447892606258392,"559":-0.2756345868110657,"560":0.32561013102531433,"561":-0.25464093685150146,"562":-0.3685140609741211,"563":-0.3635021150112152,"564":0.25636011362075806,"565":0.31287312507629395,"566":0.2749369144439697,"567":0.3272101581096649,"568":0.2499181032180786,"569":-0.30082499980926514,"570":0.32364967465400696,"571":0.3628748953342438,"572":0.30660635232925415,"573":0.3163954019546509,"574":-0.37669891119003296,"575":-0.452370285987854,"576":-0.36865878105163574,"577":0.40617960691452026,"578":0.39719080924987793,"579":-0.19389742612838745,"580":0.2603524625301361,"581":-0.28739693760871887,"582":-0.339038610458374,"583":0.40160658955574036,"584":-0.37980419397354126,"585":0.2839859127998352,"586":-0.18873921036720276,"587":-0.2957135736942291,"588":-0.30716702342033386,"589":0.31872934103012085,"590":0.4365568161010742,"591":0.33546939492225647,"592":0.36045917868614197,"593":0.40362510085105896,"594":-0.32358911633491516,"595":0.4181180000305176,"596":0.22941534221172333,"597":0.41273367404937744,"598":0.3416280150413513,"599":-0.40881627798080444,"600":-0.427360475063324,"601":-0.2663690745830536,"602":0.21053439378738403,"603":0.33807146549224854,"604":-0.165341317653656,"605":0.2211991846561432,"606":-0.3612219989299774,"607":-0.34117916226387024,"608":0.30043700337409973,"609":-0.3830253779888153,"610":0.1286994367837906,"611":-0.07834302634000778,"612":-0.3391968011856079,"613":-0.37297502160072327,"614":0.3197823166847229,"615":0.2557668387889862,"616":0.24863843619823456,"617":0.24995057284832,"618":0.3789980411529541,"619":-0.09352097660303116,"620":0.35779327154159546,"621":0.2882339656352997,"622":0.36523860692977905,"623":0.3924348056316376,"624":-0.2586265802383423,"625":0.01290188729763031,"626":0.032993439584970474,"627":-0.034101665019989014,"628":-0.05848008766770363,"629":-0.052124109119176865,"630":-0.015552351251244545,"631":0.056253619492053986,"632":0.05863958224654198,"633":0.006394091062247753,"634":0.0702328160405159,"635":0.020177319645881653,"636":0.006751591339707375,"637":-0.045406147837638855,"638":-0.028771813958883286,"639":0.04409400746226311,"640":0.024848561733961105,"641":-0.06770828366279602,"642":0.004018393345177174,"643":-0.0026614125818014145,"644":-0.07174795866012573,"645":-0.0192423053085804,"646":0.03898744657635689,"647":-0.018191495910286903,"648":-0.009479978121817112,"649":0.07627960294485092}},"hiddenLayers":[{"inputMatrix":{"rows":20,"columns":25,"weights":{"0":0.003153878962621093,"1":0.017939595505595207,"2":0.08075016736984253,"3":0.04886575788259506,"4":-0.04144627973437309,"5":0.0926942229270935,"6":-0.09535929560661316,"7":-0.14584122598171234,"8":0.014890165999531746,"9":-0.037995923310518265,"10":-0.02384701557457447,"11":-0.05366525053977966,"12":-0.004665556363761425,"13":-0.06081132963299751,"14":0.08554781973361969,"15":0.04160961136221886,"16":0.09321746975183487,"17":-0.06995785236358643,"18":0.11008016020059586,"19":-0.03261107578873634,"20":-0.002321417909115553,"21":0.011367183178663254,"22":0.05791625380516052,"23":0.09308210760354996,"24":-0.1194213405251503,"25":-0.0001119088992709294,"26":-0.08376271277666092,"27":0.030019216239452362,"28":0.03405416011810303,"29":0.038065992295742035,"30":0.23078981041908264,"31":-0.045566048473119736,"32":-0.11320538073778152,"33":0.1702423393726349,"34":-0.04784920811653137,"35":0.12421820312738419,"36":-0.09559768438339233,"37":0.02111448347568512,"38":-0.20225843787193298,"39":-0.07370315492153168,"40":0.06934336572885513,"41":0.1932310163974762,"42":-0.016206474974751472,"43":0.16493627429008484,"44":0.02298566699028015,"45":-0.02034122869372368,"46":-0.014646896161139011,"47":0.10206107050180435,"48":0.11524257063865662,"49":-0.12619276344776154,"50":0.09887196123600006,"51":0.12785741686820984,"52":-0.06052306666970253,"53":-0.15294642746448517,"54":-0.16187649965286255,"55":-0.14693719148635864,"56":0.15907365083694458,"57":0.01526732463389635,"58":-0.022889424115419388,"59":0.09086853265762329,"60":-0.03564182668924332,"61":-0.06451224535703659,"62":-0.02285437285900116,"63":-0.0023448613937944174,"64":-0.14493656158447266,"65":0.01277775689959526,"66":-0.17679095268249512,"67":-0.0039510284550487995,"68":-0.12675391137599945,"69":-0.02062257193028927,"70":-0.025722062215209007,"71":-0.022747421637177467,"72":-0.12852847576141357,"73":-0.004142440855503082,"74":0.11836519092321396,"75":-0.018246803432703018,"76":0.0067058587446808815,"77":0.10292385518550873,"78":0.10839927196502686,"79":0.005991087760776281,"80":0.04915088042616844,"81":-0.05009777098894119,"82":-0.08002014458179474,"83":0.13498392701148987,"84":-0.0974482074379921,"85":0.12520888447761536,"86":-0.005520192440599203,"87":0.06587650626897812,"88":-0.16826583445072174,"89":0.036373771727085114,"90":0.04610958322882652,"91":0.14362750947475433,"92":0.06001589074730873,"93":0.04797403886914253,"94":0.04931918904185295,"95":0.09737227857112885,"96":-0.01284638699144125,"97":0.09685701876878738,"98":0.06762845069169998,"99":-0.05588538572192192,"100":-0.00032343046041205525,"101":0.039704784750938416,"102":-0.08878012746572495,"103":-0.15624843537807465,"104":-0.015796514227986336,"105":-0.10467378795146942,"106":0.14802692830562592,"107":0.003463919973000884,"108":-0.07960917800664902,"109":0.04320031404495239,"110":0.01581570692360401,"111":-0.07233327627182007,"112":0.03927818313241005,"113":-0.03786761313676834,"114":-0.06539535522460938,"115":-0.06738362461328506,"116":-0.06493349373340607,"117":-0.07401363551616669,"118":-0.1528661698102951,"119":0.037328507751226425,"120":-0.007198079023510218,"121":-0.02755386009812355,"122":-0.05265815183520317,"123":-0.06394562125205994,"124":0.016756873577833176,"125":0.16223518550395966,"126":0.033624742180109024,"127":-0.0970100611448288,"128":-0.021670227870345116,"129":-0.10311006754636765,"130":0.059035107493400574,"131":0.15637323260307312,"132":-0.02108689956367016,"133":0.04493560642004013,"134":-0.07350853085517883,"135":0.05808459594845772,"136":-0.04522356390953064,"137":0.06413967907428741,"138":-0.2241794615983963,"139":-0.11247199773788452,"140":-0.030705921351909637,"141":-0.018619509413838387,"142":-0.07618000358343124,"143":-0.02067744731903076,"144":0.1284506916999817,"145":0.1526038646697998,"146":-0.16726408898830414,"147":-0.10401888936758041,"148":0.017101991921663284,"149":-0.0024496284313499928,"150":-0.13495254516601562,"151":-0.1530952751636505,"152":0.028236038982868195,"153":0.0921732485294342,"154":-0.00619752099737525,"155":0.10825652629137039,"156":-0.06911539286375046,"157":-0.07670488953590393,"158":0.14791758358478546,"159":-0.14263057708740234,"160":0.09115362167358398,"161":0.013320261612534523,"162":0.06425082683563232,"163":-0.09476003795862198,"164":0.06634732335805893,"165":0.0015335187781602144,"166":0.12374389916658401,"167":0.029609080404043198,"168":0.05885974317789078,"169":0.07146980613470078,"170":-0.008267587050795555,"171":0.06307656317949295,"172":0.07237233221530914,"173":0.014581842347979546,"174":-0.07787977159023285,"175":0.04391850531101227,"176":-0.0011306487722322345,"177":0.0235553290694952,"178":-0.04301728308200836,"179":0.09307040274143219,"180":0.05213120952248573,"181":-0.05651451274752617,"182":-0.019406335428357124,"183":-0.032041266560554504,"184":-0.03593930974602699,"185":0.037255533039569855,"186":-0.07396778464317322,"187":-0.0626409724354744,"188":-0.02646753005683422,"189":-0.0668698251247406,"190":0.08687356859445572,"191":-0.03363675996661186,"192":-0.015902817249298096,"193":0.0391610749065876,"194":0.0644620805978775,"195":-0.003602979239076376,"196":0.07062922418117523,"197":0.10659365355968475,"198":0.07621283829212189,"199":-0.09988053888082504,"200":-0.13070090115070343,"201":-0.03662407770752907,"202":0.13490991294384003,"203":0.10521627962589264,"204":0.06487704068422318,"205":0.18335701525211334,"206":-0.12209748476743698,"207":-0.25827571749687195,"208":0.21532024443149567,"209":-0.22512072324752808,"210":0.1526343822479248,"211":-0.03502630069851875,"212":0.061831098049879074,"213":-0.10335566848516464,"214":0.08138071745634079,"215":0.025249293074011803,"216":0.25842738151550293,"217":0.054076265543699265,"218":0.15438465774059296,"219":0.0659688413143158,"220":0.05904139205813408,"221":0.00452786311507225,"222":0.14696647226810455,"223":0.06939886510372162,"224":-0.23862537741661072,"225":-0.06486781686544418,"226":-0.05812925472855568,"227":-0.013154278509318829,"228":0.04561399668455124,"229":0.07595928013324738,"230":0.06292750686407089,"231":-0.007691362407058477,"232":-0.07939812541007996,"233":0.11866003274917603,"234":-0.002133309841156006,"235":0.06333436071872711,"236":-0.02686372958123684,"237":-0.017033608630299568,"238":-0.024518653750419617,"239":0.04464753717184067,"240":0.07742422074079514,"241":0.0025850976817309856,"242":0.03779000788927078,"243":0.03416510671377182,"244":0.012434064410626888,"245":-0.03892718628048897,"246":-0.04886448383331299,"247":0.06702042371034622,"248":0.008331217803061008,"249":-0.0343109592795372,"250":0.11364753544330597,"251":0.004773179534822702,"252":0.004150475841015577,"253":-0.043955668807029724,"254":-0.05331799015402794,"255":-0.11292175948619843,"256":0.00010845758515642956,"257":0.1347734034061432,"258":-0.0920351892709732,"259":0.05936722457408905,"260":-0.05242717266082764,"261":-0.08009044826030731,"262":-0.04422282055020332,"263":0.0697048082947731,"264":-0.10684634745121002,"265":-0.07099176198244095,"266":-0.10017773509025574,"267":-0.003422943875193596,"268":-0.14139482378959656,"269":0.056727807968854904,"270":0.10042109340429306,"271":-0.07576560229063034,"272":-0.13504283130168915,"273":-0.019983045756816864,"274":0.0186651349067688,"275":-0.06505787372589111,"276":-0.09877514839172363,"277":0.18416184186935425,"278":0.21790434420108795,"279":0.09493855386972427,"280":0.15313337743282318,"281":-0.05043702945113182,"282":-0.16063693165779114,"283":0.25236010551452637,"284":-0.1968134343624115,"285":0.10623437911272049,"286":-0.09154924005270004,"287":0.025924107059836388,"288":-0.21772195398807526,"289":0.09781888872385025,"290":0.11119502037763596,"291":0.234702467918396,"292":0.0798000767827034,"293":0.2027471959590912,"294":-0.019345451146364212,"295":0.0630369484424591,"296":0.05278816074132919,"297":0.18730401992797852,"298":0.04163695126771927,"299":-0.22103092074394226,"300":-0.028083277866244316,"301":0.017126349732279778,"302":0.01960565708577633,"303":-0.04569441080093384,"304":0.0134965181350708,"305":-0.05997368320822716,"306":0.06718087196350098,"307":0.032614096999168396,"308":-0.03444148227572441,"309":0.07202934473752975,"310":0.021879790350794792,"311":0.015104932710528374,"312":0.03012423776090145,"313":0.04559377580881119,"314":-0.056198976933956146,"315":-0.08351654559373856,"316":0.004468976985663176,"317":-0.057925887405872345,"318":0.035368695855140686,"319":-0.028519418090581894,"320":0.037423305213451385,"321":-0.07036161422729492,"322":-0.05781806260347366,"323":-0.08976012468338013,"324":-0.03151673078536987,"325":-0.02389705181121826,"326":-0.09021946787834167,"327":0.062194500118494034,"328":0.07000970840454102,"329":0.10664941370487213,"330":0.18597859144210815,"331":-0.06147352606058121,"332":-0.10066504031419754,"333":0.021478483453392982,"334":-0.08407307416200638,"335":-0.06590254604816437,"336":0.020753251388669014,"337":0.043957021087408066,"338":-0.08776725083589554,"339":0.007471572607755661,"340":-0.0335574634373188,"341":0.12546728551387787,"342":-0.07218465209007263,"343":0.04716985300183296,"344":0.05381236597895622,"345":0.01817679964005947,"346":-0.01661563292145729,"347":0.06052162125706673,"348":-0.010845375247299671,"349":-0.049074865877628326,"350":-0.11372820287942886,"351":-0.010803264565765858,"352":0.0609845332801342,"353":0.03009498119354248,"354":0.08100440353155136,"355":0.02353830635547638,"356":-0.07291299104690552,"357":-0.13149596750736237,"358":0.09002923965454102,"359":-0.06119517236948013,"360":0.031103497371077538,"361":-0.041951410472393036,"362":0.005969196557998657,"363":-0.09724413603544235,"364":0.011844768188893795,"365":0.022847875952720642,"366":0.08383268862962723,"367":-0.04555780068039894,"368":0.103249192237854,"369":-0.051925741136074066,"370":-0.032941825687885284,"371":0.05543576553463936,"372":0.07966002821922302,"373":0.042149145156145096,"374":-0.0482572577893734,"375":0.09178420156240463,"376":-0.03280123323202133,"377":-0.008626047521829605,"378":-0.10443510860204697,"379":-0.07526187598705292,"380":-0.11475365608930588,"381":0.013458344154059887,"382":0.04387678578495979,"383":-0.039526429027318954,"384":0.08892642706632614,"385":0.05923570320010185,"386":-0.07409293949604034,"387":0.07331497222185135,"388":-0.07230593264102936,"389":-0.11695481836795807,"390":0.010361036285758018,"391":-0.0991595983505249,"392":0.012320084497332573,"393":-0.08723964542150497,"394":0.07840146124362946,"395":0.043624479323625565,"396":-0.0022957283072173595,"397":-0.07034185528755188,"398":-0.035412032157182693,"399":0.054385196417570114,"400":-0.10818351805210114,"401":-0.10125552862882614,"402":0.08486993610858917,"403":0.10744611918926239,"404":0.1321011334657669,"405":0.18794670701026917,"406":-0.03728732839226723,"407":-0.1707664281129837,"408":0.1835181564092636,"409":-0.12450489401817322,"410":0.11434117704629898,"411":-0.04488382488489151,"412":0.046389345079660416,"413":-0.19182024896144867,"414":0.08371785283088684,"415":0.015112855471670628,"416":0.21516595780849457,"417":0.07712456583976746,"418":0.1662004441022873,"419":0.14347392320632935,"420":0.05738506466150284,"421":0.0633949264883995,"422":0.15671564638614655,"423":-0.00017099584511015564,"424":-0.15874873101711273,"425":0.05500447005033493,"426":0.004103296902030706,"427":0.05510209873318672,"428":-0.024587418884038925,"429":0.07784583419561386,"430":0.08972854912281036,"431":-0.05856267362833023,"432":-0.04324432834982872,"433":0.08603914827108383,"434":-0.07890114188194275,"435":-0.07607859373092651,"436":-0.015237848274409771,"437":-0.02003336511552334,"438":-0.03788477182388306,"439":0.01020212471485138,"440":0.07168363034725189,"441":0.08826246112585068,"442":-0.044650062918663025,"443":-0.030789576470851898,"444":-0.04053882136940956,"445":0.015062202699482441,"446":-0.07621265947818756,"447":-0.055948130786418915,"448":-0.0764365866780281,"449":0.0001347958022961393,"450":-0.044028397649526596,"451":0.00727935740724206,"452":0.054007403552532196,"453":0.008134189061820507,"454":0.07031062990427017,"455":0.1936970353126526,"456":-0.06901337206363678,"457":-0.06966999173164368,"458":0.08137831091880798,"459":-0.1300603747367859,"460":-0.00492893299087882,"461":-0.008895288221538067,"462":0.021773705258965492,"463":-0.12724845111370087,"464":0.029771707952022552,"465":0.009519984945654869,"466":0.06302578002214432,"467":0.026196997612714767,"468":-0.005989197175949812,"469":0.07362900674343109,"470":0.08170332759618759,"471":-0.054186977446079254,"472":0.09583134949207306,"473":-0.06051081418991089,"474":-0.13043123483657837,"475":-0.061999548226594925,"476":-0.13591539859771729,"477":0.008533411659300327,"478":0.18288108706474304,"479":-0.02376086823642254,"480":0.10002116858959198,"481":-0.06737548857927322,"482":-0.19684402644634247,"483":0.1781073361635208,"484":-0.10542017966508865,"485":0.0759550929069519,"486":0.01888960599899292,"487":0.10479898005723953,"488":-0.12176556885242462,"489":-0.018689341843128204,"490":0.12659157812595367,"491":0.11444096267223358,"492":-0.0406956672668457,"493":0.11897454410791397,"494":-0.025464490056037903,"495":-0.04775790497660637,"496":-0.06207190454006195,"497":0.21847662329673767,"498":0.03143239766359329,"499":-0.08225169032812119}},"inputHidden":{"rows":20,"columns":20,"weights":{"0":0.004023598972707987,"1":0.0165198165923357,"2":-0.05568806454539299,"3":-0.07587570697069168,"4":0.051734961569309235,"5":0.06395136564970016,"6":-0.029514919966459274,"7":-0.02706787921488285,"8":0.061406295746564865,"9":0.08290056139230728,"10":-0.013651736080646515,"11":0.06166186183691025,"12":-0.013398680835962296,"13":-0.06394704431295395,"14":-0.06289204955101013,"15":0.06583210825920105,"16":-0.0005842500831931829,"17":-0.07880795747041702,"18":-0.041102129966020584,"19":0.0194095391780138,"20":-0.09580698609352112,"21":0.1934799700975418,"22":-0.12534402310848236,"23":-0.006613539066165686,"24":-0.07133214175701141,"25":0.16315653920173645,"26":0.09681478887796402,"27":-0.054147277027368546,"28":-0.13448840379714966,"29":0.18218369781970978,"30":-0.03933165967464447,"31":0.12629082798957825,"32":0.0380069836974144,"33":0.003150711767375469,"34":0.1262519508600235,"35":-0.02974260225892067,"36":0.18458107113838196,"37":-0.047201868146657944,"38":0.1284066140651703,"39":-0.03581804409623146,"40":0.0080318758264184,"41":0.141065776348114,"42":-0.05973178520798683,"43":-0.053612057119607925,"44":-0.10110627859830856,"45":0.15452875196933746,"46":0.10817361623048782,"47":-0.03372863680124283,"48":-0.040496379137039185,"49":0.10502959787845612,"50":0.0368889719247818,"51":0.051798801869153976,"52":-0.02697380818426609,"53":-0.04960724338889122,"54":0.1008530780673027,"55":-0.13346557319164276,"56":0.13198372721672058,"57":-0.013797716237604618,"58":-0.015977147966623306,"59":-0.12994183599948883,"60":0.010249785147607327,"61":0.16761146485805511,"62":-0.002518101828172803,"63":-0.09552902728319168,"64":0.0007664228905923665,"65":0.004579382017254829,"66":0.07416418194770813,"67":0.02351043000817299,"68":-0.037716083228588104,"69":0.13422392308712006,"70":0.029142141342163086,"71":0.014607180841267109,"72":-0.08377468585968018,"73":0.04029756411910057,"74":0.10964662581682205,"75":-0.09017913788557053,"76":0.0505547933280468,"77":-0.0770144835114479,"78":0.006480599287897348,"79":-0.06314454972743988,"80":0.02576819807291031,"81":0.11455612629652023,"82":-0.14839909970760345,"83":-0.13003961741924286,"84":-0.07966161519289017,"85":0.19526731967926025,"86":0.04361202195286751,"87":-0.07606413215398788,"88":-0.1096959039568901,"89":0.079322449862957,"90":0.08481147140264511,"91":0.13194797933101654,"92":-0.04380512237548828,"93":-0.037631962448358536,"94":0.07723932713270187,"95":-0.13722845911979675,"96":0.175757497549057,"97":0.09681577980518341,"98":0.017168816179037094,"99":-0.1623111218214035,"100":-0.0883159190416336,"101":0.28952649235725403,"102":-0.11579179763793945,"103":-0.10383683443069458,"104":-0.25286826491355896,"105":0.2814866900444031,"106":0.10256873071193695,"107":-0.1540684551000595,"108":-0.22313642501831055,"109":0.1792701929807663,"110":0.004975226707756519,"111":0.04675259441137314,"112":-0.09886376559734344,"113":-0.043784454464912415,"114":0.016889840364456177,"115":-0.08524803072214127,"116":0.1908288300037384,"117":0.10836195200681686,"118":0.1906111091375351,"119":-0.14129427075386047,"120":0.04546230658888817,"121":0.08386503905057907,"122":-0.08513711392879486,"123":-0.07469374686479568,"124":-0.000414806796470657,"125":0.08397593349218369,"126":0.0839444100856781,"127":-0.013426525518298149,"128":-0.05279804766178131,"129":0.12163300067186356,"130":-0.03149157389998436,"131":0.07717966288328171,"132":-0.02027447335422039,"133":-0.020642055198550224,"134":-0.007997885346412659,"135":0.028732657432556152,"136":0.017880726605653763,"137":0.00390412169508636,"138":-0.02923208847641945,"139":-0.12032865732908249,"140":0.010601830668747425,"141":0.0006223836098797619,"142":0.04840726777911186,"143":-0.07145100831985474,"144":-0.05140179023146629,"145":-0.07377701252698898,"146":0.006444035563617945,"147":-0.047559693455696106,"148":-0.05540437623858452,"149":-0.04247931391000748,"150":-0.04645940661430359,"151":0.04525107145309448,"152":-0.06968677788972855,"153":-0.059249162673950195,"154":0.0016579785151407123,"155":0.0206459853798151,"156":0.03222515061497688,"157":-0.02455615997314453,"158":-0.05184382200241089,"159":-0.0015485672047361732,"160":-0.03263268619775772,"161":0.1431066393852234,"162":-0.06347701698541641,"163":-0.057486772537231445,"164":-0.12724679708480835,"165":0.11725007742643356,"166":0.15555612742900848,"167":-0.10436716675758362,"168":-0.09183748811483383,"169":0.13269241154193878,"170":-0.005561853758990765,"171":0.06615126878023148,"172":-0.08720875531435013,"173":-0.06650137901306152,"174":0.03869626671075821,"175":-0.065094493329525,"176":0.13709793984889984,"177":0.021783307194709778,"178":-0.012023884803056717,"179":-0.029238132759928703,"180":0.048739951103925705,"181":0.10988074541091919,"182":-0.06753348559141159,"183":0.0410558357834816,"184":0.05353287234902382,"185":0.08890567719936371,"186":-0.018843209370970726,"187":0.06213711202144623,"188":0.028191998600959778,"189":-0.023617910221219063,"190":0.07025083154439926,"191":0.01074546854943037,"192":0.04206914082169533,"193":-0.04249545559287071,"194":0.07396300137042999,"195":0.030276095494627953,"196":0.10663364082574844,"197":-0.05827327445149422,"198":-0.01575808972120285,"199":-0.07669200748205185,"200":-0.07485882937908173,"201":0.09590630233287811,"202":-0.022223947569727898,"203":0.039981771260499954,"204":-0.09996996819972992,"205":0.014077491126954556,"206":0.1124584898352623,"207":0.015315711498260498,"208":-0.041268885135650635,"209":0.033524513244628906,"210":-0.0649624913930893,"211":0.0594036728143692,"212":0.02588556334376335,"213":0.06260740011930466,"214":-0.042193710803985596,"215":0.0282945167273283,"216":0.04325895011425018,"217":-0.010829350911080837,"218":0.03109857812523842,"219":-0.09860868006944656,"220":-0.005518889520317316,"221":0.10342490673065186,"222":-0.02549283765256405,"223":-0.027094654738903046,"224":-0.0966380313038826,"225":0.029241090640425682,"226":0.1567198634147644,"227":-0.04188944399356842,"228":-0.008942504413425922,"229":0.12744784355163574,"230":-0.016179943457245827,"231":0.09854046255350113,"232":-0.09969358891248703,"233":-0.1086127981543541,"234":0.07361051440238953,"235":-0.09225981682538986,"236":0.05978432297706604,"237":0.053143374621868134,"238":0.017442001029849052,"239":-0.0934770256280899,"240":-0.03600997105240822,"241":-0.005918379873037338,"242":-0.0004559808876365423,"243":0.04614110291004181,"244":0.06018442660570145,"245":-0.01991458609700203,"246":-0.046170733869075775,"247":-0.061641328036785126,"248":-0.009738362394273281,"249":0.06871603429317474,"250":0.06778360158205032,"251":0.07353828847408295,"252":0.02659570798277855,"253":-0.032236937433481216,"254":0.007992465980350971,"255":0.055057600140571594,"256":0.05096767097711563,"257":0.03067687340080738,"258":0.060321081429719925,"259":0.016749810427427292,"260":-0.039100732654333115,"261":0.0322074294090271,"262":0.02688315324485302,"263":0.061576005071401596,"264":0.040575988590717316,"265":-0.09390566498041153,"266":0.05508207529783249,"267":0.07330964505672455,"268":-0.005438188556581736,"269":-0.026254724711179733,"270":-0.07200399786233902,"271":0.07070405036211014,"272":0.039171889424324036,"273":-0.054832134395837784,"274":0.009845213033258915,"275":-0.05747702345252037,"276":0.06752224266529083,"277":-0.02736097387969494,"278":-0.06827358901500702,"279":0.03827834501862526,"280":-0.0586901530623436,"281":-0.05936875194311142,"282":-0.06132429838180542,"283":-0.05339204892516136,"284":0.02396700158715248,"285":-0.00209078099578619,"286":0.03999772667884827,"287":-0.07934089004993439,"288":0.05945375934243202,"289":-0.047010354697704315,"290":0.07218363881111145,"291":-0.05560421943664551,"292":0.030174337327480316,"293":0.04659891501069069,"294":0.05858662351965904,"295":-0.05364639312028885,"296":0.03335430100560188,"297":-0.028006557375192642,"298":0.020047910511493683,"299":0.06318379938602448,"300":-0.01915266364812851,"301":0.008395492099225521,"302":-0.11640139669179916,"303":-0.03650302067399025,"304":-0.023211870342493057,"305":0.04794583097100258,"306":0.093912273645401,"307":-0.029019298031926155,"308":-0.09739221632480621,"309":0.0815163254737854,"310":0.06717284768819809,"311":0.07483319193124771,"312":0.012379209510982037,"313":-0.005278178956359625,"314":-0.050655730068683624,"315":-0.032417092472314835,"316":-0.0021060225553810596,"317":-0.01948447711765766,"318":0.09510280936956406,"319":-0.07220254838466644,"320":0.02516227774322033,"321":0.10875977575778961,"322":-0.053182221949100494,"323":-0.07940832525491714,"324":-0.06638887524604797,"325":0.1514860987663269,"326":0.007970188744366169,"327":-0.11558600515127182,"328":-0.0033779661171138287,"329":0.06980478763580322,"330":-0.0589398629963398,"331":-0.03703290596604347,"332":0.041155822575092316,"333":-0.02114241011440754,"334":-0.012456385418772697,"335":-0.027184493839740753,"336":0.16833579540252686,"337":-0.08906487375497818,"338":0.11729583144187927,"339":-0.10564610362052917,"340":0.06812428683042526,"341":0.04950493201613426,"342":0.016203826293349266,"343":0.051434095948934555,"344":0.07413806021213531,"345":0.07526542246341705,"346":-0.05863770470023155,"347":-0.04246087744832039,"348":0.0441160574555397,"349":-0.024342814460396767,"350":-0.03720220923423767,"351":0.04787313565611839,"352":-0.06760478019714355,"353":0.0488482341170311,"354":0.03886814042925835,"355":-0.06320200115442276,"356":0.07801278680562973,"357":-0.037955235689878464,"358":0.03720741719007492,"359":0.02439079061150551,"360":-0.0032041913364082575,"361":0.05715715140104294,"362":-0.019002359360456467,"363":-0.03605768829584122,"364":-0.10228247940540314,"365":0.003709062933921814,"366":0.04437443986535072,"367":-0.08555223792791367,"368":-0.015945088118314743,"369":-0.00824710726737976,"370":-0.07324803620576859,"371":0.039727285504341125,"372":0.027536913752555847,"373":-0.11070297658443451,"374":0.02903367578983307,"375":-0.0719313770532608,"376":0.060601282864809036,"377":0.0226590596139431,"378":-0.03430509939789772,"379":0.008484688587486744,"380":0.02189071848988533,"381":0.10611703991889954,"382":-0.03532058745622635,"383":-0.056604381650686264,"384":-0.072417713701725,"385":0.04695137217640877,"386":0.10935015231370926,"387":-0.08636952191591263,"388":-0.09606092423200607,"389":0.09364543855190277,"390":-0.021428029984235764,"391":0.03248681128025055,"392":-0.026976633816957474,"393":-0.010521342977881432,"394":-0.02896104007959366,"395":0.05893208831548691,"396":0.07670002430677414,"397":-0.09981001168489456,"398":0.07711843401193619,"399":-0.12556280195713043}},"inputBias":{"rows":20,"columns":1,"weights":{"0":0.007272168528288603,"1":-0.25159022212028503,"2":-0.16989846527576447,"3":-0.09016092866659164,"4":-0.2035299390554428,"5":-0.27433714270591736,"6":-0.1307167112827301,"7":-0.014576820656657219,"8":-0.15688401460647583,"9":-0.05006380006670952,"10":-0.060742203146219254,"11":-0.1988901048898697,"12":-0.03968622535467148,"13":0.008421395905315876,"14":-0.056382305920124054,"15":-0.0870586708188057,"16":-0.12542246282100677,"17":-0.025745496153831482,"18":-0.05586189776659012,"19":-0.20012448728084564}},"forgetMatrix":{"rows":20,"columns":25,"weights":{"0":-0.004207218997180462,"1":-0.0020642683375626802,"2":-0.0010405104840174317,"3":-0.060793813318014145,"4":0.052712101489305496,"5":-0.020108558237552643,"6":-0.006657678168267012,"7":0.046700235456228256,"8":0.05046554654836655,"9":0.043206725269556046,"10":0.0016345992917194963,"11":0.04060488939285278,"12":0.06434596329927444,"13":-0.00005175782280275598,"14":-0.02913169376552105,"15":0.046886980533599854,"16":0.0315152183175087,"17":0.00927828997373581,"18":-0.02980850078165531,"19":0.08848068863153458,"20":0.05646200850605965,"21":-0.04337865114212036,"22":-0.020691517740488052,"23":-0.07061883807182312,"24":0.014722011052072048,"25":0.028544723987579346,"26":0.08082548528909683,"27":0.02111484669148922,"28":0.05844322592020035,"29":-0.08329598605632782,"30":0.028750915080308914,"31":-0.054113250225782394,"32":0.06743734329938889,"33":-0.031246038153767586,"34":-0.035242728888988495,"35":0.049494050443172455,"36":-0.03382396697998047,"37":-0.07795524597167969,"38":-0.0126981595531106,"39":-0.009885678999125957,"40":0.01764145866036415,"41":-0.08242268115282059,"42":0.019066322594881058,"43":-0.05096449330449104,"44":0.08971448242664337,"45":0.06541868299245834,"46":0.0053125894628465176,"47":-0.10547985136508942,"48":-0.018969835713505745,"49":0.08348114788532257,"50":0.017789434641599655,"51":-0.024490440264344215,"52":0.03579987958073616,"53":-0.09916811436414719,"54":0.058857183903455734,"55":0.037752147763967514,"56":0.05499301105737686,"57":0.07006453722715378,"58":-0.011512529104948044,"59":0.03627823293209076,"60":0.01956718973815441,"61":0.010679875500500202,"62":0.004211679566651583,"63":0.004390541464090347,"64":-0.018963005393743515,"65":-0.014995490200817585,"66":0.007791772950440645,"67":-0.0017454042099416256,"68":-0.03705199807882309,"69":0.011848094873130322,"70":0.0433870404958725,"71":-0.012506967410445213,"72":-0.0975189208984375,"73":-0.05408116802573204,"74":-0.03859613090753555,"75":0.07925687730312347,"76":-0.06532908976078033,"77":0.053547728806734085,"78":-0.03888119384646416,"79":-0.07215273380279541,"80":0.06260433793067932,"81":-0.027145687490701675,"82":-0.05037925764918327,"83":-0.02495802938938141,"84":0.018510503694415092,"85":0.04235375300049782,"86":-0.0611090287566185,"87":0.018055085092782974,"88":-0.04460872337222099,"89":0.011285031214356422,"90":-0.04741860553622246,"91":-0.04528616741299629,"92":0.059742413461208344,"93":-0.06407914310693741,"94":0.009888285771012306,"95":0.06195523589849472,"96":-0.01841915398836136,"97":0.005724499933421612,"98":-0.018888937309384346,"99":-0.030372872948646545,"100":-0.017361482605338097,"101":0.08605646342039108,"102":-0.007092236541211605,"103":0.028319155797362328,"104":-0.09056385606527328,"105":0.0468231737613678,"106":-0.010000999085605145,"107":0.04334418475627899,"108":-0.008436950854957104,"109":0.073239266872406,"110":0.029262211173772812,"111":-0.08355005085468292,"112":0.035075969994068146,"113":-0.06246628239750862,"114":-0.04743345081806183,"115":0.03566373884677887,"116":0.047773268073797226,"117":-0.0011592062655836344,"118":-0.052808117121458054,"119":0.07075575739145279,"120":0.08920630812644958,"121":-0.07738034427165985,"122":-0.04061844199895859,"123":0.04915546625852585,"124":0.05863400921225548,"125":0.04435519129037857,"126":-0.020871419459581375,"127":-0.15056779980659485,"128":-0.09202107787132263,"129":-0.08156056702136993,"130":0.012882506474852562,"131":0.0775567889213562,"132":-0.017460741102695465,"133":0.028032079339027405,"134":0.03801356628537178,"135":-0.03405440226197243,"136":-0.04914490133523941,"137":-0.0032874210737645626,"138":-0.05329403653740883,"139":-0.09119176864624023,"140":-0.07736289501190186,"141":-0.07063639909029007,"142":-0.05907599255442619,"143":-0.02737756446003914,"144":-0.010022790171205997,"145":0.013593930751085281,"146":-0.07488241046667099,"147":-0.10609056055545807,"148":0.025286439806222916,"149":-0.01758984848856926,"150":-0.055661872029304504,"151":-0.0016437199665233493,"152":0.020488033071160316,"153":-0.03924174606800079,"154":-0.006201845593750477,"155":0.09676548838615417,"156":-0.03042965941131115,"157":-0.04968870058655739,"158":0.09891875833272934,"159":0.0030083172023296356,"160":0.018950145691633224,"161":-0.08145502209663391,"162":0.049326229840517044,"163":-0.10367283970117569,"164":-0.09107812494039536,"165":0.03400509059429169,"166":0.08312909305095673,"167":0.07352980226278305,"168":0.05686537176370621,"169":0.04184848815202713,"170":-0.008390754461288452,"171":-0.00920801144093275,"172":-0.022146141156554222,"173":0.07718753814697266,"174":-0.01913633570075035,"175":-0.012821275740861893,"176":-0.03740481287240982,"177":0.0024486463516950607,"178":0.02369573339819908,"179":-0.06777595728635788,"180":0.06860364228487015,"181":0.006226870231330395,"182":0.021665630862116814,"183":0.06255891174077988,"184":-0.019982116296887398,"185":0.01019629929214716,"186":-0.007683830335736275,"187":0.0004696027608588338,"188":0.011149886064231396,"189":-0.03800749406218529,"190":-0.07686364650726318,"191":-0.023646220564842224,"192":0.03860809653997421,"193":-0.05270443111658096,"194":0.04749291017651558,"195":0.0015039794379845262,"196":-0.014803959056735039,"197":-0.02705506794154644,"198":0.07756756246089935,"199":0.03412746638059616,"200":0.06624967604875565,"201":0.04700600728392601,"202":-0.10870178788900375,"203":0.016356676816940308,"204":-0.06975190341472626,"205":-0.06277189403772354,"206":-0.050543900579214096,"207":0.017654133960604668,"208":-0.02550067938864231,"209":0.03316795825958252,"210":0.0592929981648922,"211":0.05457420274615288,"212":-0.012011428363621235,"213":-0.0381113737821579,"214":-0.06925727427005768,"215":0.04329682141542435,"216":-0.003132718149572611,"217":-0.020520664751529694,"218":-0.011855032294988632,"219":-0.014687418937683105,"220":0.07116883993148804,"221":0.009023481048643589,"222":-0.021129203960299492,"223":0.07100564986467361,"224":-0.02499733865261078,"225":-0.05038363113999367,"226":0.007920143194496632,"227":0.025779964402318,"228":-0.05516728013753891,"229":-0.026720693334937096,"230":-0.01777530647814274,"231":0.0012281693052500486,"232":0.028862720355391502,"233":-0.016894057393074036,"234":-0.012034968473017216,"235":0.060590483248233795,"236":-0.025517022237181664,"237":-0.06913226842880249,"238":-0.07623917609453201,"239":0.049453333020210266,"240":0.015254889614880085,"241":-0.06277476996183395,"242":-0.041380323469638824,"243":0.0038101428654044867,"244":-0.03771273419260979,"245":0.07058237493038177,"246":0.06329155713319778,"247":0.0036792128812521696,"248":0.020788731053471565,"249":-0.07036327570676804,"250":0.0687672346830368,"251":-0.03249635919928551,"252":-0.029582113027572632,"253":-0.02236604131758213,"254":0.003232286311686039,"255":-0.0174280796200037,"256":0.02152768149971962,"257":0.04786933586001396,"258":0.03312084823846817,"259":0.07481526583433151,"260":0.026108672842383385,"261":-0.0029890716541558504,"262":0.04928108677268028,"263":0.031597405672073364,"264":0.05123523995280266,"265":-0.005035685375332832,"266":-0.05139326676726341,"267":-0.025373419746756554,"268":0.02815197966992855,"269":0.07239804416894913,"270":0.006875944323837757,"271":-0.06667084991931915,"272":0.01345212571322918,"273":-0.0664091557264328,"274":0.04360514134168625,"275":-0.010002873837947845,"276":0.017869286239147186,"277":-0.09579731523990631,"278":-0.009212594479322433,"279":0.06800426542758942,"280":-0.01093469001352787,"281":0.06933785229921341,"282":0.033098332583904266,"283":-0.052183542400598526,"284":0.03960582986474037,"285":0.00021171104162931442,"286":-0.015877651050686836,"287":0.06093098223209381,"288":0.07187347859144211,"289":0.012986444868147373,"290":0.05867008864879608,"291":-0.06873941421508789,"292":-0.0387331023812294,"293":0.038834329694509506,"294":-0.02147211879491806,"295":0.04942815750837326,"296":-0.012791767716407776,"297":-0.08802954852581024,"298":0.04002675414085388,"299":-0.06339238584041595,"300":-0.06540409475564957,"301":-0.04350011795759201,"302":-0.0782255306839943,"303":-0.07471603155136108,"304":-0.0015815375372767448,"305":0.01717388816177845,"306":0.00015717001224402338,"307":-0.011336171999573708,"308":-0.05186085030436516,"309":0.0039046872407197952,"310":-0.04125456511974335,"311":-0.05898681655526161,"312":-0.07776954025030136,"313":-0.01832999289035797,"314":-0.012514215894043446,"315":-0.03922739624977112,"316":-0.0064413826912641525,"317":-0.07391541451215744,"318":0.010052197612822056,"319":0.0062800245359539986,"320":-0.049508675932884216,"321":0.06414629518985748,"322":0.04922548308968544,"323":-0.07767993956804276,"324":0.06563299894332886,"325":0.03263995423913002,"326":-0.06821011006832123,"327":-0.02804253064095974,"328":0.042337995022535324,"329":-0.05703866481781006,"330":-0.05497785285115242,"331":0.03085940331220627,"332":-0.06456383317708969,"333":-0.016875065863132477,"334":-0.007538908626884222,"335":0.07336448132991791,"336":-0.05479152873158455,"337":0.051566410809755325,"338":-0.05365592986345291,"339":-0.011910327710211277,"340":0.061954695731401443,"341":0.01874842308461666,"342":-0.024166187271475792,"343":0.08006291091442108,"344":-0.029170526191592216,"345":-0.017935218289494514,"346":0.057326771318912506,"347":-0.025515710934996605,"348":-0.0039971196092665195,"349":0.06223141774535179,"350":-0.032023835927248,"351":0.05466548353433609,"352":-0.03290785476565361,"353":-0.002421550452709198,"354":0.07819980382919312,"355":-0.010588660836219788,"356":0.03499096259474754,"357":0.0699252337217331,"358":-0.011224542744457722,"359":-0.0737742930650711,"360":-0.06429482996463776,"361":-0.01596701517701149,"362":0.03937041014432907,"363":0.012225932441651821,"364":0.03578367456793785,"365":-0.022575287148356438,"366":-0.03717584162950516,"367":0.017099529504776,"368":0.019494328647851944,"369":0.007756845094263554,"370":0.030388426035642624,"371":-0.018707172945141792,"372":0.011598427779972553,"373":0.05431888625025749,"374":0.024059448391199112,"375":0.03185261785984039,"376":-0.01590733975172043,"377":-0.08890092372894287,"378":0.053311899304389954,"379":0.05643312260508537,"380":-0.07471881806850433,"381":-0.008569671772420406,"382":0.06912298500537872,"383":0.051087234169244766,"384":-0.013968798331916332,"385":0.07655728608369827,"386":0.0010395138524472713,"387":0.0049444530159235,"388":-0.013043064624071121,"389":0.018939631059765816,"390":0.030198436230421066,"391":-0.05743543803691864,"392":0.06236827373504639,"393":0.04203663021326065,"394":0.0387997105717659,"395":0.08314546197652817,"396":0.0386885441839695,"397":-0.07313888520002365,"398":-0.034629274159669876,"399":0.030332718044519424,"400":-0.024417893961071968,"401":0.026006342843174934,"402":-0.05172836408019066,"403":0.07366471737623215,"404":-0.010323346592485905,"405":0.005111400969326496,"406":0.05965746194124222,"407":0.007942622527480125,"408":0.01162914838641882,"409":-0.02861492894589901,"410":0.06223714351654053,"411":-0.0030002857092767954,"412":0.06847655773162842,"413":0.042224522680044174,"414":-0.09828875958919525,"415":-0.07624056935310364,"416":0.09430769085884094,"417":0.032449714839458466,"418":0.03728260472416878,"419":0.1061185747385025,"420":0.045878175646066666,"421":0.030084863305091858,"422":-0.08547405898571014,"423":0.06346385180950165,"424":0.01563868671655655,"425":-0.0049951463006436825,"426":-0.015839478000998497,"427":-0.0735672265291214,"428":-0.02588886395096779,"429":0.08093003928661346,"430":-0.057912833988666534,"431":-0.03532395511865616,"432":0.006653964519500732,"433":-0.02401961199939251,"434":0.03858746215701103,"435":-0.00021339280647225678,"436":-0.018892958760261536,"437":-0.036887530237436295,"438":0.011886365711688995,"439":0.03444135934114456,"440":0.06493508815765381,"441":-0.046851348131895065,"442":0.06277740001678467,"443":0.07116162776947021,"444":0.069902703166008,"445":0.022497551515698433,"446":-0.0037229021545499563,"447":0.027277354151010513,"448":0.0272847767919302,"449":-0.020217865705490112,"450":0.06665737926959991,"451":0.012629770673811436,"452":-0.09256022423505783,"453":-0.08035767823457718,"454":0.06588131189346313,"455":-0.06698903441429138,"456":0.002545382361859083,"457":-0.053865574300289154,"458":-0.008673700504004955,"459":-0.018118534237146378,"460":0.06700246036052704,"461":0.0623968206346035,"462":0.01219869963824749,"463":-0.00681839557364583,"464":0.06128668412566185,"465":0.032995447516441345,"466":-0.035993680357933044,"467":0.03028993122279644,"468":-0.07618513703346252,"469":-0.03412801772356033,"470":0.04861562326550484,"471":0.027767349034547806,"472":-0.013604243285953999,"473":-0.016935493797063828,"474":0.029105307534337044,"475":0.0058310916647315025,"476":-0.00651087099686265,"477":-0.08048499375581741,"478":-0.036299027502536774,"479":0.01835964247584343,"480":-0.03813514485955238,"481":-0.025915032252669334,"482":-0.0753827691078186,"483":0.0807776004076004,"484":0.03873324394226074,"485":-0.030351955443620682,"486":-0.05299627408385277,"487":-0.004730657674372196,"488":0.06140223145484924,"489":-0.07895507663488388,"490":-0.015435650013387203,"491":-0.02577984519302845,"492":0.07739584892988205,"493":0.028089111670851707,"494":-0.001336839864961803,"495":0.09435566514730453,"496":0.013954181224107742,"497":-0.07960387319326401,"498":-0.013961751013994217,"499":0.028070572763681412}},"forgetHidden":{"rows":20,"columns":20,"weights":{"0":0.07010391354560852,"1":-0.0296628475189209,"2":-0.02239411137998104,"3":-0.044113416224718094,"4":-0.015018229372799397,"5":0.08300793170928955,"6":0.037522073835134506,"7":-0.009149393998086452,"8":0.052304383367300034,"9":-0.04685741662979126,"10":-0.02916911616921425,"11":0.0570109486579895,"12":0.004483309108763933,"13":0.050611961632966995,"14":0.08670920133590698,"15":0.014264879748225212,"16":0.027423206716775894,"17":-0.03014238178730011,"18":0.05715803802013397,"19":-0.042947184294462204,"20":0.0029778077732771635,"21":0.14524459838867188,"22":0.025492200627923012,"23":-0.05127304047346115,"24":-0.0631297379732132,"25":0.15226197242736816,"26":-0.009823674336075783,"27":-0.04500840604305267,"28":0.026707829907536507,"29":0.06428618729114532,"30":0.040475260466337204,"31":0.0326913446187973,"32":-0.0440562441945076,"33":0.00108385703060776,"34":-0.02446119114756584,"35":0.0209150779992342,"36":0.02146761491894722,"37":0.010286820121109486,"38":0.050077810883522034,"39":-0.07432093471288681,"40":0.05140642821788788,"41":0.08387468010187149,"42":-0.011726444587111473,"43":-0.07047446072101593,"44":-0.06385453045368195,"45":0.08527521044015884,"46":0.07856688648462296,"47":-0.05881456285715103,"48":0.06353786587715149,"49":-0.05195588618516922,"50":-0.037241000682115555,"51":0.041393380612134933,"52":0.03222419321537018,"53":0.07859960198402405,"54":0.06877569109201431,"55":-0.026943126693367958,"56":0.04387742653489113,"57":0.06733720749616623,"58":0.02418803796172142,"59":-0.0388348251581192,"60":-0.034451037645339966,"61":0.07066281139850616,"62":-0.057712387293577194,"63":-0.03360102325677872,"64":-0.057146720588207245,"65":0.07012040168046951,"66":0.015012633055448532,"67":0.032689183950424194,"68":-0.05172767862677574,"69":0.0708022490143776,"70":0.06862581521272659,"71":-0.014762136153876781,"72":-0.02707710675895214,"73":-0.03697539120912552,"74":0.02150884084403515,"75":0.03495686501264572,"76":0.04323291406035423,"77":0.017121579498052597,"78":-0.023086996749043465,"79":0.02875712886452675,"80":-0.039345137774944305,"81":0.10096859186887741,"82":-0.07756631076335907,"83":-0.0873747318983078,"84":-0.09001265466213226,"85":0.05638957396149635,"86":0.0013835047138854861,"87":-0.044731128960847855,"88":-0.07723622024059296,"89":-0.010403567925095558,"90":-0.03892820328474045,"91":0.0207425057888031,"92":-0.03879021853208542,"93":-0.07997231185436249,"94":-0.040450405329465866,"95":-0.06026972830295563,"96":-0.02298957109451294,"97":-0.04690786823630333,"98":-0.05872508883476257,"99":-0.016623355448246002,"100":-0.07352456450462341,"101":0.17748001217842102,"102":-0.036498524248600006,"103":-0.11311475932598114,"104":-0.11999358981847763,"105":0.0667216032743454,"106":0.04876311495900154,"107":-0.015817688778042793,"108":-0.14410589635372162,"109":0.10254992544651031,"110":0.023939108476042747,"111":-0.006712712813168764,"112":-0.0027102851308882236,"113":-0.0644908919930458,"114":0.0898345410823822,"115":-0.11358822882175446,"116":0.022654561325907707,"117":0.012782090343534946,"118":0.12518459558486938,"119":-0.04419797658920288,"120":0.021791310980916023,"121":0.12711101770401,"122":-0.05843815952539444,"123":0.051946043968200684,"124":-0.05351296067237854,"125":0.05217680707573891,"126":0.0959383025765419,"127":-0.04622577875852585,"128":-0.06509967893362045,"129":0.02432018332183361,"130":0.015300028957426548,"131":-0.02147042751312256,"132":-0.055406153202056885,"133":-0.004568866919726133,"134":0.04805579036474228,"135":-0.019699953496456146,"136":0.030284874141216278,"137":-0.06727893650531769,"138":0.09373181313276291,"139":-0.0026837103068828583,"140":0.02612467296421528,"141":0.03869578242301941,"142":-0.034920718520879745,"143":-0.027237989008426666,"144":0.008902657777071,"145":0.004942049738019705,"146":0.040229715406894684,"147":0.011693956330418587,"148":0.0733494684100151,"149":-0.030806832015514374,"150":-0.05166100710630417,"151":-0.04716188460588455,"152":0.01841852441430092,"153":0.03162011131644249,"154":0.0732477456331253,"155":0.009081028401851654,"156":-0.06306536495685577,"157":0.05920439213514328,"158":0.07042323797941208,"159":0.07163723558187485,"160":0.03012801520526409,"161":0.11879045516252518,"162":0.02844775840640068,"163":-0.016875728964805603,"164":-0.006214153487235308,"165":0.11937544494867325,"166":-0.02264927327632904,"167":0.049299582839012146,"168":0.0233723446726799,"169":0.10678692162036896,"170":0.03626984730362892,"171":0.023691732436418533,"172":-0.054630860686302185,"173":0.01619322970509529,"174":0.008530431427061558,"175":0.04681536927819252,"176":0.1253725290298462,"177":-0.010826404206454754,"178":0.015286958776414394,"179":-0.08399677276611328,"180":-0.06494171172380447,"181":0.07698522508144379,"182":0.05604914203286171,"183":-0.06186847388744354,"184":0.0036365981213748455,"185":-0.001652663224376738,"186":-0.04059197008609772,"187":0.05212170630693436,"188":0.06537025421857834,"189":-0.027699517086148262,"190":-0.0358595997095108,"191":-0.030991079285740852,"192":0.07124001532793045,"193":-0.052664969116449356,"194":0.050527423620224,"195":-0.04772801697254181,"196":-0.03378520533442497,"197":-0.04009992256760597,"198":-0.011543767526745796,"199":0.02438916265964508,"200":-0.05313723906874657,"201":0.03913773223757744,"202":-0.02672239951789379,"203":0.04849846288561821,"204":0.034722477197647095,"205":-0.05356290936470032,"206":-0.014797025360167027,"207":0.07173576205968857,"208":-0.018203848972916603,"209":-0.053707461804151535,"210":0.0033559389412403107,"211":-0.04718644917011261,"212":0.06768332421779633,"213":-0.04236845299601555,"214":0.008884628303349018,"215":-0.08427505195140839,"216":0.03471910208463669,"217":-0.0033775591291487217,"218":0.05000748112797737,"219":-0.03169164061546326,"220":0.012180865742266178,"221":0.07003436982631683,"222":-0.051644217222929,"223":-0.10037963092327118,"224":0.03442852199077606,"225":0.11294326931238174,"226":0.07040993124246597,"227":-0.010908507741987705,"228":-0.03377150744199753,"229":0.1149815246462822,"230":0.004216664470732212,"231":0.016849176958203316,"232":0.04663163796067238,"233":-0.06313390284776688,"234":-0.04352254793047905,"235":0.04618889465928078,"236":0.10780069231987,"237":0.022004978731274605,"238":-0.0375373475253582,"239":-0.029404817149043083,"240":-0.06469517946243286,"241":0.021072620525956154,"242":0.027705872431397438,"243":-0.022823520004749298,"244":0.03336310759186745,"245":-0.05125708878040314,"246":0.02688112109899521,"247":-0.01150250993669033,"248":-0.028442908078432083,"249":-0.029795099049806595,"250":0.07908900827169418,"251":-0.007058166433125734,"252":0.030494607985019684,"253":0.037660930305719376,"254":-0.0763869434595108,"255":-0.003260183148086071,"256":-0.02929759956896305,"257":0.07867058366537094,"258":-0.07525494694709778,"259":0.07839658856391907,"260":0.05742369219660759,"261":0.019529050216078758,"262":0.07051609456539154,"263":0.004424146842211485,"264":-0.08124209940433502,"265":0.013003647327423096,"266":0.0027146690990775824,"267":0.0441347174346447,"268":-0.06630896776914597,"269":-0.0014380061766132712,"270":-0.034127406775951385,"271":0.0497063547372818,"272":0.04375845566391945,"273":0.055776339024305344,"274":-0.05531413108110428,"275":0.028398653492331505,"276":-0.01166132278740406,"277":0.0668245181441307,"278":0.007846175692975521,"279":0.00846627727150917,"280":-0.029096299782395363,"281":0.0032525788992643356,"282":-0.07743919640779495,"283":-0.02967660501599312,"284":-0.05853821709752083,"285":-0.047276921570301056,"286":0.0021439746487885714,"287":0.07002836465835571,"288":0.044149208813905716,"289":0.013077733106911182,"290":-0.04929575324058533,"291":-0.011200151406228542,"292":-0.023341262713074684,"293":-0.0377638153731823,"294":0.042197320610284805,"295":-0.03405434265732765,"296":0.03916795924305916,"297":-0.03373401612043381,"298":-0.05612212419509888,"299":0.05860022455453873,"300":0.03229030221700668,"301":0.032670170068740845,"302":0.022055385634303093,"303":0.059088125824928284,"304":-0.011195565573871136,"305":0.07117485255002975,"306":0.0897027850151062,"307":-0.07973574101924896,"308":0.05862404778599739,"309":0.006100804544985294,"310":0.05217476189136505,"311":-0.05617036670446396,"312":0.009948302060365677,"313":0.05120348185300827,"314":-0.014707650989294052,"315":-0.018570676445961,"316":0.03546951338648796,"317":0.010600212030112743,"318":0.04201758652925491,"319":0.013513434678316116,"320":-0.01505889929831028,"321":0.0914279967546463,"322":-0.023291494697332382,"323":-0.08729257434606552,"324":-0.10796893388032913,"325":0.08888356387615204,"326":-0.005494487937539816,"327":-0.10099790245294571,"328":-0.09756317734718323,"329":0.02541526034474373,"330":-0.04481297731399536,"331":-0.015502631664276123,"332":-0.011071604676544666,"333":-0.09279914200305939,"334":-0.00684503884986043,"335":-0.03172832354903221,"336":0.0405123233795166,"337":-0.0015533826081082225,"338":0.06883998215198517,"339":0.017204737290740013,"340":0.02871362492442131,"341":-0.05056265369057655,"342":0.0011617472628131509,"343":-0.05536874011158943,"344":-0.04893151670694351,"345":0.0783025398850441,"346":-0.05341745913028717,"347":-0.06370758265256882,"348":0.07043717056512833,"349":0.04425795376300812,"350":-0.01077860314399004,"351":0.03870688006281853,"352":-0.04876551404595375,"353":0.026729347184300423,"354":-0.04396939277648926,"355":-0.026484036818146706,"356":0.01785198412835598,"357":-0.025273708626627922,"358":-0.028181761503219604,"359":0.048716023564338684,"360":-0.02596922218799591,"361":0.07609931379556656,"362":-0.0601208470761776,"363":-0.026392776519060135,"364":-0.011816464364528656,"365":0.041822001338005066,"366":0.009186046198010445,"367":-0.03947636857628822,"368":0.029204122722148895,"369":0.1106916144490242,"370":0.02414746582508087,"371":-0.0038076043128967285,"372":0.035270530730485916,"373":0.05119431018829346,"374":0.03182046487927437,"375":0.03169973939657211,"376":0.026103302836418152,"377":-0.0018233372829854488,"378":0.05887186527252197,"379":-0.0873541384935379,"380":-0.05918882414698601,"381":-0.01984189823269844,"382":0.06252693384885788,"383":-0.0576651431620121,"384":-0.09788478910923004,"385":0.047226257622241974,"386":-0.027079066261649132,"387":-0.008503959514200687,"388":0.026732947677373886,"389":0.05676880478858948,"390":0.052149441093206406,"391":0.091026671230793,"392":-0.055808328092098236,"393":0.03048650734126568,"394":-0.01620875485241413,"395":-0.06913755089044571,"396":0.0950159877538681,"397":0.01847187802195549,"398":0.09227833151817322,"399":0.0013432210544124246}},"forgetBias":{"rows":20,"columns":1,"weights":{"0":0,"1":0,"2":0,"3":0,"4":0,"5":0,"6":0,"7":0,"8":0,"9":0,"10":0,"11":0,"12":0,"13":0,"14":0,"15":0,"16":0,"17":0,"18":0,"19":0}},"outputMatrix":{"rows":20,"columns":25,"weights":{"0":0.036050256341695786,"1":-0.04315292462706566,"2":0.0421111024916172,"3":0.05671602487564087,"4":0.08642725646495819,"5":0.06270379573106766,"6":-0.0468471460044384,"7":-0.11499770730733871,"8":0.12490878999233246,"9":-0.08135678619146347,"10":-0.008030158467590809,"11":-0.07634055614471436,"12":0.009378481656312943,"13":-0.11639082431793213,"14":0.06258085370063782,"15":-0.009527638554573059,"16":0.1329866498708725,"17":-0.011556433513760567,"18":0.010197410359978676,"19":0.059864599257707596,"20":0.002280797343701124,"21":0.031213929876685143,"22":0.053144071251153946,"23":0.07463604211807251,"24":-0.012450048699975014,"25":-0.06287350505590439,"26":-0.04622581601142883,"27":0.07990715652704239,"28":-0.011318668723106384,"29":-0.014419023878872395,"30":0.0802047923207283,"31":0.003839427838101983,"32":-0.1495010107755661,"33":0.12400420010089874,"34":-0.12920759618282318,"35":0.01668606884777546,"36":-0.04231371358036995,"37":-0.011754123494029045,"38":-0.2403964251279831,"39":-0.10939697921276093,"40":-0.005542917642742395,"41":0.18452376127243042,"42":-0.009105636738240719,"43":0.12022948265075684,"44":0.04581543058156967,"45":0.010044217109680176,"46":-0.15087614953517914,"47":-0.023447789251804352,"48":0.06442483514547348,"49":-0.14489412307739258,"50":0.14206625521183014,"51":0.006686794105917215,"52":-0.1369432806968689,"53":-0.10185360908508301,"54":-0.08022163808345795,"55":-0.05507839843630791,"56":0.15825983881950378,"57":0.15638799965381622,"58":-0.12477311491966248,"59":0.08078256249427795,"60":0.01214227732270956,"61":-0.010069522075355053,"62":0.003191344439983368,"63":-0.024689404293894768,"64":-0.03961959481239319,"65":-0.04535500705242157,"66":-0.058391209691762924,"67":-0.01965276151895523,"68":-0.15287205576896667,"69":0.12273886054754257,"70":0.0188285019248724,"71":-0.10297392308712006,"72":-0.17781716585159302,"73":-0.061314333230257034,"74":0.04899614304304123,"75":-0.06141692027449608,"76":-0.09924998134374619,"77":-0.06497368961572647,"78":0.13080556690692902,"79":-0.030808862298727036,"80":0.1868535280227661,"81":-0.008409074507653713,"82":-0.0960085391998291,"83":0.13232962787151337,"84":-0.1236850768327713,"85":0.046399593353271484,"86":-0.02362828515470028,"87":-0.03684765100479126,"88":-0.12640643119812012,"89":-0.08093361556529999,"90":0.10481470823287964,"91":0.08964525163173676,"92":-0.015528174117207527,"93":0.006805863231420517,"94":0.14453977346420288,"95":-0.01653413474559784,"96":0.006906312890350819,"97":0.010658583603799343,"98":0.04212960600852966,"99":-0.16547049582004547,"100":0.16997651755809784,"101":0.03696683794260025,"102":-0.12780313193798065,"103":-0.04815523326396942,"104":-0.12804783880710602,"105":-0.03972303494811058,"106":0.06231275573372841,"107":0.06543197482824326,"108":0.07226099818944931,"109":0.06680150330066681,"110":0.08266091346740723,"111":-0.004326121881604195,"112":-0.0020574580412358046,"113":-0.08333855867385864,"114":-0.14228007197380066,"115":0.00044646990136243403,"116":-0.03831576555967331,"117":0.0006154159200377762,"118":-0.08355751633644104,"119":0.06537812203168869,"120":0.11222755908966064,"121":-0.0544515997171402,"122":-0.18388384580612183,"123":-0.07061600685119629,"124":0.13307543098926544,"125":0.22955697774887085,"126":0.0411185696721077,"127":-0.08205542713403702,"128":-0.0763329565525055,"129":-0.21332032978534698,"130":-0.03981155902147293,"131":0.13891670107841492,"132":0.06008942052721977,"133":0.032468948513269424,"134":0.03356236591935158,"135":0.06718694418668747,"136":-0.12523621320724487,"137":0.02719559147953987,"138":-0.13321782648563385,"139":-0.1744478940963745,"140":-0.11057747155427933,"141":-0.026809222996234894,"142":-0.09406169503927231,"143":-0.20641912519931793,"144":0.25425124168395996,"145":0.1834365427494049,"146":-0.09751352667808533,"147":-0.18735960125923157,"148":-0.011681529693305492,"149":0.06661158055067062,"150":-0.0603272020816803,"151":0.004689069930464029,"152":-0.008928651921451092,"153":0.13224929571151733,"154":0.045629799365997314,"155":0.1551600694656372,"156":0.02588496543467045,"157":-0.2187262773513794,"158":0.06697818636894226,"159":-0.17429228127002716,"160":-0.012617501430213451,"161":-0.1040598601102829,"162":0.014859318733215332,"163":-0.13274477422237396,"164":0.022362519055604935,"165":-0.0032597354147583246,"166":0.11274199932813644,"167":0.04617653787136078,"168":0.11543671786785126,"169":0.06286332756280899,"170":0.05000191181898117,"171":-0.07905050367116928,"172":0.061742525547742844,"173":0.10364196449518204,"174":-0.10654055327177048,"175":-0.09430944919586182,"176":-0.03885580599308014,"177":0.05117200314998627,"178":0.02361886389553547,"179":-0.06157755106687546,"180":-0.028159255161881447,"181":-0.07567670941352844,"182":-0.10032954812049866,"183":0.019902274012565613,"184":-0.02150386944413185,"185":0.02199459634721279,"186":-0.06739985942840576,"187":0.022728320211172104,"188":-0.051001064479351044,"189":0.024550560861825943,"190":-0.019048064947128296,"191":0.03811432421207428,"192":0.07637639343738556,"193":0.024650730192661285,"194":0.08122322708368301,"195":0.035177815705537796,"196":0.07797402143478394,"197":0.07144348323345184,"198":-0.0144066596403718,"199":-0.08740940690040588,"200":-0.01805756986141205,"201":-0.1166309341788292,"202":0.05795669183135033,"203":0.19308143854141235,"204":0.07511202991008759,"205":0.25395146012306213,"206":-0.04907243698835373,"207":-0.21279770135879517,"208":0.2138967216014862,"209":-0.16173012554645538,"210":0.1539532095193863,"211":-0.1136099174618721,"212":-0.0134092653170228,"213":-0.11625637114048004,"214":-0.04066586121916771,"215":0.06577245891094208,"216":0.17664743959903717,"217":0.0412718839943409,"218":0.05882902815937996,"219":0.1814267784357071,"220":0.028363799676299095,"221":0.05460410192608833,"222":0.11910462379455566,"223":0.04144309088587761,"224":-0.1941457837820053,"225":-0.0229949951171875,"226":-0.03177272900938988,"227":0.06529393047094345,"228":0.09808595478534698,"229":0.06418463587760925,"230":-0.0026210558135062456,"231":-0.04933708533644676,"232":0.032180748879909515,"233":0.09778106212615967,"234":-0.0425850972533226,"235":0.04333028942346573,"236":-0.06765350699424744,"237":0.06931859254837036,"238":-0.11115264147520065,"239":-0.03450237214565277,"240":-0.02157999761402607,"241":0.06572721898555756,"242":0.007113806437700987,"243":0.09414858371019363,"244":-0.029968056827783585,"245":-0.059060197323560715,"246":-0.013634640723466873,"247":-0.006725863553583622,"248":-0.03531798720359802,"249":0.03187432885169983,"250":0.06161117926239967,"251":0.11703690886497498,"252":-0.04632480815052986,"253":-0.10252228379249573,"254":-0.057402148842811584,"255":-0.12303663045167923,"256":0.10836426168680191,"257":0.013633696362376213,"258":-0.03314219042658806,"259":0.10832098126411438,"260":-0.05984143912792206,"261":-0.03821560740470886,"262":-0.036245621740818024,"263":0.03063971735537052,"264":-0.0893901064991951,"265":-0.09260638803243637,"266":-0.1174565777182579,"267":0.003978366497904062,"268":-0.009236928075551987,"269":-0.03180383890867233,"270":0.08947048336267471,"271":-0.09455185383558273,"272":-0.1214073970913887,"273":-0.041961073875427246,"274":0.05914698913693428,"275":-0.060330428183078766,"276":-0.16523760557174683,"277":0.048990704119205475,"278":0.1971941590309143,"279":0.09281796962022781,"280":0.26957717537879944,"281":-0.06934542208909988,"282":-0.22791695594787598,"283":0.19629372656345367,"284":-0.0833631381392479,"285":0.005320359021425247,"286":-0.025998320430517197,"287":-0.03136153146624565,"288":-0.17947353422641754,"289":-0.007145687472075224,"290":0.10560447722673416,"291":0.18926873803138733,"292":-0.04633186757564545,"293":0.13700178265571594,"294":0.12697456777095795,"295":0.0366450697183609,"296":0.006475950125604868,"297":0.11716784536838531,"298":0.014573478139936924,"299":-0.11034295707941055,"300":0.09230140596628189,"301":0.05229263752698898,"302":-0.08037330210208893,"303":-0.0022041420452296734,"304":-0.03414345905184746,"305":-0.015227706171572208,"306":0.11254718899726868,"307":0.023027565330266953,"308":-0.017547300085425377,"309":-0.027028145268559456,"310":0.019352037459611893,"311":-0.05745510756969452,"312":0.03979041799902916,"313":0.007594577968120575,"314":-0.02151108905673027,"315":-0.08412551879882812,"316":-0.1344078928232193,"317":0.005342151038348675,"318":-0.004457269329577684,"319":-0.021225232630968094,"320":-0.005609647370874882,"321":-0.04443905130028725,"322":-0.10870647430419922,"323":-0.020562047138810158,"324":0.039292190223932266,"325":-0.007911317981779575,"326":0.00893260259181261,"327":0.12939561903476715,"328":0.1084604486823082,"329":0.056902024894952774,"330":0.19231975078582764,"331":-0.11133433878421783,"332":-0.17842058837413788,"333":0.02656327746808529,"334":-0.11250738799571991,"335":-0.053341593593358994,"336":-0.010239982977509499,"337":0.013223938643932343,"338":-0.09829501062631607,"339":-0.008487069979310036,"340":0.03261559084057808,"341":0.06919895857572556,"342":-0.01757434941828251,"343":0.05745333433151245,"344":-0.05222972109913826,"345":-0.06593360006809235,"346":0.01907545141875744,"347":0.1550939828157425,"348":-0.0058616697788238525,"349":-0.09040021151304245,"350":-0.016755545511841774,"351":-0.09368108212947845,"352":-0.00762416934594512,"353":0.07656312733888626,"354":0.08511222898960114,"355":0.007647126447409391,"356":-0.02816339023411274,"357":-0.1405542939901352,"358":0.10341976583003998,"359":-0.02768447808921337,"360":0.020244238898158073,"361":0.006352540571242571,"362":-0.01043583545833826,"363":-0.020215513184666634,"364":0.04132137820124626,"365":0.10027960687875748,"366":0.1603436917066574,"367":-0.008220690302550793,"368":0.06709735840559006,"369":0.0016025626100599766,"370":0.03498545661568642,"371":-0.03869073837995529,"372":0.08521813154220581,"373":-0.022109100595116615,"374":-0.08263582736253738,"375":0.03772423043847084,"376":-0.02079080417752266,"377":-0.09133405983448029,"378":-0.05609571561217308,"379":-0.04505973681807518,"380":-0.010592021979391575,"381":0.13871772587299347,"382":0.018928442150354385,"383":-0.09113460034132004,"384":0.024901332333683968,"385":-0.002398951444774866,"386":-0.04632597044110298,"387":-0.052030354738235474,"388":0.008126780390739441,"389":-0.12219791114330292,"390":-0.06076590344309807,"391":-0.09586159884929657,"392":0.017000138759613037,"393":-0.0216287299990654,"394":0.023972513154149055,"395":0.11410384625196457,"396":-0.06594911217689514,"397":-0.13410024344921112,"398":0.06142479181289673,"399":-0.014370356686413288,"400":-0.03195718303322792,"401":-0.02447451837360859,"402":0.10055530071258545,"403":0.16581027209758759,"404":0.039460018277168274,"405":0.18955759704113007,"406":-0.0413067452609539,"407":-0.2263442575931549,"408":0.1828172206878662,"409":-0.14860302209854126,"410":0.08819901943206787,"411":0.003747176378965378,"412":-0.006034425459802151,"413":-0.22858871519565582,"414":-0.011457599699497223,"415":0.053249578922986984,"416":0.17680689692497253,"417":-0.06392832100391388,"418":0.10470361262559891,"419":0.040180753916502,"420":-0.02448396012187004,"421":-0.028793513774871826,"422":0.1270148903131485,"423":0.09946231544017792,"424":-0.19072233140468597,"425":0.014713862910866737,"426":-0.06236376613378525,"427":0.07875220477581024,"428":-0.008962288498878479,"429":0.07816338539123535,"430":-0.021157560870051384,"431":-0.049930818378925323,"432":0.06811734288930893,"433":-0.053844939917325974,"434":-0.04059756547212601,"435":-0.020839154720306396,"436":-0.07743996381759644,"437":0.0070068263448774815,"438":0.07201362401247025,"439":0.052799005061388016,"440":0.03137386590242386,"441":-0.06208765506744385,"442":0.02681289054453373,"443":0.02292703464627266,"444":-0.038616765290498734,"445":-0.03414061665534973,"446":-0.01847660541534424,"447":-0.05614358186721802,"448":0.030242394655942917,"449":0.06357696652412415,"450":-0.022631172090768814,"451":-0.07418553531169891,"452":0.08892840147018433,"453":0.03458745777606964,"454":-0.0308742206543684,"455":0.16266371309757233,"456":-0.09172135591506958,"457":-0.09919343888759613,"458":0.06360878795385361,"459":-0.01754043810069561,"460":0.10112752765417099,"461":-0.031134724617004395,"462":0.07689279317855835,"463":-0.14429175853729248,"464":-0.01929839514195919,"465":0.06235812231898308,"466":0.04927404969930649,"467":0.01673203520476818,"468":0.07701275497674942,"469":0.06940405070781708,"470":0.017950423061847687,"471":0.059898216277360916,"472":0.13098353147506714,"473":0.06638362258672714,"474":-0.06766391545534134,"475":-0.10084009170532227,"476":-0.029644779860973358,"477":0.01346511859446764,"478":0.09501079469919205,"479":-0.019013820216059685,"480":0.22791630029678345,"481":-0.06718793511390686,"482":-0.20937034487724304,"483":0.18861408531665802,"484":-0.11894582957029343,"485":0.06257860362529755,"486":-0.060002949088811874,"487":0.11815888434648514,"488":-0.07146560400724411,"489":-0.04771892726421356,"490":0.0492074191570282,"491":0.19055761396884918,"492":-0.07518304884433746,"493":0.13951292634010315,"494":0.07922188937664032,"495":-0.007547311019152403,"496":-0.03158007189631462,"497":0.07660038024187088,"498":0.11832432448863983,"499":-0.18295036256313324}},"outputHidden":{"rows":20,"columns":20,"weights":{"0":-0.03556271642446518,"1":0.10174185782670975,"2":-0.07237309217453003,"3":-0.06578660756349564,"4":-0.02878536283969879,"5":-0.029962370172142982,"6":0.01231797132641077,"7":-0.0141726303845644,"8":-0.027953730896115303,"9":0.10992155969142914,"10":-0.0017325002700090408,"11":-0.05358659848570824,"12":0.05981941521167755,"13":-0.014457207173109055,"14":0.09899850934743881,"15":0.0633741170167923,"16":0.04629440978169441,"17":-0.0508047491312027,"18":0.09955054521560669,"19":-0.08709711581468582,"20":-0.05648054555058479,"21":0.23524659872055054,"22":-0.10344260931015015,"23":-0.13414649665355682,"24":-0.14885184168815613,"25":0.12789727747440338,"26":0.17691437900066376,"27":-0.02181522734463215,"28":-0.13251426815986633,"29":0.14765353500843048,"30":0.044895779341459274,"31":0.06518325954675674,"32":0.021280504763126373,"33":-0.005080366041511297,"34":0.0077077350579202175,"35":-0.013947682455182076,"36":0.17453299462795258,"37":0.0035089401062577963,"38":0.12916865944862366,"39":-0.18001073598861694,"40":-0.05072258040308952,"41":0.09494643658399582,"42":-0.03493547812104225,"43":-0.05671539902687073,"44":-0.21060237288475037,"45":0.08839108049869537,"46":0.09901890158653259,"47":-0.05852701514959335,"48":-0.13284003734588623,"49":0.13944076001644135,"50":0.1177063062787056,"51":0.04562501981854439,"52":-0.031907301396131516,"53":-0.06266678869724274,"54":0.003496823599562049,"55":-0.026601485908031464,"56":0.05097193643450737,"57":0.03940840810537338,"58":0.11069875210523605,"59":-0.06988796591758728,"60":-0.012924079783260822,"61":0.14013905823230743,"62":-0.07907404750585556,"63":-0.05172347649931908,"64":-0.1646101474761963,"65":0.11420701444149017,"66":0.1619640290737152,"67":-0.12672726809978485,"68":-0.15511232614517212,"69":0.15236017107963562,"70":0.04055631905794144,"71":0.012598699890077114,"72":0.007795973680913448,"73":-0.04240436479449272,"74":-0.008713203482329845,"75":-0.07576070725917816,"76":0.047710154205560684,"77":-0.0006680905935354531,"78":0.08463907241821289,"79":-0.1733776032924652,"80":-0.09590380638837814,"81":0.18210899829864502,"82":-0.20214901864528656,"83":-0.08012167364358902,"84":-0.18929001688957214,"85":0.2442810982465744,"86":0.1913939118385315,"87":-0.039456769824028015,"88":-0.19898006319999695,"89":0.06802909076213837,"90":0.0780111700296402,"91":0.1384313702583313,"92":-0.024517055600881577,"93":-0.09267772734165192,"94":0.04342469573020935,"95":-0.058561839163303375,"96":0.08674060553312302,"97":0.060122039169073105,"98":0.1328132301568985,"99":-0.0638832077383995,"100":-0.20472866296768188,"101":0.22465752065181732,"102":-0.1784633845090866,"103":-0.13373175263404846,"104":-0.26480352878570557,"105":0.25979936122894287,"106":0.2585918605327606,"107":-0.13523493707180023,"108":-0.15780746936798096,"109":0.22017662227153778,"110":0.03128795325756073,"111":0.1504155993461609,"112":-0.06578676402568817,"113":-0.12657815217971802,"114":0.09539737552404404,"115":-0.12131999433040619,"116":0.21683402359485626,"117":0.057934314012527466,"118":0.16894526779651642,"119":-0.177009716629982,"120":0.0032501043751835823,"121":0.19296926259994507,"122":-0.0167324747890234,"123":-0.04512856528162956,"124":-0.06675033271312714,"125":0.10542617738246918,"126":0.13600176572799683,"127":-0.03268970549106598,"128":-0.005895519629120827,"129":0.13142165541648865,"130":0.05790548771619797,"131":-0.03657570481300354,"132":0.04115692898631096,"133":-0.009044448845088482,"134":0.07760891318321228,"135":0.0007217339589260519,"136":0.03586198762059212,"137":0.04678359255194664,"138":0.027011258527636528,"139":-0.07454225420951843,"140":-0.06716857105493546,"141":-0.012834963388741016,"142":0.07438775897026062,"143":0.06942739337682724,"144":-0.08099132776260376,"145":-0.041941966861486435,"146":0.069001704454422,"147":-0.01774630695581436,"148":-0.032510366290807724,"149":0.0319647453725338,"150":-0.008085399866104126,"151":0.0005579044227488339,"152":-0.06015139818191528,"153":-0.02943410910665989,"154":0.07773930579423904,"155":0.014026354998350143,"156":0.02021375112235546,"157":-0.06909874081611633,"158":0.024054616689682007,"159":-0.03161654621362686,"160":-0.1418835073709488,"161":0.20662930607795715,"162":-0.08256945759057999,"163":-0.1276305615901947,"164":-0.14742793142795563,"165":0.21900512278079987,"166":0.08813303709030151,"167":-0.07708960026502609,"168":-0.14084261655807495,"169":0.1415308266878128,"170":0.04406404867768288,"171":0.08206575363874435,"172":-0.027075080201029778,"173":-0.028713585808873177,"174":0.04567328095436096,"175":0.000780333939474076,"176":0.11783500760793686,"177":0.034878283739089966,"178":0.16568660736083984,"179":-0.19043458998203278,"180":0.03530801087617874,"181":0.045131616294384,"182":-0.019025593996047974,"183":-0.03182029351592064,"184":0.03402525559067726,"185":0.07493861764669418,"186":0.1031186580657959,"187":0.05501905456185341,"188":-0.02387125976383686,"189":0.03925730288028717,"190":0.04753848537802696,"191":0.03861132264137268,"192":0.007081401534378529,"193":-0.06294817477464676,"194":0.05826185643672943,"195":-0.07382016628980637,"196":0.01504479069262743,"197":0.03974210470914841,"198":0.028401656076312065,"199":0.023892423138022423,"200":-0.013771509751677513,"201":0.12147592753171921,"202":0.0033300835639238358,"203":-0.024678004905581474,"204":-0.10941257327795029,"205":0.11723769456148148,"206":0.0719015896320343,"207":0.043180257081985474,"208":-0.04057437181472778,"209":-0.004984197672456503,"210":0.045590590685606,"211":-0.01719137653708458,"212":-0.002747643506154418,"213":0.008941237814724445,"214":-0.06027212738990784,"215":0.007173606660217047,"216":0.1248369812965393,"217":-0.012514423578977585,"218":0.05770942196249962,"219":0.027614356949925423,"220":-0.047552093863487244,"221":0.184995636343956,"222":-0.083511583507061,"223":0.002454910660162568,"224":-0.08181049674749374,"225":0.05208384618163109,"226":0.10807249695062637,"227":-0.024111855775117874,"228":-0.04245694726705551,"229":0.0733867809176445,"230":0.022962922230362892,"231":0.0827985554933548,"232":0.03846946358680725,"233":0.002205440541729331,"234":0.1339622586965561,"235":-0.0012601366033777595,"236":0.06442052870988846,"237":-0.020280569791793823,"238":0.07217632979154587,"239":-0.048846837133169174,"240":-0.07269765436649323,"241":0.016300614923238754,"242":0.01429315097630024,"243":0.05525040999054909,"244":-0.0241259653121233,"245":0.053858812898397446,"246":0.06911060959100723,"247":0.0013066127430647612,"248":-0.04046742245554924,"249":-0.013528840616345406,"250":-0.06172822415828705,"251":-0.073066346347332,"252":-0.02152980864048004,"253":0.032106634229421616,"254":0.06849516928195953,"255":0.012562631629407406,"256":0.04396884888410568,"257":0.07533391565084457,"258":0.03779518976807594,"259":0.0704076960682869,"260":-0.06669296324253082,"261":0.08649241179227829,"262":0.07577066868543625,"263":0.006279341876506805,"264":0.04543963074684143,"265":-0.06096598878502846,"266":-0.030193878337740898,"267":-0.07010030746459961,"268":-0.052063923329114914,"269":0.08241583406925201,"270":-0.0431285984814167,"271":0.07100655883550644,"272":0.030717791989445686,"273":0.048300851136446,"274":0.06749370694160461,"275":0.06367237865924835,"276":-0.00912174116820097,"277":-0.02271442674100399,"278":0.0336238369345665,"279":-0.06157940253615379,"280":-0.04373124986886978,"281":0.09267760813236237,"282":0.07867556810379028,"283":-0.00458533875644207,"284":-0.011400015093386173,"285":-0.03319530189037323,"286":0.015208390541374683,"287":-0.0408811941742897,"288":-0.06530682742595673,"289":0.073858842253685,"290":-0.06553839147090912,"291":-0.06631527096033096,"292":0.06721155345439911,"293":-0.02624969370663166,"294":0.024654850363731384,"295":-0.07914501428604126,"296":0.06287159770727158,"297":0.049110740423202515,"298":0.005185235291719437,"299":0.04832969978451729,"300":-0.011050296947360039,"301":0.11883725225925446,"302":-0.04852792248129845,"303":-0.022879397496581078,"304":-0.11229664832353592,"305":0.16369633376598358,"306":0.020372647792100906,"307":0.03480183333158493,"308":0.0007902621291577816,"309":0.1333921104669571,"310":0.05518978089094162,"311":0.02415521629154682,"312":-0.03233380988240242,"313":-0.029639864340424538,"314":0.09414710849523544,"315":0.04256195202469826,"316":-0.016237102448940277,"317":0.04213223233819008,"318":-0.005300480406731367,"319":-0.09283953905105591,"320":-0.12401693314313889,"321":0.15321196615695953,"322":0.014560665003955364,"323":-0.13391460478305817,"324":-0.16725477576255798,"325":0.14625228941440582,"326":0.12179963290691376,"327":-0.0135614313185215,"328":-0.08705184608697891,"329":0.06790925562381744,"330":-0.006596175953745842,"331":-0.0017228322103619576,"332":-0.02081878110766411,"333":-0.08444012701511383,"334":0.10594256222248077,"335":0.016973039135336876,"336":0.13067980110645294,"337":-0.05895118787884712,"338":0.007917044684290886,"339":-0.17449796199798584,"340":-0.06561706960201263,"341":0.051318395882844925,"342":-0.04134703800082207,"343":-0.055691469460725784,"344":0.043122611939907074,"345":0.05976485833525658,"346":0.07209213078022003,"347":0.060431525111198425,"348":0.06575524061918259,"349":-0.027812086045742035,"350":-0.042506761848926544,"351":-0.010205579921603203,"352":0.00830798875540495,"353":-0.014064661227166653,"354":0.013670445419847965,"355":0.025112750008702278,"356":-0.02505502477288246,"357":-0.07926344126462936,"358":0.04701295495033264,"359":0.0005693491548299789,"360":-0.06182149425148964,"361":0.1979600340127945,"362":-0.059067144989967346,"363":-0.12492742389440536,"364":-0.0821031704545021,"365":0.0763726457953453,"366":0.019319267943501472,"367":0.0031233932822942734,"368":-0.026590602472424507,"369":0.020859885960817337,"370":0.04148054122924805,"371":0.07588168233633041,"372":-0.002946926048025489,"373":-0.11025970429182053,"374":0.03822997212409973,"375":-0.06339485198259354,"376":0.13642558455467224,"377":-0.05033833160996437,"378":0.12058120220899582,"379":-0.11509410291910172,"380":0.004181458614766598,"381":0.08314911276102066,"382":-0.07207603007555008,"383":-0.09696459770202637,"384":-0.03633475303649902,"385":0.008186240680515766,"386":0.005200827028602362,"387":-0.008256676606833935,"388":-0.03883257508277893,"389":0.001989679876714945,"390":-0.047497134655714035,"391":0.10150520503520966,"392":-0.034666720777750015,"393":-0.006551950238645077,"394":0.01824091747403145,"395":-0.10202263295650482,"396":0.06781243532896042,"397":-0.05247332155704498,"398":0.007741553243249655,"399":-0.10683253407478333}},"outputBias":{"rows":20,"columns":1,"weights":{"0":0.007252964656800032,"1":-0.2527543902397156,"2":-0.1710694283246994,"3":-0.08969784528017044,"4":-0.20373578369617462,"5":-0.2744446098804474,"6":-0.13122953474521637,"7":-0.014672677032649517,"8":-0.15597820281982422,"9":-0.05010459944605827,"10":-0.06128944829106331,"11":-0.1972077339887619,"12":-0.03939640522003174,"13":0.008419282734394073,"14":-0.05631363019347191,"15":-0.08734014630317688,"16":-0.12563654780387878,"17":-0.025804219767451286,"18":-0.056556347757577896,"19":-0.20015068352222443}},"cellActivationMatrix":{"rows":20,"columns":25,"weights":{"0":0.30155622959136963,"1":0.2430579960346222,"2":-0.4153147041797638,"3":-0.4253626763820648,"4":-0.21155555546283722,"5":-0.4424993395805359,"6":0.37004226446151733,"7":0.339623361825943,"8":0.05332569777965546,"9":0.294485479593277,"10":0.36306747794151306,"11":-0.28434109687805176,"12":-0.05768804997205734,"13":-0.36360597610473633,"14":-0.4372502267360687,"15":-0.2153932750225067,"16":-0.3382106125354767,"17":-0.11089824140071869,"18":-0.3717222213745117,"19":0.31518086791038513,"20":0.330715537071228,"21":-0.3652171194553375,"22":-0.30314531922340393,"23":-0.2574203312397003,"24":0.3130068778991699,"25":-0.4544239938259125,"26":-0.3601556122303009,"27":0.4146236181259155,"28":0.46445685625076294,"29":0.32180261611938477,"30":0.4617736041545868,"31":-0.40916523337364197,"32":-0.35263580083847046,"33":0.2993786931037903,"34":-0.35316741466522217,"35":-0.24009691178798676,"36":0.28839921951293945,"37":0.03879017382860184,"38":0.27566254138946533,"39":0.4179714620113373,"40":0.4795345067977905,"41":0.5005317330360413,"42":0.20385372638702393,"43":0.4848620295524597,"44":-0.35218340158462524,"45":-0.2802598476409912,"46":0.4588373899459839,"47":0.43541741371154785,"48":0.3678099811077118,"49":-0.3342895209789276,"50":0.3433462977409363,"51":0.35014382004737854,"52":-0.23778845369815826,"53":-0.2757776379585266,"54":-0.16584256291389465,"55":0.21748098731040955,"56":0.02380385994911194,"57":-0.07381978631019592,"58":0.1878066211938858,"59":0.11138937622308731,"60":0.3920958638191223,"61":-0.1305517554283142,"62":-0.11320629715919495,"63":-0.17308098077774048,"64":-0.17691417038440704,"65":-0.22941599786281586,"66":-0.061762209981679916,"67":-0.2615482211112976,"68":-0.23637162148952484,"69":0.3260880708694458,"70":0.2934989333152771,"71":-0.21906794607639313,"72":-0.20804327726364136,"73":-0.3113129436969757,"74":0.07129427045583725,"75":0.38592299818992615,"76":0.24110107123851776,"77":-0.36454784870147705,"78":-0.3440624177455902,"79":-0.3060767948627472,"80":-0.20158006250858307,"81":0.4457035958766937,"82":0.14715422689914703,"83":-0.13836008310317993,"84":0.3793359100818634,"85":0.2006022036075592,"86":-0.23498988151550293,"87":-0.10949716717004776,"88":-0.3128226399421692,"89":-0.3499150276184082,"90":-0.3092977702617645,"91":-0.3808441758155823,"92":-0.19577428698539734,"93":-0.37280917167663574,"94":0.3405415415763855,"95":0.2478289008140564,"96":-0.3392690122127533,"97":-0.321388840675354,"98":-0.39648470282554626,"99":0.13411664962768555,"100":0.32515984773635864,"101":0.24953679740428925,"102":-0.40184372663497925,"103":-0.3326334059238434,"104":-0.23376575112342834,"105":-0.09611202031373978,"106":0.16521745920181274,"107":0.14767557382583618,"108":0.14827951788902283,"109":0.17065466940402985,"110":0.23681579530239105,"111":-0.21528257429599762,"112":-0.1690444052219391,"113":-0.12987273931503296,"114":-0.37189769744873047,"115":-0.2326040118932724,"116":-0.29214388132095337,"117":-0.16287797689437866,"118":-0.32496750354766846,"119":0.2417096197605133,"120":0.19850371778011322,"121":-0.33122700452804565,"122":-0.20759165287017822,"123":-0.1990509182214737,"124":0.2692415416240692,"125":-0.19048956036567688,"126":-0.3829370141029358,"127":0.4652234613895416,"128":0.4232799708843231,"129":0.31271621584892273,"130":0.22323913872241974,"131":-0.20797733962535858,"132":-0.13665629923343658,"133":0.07739641517400742,"134":-0.4231843948364258,"135":-0.3497098982334137,"136":0.33834490180015564,"137":0.19153517484664917,"138":0.3406889736652374,"139":0.358405202627182,"140":0.35857582092285156,"141":0.4114500880241394,"142":0.2520945966243744,"143":0.3868899345397949,"144":-0.391692578792572,"145":-0.34333276748657227,"146":0.31408220529556274,"147":0.2858966886997223,"148":0.4240301251411438,"149":-0.1427684873342514,"150":-0.44758448004722595,"151":-0.31768158078193665,"152":0.3864530026912689,"153":0.436197966337204,"154":0.26841533184051514,"155":0.3367813527584076,"156":-0.4612633287906647,"157":-0.2759219706058502,"158":0.11950378865003586,"159":-0.1956232786178589,"160":-0.3176436722278595,"161":0.30504265427589417,"162":-0.047860682010650635,"163":0.37953734397888184,"164":0.37222835421562195,"165":0.29961493611335754,"166":0.34692350029945374,"167":0.13930895924568176,"168":0.5032200217247009,"169":-0.27819332480430603,"170":-0.32391613721847534,"171":0.518107533454895,"172":0.4748493731021881,"173":0.1530035436153412,"174":-0.3498516380786896,"175":0.36939358711242676,"176":0.1195882186293602,"177":-0.21216672658920288,"178":-0.36064642667770386,"179":-0.20328226685523987,"180":-0.1921880841255188,"181":0.3644939064979553,"182":0.30250006914138794,"183":-0.13820622861385345,"184":0.2736046314239502,"185":0.15774868428707123,"186":-0.21362850069999695,"187":0.015535219572484493,"188":-0.2036396563053131,"189":-0.337642639875412,"190":-0.1750319004058838,"191":-0.29736047983169556,"192":-0.02478642575442791,"193":-0.40386196970939636,"194":0.15105289220809937,"195":0.23788483440876007,"196":-0.3611200451850891,"197":-0.37601804733276367,"198":-0.15335987508296967,"199":0.28409773111343384,"200":0.3069639801979065,"201":0.364250123500824,"202":-0.3183903694152832,"203":-0.3823326826095581,"204":-0.4375118613243103,"205":-0.4264867305755615,"206":0.46623343229293823,"207":0.3223486542701721,"208":-0.2566741406917572,"209":0.31652921438217163,"210":0.16322383284568787,"211":-0.2661136984825134,"212":-0.174775630235672,"213":-0.29167184233665466,"214":-0.2902066707611084,"215":-0.3698634207248688,"216":-0.4395931363105774,"217":-0.2697429358959198,"218":-0.3985247015953064,"219":0.28210023045539856,"220":0.2986203730106354,"221":-0.3719997704029083,"222":-0.42480146884918213,"223":-0.4155656099319458,"224":0.2804444432258606,"225":-0.2590610086917877,"226":-0.22228990495204926,"227":0.17295528948307037,"228":0.21406851708889008,"229":0.22111448645591736,"230":-0.03975123539566994,"231":-0.30094432830810547,"232":-0.12846586108207703,"233":0.15103685855865479,"234":-0.0514996200799942,"235":-0.04968440905213356,"236":0.11368265002965927,"237":0.050613000988960266,"238":0.08427447080612183,"239":0.12302839010953903,"240":0.21184644103050232,"241":0.04773225262761116,"242":0.15809783339500427,"243":0.2716602385044098,"244":-0.25759610533714294,"245":0.050808265805244446,"246":0.20749497413635254,"247":0.3734477460384369,"248":0.09496276825666428,"249":-0.13077381253242493,"250":-0.277309387922287,"251":-0.25218436121940613,"252":0.3754640817642212,"253":0.2776755690574646,"254":0.3469407260417938,"255":-0.034478772431612015,"256":-0.18062514066696167,"257":0.04836321622133255,"258":-0.09218888729810715,"259":-0.2855294346809387,"260":-0.19620400667190552,"261":0.20621339976787567,"262":0.1756937950849533,"263":0.24310223758220673,"264":0.2143062800168991,"265":0.21193335950374603,"266":0.14755822718143463,"267":0.22263029217720032,"268":0.19885018467903137,"269":-0.25200963020324707,"270":-0.2173108160495758,"271":0.30614593625068665,"272":0.19930893182754517,"273":0.2690548300743103,"274":0.003121287329122424,"275":-0.39821332693099976,"276":-0.41779688000679016,"277":0.2536233365535736,"278":0.40889790654182434,"279":0.36226123571395874,"280":0.39510229229927063,"281":-0.2883784770965576,"282":-0.34011584520339966,"283":0.1741158813238144,"284":-0.4442731738090515,"285":-0.18762069940567017,"286":0.3600205183029175,"287":0.3069731891155243,"288":0.25980374217033386,"289":0.22359448671340942,"290":0.33260682225227356,"291":0.40382954478263855,"292":0.29227134585380554,"293":0.421220988035202,"294":-0.35285937786102295,"295":-0.24366649985313416,"296":0.28317058086395264,"297":0.3738038241863251,"298":0.4451760947704315,"299":-0.3240598738193512,"300":-0.287386417388916,"301":-0.3015712797641754,"302":0.2649427056312561,"303":0.3156886100769043,"304":0.3234368562698364,"305":0.03082280047237873,"306":-0.10219860076904297,"307":-0.07925142347812653,"308":-0.015416614711284637,"309":-0.13317088782787323,"310":-0.24493995308876038,"311":0.11266817897558212,"312":0.14751332998275757,"313":0.31257694959640503,"314":0.19497166574001312,"315":0.3046347200870514,"316":0.12150454521179199,"317":0.10211345553398132,"318":0.32836446166038513,"319":-0.30130359530448914,"320":-0.18037481606006622,"321":0.1739867478609085,"322":0.2284402847290039,"323":0.25623083114624023,"324":-0.22052475810050964,"325":0.3880675137042999,"326":0.13017664849758148,"327":-0.23740139603614807,"328":-0.38030412793159485,"329":-0.2798480689525604,"330":-0.37426817417144775,"331":0.3511183559894562,"332":0.24012373387813568,"333":-0.18899405002593994,"334":0.3653816282749176,"335":0.2572062611579895,"336":-0.30297917127609253,"337":0.15647438168525696,"338":-0.20494967699050903,"339":-0.30474352836608887,"340":-0.2782251536846161,"341":-0.3535860478878021,